3906 32
729 -0.6450659568014073 0.9469695231504532 2.307124074691699 -0.6592470083066089 -0.26273411150672943 -0.35717990568672237 0.7945242775628623 0.495163909993297 0.30817605674860016 1.3255339619314723 -0.7208989799818882 -1.115522664657067 0.1359753125931462 1.3140219776211843 -0.16120311950979285 2.4056152046804713 0.13197956257373825 1.4946172813977647 0.5041528775836629 0.8323844103418772 0.022897561065033253 -0.7116206792253321 -1.5961585247726464 2.551769348801571 0.039074198654667845 0.41747427736064646 0.943464412513711 -0.07417033527357556 -0.2798661740937004 -0.25095502722573015 0.10730832512637645 -0.669620652343292
1 -0.8573223324943904 0.49724517661513384 0.10150841169082549 -0.2936979471278666 1.0360941571392281 0.021020486079929988 0.9527425567229271 1.584411621125649 0.527947746580129 2.657065576397944 1.057755064839762 -0.877733312839287 -0.43781757602384286 -2.256895958005442 -0.480053336059705 0.6520031279233978 0.44726361098958445 -0.8819971407376579 0.5101647288244939 -0.030014329838847897 0.9448481286290715 1.4529416052706141 0.15628514560460652 -0.9847139675310234 -1.9486541257643568 -1.1055843259903255 -0.19664090949327748 -0.4369144217394962 1.2388237737826158 -0.10222650847535072 -1.0483212494556087 0.23090705151298754
335 -2.779206262367984 1.387800758642018 0.3253988268787631 -0.3106342915861439 -1.4310078592632227 -0.16122687627215265 1.189362472733106 -0.30147229084261196 -0.05537827958360864 0.452707931351703 -0.16995801836207233 0.5294758607769483 1.0010137579407825 0.36413826999090043 0.7445169908363455 1.1214301876297827 2.5270440197236645 -0.6251871238566231 -0.9797723116145962 -0.7166519444552099 0.08640217589097071 0.3635328384373058 -2.4593798349028546 -0.25819191575075273 1.272349469570125 0.4852981838104131 0.6050061049494352 0.5658120819665413 -0.8027627520272216 1.3033174929643718 0.4725213521989327 -0.2249234306198636
585 0.6147488684855985 -0.5158847529494821 -1.2664910506375961 0.6336312424409563 -1.2710692371760701 1.5711439084351098 -0.38428052695443315 -0.7374183019160988 0.010028762410102273 0.03362170121518851 0.36298667579948407 1.2692786918733638 -1.8262907789371927 -1.2282319523074943 1.477984447795986 -1.118718422918245 0.8549073061961717 -0.21474291207440369 -0.09666251256258158 0.08070460805802931 -0.7699527343613511 -0.013987485421066126 0.5830175364454117 0.9443313212071577 -0.7829530864901681 -0.45215963088512917 -0.9054409761331763 1.4647584001767573 3.9359759497452804e-05 -1.6422519656876378 0.5147640194948648 0.601136455537527
674 -0.4752708248272044 -1.9474142892147441 -0.8316383209365595 0.7395764324017946 -0.34916315003599013 -0.8080671073677199 0.4554070088300994 1.089562472602267 0.3016259445629412 -0.6547803808618122 0.7757935646896942 1.6811066807156863 0.9986906440806075 0.05780916934737633 -0.2943660340231127 0.24109361273319943 -1.445326994028514 -0.3535926767942131 -0.7431212746009471 0.6453347622373826 -0.7671380081050406 0.6782386469180991 -0.7738361807475888 -0.8102069217161064 -0.043034303465852755 -1.0411536589667576 -0.39560664773303794 0.15130754141950326 1.4566703225529738 -0.6966127677883387 1.901026249318955 0.22490674718738632
3178 0.019916577905127075 -2.395374489823489 -0.7100479674505823 0.40262506963643874 0.620388584783011 -0.17864357804201725 1.2134564204850524 1.4329294929233563 1.031885480811253 -1.1286671294550266 -0.03853370650340508 -1.5674246993958179 -0.5408662983680973 -0.5024491630315571 -0.8880998837382439 -0.7916555088992059 0.5476578860247384 -0.8403472308744915 1.6299609174855783 1.1110862858810062 -1.8753963959058908 0.19230870610080106 0.13138908506283728 1.2784751636310883 1.4462184412597594 0.9042205859931552 -1.3028032496019644 0.5794246388571086 -0.9510291309250727 1.6685403692180938 -1.0654273844943234 0.9556269962879445
3715 -1.1714016867792854 0.9015963650625624 0.7581814172295718 -0.4545221560593661 0.6955828971774244 0.7825395306198988 0.19531889323063223 0.8557209558092674 0.7488545602106769 -0.3034298326373115 -1.7466304707184395 -0.08866798532914551 0.13105719647519745 -0.32322669538035403 -1.60042111418806 0.9541645018475478 -0.0032278855814651636 -0.3138688108093365 -0.4883697855242485 0.5252284804950781 0.12905232167314584 0.22196468334355404 0.5563181578454252 -0.015461049856937678 0.6372244932054884 1.011909966561509 -0.12593951535678555 1.011483549706635 -0.20560161601556654 1.1427128188256954 -1.4718952702292667 -1.9328865650688967
50 -1.519830736788031 0.7991537385316411 0.8977506751864338 1.2951009915198977 0.6159780967858013 -0.9516066539360326 0.42114979434465216 -2.5911794839992286 0.946782045741158 1.290260752944272 -1.2733877022312905 0.2982403153854983 -0.14872249956398417 -0.08292237006055686 0.39491819957672547 -0.9012151477922065 0.12895426872992535 -0.3750806382422856 -0.22997436743519334 -0.5167080837061979 -0.8971693085613102 -0.5963294091316192 -1.923730366534775 -1.0980864467164606 0.2773399908102526 0.0479101826710697 -1.2082989400523585 -0.16965484477759094 -0.9641846487123653 0.43034516860695604 -0.7864915384466744 -1.8820771250427095
193 0.0047885057391032215 0.013892286464524357 -0.3480691451029541 -0.8081086392742745 0.057808577748957 -0.9642789738588564 -1.1512388251856251 0.6390344015317517 -0.6500160408861787 1.1826450844703265 -0.7599162076377074 -0.16405404884947725 -1.026898571586175 -0.18418910611860081 0.11279500472407658 0.8463659480641685 -1.0102228647179226 0.7330939036161591 0.17145667152410154 1.0233879018068646 0.36276031243393003 0.877176414550549 -1.4412622823470222 -0.16836732670132068 1.030518222472144 0.24362317860119542 -0.6478223882488143 -0.9130216185481611 0.1913006160715085 -0.5234892378868795 0.34110768209643694 0.5764362968610557
212 0.01988464660022531 0.02491407587459357 1.0889372964333504 -2.055444041268832 -1.466479518290794 -0.21278347652700094 0.9236085010207994 0.07843793366863415 0.47349099065804423 -0.13315535244362892 0.19694361006659356 1.5100053079617652 -0.8230441703545721 -0.5037158035883165 -1.0466907793064932 -0.5407715555249847 0.4050768148814642 0.06507717966671049 0.7673511762064391 0.40690421055238574 -1.599923229225625 -2.0742991676746576 0.2851977897404199 -0.8726923283867635 1.2791513120638214 -0.9851250420501333 0.18694034265521364 -0.13194930103906358 -1.9276005684244164 0.01866236776529238 -1.6588863766324233 -0.4589165839683601
222 -0.2522535708326287 -0.37922766106106676 0.09798866050423521 0.6032856067131728 1.3923992325745407 -1.9270210459983337 0.9414469723101044 0.8845660093049763 -0.5149540264222527 0.5398189670189534 0.4096976648919174 0.06667795505428854 0.8733125691806439 -0.009684215628865078 0.4105950256825493 -0.9407583159075753 0.18206706927994945 1.5280066064308147 -0.14796554633933176 -1.4004645977469818 -1.0483091334081835 -0.1903751203566355 0.9430877158270963 0.4723373394262286 1.4779929248405528 0.09500785929217473 0.8228101412120367 -0.10170667383598166 -0.3104580201167809 -0.5827907167863376 0.12873649146409763 -1.0868286693180615
847 0.37994983564327356 -0.1718082521735214 -0.21605169684946984 -1.837771386649265 1.22448787611471 0.6607925727852291 -0.06481187206206124 -1.6204487259942952 0.6290911868816126 0.6563241932603849 0.22398453665833284 0.24718914859519944 -0.4950680363592645 0.8888023960292597 -1.6689111565834371 -1.2289671140913199 0.2851123338121181 -2.557598976460384 0.6289491386607067 1.6806269433439984 0.8609595749652267 0.4520901581103098 0.6919145913317711 -0.8716916123739408 -1.5607364401121402 -0.06504801236056414 0.7234496711126444 -1.494278816264483 -0.13161223948815423 -0.45332592858717674 0.4025404102730959 0.981140033347078
924 -1.4497183610384552 0.3394984588017068 -0.8491398605244509 -0.2365147957359612 -0.6190718331243757 2.9611593185915397 -0.5202600158775172 -1.1077336509559401 -1.0426752945874864 1.2989376358144304 0.15825110375292012 -0.7881427088559814 -0.22768892585857348 1.1956278751140075 -0.32823835406291624 1.611372074136009 -0.6808254577241928 -1.1498359757202905 0.9557658489307536 1.7168573856051028 -0.03975598405120647 -2.0149551535263934 0.7035921059688744 0.7096729060987953 1.4045817995128624 1.0787969983304093 1.822211225395809 1.8749002767660463 0.10710164987211838 0.526290040873076 -0.364352421023869 0.6557524221997183
961 -1.2525491697694866 1.4259076540618176 -0.2094058409951152 0.04655341362152755 -2.513881794230871 -1.624852411565272 -0.4146067439003012 0.54278898561658 0.033311785150400605 2.0781006162950098 1.4813790890366014 -1.0969435958398832 -0.8003166319632405 -0.8915676335593384 0.22807555789595962 -0.24304494020961237 0.33106208452840075 -0.1822003436323113 -0.8389023390560344 0.3239045986403509 -0.24066532578483715 -0.6995289278028912 0.06013845215856847 -1.1908730907305656 -0.9011716913390323 -1.675951527122368 0.914410053438824 -0.2631434837972943 -0.914961791145582 -1.3370448821228853 -1.1176921427623088 0.024071046894698266
995 -0.2228622397095191 -0.7050298384347825 0.6282653386276692 1.7207624257368437 1.1115071010537805 -3.0248606390678874 0.5132386948071812 -0.9927136334507595 -0.5409305586465212 -0.9889485300081049 0.660464995583522 0.9540515423501605 1.5727182383075888 0.7569025384908937 -0.35010873067730075 1.7449824574659785 0.011761002997543879 0.44520212706167156 -0.004997034815995364 -1.661528932482847 0.0877476391436176 -1.49265570547847 0.6250290461088378 0.6269586366811157 -0.6713015077197265 -0.21395131909791668 0.032455324966944206 -0.05400120428846993 1.684542034085112 -0.35294909390769325 -0.3982485558032725 -0.7710189367062038
1046 0.1364267391121736 0.6317242813685408 0.816210890957554 -0.7353884778516182 0.19112138511329002 -2.01840494944804 -0.4423074659006248 -0.6360967201412686 0.2995591254674247 -1.2195535365618766 0.4281311627310749 -0.7887022125657879 -0.5859330879145245 0.8584046137292466 -0.09660004064741717 0.5081460996776307 0.7178766300326687 -0.27281040516798266 -1.5186378899988418 -1.9694753291172284 -0.22321990510673684 -1.5677996039517559 1.2972475577046776 1.19446287705643 1.7359155475055938 0.5944225130953705 0.8096497945664908 -0.13509259570116194 -1.0832994811612904 -1.3244079913774116 -0.5019026003395597 0.3728446552417069
1142 0.876726115645648 0.9845445132868905 0.7121386686815416 0.7630033816513762 2.0261467677633225 -0.8109426917128806 2.2347669104463606 -0.9096874027798213 1.019537851849537 0.1739055163234774 -0.05185081638666784 0.7929570383697889 0.4745589277557834 0.5797931289011878 -0.9104097526501913 0.10417582179083905 1.382752525507007 0.2063654386389215 -0.07091566371596696 -2.3074370963182576 -1.1738283466411101 2.1039456518678983 0.31491151869540024 -0.08103162976018125 1.244903276497016 0.34311422260233737 -0.44440096096012127 0.958376472974188 -0.7453812463334993 0.17141293194134546 -0.6482076359610836 -1.012408889253341
1202 -0.0709225741227727 -0.2615738998591731 -0.9060580120466285 -0.49126526728602204 0.9327864499119506 0.8709542082949006 1.0869019510976088 -0.21400649623205145 -0.7388416407516258 0.032804305042610324 0.7045419239447567 1.1716938266797499 0.42169958400783286 1.250722399473146 -0.4923492162529769 -2.4278024864460446 -0.26128037275726324 0.5817259995655352 -0.40521953517963466 0.6405657970241474 0.6070503215625704 -0.5825226589798673 0.8649481939061814 -1.2980768464580623 -0.036140475547734745 0.5417043717238849 -0.29302438859494834 -0.5809744466579253 0.428792365812971 -1.1249251694184326 -0.0936365243361908 0.5508820261435569
1236 -2.5947150356308586 -0.48156229786376936 -1.2574589030475958 0.6418739043290786 -0.3755969669771844 1.4708671769486772 -1.2641239049054747 -0.29392478560551305 -0.753554021304049 -0.03604962267257885 1.2001917137830427 -1.137521646310437 1.1708286178180733 0.6171951842900145 -0.1021763356853918 0.021830716244168914 -0.3956267398052458 -0.05419170016932694 0.8277692639425462 0.1376166107771276 1.4561799431227667 -0.4949585551614172 -0.2687773680147543 1.9936628358668296 0.9555660958271057 -0.20380176801186287 -0.8482372147946406 -0.07590667151816347 -0.26061176853647466 0.717068237963269 -0.23563859625268324 0.38555617797674785
1294 -0.06300168345305837 -1.5568530788697872 0.9260039838067182 -1.4850560191084683 1.8936212879260261 1.2095839773681734 -1.1470362542037276 1.0329909519553238 -0.3774788474630692 -0.5379267973651749 0.28320597715285056 -1.3608411383834036 -0.03987749922329111 -1.0775204925204818 -0.781598724463638 -1.3924135104676434 -0.10562980280069535 0.35751437185368423 0.7343473226517432 0.6895365006591729 1.047740949134493 -2.869683002133123 1.4210765717345917 -0.44002277580210986 -0.02857321004951809 1.015439867625514 0.16796310342993961 0.8493119815926158 -0.1940653338733813 -0.4918395759026053 -1.3404878910356335 -0.7465979379265636
1432 -0.27017188910194684 1.1839167134141921 1.908016844368651 -0.2769453645656915 -1.4643691523737714 -2.216240070212217 -0.8062184056148642 -0.21791206264083804 -1.602355830535239 -0.37957821805770237 -0.15520631133295765 -1.4598525936289042 -1.56089989220594 -0.05566820504293364 1.127186791405835 -0.6487150665594285 0.5502280605827105 0.6533609299695621 0.8202454609148228 1.5301837514163674 0.8872258405779467 0.7731458738999454 -0.27649399076149156 -0.5953709982698585 -0.18813466077696958 -1.178303046577005 0.08920302572346972 -1.371781638543901 -1.348052923196197 -0.1688672886247574 -0.5715798548001595 0.06340061636180994
1489 -0.17057798429784365 0.16459035526411014 2.734353257178772 -1.6605943105690248 -0.4271130646743861 0.05709457822133226 -0.4135960557427524 -0.1320194646443898 -0.35403944800728826 -1.0892241229759148 -0.5673471502714224 -0.32343294045904997 1.4208291907911403 0.5745989629135504 0.12550782429033638 -0.14426991736843642 -0.7476529505961608 -0.1217214636856593 1.2461644222793409 2.0151734780974917 -0.6087872024805044 0.2674698280104999 0.4175920583268425 1.5675033045919098 0.974248770114744 1.6783514169157994 -0.957057600552276 -1.2298547419115187 -0.021539506502543136 -1.3443473608707592 -0.4248468740265668 1.042048351526012
1514 -0.2561676959554015 -0.453327616340145 0.040789034301506516 -0.09312928210229632 1.5537075173423505 -0.32321334800021095 -0.3586795520281347 1.0547655938529403 0.2802200116706836 0.015690760373846934 0.8240563593696139 -0.31575287644435934 -0.5577090698133881 -0.8716648772741454 -0.6907121082371457 0.9563892446307503 -0.7151953614731864 -1.324947529878337 -0.6086882148655905 -0.3267355011973012 -1.1002018657499741 0.19503170182748328 -1.2974578910760683 0.95115992557478 -0.8034414271214874 -0.8750170201085724 -1.5132282540633208 -0.48590438049749374 -0.4305344016532217 0.7516373511337904 -0.8480769025328895 1.4754296839584178
1552 0.7938455867733208 -0.1336141845100058 1.3132502338520304 -2.573837551888394 0.3847894411438667 -0.3468628280498488 -0.6020767163737069 0.006426977670078156 -1.3725509479727331 -2.5953854661657667 0.9730142592709727 -0.44375688548972936 1.7947252315710367 0.04434177721948626 -0.14104970351621138 -1.2857252268751098 0.043105002705307656 -0.995200632134139 -0.5126479246370568 1.091371931401002 0.7336313211145542 -1.3051932388654361 -0.7231828884179905 -0.4663456070972243 0.338934223188247 1.1183903709924283 -0.538784653030637 1.1975656226580587 -0.42305017919353477 0.46633713569285073 0.008247895175694788 0.4174150859112654
1560 1.0234872598350124 -0.8533485062984 1.132111380436225 0.3823851682959894 0.005963632299320753 1.1315442470913426 0.006691921368679803 -0.7029786506288722 0.4034275862582296 0.8539654762186685 -0.37791066272959806 -0.9902804484321429 -0.17799251328827298 0.8454521929162033 -0.48029244517030095 -1.0145614186323662 0.13220746866151356 -0.772029267594329 0.4052622512010905 -1.166064582627022 -0.3055105864863542 0.013032105703795309 -0.1674345815060295 0.47719431136905843 -0.4286739787657388 -1.3474680468631175 -0.85519155992943 1.1632519262563803 -0.31328392938295996 -1.4658592933883785 0.07350737515661558 -0.48622838693122294
1580 0.0006266636571917194 2.761137749074613 2.7182779767577627 -0.26736591484197536 -0.39313901689849573 0.9973267857969457 -0.37797004562443864 3.1092742295990767 0.27018281269644673 -0.4792913047826207 1.5348302787114263 -0.5616539964209165 0.1095028794054387 -0.13428337948008853 -0.4049114705538422 -0.121608519807586 1.047454838357051 -0.557326535530414 0.09727747207663912 1.0222784722363052 0.3761658011845895 -0.45548352052508495 2.8601666531281404 0.7363039901723335 0.34057295429730955 -0.985396176294407 0.6258147297088269 0.15613878572197348 0.7706728513415744 -1.250497290807876 1.2637574738339803 0.02454111748014914
1810 0.14134237840878183 2.0069168129370354 1.4426005913233224 0.14098943535832792 -0.22153013294550755 0.8158607845890902 0.3521245375721617 2.1572122575945336 -0.27444415123162724 1.0088585682412556 -1.2746045358521483 0.08992267677664291 0.29314996982821817 -1.3550421813667437 -1.1576340861175285 -0.571074737193707 2.177682180693887 0.2160426561159083 -0.9328101656757685 -0.4445153634939671 -0.4976562523455657 1.8476317817705659 -0.3513170178994205 0.2362080411579702 -1.2393462815688012 0.1857927423108569 -0.4295203912008166 0.8543973481983811 0.5778039340144534 2.776731100508898 0.10639507662206582 0.17775441281713272
2050 1.7974635873267235 -0.18017384644337975 -1.6400021787979666 -0.7183804284428517 0.5826647347692689 -0.44143535597826 1.188621833829731 -0.4018364281960268 0.31083857405624654 0.4494181146438603 -0.7111591884606585 -2.2373739529675425 -0.38231577193603117 0.21736268206231038 0.6750929956298138 0.8931503368674991 0.13889517780947644 1.548057754907803 1.9139856256009924 -0.535275588379294 0.7151587523446693 1.2842001562041043 -0.4236684521145835 0.36257277953145634 1.1996011925278653 0.3290691858000096 -0.04520330717456403 -0.3705958519384008 1.1087314248250986 -0.6656102509508146 -1.4365994073676176 2.043355530504605
2237 2.316933821363354 -1.6781144258360057 0.4426448750387866 1.1740331928347183 0.6621494584353917 0.8193848230989649 -0.5119422885972937 -1.6931321580442797 -1.4145882362241191 -1.0196304974822878 -0.5626518757770679 -1.3869615281257248 0.6870951405421097 1.7074537015663174 -0.19041791287071894 -0.6544190572886507 -1.4780322214679273 -1.6412280284673508 -0.3411028394022121 -0.13829970360613592 0.5617184661933283 0.2717770762538046 -2.3475201538365456 0.14939528990462017 0.2177662211902464 0.45466048718498964 0.11799485137133126 -1.1639012041905972 0.7623444583385606 -1.7059921454972615 -0.48698582608957613 -0.9656216159596436
2295 -1.644053743368515 -1.1082527596729266 1.5093624916498232 2.0627906584907048 0.5790851517355575 -1.322166904105501 -0.8781409835911749 -0.6183983001817218 -0.8920006370379628 1.2754811547473688 -0.6107953445712979 -1.0849579294259084 1.7146500200308337 -0.7512037321879963 0.6010309787231561 0.33596274042291924 -0.3205746150688038 0.3656692778920562 -0.5304082773583074 -0.20172635597541083 -1.3606439206232237 1.3363543972494587 1.531609103541613 0.7840699308237499 -1.5450412386817343 -0.9542810131448505 -0.7618299295593781 0.837515449018233 -0.48592877355929703 -0.7813030145596246 -0.7815101718969202 0.45472073383922984
2689 -0.34166557147243426 -1.2841764929033839 -0.5277376511980377 -1.6228938019855563 -1.0720634432332592 -0.5420697445917996 -1.8290684864721563 1.2251867459760393 -0.9159999594951823 -0.42016691617948493 0.4620536038247652 -0.43405514407496737 -1.8465778930166752 -0.43922075719583054 0.7738197569184327 1.3887000036545298 0.5581589066182242 0.5993255247248366 0.4784387462598726 0.7179792856037492 -0.2821174288159243 -0.1831427991607029 -1.3343840975109178 0.9573951324085004 -0.335121356769022 1.3383331461836536 -2.674743409231182 -0.08332923158200597 0.6011977997510177 0.4474990836760065 -0.34344218479671 -2.0668561459122086
3021 -0.16470232962306494 -0.5491230969223141 -0.4275305508256924 -1.1277330561420653 -0.8871811312149593 -2.5332567867807074 -0.09428941852620644 -0.7292350349966501 -0.04439158499756467 1.1406631326658612 0.11139703500976059 0.2900598393941456 -0.5900044029305852 0.790070845814567 -1.4258787306081688 0.5793056046558456 0.16079534856480243 -0.8139049173768239 0.37393207948188834 -0.17325686995788095 0.18185851587921106 0.9364684539073159 -1.4348542211288255 -1.0287685049930708 -0.3353844123665677 0.9447827139611391 -0.2434031756832412 -0.7578621092973767 0.9094401859377887 -0.11484075243115434 -0.868104167440373 1.0439701134847175
3038 -1.0174243942755954 -2.2178684421329735 -0.30216468744256325 1.041363984488254 1.6664940826222954 -1.4518714904734678 -0.8941576685476463 -0.4735771578908747 -0.36260011871463366 -0.857540721892849 0.7840610272987373 -0.9068397381165231 0.960981030282886 -0.2532046378315302 -1.0264092246276266 0.10048414500740327 -0.7470642941733404 -0.5105478377321911 0.46479875341223964 1.0920238993878881 -1.1504108683343819 1.2201372170923774 0.026544776411372692 -1.0281528329446008 -0.4836200533454933 -0.8152082386130536 0.05063331521121893 -0.43205008967623626 1.3246347296982222 -0.2762376061275342 1.3623675665224888 -0.681844751589074
3283 1.0076728540341744 -0.6181555578430381 -1.4880318080200112 -1.6923698281090136 -0.7177255064399176 -0.002371819439640357 -0.9637181259047239 1.0997111118614704 1.241335422537341 -0.7698921122361707 -0.11434492643279151 0.08009396561325628 -1.1163858270243736 1.452060749137668 -0.9421700836082261 -0.268446147755183 -0.902557463529181 -0.01858569016947072 0.1360555863503953 -0.36720091433492674 1.5074368194459884 1.2489606005337852 2.016019734858348 0.6564517498162584 -2.3285793487705817 -0.34468725247090576 -0.0016177870057423804 2.215186672434629 0.45833165271196585 2.3083371620254214 -0.5106115230765417 -0.02614409014099316
3489 0.031694317414814974 0.5767949001437956 0.13282534225972376 -0.9702294155759453 -0.17593874165535306 -0.14200431557329712 1.632725078701247 -1.3447605342733027 0.6406748778463953 1.1992157774119157 0.2865509834603763 -0.6260403929680218 -0.25961033180307164 -0.05467242878146902 1.348056351107265 0.43526273708118635 -1.6223442096880516 -0.1491113732917998 0.40791475854818204 1.3135680365278413 -0.47472417343527756 -1.4940395383525884 -2.4117000159087247 1.1676082001272798 2.534494331570358 0.27549129876326184 0.9186531069510308 0.3021207982509283 0.3960133660008329 0.3383664399067863 -0.5555427829956294 -0.4422297293787092
3583 -0.5004974502941277 0.9284872825993807 -0.12082403564186765 -0.35088217508358904 1.3976150451253537 -0.6423637442390288 1.192792855739784 0.7761819761742892 -0.8183596268142876 0.36156061050677035 0.5057560287836632 -1.4455149124815854 0.3137864005384016 -0.9587178761565321 1.1343440228392236 -0.7906802131072003 0.3925862996312308 1.0405102588711599 -0.07059759862467223 -1.302600905091177 0.54400448772774 -0.9269096091593375 -0.365818607506989 0.08332814323278297 -0.1574241909765413 0.5746713620148124 -0.157190663912986 2.8994707650896023 -0.7336265746937638 1.719007069999159 1.2326746827742416 -1.6548350010017512
3836 -0.7757850285803188 0.0965463437591942 1.2865930185613117 0.6984989841882491 -0.05805192614363382 1.1436823167790757 -0.7383042525222766 -0.5478566746488085 -0.7380554548156151 0.7153462879513285 0.7739638772573402 0.7632253100670117 -1.1918345895919158 0.0668507446677643 0.9448478038541545 1.1067771938745479 -0.6763446976751409 1.4971443052784619 -0.37688205356406573 -0.9140624830480385 -0.34267689895501735 -0.4607110197779659 -1.665294707992741 -0.3744764029464459 0.724840353741278 -3.2727997101324546 -0.2955838653428994 0.7358571481826207 -0.02719402684840208 0.6956862407322203 -0.9440515421555188 1.4759631529754362
161 -1.5791432283463345 0.6500879288305713 1.1651260032225772 3.622742125879828 1.2981092218636592 0.26915101093261695 -1.3746370710427755 -1.8572158439646496 -0.0236665078609072 0.240722400568764 1.6412612874191503 0.46293018938477254 -0.5208441527668267 0.1150594295356456 1.3324601452083633 1.355500080709727 0.531779920585253 -2.928124162416066 -0.015725040343677034 0.07475646326462584 0.0995409104323726 2.1542532330096194 -0.6475882732345417 1.4533765672098107 -1.3438850712873494 -2.1490322865504226 0.06854968779484226 0.06039380579981729 -1.1702002811664256 -0.5284498634696833 1.4426382345502304 -0.9687760711459299
2 -0.30883404292345695 1.4006820423790556 -0.9119694551036596 -0.7859299835864875 -0.6342218772027873 0.1429023218891943 0.4215103810245618 -0.9670355236322865 0.7832531683266014 -1.174231179164343 -0.19240551046350265 0.19065811835107674 0.3284919144737772 0.4910100249393302 -0.5563290385363244 0.6571798721471446 1.8104122502937814 0.9348608926356341 0.8472259359751789 -0.4352674394986112 1.4237973772212018 -0.3466608640636247 -0.9716713074167684 0.12837844464101902 1.8506201651272236 1.3317836660863995 -0.9250193040004117 1.6463412605092247 1.9533517329181778 0.7487992956214837 1.5758467283295179 -0.07257652323092718
868 1.0909264608225042 0.9750970400554596 -0.15669009090084254 0.20701101318691925 1.0852201559481767 -1.8416106169230055 0.26408691814209617 0.48970935354319883 0.9418391165817149 -0.39883268446139075 -1.829030914434359 0.7654538283440364 2.3713566906520374 1.3448022893170202 -1.08067157738965 0.22143000255994622 -0.5092503902491915 -1.2969766352793588 0.5618487126639373 0.8821593175531302 -2.4134963502785456 0.555538120771585 -0.6826948080944171 -1.0256409855335933 -0.3917450868362997 0.8731055709912969 0.6071629567535229 1.323867179902632 0.0381848271492982 0.6079167843806539 -0.3951547822233758 0.18131497437805244
1192 -0.0552745551192165 0.06716690808634587 -0.1240725876740032 -0.26748664309321546 -3.3632138350385614 -0.14841848727708196 -0.1995302858964104 -0.6978107589955724 -1.528261365833758 0.23752523177855348 -0.8218297849286296 -0.42450197025352543 1.8448834394936775 1.480342461150427 1.1048038218840002 1.2017627300171305 1.0785294451026015 -0.55231017834652 -1.420500103681991 -0.6075671612496699 -2.240411784875314 0.8639991439733797 -0.02723065513416833 -0.6966689619064707 -0.40756106203925396 1.3205489585167223 -0.4212343128076125 -0.11209870256330708 -0.3544751484802834 0.40212236394221607 1.0315112263765267 0.35046521901197847
1240 -0.5097698414748636 0.6218069027705186 -0.2913823883841801 -1.4007326720499635 -0.820897095126934 -0.5114502237323438 3.3816175902387875 0.6566104169873069 -0.047742927355810906 0.8410995836206832 -0.5222225284208589 1.3602552900103417 0.419618180726364 -1.8817842922501462 -0.14482671938585423 -0.9811687252791201 -1.7216655200540865 -0.42075465234330056 0.15480738710558187 -1.0206335047362636 0.34639727049904573 -0.6270286248337901 -0.12054703089377859 1.1455949225931972 -0.8308675236249768 -0.8709481352479111 0.5927917322805722 -1.531125332569373 -0.5083669465263988 -0.6535804804753426 0.40564388941060975 -1.9054234014791336
1242 -0.03849041060906967 0.27021530009077854 1.20870721465293 1.6231316202960104 -0.1487561812868858 1.2485934381467974 2.8309853037582915 -1.4198281213314583 -0.670855286380439 0.14040318187575965 0.6168163284512791 -0.8371480855978245 0.3663626850980015 -0.13833099340151497 -2.0109921394169525 0.1636511356343626 0.10235616281443498 0.628442728513673 -0.6259450876392635 -1.0573155384506143 -1.023543960979549 -1.4082439597542458 0.713023542018046 -0.12411764677756218 -0.6413308786531039 1.731443207469081 0.9517010432252819 1.2841913018480708 1.7473925957339196 -0.21178167092759206 -0.6764946112316903 1.5199428280969967
2437 1.0255813429151623 -0.683126156537972 1.2636254236152036 -1.2848578284534515 -0.5855482452314872 0.5949142429884492 1.5704136675998097 -0.09846654736870747 -0.7029256737166282 -0.3425168522373163 -0.5190052839474462 -1.7727377168539353 0.4830842608659843 1.5617056397539795 -1.9331860193352473 -0.48176817091180896 0.7814525990903909 -0.21539451409569593 -0.4579085591842395 -0.6745892287954994 0.2266002116289759 -0.5513033927776624 -0.8115432526737892 0.5264395976282089 -0.481005769569601 -0.38903525814805057 -0.7360351865165551 0.23409453275317377 -2.011503532127008 2.0184818661845156 0.04916110825531005 0.519411241139099
2633 -1.0235864278436355 -0.03928284175161993 0.8577365939670955 -1.2881376492203307 -1.3595223078910357 -0.021379073899114337 0.6614541735035573 0.36043924447972103 1.1504799802851287 -2.008646304459117 -0.8114638603764653 0.6869471443546841 0.03209750443287092 -0.034990828083258034 -1.1239056710404227 -0.3653632266195968 1.56341730030904 -0.08679960486656355 0.07640190030113955 -0.9803708640711175 -0.8830722880956027 -2.0302586133979945 -0.5138714550934794 -2.3145027322874014 -0.6245686555708396 1.6775247428093647 0.028393407729480714 -0.693608719033968 -1.6085250746988196 -1.6354325281867506 -1.6056509972608983 0.6828596712290839
56 1.9032454029080834 0.9116501944363217 0.4733995422671987 0.611261138666026 0.34951224775726253 -0.37517550596075067 0.44098342776030663 -0.35207061571733517 -0.5325656385413138 -0.3124575234187995 -0.5758737760333615 -1.9834006884499686 -0.4669375810099962 -0.5533189542128941 -0.812027442266235 -1.1042841320957861 0.879542797657033 1.5197737992074938 0.06644696720360688 -0.7924376743441285 -0.3888420592416965 -0.15925798531956997 -0.8040621512123035 0.9464810896809895 0.33796223519627144 -0.4773136614355781 0.167465509762075 -0.785612202356991 1.0886427056164614 0.25193423947728893 -0.1819571445168392 0.4212014838371068
154 -0.9311990356315734 -1.4273413395735406 0.16903308050741048 1.2107351372415942 -0.5976181702161695 0.4126970992168034 -1.8524968103847104 -0.2253505189785765 2.522202287897408 -0.2979913075382912 -1.1121875759750905 -0.05237737102826906 0.28173622999617304 0.24677288287957003 1.5538998273239737 -0.34716002757233505 0.4005162673789619 -0.0052319153762558105 0.9734037694315129 1.1248298554251341 -0.382808138804957 1.3418534660340922 0.47629551957798016 1.2630139664668742 -0.4194260418023191 0.3445883551129936 -0.6291189518677694 0.910972799565542 2.0035089081081248 -0.3429642681284365 0.6434381942337926 -0.5524808405158695
209 1.3359633441339112 0.15819328757727807 -2.3649601320217255 0.698289854884625 1.0775743246652703 -0.7375159011118451 -1.7420866796941525 0.4859519976883246 -0.19377775202148095 -0.15138105055793466 -0.4542805902740746 1.1456219050363192 -1.4049175030195813 -0.1046704779044935 0.48526988315924774 -1.3258409522141053 2.4750085356902125 0.15988233485424352 -0.2950124870864628 1.9113067752916122 0.11643568106857964 1.2363144146712892 -1.7186459658926174 0.5620482449308447 2.742745113641699 0.7616499038338235 -0.9973466495730923 -0.18786956201492333 1.1390905258116826 0.3996117721314423 -1.5304087766844492 -0.17489133681831237
508 3.1633865446039597 -0.7446974660666403 0.612765181544461 -1.1348795712023476 -1.2275169898528868 1.0167279723368698 1.771862180821652 -0.08654305498864136 -1.066994168956256 -0.27621175897226685 -1.3941205760756887 0.9651746178851925 1.3593830253135515 0.4466796219154873 -0.5447298474363983 -0.38489245556862056 0.005423014381667708 -0.38803720381046103 0.11455326862933994 1.8070852132774917 -0.6316034984501873 1.2239963319739753 -0.2186610650457887 0.09729392530430825 -0.32360237610206766 -0.13325674729066872 -0.42072273976605 3.263352061839772 -0.057434239218797103 -0.3700093835168281 -0.5811678535980246 0.6276690089811615
842 -0.7105663103118116 0.03161427912009925 -0.6794814192311125 0.42760505788844866 0.3289195253362552 0.5108268435146787 0.8325833746010132 0.25052110777493664 0.262476201652927 -0.21511299920882754 0.7382655298650997 1.7904598943631043 -2.659152996087159 -0.49474036369905905 0.19082334458552092 -1.2885189997457747 -0.34326797535645787 -1.1388593489283616 0.6865349820290914 -0.22381986479395263 0.5457453403649335 1.4326742009190478 -0.7631627085323419 1.6750198842115045 1.3975599398879237 0.9909293561576408 0.1600133291099188 0.21811010561070696 0.599632164461575 2.029806603256483 -0.39175162380840733 1.2183881810403694
1282 1.2480116293359274 -0.3712035573460549 -0.3862339839216429 -0.972664419662688 -0.9900710103680181 0.24931173709663593 0.5411457623907613 -1.0751065017172226 0.02215633810723708 -0.18133357483789336 -0.7177680364673288 -0.7856374009217562 0.17897767966359138 -0.6332334410924113 1.1268016349959546 0.011641161017147551 0.5083481496258102 -1.0262863876268369 -2.182220899265154 0.0037219369221898582 0.9796421364054074 -2.8935721327657724 1.001291010535836 -1.0744945573070586 1.688168783248944 -0.7186263906789409 -0.7251167133036707 0.4975161404319338 0.51397444183348 0.6313154225350471 -0.07783767627498052 -0.9878407789286109
1683 0.6366455464310736 1.7273225733844164 -0.20267577064698766 0.40386130122217867 -0.42817984790795804 -1.888314227725198 0.4655611025826707 -0.32925751165320094 -1.6640385995967968 -1.1325148145790767 0.6656323981327296 -0.16679360309396615 0.4530710763648561 -0.4015073872400691 -1.4508368215612697 -0.32050936829795124 0.567164473290928 -0.6797905708784133 0.8887734079503233 -1.4042589956481029 0.16218677361002942 0.368774271233021 -0.7891406735559108 -0.47503618654122154 1.2261242524333598 -0.023085933982432527 0.247741479784311 -0.7138427399600538 0.22421034533783996 0.3909111080807194 0.7818740440409543 -0.24265307697967758
1847 1.1049064377953866 2.695815247162485 0.5046786027033723 -1.4413954396884823 -1.515917592892264 0.1805405398191794 -0.13640440074067978 2.51031557886551 -0.9452938105297277 0.4525855823583026 0.16682115836196384 -0.18020237804398995 -1.0191128352325045 -0.21567891070525588 0.037706363544674736 -0.5761109391605603 2.2937306700773332 -1.6922287366472981 1.1483174790936082 -0.5671238677446332 -1.1704511449757231 -1.1754654110416238 -0.7047741016048938 -1.3992124659191734 0.44540806271723127 -0.833578724078892 1.450018734392976 -0.33965385539955056 1.005934466421727 -0.5997575361933009 -1.2948779329529903 1.9582786691185052
141 -1.4548204414524188 2.0341359993324577 0.6747116990509249 0.6163999901077335 0.11862151668756851 -0.7380836175899387 -2.108408884244132 -0.6239602294125919 0.14387990374386397 -0.5951376256292253 2.1048783668780895 -2.1968510756341453 0.447933222262813 -0.055269824330906145 0.9239483768961313 0.3239693146090677 -0.07294489630444811 1.7400305909753164 0.365950162907032 -1.6478225402373896 0.3636370127864613 -1.0578078261794372 -1.0742263068001328 -0.8841642305579059 0.06770399357861158 -1.1681036749458338 -0.37749503389504224 0.18454742549917763 -0.31039764393533525 -1.3281656995447357 -0.42737428979868175 -0.745796915095306
1993 -1.3102235365941706 -1.7080900644054084 0.38891070573053055 -1.0762565350104014 -0.7086461645985987 0.8078610345306241 1.6010202712199888 -0.09434351805063626 1.0786981998221354 0.40374456721547286 -0.7131483893867019 1.8058969020042577 0.2812922557211829 -0.09989056588958115 0.14340814033348334 0.7678434568559971 0.6843693749568931 -0.42934448292924476 -0.7017592184358179 1.2644761533896942 0.3986726856185805 -1.0021578185554285 -0.8959998316732508 -1.4962599176602729 -2.107649821948194 -0.2278100856366033 0.34995592686506133 0.22522773747405625 1.3490972004443293 -0.07374204041004638 0.28600648352035596 -1.139363532952316
15 0.4596129530212031 -0.041237803352980655 0.028857304623750815 -0.7345634904047142 -1.25742494327046 -1.513086063723446 0.8685366754523729 -0.4118681525745618 -1.8367291739655471 -0.2546775341706263 -0.9522567281034706 -0.2167218231545845 0.4294824200907641 -0.8528889576639659 -1.0625669570968772 0.7863077666127605 -0.40757844952213473 1.5091169855705433 -0.7610653150786614 1.1248368434300522 0.7164062863946684 -0.7805420406836813 -0.04513961088293227 -0.1537998405479999 0.42453140970939013 -1.2830499863836515 0.6189225250147335 0.10156967980309095 -1.937633700108786 1.354932860892102 -0.5761917708474138 -0.6258945478676905
168 -0.38922957026769 0.889168333391425 0.6181546581979385 0.128352076821477 1.5212494802734366 2.469626729582041 0.5463776613456892 1.2609891995156828 0.6461653235358549 -0.9800109135565139 0.34002758108227416 -0.7303529756753346 2.0486847174192637 -0.04704743423025212 0.34763599167855436 -0.7790782339308155 -1.8125005344147262 -0.19513896517966323 -0.341620709026522 -0.8032765779110744 -0.6097652949893051 -1.7176597912980431 0.2415425067849329 -2.056873712783456 0.9273324079194146 1.3758881330759445 -0.2265295291154486 0.8451654456307438 1.0005492561729301 -0.3480158983439389 1.5891115586937516 0.9565957174570711
172 -0.585105736358478 -0.4055766561666212 1.1254463188952668 -1.3619737734737913 0.5964059907297795 -0.30525875487689025 -0.23108476639701575 0.2551868885255057 1.0826723731394785 0.6299718082378971 -2.0284678653597705 0.9492835388566992 -0.7505397189288638 0.26725296595714304 1.859682210881937 2.146958681008285 1.2975355118699834 0.16918688280285452 -0.267863148390388 0.9034888778325931 0.6656285230318179 -0.9802991148251543 0.3765919333666299 0.6975627461692904 -0.8531979905364406 0.9858580977608639 0.9346940237049338 1.3449869173372504 -0.4961353886890943 0.3233339754322867 0.8863283691482866 -1.9185061794983649
545 0.30297461276309007 -1.9515519807687427 -1.0501587127363186 -1.9581719398776871 0.11487576121660704 -0.14879088184487496 -0.5698686247461571 -0.20011501790945715 1.6843038394934031 -0.7493324326596797 1.1657968418147575 -0.9835951537654459 -1.2971822262388963 1.0430966709253442 1.1877796665911002 -0.7089824335680128 -2.1952957750658637 -0.5058887889156093 -1.1021619328335956 1.1494898443682344 0.302733744748357 -0.5740070728861809 2.3940272624706327 0.1736703401440015 0.14676509131026005 -1.3114974639675232 0.2891995909578968 0.40656709185233847 -0.4451142081962382 2.0836655311226715 -0.3656164083395183 -1.6471228174220856
815 0.32683602334644435 -0.26378856964198594 -0.13701035446095974 -1.2734798327330699 -0.3745888479810635 1.3596771319626098 -0.6287285722728864 0.21815873845569275 0.35401556327712114 0.012534634889807739 0.5710065605721082 -0.33064949892941053 0.5273794255101932 -1.593273754052285 1.0757723953820177 0.016424565231059632 -1.4351920185392621 0.3724698814028514 -0.8688458783437535 2.468277041354134 -0.11085830095880886 0.8256074409397871 -0.5540431632299725 0.10457289512252976 0.7338846730663344 -1.243542589170601 2.177252015579033 -1.4610392602995272 -0.22774367912150986 -0.27719463639918934 -1.215741689919525 -0.19485277251154212
879 -1.5484308884549027 -0.1799807527680494 1.0430422259206664 0.1210555053464752 0.09446022299294306 0.6978683934120216 -2.9834734111357575 0.5119868359188543 0.6602469489556336 -0.8003171083689792 -1.4601056906205725 0.3315459769316488 0.21712163945422255 0.9755507227466012 0.07904001869376909 0.6637735793303359 -0.970071600117253 0.9037746720943283 0.9725917496392377 0.3524261882403153 0.7308505627339124 -2.850267974986136 0.13105153061773553 -1.44287379547112 1.5290246140020758 0.28647445091386514 -1.131267908034971 0.05000058387984311 2.02759170501388 1.7176351598532391 0.7545414898305823 -0.3405736685974453
1009 -1.6164714347369424 1.1322362904229013 -0.6364778598661519 0.6969527505900169 0.7751319480820905 -0.5419580396918733 0.6703198872820516 -0.32704052635226644 -0.8160802722278393 1.8519193665260694 0.9902176580205054 -1.4872675029941864 -0.8232089527433973 0.018298621483602437 -0.3030600613767373 0.8880102060174162 0.4569064274313387 2.555046905952847 -0.025699960036307572 1.3440871692561422 0.5086038827907952 -0.19294852778563173 -0.7289433374233152 0.8391496100491532 -1.6957077801087188 1.1641122075304733 1.2453381725801833 0.8344448404019525 0.08639212565365394 1.0915196866526469 -1.350645164272124 0.2992637779312372
1048 -0.3531253262969483 0.1223183030582023 -1.0664651621232906 0.36966579152813095 0.19863168376609666 0.4282450720714402 1.289405843456819 0.649510208736495 -0.590574199634512 -0.693768595501427 0.5463001773244511 -1.2219870881423889 -0.7063096202162124 -0.5279875278417027 0.7151455539694369 0.9382351301034529 1.1856446199843804 0.5138212166343905 -1.3633790601242974 1.31217582050997 -0.30739864495703756 -0.6057252174575165 -0.5016588724459363 1.9781557554061922 -1.172912057818103 -0.788789489317121 -0.09544736626816447 -1.7736760130639229 -0.9975865901319378 0.08034363452035516 -0.6461262791267303 -0.8440061443859989
1065 0.12970047075692892 0.9120467386395499 -1.5816973094560247 1.5363119214533776 -1.8278089793628702 1.138112894591582 1.1317758272483627 1.3253892280841026 -1.360070440292491 2.068759679210112 1.2211767650702001 1.5442605736591157 -0.46168972173997885 0.19170456270329436 -0.8846508748087987 -0.3090731755302383 0.6209691489440221 0.3725196193367416 0.20088763349265087 -2.1253424957080584 -0.42401280164190003 0.27774329113975965 0.6892691447831836 1.5029323981652545 -0.5908367003657057 0.0173791208416131 -0.611637284599131 0.7597818098199165 1.4355622781444235 -0.5940961137935625 0.7247527152231032 0.6299188404592431
1139 2.4239770447956968 1.1851643937751108 0.22790264362358031 -0.35257753428978267 0.7178811458810587 -1.2078131068240179 -1.11660828201504 -0.06164083971007265 2.0836576508293443 0.35649205765022346 1.7037255892829168 1.0736458877234585 -1.1891061817627198 -0.7403663617593517 1.819588054598291 -0.45870382646823393 1.2617745406676624 1.4111708722367786 -2.885574400534841 -0.007085208124420257 2.990904030098621 -1.0912679676650097 1.2196877472071355 0.05093010797293967 0.1488303002848404 -0.9167314538364342 -0.1801650523880144 0.6321518262720158 0.12934519834341404 -0.503028058160689 0.8197570661782422 0.18287899713128308
1167 -1.2382567706158252 0.10588728507739864 -2.038671658206672 1.3164614823914138 1.4806925768194563 -0.8600261225603901 -1.2632587624891676 -0.3583260732375536 -0.6574727698676326 -1.019027058196688 -0.9148765363226228 -0.6926273670740833 -0.6245663331348152 1.0751859080465225 -0.5101268169119697 -0.14118958715007046 -0.9803681795722576 -0.7134908196634473 -0.11273627940048372 0.4933663976639284 -0.7244794112539933 1.892683411526075 1.2642006767108622 -0.6082043988289338 -0.24365747157318818 0.5671510885490791 1.4782008294373878 0.6622257859531283 -0.965114780061277 -0.7485934971922186 0.4471029136853952 0.5077005661764399
1179 -0.44070569063539106 -1.4530540554917135 -0.27968649011666563 -1.8203130925862472 0.9017973159565733 -0.13762699721206023 0.6125574396886257 -1.236079381254034 -0.24771082355985624 0.21514386831095908 -0.22168820850832752 1.54809459441166 -1.7063288072416285 -0.48336080012451943 -0.3055045570444806 -1.2851637405581626 0.39312430266557036 -0.9223998408910932 -1.603346483767775 1.1627785563100816 1.3336363268983844 0.16708389262251225 -0.8556148167812688 -0.20448109593219782 -0.171114500516086 -0.3265390633932528 -0.16451889203426664 1.019806349770467 1.423028241934962 -0.2439999794813956 -0.157579940046886 -0.9298209430366209
1223 0.3186191737319533 -1.1962512654702993 -0.9364313364480449 1.157183373838075 0.27467417164881547 0.7415952019718024 -1.3939076222416351 0.47760294917240687 -2.1360732321570843 0.2610110187142109 2.1155852149873113 -0.9959606215362754 -0.7483541416856275 -0.28014835388263154 -1.2349757435586899 -1.76889535154103 -0.2027295741979429 -0.6733741184867189 0.49597550866934903 -0.393972117976471 -0.7940182922297468 1.0853004587900648 0.6420428197127974 2.193895653272175 -0.7484052167869408 -0.7964477498428475 0.936993168824729 0.28415081373494455 -1.8945619989317573 -0.8910367780855349 -0.721177373214042 0.8261007790545517
1368 -1.0765917071794069 -1.8190992508678263 -2.217894929078804 -2.845395212212299 0.5630559330627933 -0.4638942397662055 -0.7123410429145917 -0.41939763254096707 0.12450022360155645 -0.25286980966900985 0.4832041981829998 -0.3455731880508847 -0.9921615687220016 1.8545913537294654 0.5538043154594106 -0.3655394420457852 0.6094073042898781 2.9607676377963092 1.3404466040930403 1.876565556520611 -0.18413220562172403 1.9451950184031783 -0.03923871685337171 -0.8495295079264784 0.22277288643242676 -0.6449109780309324 0.31032206291356984 -0.8015269375575225 0.7035287910339335 -1.6198711398122891 -0.5704970438040279 1.4530935918764896
1416 1.2387906262033808 -0.08696182545692592 1.8839758699402844 -0.02104138547733354 -0.8961885035721633 -2.2172259558494667 0.39446915852004955 -0.30776579518622244 0.4380189484345111 0.646342875237566 -0.3805082173454689 -0.06014641654970798 -1.8234382950853827 2.820155840179479 0.18462758293076412 1.9492884236167665 0.6637676755539474 0.5057582723870391 -1.8969785136447714 -0.13472196385443513 -1.8152438868980811 -1.2189539379202583 -0.5916387459704586 -0.1859884158425468 1.7283460159769157 1.30796113331823 0.5851679265664836 -0.3737950031637129 -1.7739791914294951 0.42661462508978537 0.7884136894638367 0.27027141626440077
1454 0.21671197370978706 0.6553232950598755 0.4461592563318493 -0.6953385849883109 -0.12273668602368218 -0.42619811567970467 0.054736298081883385 -0.48067239408453444 -1.59735359249203 1.2690338322504877 0.4345323834309976 0.36767389913685594 -2.0857322548994133 -2.129892602879107 1.5935666064527525 -1.3211679268914656 -0.885500922990805 -0.8648106090888925 0.35488508956243303 0.18779331646704533 -1.4974289688936366 -0.3607966749687694 0.39625970524216747 -0.44217516060481815 -1.7232134982137408 1.3759638589487706 -0.24895409446318578 -0.9651075302683225 0.46132030025649573 0.9308422295510175 0.2668272606508977 -0.1860030808537199
1611 0.14125732162007965 -0.8326008521112087 -1.2868703343286743 0.9188370095996877 -0.18157713809739867 -0.9298456932084201 -1.1742330969892714 -1.5896674496156764 1.2640681503763227 -0.1847240904573974 1.0108181957596971 0.8298416109145639 -0.08666699435014691 -2.444580431633835 0.092317299884322 0.8279554037508012 -0.6594989319364204 -1.6634757642614042 0.664297512198808 -1.8943482138613115 -0.7588513995046308 -1.677724372790434 0.630548904089293 0.40816866695959325 -0.7218200346520429 -0.26435515073265015 -0.0767350947111557 0.6554280129735752 0.30368603356220825 -0.17984478775441445 0.15731346994604062 0.3925890035727676
1664 1.2979255458737762 -0.34473202510449175 1.4816007235045832 -0.21837587775546022 0.2533269598444382 0.6653807358922645 0.3925091385843096 0.9875448100097651 -0.21743201754322916 -0.5027547118969249 1.2225031092579133 1.7979921196482505 2.377892839107491 -0.6505830582000579 0.24458120146813886 -0.6375168374560503 -0.4861274442142797 1.3853402734459666 0.2377284571912443 0.7031602239370034 0.2899635691062599 -0.42862307283213863 -0.7640049847853158 0.2723964667766822 0.35881316064858226 -0.8875261641742455 0.14990174718025384 -0.8568202057486561 0.1442535399031281 0.2598870131326723 -0.6837223762072652 0.13917420727566282
1686 -0.0665826597505053 -0.7791821619721853 -0.19881318009569354 -0.10350414948896551 0.01512416238610924 -0.03119097514823862 0.93469928816467 -1.4767607997437198 -0.6498147741607385 0.2047205908735645 1.0000329833520545 0.974670708994415 1.046759583593025 -0.17945457261693304 -0.7781042294220114 2.0832563121725705 0.409695238211261 -0.17360392747500286 -1.2597609853524203 -0.5931511675588577 -1.5541117362850985 -1.5832381545534966 -0.03975802575409805 0.2059554946337851 -0.5673818915524911 0.5824211309728551 -0.17067727997763524 -1.4906963020533908 -0.2086873759299119 0.15945897240516949 0.9749794109379938 -1.5205616197454546
1703 0.9400865248433612 0.2292383244754831 0.17415162555733227 0.30999523597074896 -0.2416574100853992 -1.0732699370665877 1.5676419615414163 -0.47071727683891806 -0.6076664990736504 0.22418371766741405 -0.14206086215883218 0.8948153489316522 -0.8074059959147025 -0.7323626485264307 -1.4066665116076824 0.36070952845535553 1.249820822714442 0.9628781054945011 0.4695943112961437 0.44722611985781224 0.049350654856283184 -1.3190387583762608 -0.7872964430637849 -1.4898566384896712 0.529766802660522 -1.2801522434746273 -0.14401601795427646 1.3080815464393367 0.387751334228923 -1.459300329654305 0.8340963013446964 0.4538180963973793
1710 -0.8605880356398773 -0.3191513994952851 0.9012594258742488 0.062116203620236704 -1.103202660627488 0.37888021531911775 -0.27688105730404183 2.5333103240339003 2.1729749701371155 -1.6376812041956461 1.3291348056119368 0.4165778062480398 0.7162071818230688 0.3532132655714095 1.1370030265606828 1.115948959886773 1.5050078487839995 -0.600460127970532 0.43435898618477264 -0.09679895944161598 -0.3144263160626156 0.7768581703606777 0.23617327532316712 -0.5959114005082958 -1.1119401612539421 0.6341851197788135 -0.23013409421973646 -0.5484695798033524 -0.436193798054475 -0.38574840062235943 -0.6695032173084985 -1.41666958068477
1714 -0.3449108826306978 -0.06680199192773258 0.14375980971254354 0.4243100849366077 0.35351144282579305 0.26758982054404734 0.1541225716746517 -1.0110130677765594 -0.24099856518892215 -1.1005694100902081 -1.6060085969076807 -2.4113298135015753 -2.312859324524213 0.42930657201380734 0.5853469814135184 1.8824855039184543 -1.1553806286293014 -0.3292388678788116 1.6720895432043192 0.5939822589364349 0.01507952811524987 -1.0178860072069602 0.17367218576923646 -1.139016418663712 1.039817953894016 -0.6983647700187341 0.7255551204643147 0.17983512102303664 0.004128395254370615 -1.7488103801508612 -0.5696649901170505 -0.8328982686438159
1737 -0.8249299066600848 0.6337080500051872 -0.09022775064742505 -0.6964206884214142 -0.05331445091480519 2.3179520201265276 -0.699970297846933 0.3595594977572344 1.7349897883351033 0.7718334448070668 0.8462908013371219 0.5432513809953388 0.7753854469953553 -0.3639423275885222 0.5291474434109524 0.41821244531287816 0.4800626389998988 -0.3035497048181232 -0.5682920918834302 -0.30849786051029404 2.0927591430448493 -0.5510765678535016 -1.3351384185300679 1.9450105115726808 1.0039946979886443 0.7694293298124231 -0.5382324963665656 -1.8246476058329193 0.6548971023380381 0.7654275888015453 0.998427769472314 -0.0820550248171182
1898 -0.39406304160743993 0.5148349528768189 -1.0726783043237424 -0.32162526270315733 -0.4962506951235442 -1.023673717482404 1.3130357108845954 1.0883753703003387 0.37394432203468125 0.6155193543049973 0.860208412274382 2.386482603824757 -0.08947991634220569 0.48426792486741566 2.528112128736673 0.4717293744154029 -0.42526137146608434 -0.5999835600200483 -1.3503158795410584 -0.9790864496468836 -0.6272750098349014 1.288373534238691 -1.1367312953170516 1.2403206372273867 0.20982464229101558 0.01530765308169888 0.24907735235910056 -0.5567737273651492 0.7132997722484329 -1.3407933038687905 0.7522239668818421 0.004946454845395199
1966 -0.8580670883043849 -0.3955938155044683 -1.010299176024728 0.5685094569374075 2.6470837480255893 -0.39703463891607416 0.18973991882901717 -2.222964624298097 -1.1252441657115722 0.6100259826724396 1.3981508887211247 1.4167777207097072 0.23775373322726012 1.3445852697453917 0.5095694200540447 0.21013268890370065 0.927678935299137 -1.1425239186006002 1.8580595859168374 -0.30345539640173663 -0.5028857569581007 1.0433876807999656 -1.393694367657824 0.5203303962550277 -0.018034032709478686 -1.9433344117825326 1.6384231917329728 0.1215956483464271 0.48946802493105995 0.4685551297900301 0.020092499514832152 0.2716866409711878
2044 0.876082070937695 0.21253560264791127 0.715991678376624 -0.7835785584806119 -1.5395659458845508 0.5356529668560353 0.4458000031948822 0.4210377462931504 0.20493019624400738 0.20878039212767008 0.2294467012990045 1.1877942959129064 0.03851027884023679 -1.4407480765554985 -0.5524348741046141 -0.3532365732757035 -0.15362284856458877 0.9780827371165611 0.6020121660264207 -0.4437656017204953 0.8064307364211374 -1.5485725360681002 -0.8413402220652618 -1.3952711095620534 0.6105563058343405 0.7992296296706103 -2.379572001231944 1.2473032530508434 -0.8768907915731422 -0.5359230149502143 1.021265282825327 -1.5912431550025061
2045 -1.2132797956409005 1.1110301621434926 -0.884729532635599 -0.4326153109277269 -0.4841109442389396 0.4390435471273848 -0.6392845500687208 -1.049325842618161 1.2457997327005823 0.2297449011609248 0.2175391744472532 1.0356228165232995 -0.7980524573383971 0.1648567098700364 -0.6160232304001595 2.2599807401707905 -0.5613570629045771 1.3373301104875597 1.9557905693372988 0.41092597596384894 0.9917989976591033 0.23247461869116107 -2.449218344656401 -0.6041983598632498 1.601006523256597 0.28272866802125934 -0.5618533118797298 1.4564335926400036 -0.15316155071568893 -0.48594879179986916 1.8953023696059081 0.19248632200589805
2096 0.5603838002585724 0.8444053489585183 -1.4709913789528248 1.317481932794622 0.22241756762489134 0.30231035121921784 -0.8444930925757739 -1.2019681619271 -0.26463941974691574 2.7491015995704005 -1.5068861118662824 1.0868629136893802 -0.1543423406798087 0.0432792813767079 -1.6368916891271652 1.0266091822862429 -0.4612451807763395 -0.5101385681816195 -0.6339216539117148 0.040212371172131556 -0.42474655334633754 1.8174710492876296 0.3722833904490982 1.0446935494726932 -2.1021806826152805 -0.3620315848689109 0.20377076367597355 -1.9449580031973701 0.9039323695943141 0.2818218334284029 -0.5273082463342902 0.9011293625206911
2182 0.7400632605143425 0.4192852185738428 0.0808623304014071 -0.15105121338220254 -0.20694104840884323 0.5649264746291659 -1.2444058054577212 -1.1002448085475691 -0.20645347416418283 1.2543445848553134 -0.6717413597119677 0.15842479816667315 -0.41571057818682183 -0.5925306049890255 0.5472740905247574 -0.3854620941280135 -0.3629278723832778 0.5305496761218668 1.039141029646548 -1.766367390063976 -0.0777039615666871 0.3419010063951694 0.8525728376419067 -0.27125759033773894 1.2781089849308114 -1.0079802898465595 -0.7667005655128218 -0.45402681955317997 0.5243734613975375 1.0008566487579347 -0.6511397241932675 0.014407807049315047
2596 -0.30071606791286887 0.02121587880526407 0.12051756830177764 0.9489193833722348 -0.3497207369792198 1.3065788053657854 -0.10949441525073308 -0.9495743911482903 0.7054499742261264 -1.9446567302078714 -1.034813222965891 -0.9469925325103358 1.5321654960208406 1.7458814935676914 -0.4802384118748327 0.019251892653222268 0.19518032240606187 1.5142052664783727 0.5949026573265248 0.4477327592647865 -1.341895528640544 -1.0124318172686828 -0.8238104131937984 -0.7951396803756243 -0.9253102701233404 -0.14414888485735505 -1.4587475705140425 0.12005435169941352 0.04237249803739979 0.2535813127530943 1.6622778556664124 -0.5413672939086489
2611 -0.24860481650651678 0.873390269002285 1.0537829794738003 0.3560234714761953 -0.6328546410896128 1.3969063750095294 -0.19945179797396942 1.2643486206716328 1.083042286423671 0.6909938978228828 0.2336948522553089 1.441844216332488 -0.25712737289341336 0.3247553155751177 0.30410256628869586 0.6471992688673337 -0.5178851703660238 0.33282336856212946 1.154839677101897 1.9232172917472794 0.23211247515749717 1.037101065121244 -0.038022498424547864 -0.5054186709527121 -0.2016944736466017 0.5921524560801631 -2.054407328643177 -0.021393445422490456 -0.5584617404827081 1.6247882982252657 0.9124390598969004 1.7131494020662374
2745 0.11025832597849118 0.06359398316201506 1.3968562443271049 -0.32346140004086626 -0.04657185199041912 0.8040934237679253 -0.5649707598420531 -0.4395147080234315 1.2486025015585274 -0.16551552787063084 0.9366314000368008 -1.4282795301475517 -0.5007560907104622 0.4572423939156891 1.5721264585905514 -0.2893671689584296 -0.4797360939997652 2.9862467525843974 -0.6541044021269177 0.13653969831903423 0.5172282036496404 0.7700614513738687 0.6985595341528114 0.131749738402806 1.0557908596954262 -0.995728522102755 -0.5987569783652982 0.9805981880744161 0.3469943586959838 0.9830905034243496 -0.49801261059041907 2.099916698513785
3055 0.17238336457670794 0.029423065248383264 -0.43340252966333 -0.6594311116986135 -0.9307525566134917 0.3631029375557338 -0.6711299927102379 -0.3050219218955829 1.2764908279791765 1.7810057117111067 -1.1560541350840827 0.3593121875614454 -0.28342960932077527 -0.46121743288252015 0.980536222648638 1.4307561581856825 -0.5426624228668365 -0.6038939473605658 0.21314757162780631 0.17216721434834467 1.7862890277269845 -0.9430764564368112 -0.45513046904624604 -1.3370986751818204 1.5387369485414326 0.32344410930026385 0.31102729363930937 0.39367808103267515 -1.0873192248280679 0.06198982072842401 -1.3870428478695733 -0.45107544644545206
3114 0.25169080901936236 0.5413400492118914 0.4154749367903915 0.5997504306292488 -1.1826345680781218 -0.8803410401728909 -0.09141918545993624 -2.054256189806511 -0.8079517520012313 0.958616730520212 -0.2157492540567261 -1.54977231620627 0.06547964989117924 0.5108737060244554 0.7568177316846493 -0.4379608924143507 -0.3764288277797539 0.15786561199841234 0.7073379274112198 -1.526195489434414 0.4729862558581864 -0.14136035480614748 0.5182599323988416 3.800413529920419 -0.30713424121277844 1.2285683675445511 1.4027991785803173 -0.3448699473575424 0.6896762094462724 0.28085703936885364 0.7583984347031866 0.7543497244948152
3118 -1.2292817466619013 0.5713961116477271 0.5748980980352114 -0.30011824192587677 0.21063681558414357 1.314056969793845 -0.5718649230565437 1.0051237028113422 0.16082930162990192 0.8425010458658558 -0.7087018009028777 0.4582539810946277 0.4986477221118634 1.3483593635634745 -1.1290246944213793 -1.3064995248749933 0.332217362338726 0.42581065112522065 0.49128387506935434 -1.6262928982910039 1.315239622505242 1.0575613022231265 0.4256540380204622 0.08623658985095442 0.21417968424189832 0.42993534441354087 0.32197918221855304 0.7411482371038836 0.9495527157176555 1.2120711569733502 -1.0104792131387617 -0.1597229367157356
3244 1.7549622404062222 1.1386499994190686 -0.915904106475805 0.6558073936239164 -0.5493536233895172 0.6244275628000365 0.1983264663440868 0.969041752623586 -1.573126847646996 0.45114020888597434 -1.7994700941987742 1.7526964870484603 0.47653080845294793 -1.0215654305532236 1.4380396430745688 -0.41052271426457565 0.3862481737218367 -0.278138972847043 -0.5864419023765016 0.6030432979999039 1.234808985594469 -0.4114296980047764 -1.4525371763843764 -0.7625403131126581 -0.07134054666748392 0.6042107085418538 -1.160205338755332 -0.9172244913215211 0.4800169043678593 1.1020525033481468 1.1203125963510419 -0.30432853317397035
3408 0.6826885823076446 -0.6787393962604628 -0.6941560095582862 1.1189039896659063 1.0324217602555534 0.2811066275032494 0.6875072079582014 0.7600889368880217 0.3432660711583342 0.48248714709264684 0.4691727870020929 0.1270866036167089 -1.2095265635301455 1.9672832011531494 -1.7108203916356848 0.3831064246761065 0.6869239437304715 0.6765925245326377 0.28630054739619826 -0.0806051880444083 0.03550463316139474 -1.3783982501090808 0.6475475166606607 1.8375403174927807 -0.7003159904165914 -0.8094060460787186 -0.09865088810322412 0.3845407195585095 -0.8332041050830276 2.1419660169590893 0.6914014388915378 1.3372378777845018
3722 1.7095337185977613 -1.4234821666945092 0.4948408035852479 0.039283076936123845 1.8272888060107242 0.1966227523459498 -0.19686984531356436 0.09103538532280725 0.5438988316571243 -0.3849868422101756 0.14105428972119138 -0.5388125271614943 -0.15357444770784592 -0.8339267640375029 0.4082579330451085 -0.18633730294198553 -1.7558438914020937 -0.050756121045673085 1.012451217959632 0.8921762470088341 -0.066878155388879 2.051982511339144 -0.510676346448666 -1.49911459246289 0.45308257855675893 0.06503327528701106 1.9168521999167272 -0.1367669482257687 -0.9858955379721869 -0.6643374964478583 -0.8280896859382325 0.4033339448327674
3850 0.6692462124489471 1.4841763744953889 0.045492149349781234 -0.527379151314312 -0.16269693286909628 -1.2847644241831648 0.2189835659250035 1.474028865821534 0.06524325446264638 -0.7905008353000353 -1.9682555524263654 0.1935750615113625 0.5683430914788572 -1.4945479694097183 -0.6466348979423876 1.142251371794129 -1.7903347717503333 -0.730890531267278 -1.1925315056350814 -0.04170640607179875 0.3244790890059356 -0.21531541606316354 0.5605800500822911 -0.8238550760450374 -0.6282613967711228 -0.0844811799916093 -1.1693519146964648 0.16475046634371826 -0.8532294391178791 1.0438400538155528 1.7066585718442235 0.33218076695152005
89 -1.236646129814817 -1.0862352210833612 -0.30773012346577244 -0.42318042133613265 1.047244698311601 1.428343824628744 0.9865127474103685 0.8783165071539822 0.700173567562971 1.2871932646345623 -0.4692684048618588 0.6794711419874152 -0.8364304229003267 0.6142259439723345 -0.3733253521979074 -1.0252942842095 1.029536291156076 -0.5238501110965327 -0.26110683942143825 -0.7177629846047996 -0.22257864692670845 -0.5507126352597768 1.8771981042276946 -1.5209945638460536 0.8513078399570273 0.28303809338920183 -0.3898198970953524 -0.6073413062478767 -0.5879437945433825 0.1527019187283625 -0.21018614823991147 -0.5713821876891275
403 -0.20699841702453026 0.3352655586513598 -0.5046450584555234 -0.7378540446630034 -1.297031816308084 -1.4681110268583057 0.3708025201772638 0.12766232780863904 -1.1191225049256002 -1.3098400034818007 -1.8963396484705761 0.7000546789601524 0.3298383849509741 -0.11821413888218525 -0.41191641965181447 0.5679051743818835 0.004078871199556563 -1.1628447494223573 -0.3265763317015663 -0.8864118629782044 -1.2756871334444462 -0.941846347751512 1.7293880232894245 0.17003247932422988 0.04868725235359432 -0.1608316441777538 -0.8479734873009748 0.48001073099330177 -1.458520724921217 0.34131658792936037 -0.6073284165230008 0.017137125457347347
424 -1.0445633489780228 -0.485507110118303 -1.8514568708552177 0.20547520525787188 1.2894482252373647 1.9483872760602972 -1.2699665395453141 -1.021449887053477 -1.6558377608245223 0.505526608285541 1.0181216550573802 0.8554442981774654 1.1752781543220416 -2.0621953660814185 0.9254259951687983 2.353353912890302 0.7361592284462461 2.5238896365057206 -1.132122753015846 0.43947169961945654 -0.5078856084697456 0.03575447223630469 0.9359449816710615 -0.0918281951767002 -0.6173981141558846 0.7211832157627039 0.5404235237256789 1.192209130320388 -0.4686199774288996 -1.3623538805440194 0.06805046530867784 -1.1603968587329512
584 -0.15255781780048694 1.6992349581375754 0.10480263671244576 -0.6356030118196317 0.012642554893686118 -1.2107147236169549 -1.8489674480903984 0.13780475747296486 -1.6647734593462216 -1.2732618315265691 0.8970872641836819 0.20042668620951085 -0.5059122568870307 -0.1854357976303715 0.08936011255128865 0.30041624005918577 -0.050255631065937265 -0.7172526413504275 0.4263954335587197 -0.7341711136736484 -0.5942613920525671 1.6227574388455825 -0.5496285748319856 -0.9956663733612569 0.5797620529987242 0.6598318118532772 -0.04183015478365469 -0.3250218578184664 -0.04117112234374059 0.011698600808345831 0.06032259092770714 0.7257490097837794
806 0.3348148825685829 -0.21982798934101921 0.7682885136704742 -0.991194190115995 1.097358970846721 0.8618943505629256 -1.0105855396977206 -0.5298535017812649 0.18306649529142094 -0.4156008191872303 -0.2668843605990181 0.3263933036401386 -2.4492010123131878 -0.9116984371202855 2.1350648520559417 0.007229046400187962 0.30071167019222955 1.6872343884357133 -0.3771339555484783 -1.5599239160658467 0.11523853155513343 0.17565436409287694 -2.1569273934037234 -0.3186002981194824 -0.5976332320177743 0.8025092055698593 0.2602804312857531 -0.5118729179286573 -0.2454655950367801 -0.6596644032223338 -1.044627924576506 -0.18730946884720856
1015 -0.7083538793249599 -1.170544700367378 -0.24122382746265986 -0.8630919828643302 0.00021098694181699817 0.4820607708882661 1.5269399424366459 0.612164413207262 -1.299113258233748 0.5943093178952897 2.4675173507568484 -0.23020933616017153 -0.7116055063309927 1.888350738180342 0.1906728672963181 0.544064584254854 -0.11496792991974597 0.8131001136106637 0.5571226696245869 -0.5537583296638254 -0.43755219662117845 -1.3636590999042 0.2619649412146384 -0.3598369778340493 0.8547251148057707 0.305347879447187 -0.30705818778918564 -0.2537966101908233 -0.02947437878691698 -0.0011201661993428178 -0.6482377890175185 -0.8060264944670013
1120 1.4917413694916086 0.7148195486689851 -1.2000478803261365 -0.23519543687016378 0.052983620620109265 -0.05686464745810462 0.6299391915943244 0.21818346693432053 0.6582372653871816 0.7069537884739414 0.4650312700478008 0.31288343433168175 -1.5747848742732335 0.5769762593675576 0.7432204104520901 -0.5630674058982713 1.2743086907206007 -0.39698611908739767 -0.0752541140622412 0.6182037676022839 -1.4484643617016593 0.16410877363249735 -0.7303806122257832 -1.331255446881642 -1.2359635613808668 -0.9682097538302957 0.44768005442176945 -1.7456106063869903 0.3121127854593339 1.3016195365952452 -1.1074224285175867 -1.548062062336921
1206 0.2274941737152647 -1.048254839319565 0.4615990095571318 -1.4701848244322748 0.036048509813187475 0.6804939214235227 0.5052126814106244 -0.013969037456954787 -0.09617469973754231 -1.619051591970395 -0.2639475994408349 -0.7692203439602392 -0.993372622194101 0.1727583472719376 0.9994053559446346 2.143163030151538 0.12069134764287258 -1.3131554816546862 0.678230539505781 1.1775335066694677 0.23794101848665145 0.06698180493650849 -1.085873123210776 -0.19794076330035196 0.4891301505944243 -1.6226280547938396 0.4702174059452128 -2.4061178384866273 1.021045242480843 -0.13736601508776913 -2.396918954266385 0.7625427125630643
1367 -1.0863488887221562 0.7005043400578906 -0.8583797055748784 -0.09935905888906389 -1.5687720615187797 -1.0413246021557259 0.9267201299856167 -2.3749240896975996 -0.673108798318668 -1.0194244519204188 0.6417216413181988 -1.5854621566050435 -0.2479944255147194 -1.3545191988293266 2.2721135692313967 -0.032311804729344744 0.42840549312948484 0.20222179715470398 1.2975933091607619 -0.04296709300028608 -0.7832811403122562 0.3009235081194277 -0.6007407542434346 0.26700006081025457 1.7916516955047015 0.4822410811221615 1.9168951885307204 -0.9315940624612551 1.1208494704489944 -0.42554368625812367 0.4132979819361399 -1.4736366259260345
1745 0.24871736896977403 1.4374328457143979 -0.20345574133518682 -0.1940601993457283 0.6972986481137622 -0.9411559297883272 0.2142578188595429 -0.8423195286682211 0.8498995897668533 0.0788526310538032 -0.575558181213144 0.47703725425381055 -0.4337905388609752 0.12083997307938536 -0.5472474885212963 0.4497245272898865 -1.0004395867766018 -1.136106825119916 0.9476877533900826 -0.599199950006509 0.8313901470932702 0.7047406722386246 1.3500594337770966 -0.2526874177883664 -0.1391400117527101 -0.7700123970267969 1.1167858076545476 0.16260938142264966 0.33271259263498976 -0.03237732169060807 -0.10432714752925865 -0.16957268350169755
2184 -0.2018786122647315 0.7640546160643126 0.4942677818203359 -0.7961310175730586 -2.062426022099087 1.9898557143863864 -1.1203836752665395 0.7058545284958688 0.29942414547755564 -0.08196018494716296 0.6463769132258536 -0.15074954536498306 -0.0895319910296591 1.1324264015319716 -0.8223183524876416 -0.05580461262417921 -0.3195371104915473 0.7080909473409761 0.41477963684431685 -1.2944662183458666 0.4252310544563215 -1.2931531778541465 1.3474979240370708 0.5542338219962466 0.5114356614681766 -1.4300812103382836 0.7762784458263435 0.4422940243589562 0.7300333586007947 0.4955373948736643 -0.09179148115892578 2.0458104362200626
2391 1.3531293381098008 0.08328345290046497 -0.42014234147576285 -1.7972730685282605 1.5233467746095437 0.9902515434526081 -0.0021474008040872636 0.49794709668367876 0.5572571752482053 -0.7805971743062771 -0.8941688229253106 -0.2968677747520678 0.811729115965212 0.9959491867229407 -0.5206338922478669 0.6265159392399196 0.8249216599042511 -1.1336058798150626 -2.5521571994299745 0.6838026467159047 -0.11699547462337957 0.11168028263063554 0.9208180488794995 -0.40980847989764096 1.087941515302847 0.6566995938654042 0.5810295632731913 0.9516980627755454 -0.383901321407443 1.3047771291215078 0.19527056854048883 0.3794691413864329
2514 -0.051758888610863564 0.6775251180263674 0.2559788037451404 -0.6266420765013233 2.6565611487628202 1.291324057049628 -0.06608549863049445 -0.4639971541649775 -0.9166689873721431 1.347770239598781 0.36536394229203695 1.019954221865348 0.44665072432210334 -0.04944603025794496 -1.30140262498751 0.6169358014091297 -0.5358442457568007 0.764125655937779 -1.2560421640445545 1.251651462711753 -0.13636804430362007 -0.9999388420089415 0.34302172950697524 0.2635278634712231 -0.36278262330706273 -1.492359040524429 0.17117280591767467 1.8903840896734747 -0.34258084734074745 0.22837005905839275 -0.20876242383036514 0.30386320340582534
2706 -1.7940459493200007 -1.1809821129713238 -0.29748250567114853 -1.1786152626318847 -0.7099128244149505 2.156473339651786 -1.7668298611600386 0.0033778116986152525 -0.5592807061037666 0.846522072071795 0.5797692217609849 -0.4501233325558794 1.5152190068109872 -1.2855503322383137 -0.3164532084725409 -1.8376935775053378 -0.10595312703075357 0.09205442696212753 -1.634244727503331 -0.49462601256044414 -0.7227139638201726 0.9667994854103357 1.9098823136431162 -0.053230860848863575 -1.3429444041150373 -0.6740689445529394 -0.034304487405492363 0.5584740370821979 0.9159097589277585 -0.8751567341033601 0.8797419715593818 -1.0030770890665992
2784 -0.9443471532276616 0.3746666406620259 0.11570012884919949 -0.42694240929018956 -0.5466111928720329 -0.31668225943609174 1.0643630873277654 1.4078539728082222 -0.6159739362635864 0.4320674126893911 -1.2285437710021785 1.701389924677845 0.3426661960700738 0.3412800811157708 0.24451135313185007 -1.4075874837713223 0.9532263433297165 -0.27627067002839506 0.2020380305109356 -1.2026750117610396 -1.4430965578165638 -1.1418526850370574 0.08586633039339378 -0.5494369552098823 1.0831237365985817 -0.5802644638894919 -0.6678801513646532 0.3043581381629229 -0.12211294770588482 0.039790787879056856 -0.30839229827923187 0.6508084400414336
3133 0.5185529597515726 0.45835666318046864 -0.9981004377847609 0.469167123210063 -0.24201148878487758 -0.79671048532845 0.8025618110032159 0.20178994716145104 -1.150041185055021 -0.9852990289111337 1.2384847907044547 0.7126444348627798 -1.6107689529633273 0.14172828776318505 0.2854332588810532 0.68585714446354 0.6438727468341524 1.4761919157996886 0.6335390132048111 -0.2719228027194299 -0.7101845115846912 -0.15569546330198925 0.8182195562433446 -0.3016873113622541 -0.06933013899515311 -0.2526565234976744 -0.8368585472952518 -0.5651137892789873 -0.8510702054488587 0.9389508259197087 0.8860329674748664 1.917839663346081
3401 -1.4568638286032904 -0.8562767861853968 0.4151996793225726 0.09616626535703757 1.0889890570307155 0.051530554502996415 -1.143598064055393 -1.2490823738490455 -0.3673931251280113 0.862186108485949 0.3861482925175573 0.5763920589425582 0.5339640668525246 0.03047914690792116 -0.5378173765295395 0.27957121460519 0.19043602707515805 -0.4446939966847564 0.34505689269982787 1.5788082499972595 -0.22823882097099982 0.18832833768868332 0.4046592049694279 -0.9698341664719109 0.30149435328727325 3.1227417365997003 -1.2226984829304641 -0.690798555708394 -1.4914541168415965 -0.8666436516402356 1.2688793886412635 -0.4078102137893939
3534 1.3766520932052924 -0.7933359855493585 -0.0958321131608125 -0.8549377952373242 1.0691003256573524 -0.937787885242356 0.6158630824203802 0.1096568825783355 -0.05598098922961254 0.45691864174820374 -0.5640836789411439 -0.857016241698698 -0.8052897143908146 1.0216914498385188 0.574907655375388 2.175839725882064 -0.07865527277134923 -0.6886913360573321 -1.7279721209288152 0.46453311060755037 0.07286029487266331 0.6708236115681917 -0.16045802380364732 1.2086514218292477 -0.5235952354592477 -0.1488686936779108 0.07626158924364114 0.48219302155544486 0.5755431337371877 1.9844214638611253 -0.6067432416014747 -1.2135224830802183
3565 0.18735308562154326 -0.037896898062961634 0.9657607693501989 1.8984134794719667 -1.195258890424829 -0.23375797863738393 -1.1000943526970808 -1.873003387303576 -0.043060305455438694 1.1374153058632153 0.7460880757601301 -0.20295935806228962 0.40987551707853653 -0.8116678245851489 0.346567254888332 0.8536445375602597 0.029743506713047204 1.4175961178823315 -1.206147943328472 0.5908562755861999 0.01830582203786231 0.4125852290252413 -0.19529674165942318 -0.23914723116812273 1.0690412819925001 -1.788304700318431 -0.8747921184942823 -1.4689788716306547 -0.6229667181723214 0.7076127284682688 -1.8966287013029226 -0.8384489422391712
3685 0.1396510676506557 -0.9125256891185962 -0.6405252504649004 -0.3321325767955905 0.07882197493375946 0.35269143538940945 1.1590616606350996 -0.018493764836714874 -0.6220191805894771 0.872044145301258 -0.347874007404246 1.3421820374590814 0.12063381462591617 0.42162908229554696 -0.21089629071111182 1.0186054058843212 0.8416081918342286 -0.645971438272176 1.1339252349526316 1.2112825493528272 0.14694763424196583 0.4355886302952709 -1.6529393372496664 1.7853988592866956 1.2783065157035491 0.7474903717268683 -0.03877043397106952 0.25404460407838636 -0.4213902792786178 0.42200072515162407 -1.7367376460689647 -1.2214940998834534
3727 0.54529639154762 -0.9227959684092967 0.7259423235792783 0.6848727480437329 1.0775448519810698 -0.46220626092810463 -0.4069385001290704 -0.7489778644162693 1.4085928690477978 0.5069921552689233 -0.33114625980975415 0.21191515913412257 -0.9437811680403384 -1.9813482662492379 0.1957348194914626 -1.0927851191766758 0.7334611280178049 1.3313279758317764 1.1755298597180655 -0.8819316385206567 0.5090160804269865 0.9669882029605124 -0.39818564519608984 0.0466829063476442 -1.1114792210371611 -1.5643214183286003 0.5459789258095727 -0.46928741310854805 -0.11761459469347782 1.906242056450764 -0.6111856379351304 0.15716020581525114
3758 0.5476844155776518 -0.7246288426384542 -0.12393455874641772 -0.0998204032119658 0.02328340962652314 -0.20864481458525314 0.44496228235617125 0.9588135900844367 0.5657995133207304 -0.6829126294410921 -1.712967297113453 -0.0331414550422802 1.530969147212393 -0.3352478833581173 -0.2994630785475877 -0.31806402060582967 0.471907327626 -1.1971971975785078 0.8185776568826785 -0.39276445760435114 1.0215482715246227 1.6714391157989892 0.03660418236817471 -0.10340603270295412 -1.312448972612929 -1.745572244042141 -0.21534231301300735 -0.6232016859884211 0.34021297343551044 0.32860791761080743 -0.2221750351481369 -0.34972504550272515
1096 0.9790610935991236 -2.260757570732773 -0.07532510623281224 1.0675436655343002 -1.5248500517651482 0.0502233969900257 -0.307386671020936 0.14892860682338968 -0.6103023630422925 0.036668456190642004 -0.7654202990553969 0.13516245898976637 -0.8259805527205316 1.6786622559214723 -0.89838012891327 0.333119121994422 -0.26589174771414764 -0.7575668567100431 -0.5714969388136357 0.7695403083109462 0.5275950097466977 -0.03125728822948125 0.057942912112157435 -0.5194930644047095 0.024066981331865862 1.7230415080511727 -0.7417747812541811 0.5863368758197325 -1.0614394402122471 0.08683150848840611 0.656900509768034 1.6540065603536978
2101 0.6802047832919929 -1.088909179670501 -0.4175767639686188 -1.4642738755951483 1.0135840240612044 0.05818047402978431 0.58225367220575 -0.8968371494658337 -0.2979309310744499 -0.11510663478479459 0.10667462675864316 0.923130575661215 -0.7394825483143438 -0.45577802896214104 -1.34057801105699 -0.8286687182759496 -2.8755621360004313 -1.8333698725472136 0.7752220460939697 -0.7436857765490678 0.6145130477963454 -0.5335405887019308 0.30518795407129184 0.65393451118209 -1.0064364103786634 0.13355501459683647 0.23651033482430936 -0.6483303375034088 1.855705843724575 -0.5733416163426029 0.29225716283510295 -2.185313377633043
79 -1.5097988176293327 0.9058560585117732 0.9509794941384656 -0.8969157224740841 0.32912819051401876 -0.6196874122002015 0.9173510315081931 -0.15060758579730868 -0.5894178855347362 -0.2582901127932408 0.7053596654737088 0.12094174801328286 -0.07240741884541847 0.4554910192965996 -0.8592055830229239 0.7617633875254255 -0.7513075361901863 0.5919584371040069 -1.4430653197893233 2.0763529420536533 0.8030345416689926 0.8081311790265784 -0.6296571617549405 -1.2477468830864478 0.2974707484851095 -1.3547618465102496 0.012624832947322293 1.5788767212191612 0.8303800621440424 -0.5037532382216462 0.00939836134761967 -0.8862752119492404
3 1.6155983927983264 0.7835065400553748 -0.316358128327605 0.18924126577290998 0.47860037111599085 0.951300259859477 -0.7236942049411157 1.357529773455567 0.08556273531686918 0.47621427209443323 -1.977094922793437 -0.5581325106626845 -0.33008416776892086 -1.2031527657100562 -2.0208081771920363 0.16198587946061244 1.132772104428736 -0.7834892047170233 0.8908396752472533 -0.17979009051037073 -0.3587096639491071 0.20180061606916574 -2.148095071320598 -1.0125700413534626 1.5384723304640922 -1.2602488704709802 0.3493053444052527 -1.152854826882467 -0.09991047754566562 -0.05176732067294692 0.8058222307962951 -0.07596530837113168
460 0.6237983053396403 -0.2711054941540442 1.5051236293629398 0.013672177902969438 -0.23283236578322808 -0.224890706891722 -0.673042531649601 0.5221814290968411 -0.45985445852518286 0.6512054353244912 0.0047214652516730845 0.6554947048879414 0.6734984854325501 1.1034105674548778 -1.4708924975787716 0.12313906991995142 0.10548804535280716 0.7181112739841282 -0.9308005200031123 -0.6079899267984094 -0.2845804778098461 1.3499125539031862 -1.1974850705390996 0.8435059859421024 0.7717594501685868 1.3380143583538273 -0.9821140986400211 1.2411969611152214 -1.5414125485300652 -1.5648285636868526 1.5236650180742504 -1.0093617071910503
541 0.11634972080624839 -0.7972061664460579 0.9134387176109283 1.0645006548561 -0.3262320724938712 0.21545703846157616 0.4319289152823756 0.07607767307207866 -1.2960341722054258 -1.9117405431934182 1.519607396041559 -1.0900671222838256 0.33165709367317786 1.435412209563551 0.17613386534043707 -0.7993771323218408 2.4740410285500856 0.10559133511704859 0.1468700660522075 -0.09331444584824863 1.0977530374560374 1.0454302934814295 0.28157835099123474 -0.17249534745664533 -1.0313760764985107 -2.0574258948320625 1.0283312123945243 -0.6004807510201949 0.88743546790965 1.2787484536496703 0.6714147268658166 -0.8328082954588268
736 -0.39366063467667106 1.1770874992454752 -0.9102304262413635 -1.5383050832717797 1.289703229321186 -0.4499800229667425 0.3234296994231518 1.1510998154653829 0.5913821749562367 -1.039098128716194 -1.2674426305509408 -1.4160352703517602 0.7442936243847899 -0.17485589982866984 -1.0905434942671575 -1.4968392141082614 -0.9600273754340605 -0.25488931558029554 -0.27326704360954945 -0.07250116251787186 -0.40058687760300543 -0.4172703478270788 -0.635087754971433 -0.6995415510782561 1.0364830547115076 0.3259773105288098 0.5017611200979581 0.5527656583689191 0.12145195560214518 0.18306031619926122 0.42923486322837373 0.5524412078915798
1117 1.1728017463663991 -0.7662518250318294 1.0546235190619588 0.8831811482494482 0.5323078101628032 -1.475221771392132 -1.548816728189838 -0.9735662439649959 2.3984333408186607 -0.11528660667586839 -0.67464645595891 -0.01313990535520571 -1.1648234920391216 -0.004852498105453067 -0.5298196153883424 0.4282784255774035 0.4276688012592255 -1.5178325241479202 1.6014886841659786 -0.5120464003538826 -0.7838942306232418 -0.7718300347889805 0.26201010402748015 -1.1321237733063918 -0.3219652570160089 2.2668426916059268 -1.9991868857864712 0.7482234443095559 0.4269839992953681 1.0078510844406865 -2.9941912664744335 1.963292800478369
1119 -1.9558394062735274 -0.6644691156492225 0.7183714447935149 -0.19328984038887323 -0.2679560300298599 -0.37389005135303255 0.6339824329506147 0.6022929066400368 0.3796239593888931 -0.49804135829074736 1.4861327331220362 -0.012741570993719597 -0.2416039093680139 0.8990347195227484 -0.3371716639897606 -1.7991479465350666 -0.28764255162706537 -1.2027033197543118 0.643218113208843 1.8909656966569162 -0.1994379113172834 0.5814537384383306 1.1853704621831505 -0.04536771343253156 0.5578675687406084 0.17639490443775563 -1.0874488457047071 1.35813413179374 -0.9367230434115686 1.4387962015250269 1.0150249236028392 -0.5815660240267204
1364 -1.1148405674314108 -0.3474150475034075 -0.5431376253187875 -0.38528432804818197 0.5405088211613764 -0.45425182736504965 1.4150683838135676 -0.12711705133693407 -1.1316956213163065 0.6279242488456531 -0.9280368896259618 -1.1329087755635876 0.15933514761092266 -1.3479911904886703 -0.7584994718371443 -0.8215598923293993 0.07564966734869089 0.08022018858760527 0.03644712652137364 0.6938525995256286 -1.127494869791795 -0.6374160533438986 1.3946285919907577 1.6266114166147392 -0.767541779768831 0.6985159576760861 2.059164383569009 -1.726156782310969 0.5144470674571863 0.4563936990751205 -0.029628940346491956 -0.23123480235420324
2010 -0.9436136200227827 0.028738025525800202 0.8641717780887694 -0.8394125588335171 0.3760293910594196 -0.3874168004541351 1.1628199815291116 0.11165226687608447 1.0023066178520645 1.1337147722193308 0.9116203669854605 -2.204355475143486 0.8180217401030041 -0.19013416233147787 1.135322966216731 3.0944502744359133 0.7070556159072188 -1.033237275781336 0.220336205208783 -0.10565414662806685 -0.6238819052957079 -1.0034616111540327 -0.26417138086873826 -1.09358613093871 1.5373852832547845 -0.7421391803022174 0.8188914603388902 -1.0304014278837292 0.7010046956769393 -1.414431762266835 0.6941805099024372 0.09803662381218353
2029 -0.036378794500461754 -1.7827690929210258 -0.06927220103600414 -1.5261802064824077 -1.8920628007263742 -0.6505708576878804 0.08555977620537297 -0.21843749697002635 0.5551827425070162 -0.602018859301716 0.33363353792769307 2.0197368673023988 -0.3329772536809491 -0.16917765282883837 0.3483087234717395 1.3027862408278414 -0.3156848800180348 -1.7718652753622797 -1.4607341801490508 -0.7456421971601364 -0.1153985218693429 -0.050039875478869435 1.3145661437093583 -0.4848753262615543 -1.04224620868951 1.5066501889900856 0.59945553053049 0.12450364822311871 -0.4212483589900567 0.3231968313216245 -1.0606444906210284 1.1357438839293699
2236 0.3404751980064824 -1.1087450590080852 -0.6585277210044654 -0.21333454117999584 3.0120651770703035 -2.044414533044062 1.4980918565334156 0.48763068322738745 -1.2920288641851212 2.79640427714494 -0.8204000068639653 0.4152973934100408 -1.1584724331944474 -1.6246592329686425 1.1047605128351548 -0.805479957516312 0.0763413574755654 1.256796074424521 0.40902189801866934 0.21414961253612547 -0.7323131899307717 0.4433631047131977 -1.1588470375082898 0.9034501404146851 1.3441364563255256 0.29913354053725993 0.16844071235095712 -1.2844092445790622 1.2539233595289738 -0.9978481302371384 -0.49050152743327285 1.239845377335016
3845 -2.1730140920535947 1.5747924807201243 -0.2620924316166994 -1.1821928543839895 1.041223028102932 1.183700006431512 -0.8534872171185395 0.764288148377228 -1.0060855302005538 1.1712676302034304 1.075040724014999 -1.0442161152147118 0.011203266478173858 0.7963454265153622 -0.8864855211882975 -0.7486600058324947 -1.446533187402771 0.47978992892643413 -1.5926527492050364 0.4077101622055084 0.8130887315722785 0.958219315439743 -0.5984835967630625 -1.226119782841173 -1.3577417410013315 0.39368941558673504 0.8532849445228056 1.798640462530094 -1.2457624308763062 0.7521377483612219 -0.5581713414592586 -0.3326544169469768
326 -1.1405615024374678 -0.27771363577007724 0.10789644114250078 0.3873849180927537 -1.0332996241336359 0.9653235904442404 0.020904630714262844 0.11170833777096034 -0.5306700190454373 1.5603799330144028 -0.5036499809893157 -0.3024431642242499 -0.48630982659932953 -0.7967118788734391 -0.7395548381102133 0.11753214976151144 0.7701649936047416 0.3372219105551288 0.4959722013296878 0.9025528399203101 0.2536152904392385 -1.2590058901643861 -0.7063926681315996 -0.34615805840910835 1.2904628769322182 -1.5227319743633407 -1.944461429538762 0.9526748350865412 0.6067760517288322 -0.25358614160829757 0.914827357122549 -0.2984412872962316
973 0.384947254343329 -1.0902321544509983 -0.5281041690889123 0.7281965857484184 1.2328956921824852 -2.534650859645455 -1.4383532303070605 -1.168080252874156 2.021183370453689 -2.3975550336259097 -0.762037164052017 -0.722971355404682 -0.9306517312278609 1.6548872316360326 -0.027333733279445202 -0.19423001379699062 -0.7594682666272187 2.35205909863304 1.2676634137168084 0.8471887402023371 1.1331261821160519 0.49119179289400705 1.8138263770933478 -1.4231121105520093 -0.7684835373221169 -0.558901637011592 0.03528695724263746 0.5025160826786567 -0.6930697451807117 0.6077043905393913 0.05654895617947774 0.3137502359798801
2232 -0.5828964175239524 0.7955338719156462 0.15753704330682503 1.7384482027615666 0.02515509382437465 -0.19211857253508607 0.9983670410428073 -1.1487367064699567 -0.18084138640738334 -0.729272411615355 0.5333301790864455 -0.024584991309385018 -0.2920055880163378 -1.3057388723624077 2.0486849553630435 -1.0695792951182563 0.009698790620084382 0.5612910952159105 -0.28880531903925577 -0.44155657417313565 -1.060906976930117 0.9735771846519323 -0.7863409107464266 0.6303310523061127 -0.2650709808316421 0.8399564920252667 -1.9827665010691053 -1.8047067654874722 -0.3570730764562825 -0.014236105697886008 -0.10015091240790112 -0.2375539076708341
2517 0.5274122908679089 -1.9612133655283293 -1.081860658828651 0.1659483694911411 0.19545746840004408 -2.5926228481802536 -0.15038080600193757 0.9616191816191997 -1.1722399237162304 -0.8150061433118314 -0.7616302565520593 2.1180222957905994 0.3580756602068876 0.002503793453803835 -0.3540214478151701 -1.408944643903502 1.1980269294805432 1.1976255562598856 0.16336827826223846 -0.26338130503911844 -0.9007839043436654 -1.7369017017156536 -1.9151111071846347 -0.045160164876462315 -1.5711808911738472 -1.6980462709892705 0.00881352574211769 0.060819883279603006 -0.4126393462059209 -1.406925827897117 -0.8381717660792716 0.34173963612003266
2578 0.3384039330409764 0.3696069778470392 0.8303386925559411 -0.17030811475641172 0.6400370604754559 0.4934373446865043 0.7753174022226346 0.43637202962142885 1.75952901726963 0.6985987242505793 1.2508915138639125 -0.2527413094295486 1.4011889963299302 -0.8009046404328748 1.8066867172526175 0.782983275999733 -0.2868903946568417 1.3098515401740727 -1.949110365464402 0.8330399422937634 -1.2650192503679545 1.1093995561036503 0.8464145479579113 -2.130573809864991 -0.2813361456924585 -0.8119213184573129 -1.2860732209880243 0.2079604536937289 2.3811221083222476 1.1605404259708227 -0.6826802813342466 0.02663890194622203
24 -0.6868837376510972 -0.21681952349133862 0.6672533393024237 0.8753185216979683 0.290023734564215 0.2189763219804874 1.259165257898404 1.4740078262359704 -0.7918091049397722 -0.5480590380832573 0.420919910920653 -1.8400901454554188 0.6093270237858215 -0.7609331964661659 -0.3591256765765254 -0.7833524655718083 -1.200298924968306 -0.38463481759427737 1.784804169392685 -0.3615528290330516 -0.102925326861989 -1.6858129287100136 -0.5577023478984012 0.0013503838862083653 -0.6152147979506126 -0.3263481769949371 -0.4466616561237421 -1.126054024500428 -0.7915721434537916 -0.11760181133445281 -0.4694013372895357 0.4766831324151973
228 -0.5789844697915952 -0.9040982918541116 0.36868219088696114 -0.3870881315153406 -0.2498974899177968 -0.1075181581918753 2.169743198040088 0.718762157625956 -0.6608393587099738 -1.3150921691092001 1.21673677778441 -2.7517476136920833 -0.10379120384336356 -0.5217386573773889 -1.9292617253411184 0.40553594455340636 -0.4262336371267749 1.3144172863458559 0.3544180443850501 0.747330207867736 -1.9669939802944059 -0.5568312628632378 -1.0568318806338546 -1.3645052867239758 -0.6836795924979338 0.4865219487397024 0.4391031000413579 1.9905131981945388 0.7257605627006856 -1.9117517946347076 -0.46423405933291645 0.9505947834714792
409 1.0350215286371014 -0.08227303058853794 0.4143315473108453 1.2921239688195632 -0.06634125186344755 1.037374720205777 0.4009279733943121 -0.6150168325314602 1.141188911751336 0.770535641050984 -1.5403726730463683 0.40661137589875035 0.671836804677686 -0.3179922984824518 -0.39488850308342444 -0.5400336916023619 1.817176820345853 0.13046242170051014 0.6092261660199663 0.2768113750986831 1.9171990591712629 -0.3359427790637749 1.0907365370056137 -2.0162673172058003 0.9343121252275046 0.990465886319958 -0.8842604798750382 -0.15370161462087484 0.39059809163326026 0.08631260003498148 -2.0693988365663314 -2.670897485759654
558 -2.2302849989264253 -0.9461337128723621 1.2021676107133488 1.748096138152017 0.736763516326152 -0.8881875039826206 0.41401013203080184 1.5926646518537693 0.016111899538888273 1.6247071199252423 -0.4728897015262559 -0.59343811848294 -0.23473158480337342 0.4808865939042614 1.708621132052215 0.16058762544916047 1.6010387438122802 -1.5153379611077646 -1.5848699390463696 1.4552077087835837 -0.7651233753421097 0.07690287433394143 -0.2610669556644849 0.059364622754921215 0.9280673777393068 0.48198939245858957 -0.57933946781323 0.08674556921779689 -0.7492443758544777 -0.39376260884183345 0.5965497957864623 0.9351378645373691
732 1.5898584390535335 -0.4663288316865469 0.1510600036522131 -1.119828813620667 -0.7363647676723619 0.4146306301354235 -0.6155866795109024 1.189352564331163 -0.0055316542153250525 0.1583224129434391 0.16134539810557558 0.5593163563748045 -0.36642227271353084 0.06919844925509672 0.6108949127775447 1.5859444861096181 -0.9369382886146815 0.9924699386518445 0.8550805637641954 1.7616364628053562 0.8011555037642512 0.8371399071270041 1.2890891930979906 0.14020712919221015 -1.30742084369141 -0.8655321217045805 0.07905942104652719 -1.2177552623902006 -0.81448521673681 -0.6195447894227111 0.410594926387383 -1.2067015910480918
776 1.4342036696118516 1.3276068008277429 -0.38240220393641916 0.26363532046138033 1.8549925306298356 0.6907532486191099 0.21441673799840086 1.0484289122832644 -1.5775940603352943 -0.2636584856877415 -0.6225186277958098 -0.003427410747614562 -0.6574654891314161 -0.8594978346068107 -1.4528759626633003 0.2906985858779818 -0.08411670178283674 0.7044594402293316 2.525381064989214 -1.7211724334359773 0.5159185028521642 -1.401589616190615 -1.3589937586707392 0.13805231257692052 0.0454263892071593 0.46195680139529854 0.3300400356669324 -2.209104636643509 -1.5844831971655067 1.1271122493397814 0.7646348190838002 0.1397127757738295
864 0.4184959503658176 0.15825284815608173 0.4278855025388483 0.49127531611220626 1.4142969304719983 -0.6299157133881523 0.3604112426856629 1.0882083598706265 -1.2682508845634688 1.3319597655223392 -1.4215660371877814 0.12805702961100812 0.0697439916847369 1.329784280446404 -0.4927901702681767 2.220663407757023 -0.9671539970988856 -0.15420361081444145 -1.3180844817004436 0.9441925313529864 1.7111100593026327 0.9191164223891476 0.8616684323060134 0.2686436801251796 -0.6835876207096976 2.412718006655603 0.9219773250560123 -1.3255684492661988 -1.377149385684122 1.028026153629273 -0.8633342565899785 0.20993214763610235
933 -0.9515421187961423 1.2991149560004627 -0.16869222784361912 0.22499619610205893 1.8362229717219423 -1.482556447288835 0.1482807321654857 0.24021219382885864 1.2321253469518796 -0.18930453270139724 -0.8423468325085409 -1.1571558359931327 1.4716220685745482 0.10264317994121754 -0.1402924319600373 1.1912032626515068 0.2675319360861574 -0.2218424628778717 -0.11563984928446616 -0.7962832779596243 1.3595796422668645 0.38169033926521556 1.1107938061399742 0.5134817875270898 -1.6491504975185771 1.4750032421928785 1.0361450982889773 2.4253695299321363 0.002521025315230531 0.06747268309466019 0.5494416771093327 0.4183299330530656
939 -0.4170828748517314 0.3086283282103374 0.8868528553348428 0.43851462770483773 -2.021226725501449 -1.0775834649086242 -0.19089117971968608 -0.26157062570164485 -1.0157323296905019 -0.4932527671597857 -1.292848215748642 -0.23436942055176385 -0.576521799332061 0.2246791464037701 2.2285665048351206 -0.09123786454896088 0.09714493996596674 0.308648963181391 1.6688317242879838 1.6599146037407935 -0.29127913347820134 -1.4694501056558116 -1.1620517074937875 -0.9621936826545857 -1.056149385554061 -2.4071014035932308 -0.21671850164768167 0.07407770226502317 -0.9670383533765732 1.38607312261986 -1.1715285372142965 0.3093709632726566
1037 -0.7563533525831855 -0.10778192315785125 1.3024280538262256 0.9243571933667571 -0.7195054322969928 1.2446414002825252 -0.0819922893461838 0.7544384427780434 2.112419869877795 -0.29905119095715393 0.2778246574544589 0.033203616287671996 1.5432465671762343 0.5757850766552373 -1.0370167973645341 -2.5081531855260053 -1.5994841484570541 0.261509410871968 -1.7383071091279885 -1.142592752911563 -0.8431857120687771 -0.7911008488243216 1.2768569143064836 -1.0928757292609208 -1.1574629987438085 1.395003727477855 0.8534989340965983 0.008366994302876851 -0.8721065704180947 0.274274517083705 0.45152906390424924 -0.09070369509110494
1092 -1.9191851740118997 -0.8067620053972696 0.06372323507508358 -1.2737267246381516 0.25533430150559594 -1.379695136568739 1.217227719688392 -0.14339362308847126 -0.852085629485187 0.5030387564992138 0.0337980102346128 1.159814563844623 -0.07555486734693134 -0.27881431538088935 0.7892804552668298 0.2634832384153773 3.284586708674638 0.17295109392488395 -0.3394946937416939 0.09522615503948247 1.659497576066605 0.9059609507550809 -0.23329265754890913 -1.044039939484171 1.3716874751763288 0.0379518530974138 0.3383279120055207 0.013392074524893575 0.3109949084836986 -0.8199930078655377 0.2656773368285146 -0.7190532948365933
1176 -1.1763349256876292 -0.15149621843598693 -1.6456221867318284 -1.0159123423986856 0.4087272623966792 -0.22177327349492829 -0.2253171476569118 -0.6497402268111988 1.2755868672843098 0.42366160453080637 0.27481247622921395 0.5469381866623011 -0.9525288827398452 -0.051367876200474456 -0.6190578571374251 0.27409206672122727 0.08257155156111849 1.0098568261104204 -1.4356231536926451 0.6259152880758679 -0.3721332716175685 1.0201959465730313 -0.32792359087065215 1.274013813790828 0.01901285937224287 0.16740231609144657 0.8540101880906797 -1.0074406998705148 -0.8900221689140904 -0.6874509248604177 -0.10021777794644617 -0.0722045235173945
1313 0.6628573136374953 0.31492800810288046 -0.2381660451682441 1.5682946845212975 -0.12208609312017292 2.3882353940189396 -1.4421885166861017 0.9146238452791481 0.25420956245320536 -1.7408026280212552 1.2455307723721152 -1.1145466552617596 -0.8185793116239903 -1.637981464306575 0.020276638718283342 0.43324116835749343 0.5647289437484176 -1.7978123053731565 -2.6626481075352966 -1.1344810708656712 1.0329831434276697 0.4850287502089323 -0.12791949443781203 -0.6428712336656008 -2.2318094202800363 -0.23563837344743074 -0.36297015998077525 0.41356492498366565 -0.21811226628724742 0.40976808135607307 -1.113629257652443 0.6452787980000608
1478 1.1873938955577055 0.23046065485299758 0.5186491849208553 0.22977858982584948 0.6767129109451369 -0.5954537442670653 0.5363889601723222 0.4899751651087905 -1.1967558132616725 -1.276924677569044 -0.5465260717924456 -0.9174584888503933 0.21621061221797927 0.1896840970229124 -0.6228348111806657 0.6909931592118626 -0.8282382528951289 -0.9854058452038423 0.06336565988831536 -1.307133760225067 -1.8119192852001136 -0.31436211794450325 -0.09772217358505793 -1.25352673103358 -0.9149898798045772 1.3091962647243973 0.7473095168108566 -0.4428010775434413 1.3922854052456621 -0.029944433842042133 -0.2840824797652262 0.7465516933223315
1499 1.910493825482552 -0.6724995844746945 -0.46444552267047234 -0.8165533211919787 -1.0219821735221382 0.29472916473577976 -1.2121808946972186 1.4723911770271099 -0.18712380897678713 1.0229416960082396 0.5424985182657456 1.0993113765843325 -1.269526463839059 -1.9531157559568362 -1.5501554545826381 0.08460495225788639 -0.4584452671812028 -1.5199717367947523 0.3721172211559781 0.17915089430622672 0.6713642647569601 0.7450996959491194 0.11275382168737008 -0.7400955809714074 -0.11858681362802055 0.793838902024597 0.25848430054217414 1.0505009803189098 -0.6039180239825125 -0.8444636506225549 -2.3934273426020423 0.39926610869487295
1596 -0.3954560178353142 -0.13623213555749444 0.78495845501845 1.0280392041807835 1.254872825120569 0.1873088616038136 0.529289710314804 -0.07805416472784686 -1.6294282882248265 -0.10489496225701543 0.3382469206865109 0.19462757619079502 1.7144717456015628 2.542272246448502 1.033268640623108 -1.4838791250517005 -0.39609663676725215 1.948362579204783 0.039659353851798675 0.8745183543052639 -0.10567914302542028 0.46872097999429974 0.10263937476134549 -0.8360164316831907 0.7535872783273088 1.3883913117224218 -0.9255270383617553 -1.2949802007790319 1.4255591465815272 0.6003046603752618 1.4479302427042595 0.02037887839461876
1608 -0.7311926696483946 -0.2240277397668014 2.276835122235622 0.776286570303283 -1.430415273946725 1.5616751747766642 -0.7801396783084485 -0.9834206788768397 1.571277351719394 1.160264562588094 0.10544243301883757 1.1005964163430266 -1.1232647597401448 -0.9268361800619859 0.18782979552326853 -0.7806244281810398 0.2455828004557204 1.3733244521879824 0.41887318018750325 -0.4166688194315582 1.8916009236955256 -1.307609584029939 -1.4356585637578556 -1.1078706073566127 0.7220827339539923 0.7719587798985976 0.32264775075006247 -0.7683854464854112 0.7812506972947404 0.719417860030241 0.2286676319896333 -0.25798801147260964
1621 -0.0011028910314362986 0.5589506942356779 1.5098800422918628 -0.3196766309899793 -1.6067504212804906 -0.9592760825009028 0.37763257952367846 0.32573660967484064 -0.39491689193227175 -0.5788520704966046 0.4822659560473024 -1.0462424705125895 -1.3975886727832574 -0.6625763219389738 -0.8358885275500909 -0.5808771311683384 -0.5430273680830486 -0.19130001841186095 -0.38056111683410315 -0.028805751988793444 -0.3565505049864013 0.2906595438880658 -0.6944566989596762 -0.5565554186678484 -0.13832669063195052 1.0409554093764444 -1.2740944809824357 1.1835952065416346 0.25239849320973745 0.2649558627940928 1.5240594889775725 0.542677725893442
1637 0.6030832796013239 1.792833481562764 1.7422408289236126 -0.04065944383975849 -0.4514288867316911 -0.8131905960414942 0.4338635005177418 0.05041380195474422 -1.6828453704271036 -0.8849088687978433 -1.5711053440539302 1.2264529906442814 0.2031665865772676 1.3063592844847947 -1.110226767049361 0.38699476171905384 0.2701113638981041 0.2673706369268108 -2.7968133404366955 1.7412321492878131 -0.028935066164736626 -1.429433594527652 0.2783520827993873 1.7533096945991453 -0.5125832743014551 0.37384799154958887 -1.287003647149662 -1.9488388102443104 -1.4596906690389366 1.4945504370553142 0.08091540606444704 1.8631881943463733
1717 -0.790315883119583 -2.197299999186574 0.2704110066948295 -0.3750203605053143 1.063947924212325 -0.12402224150463022 0.8882417470230457 -0.4382795032651533 -1.211656254292729 0.3894644247340815 -2.5670503130497164 -0.38436197846643116 -1.2984050927810125 -1.1356392630993204 0.36828396055237445 -1.6665145134576662 0.09511681462580554 -1.6858901464972866 0.7540467937896085 1.2959703858252702 -0.317565164016696 -0.575992899600467 -0.08626193455417075 1.0282448422221044 -2.4898633539190134 0.06718164834897873 0.08524855954923469 -0.29266937126277476 -1.5129083431693622 0.6465325826644427 1.633363477067197 -0.2655137979431864
1788 0.10051252369077146 0.6036949611616743 -0.4960576044194419 -0.3302158945134952 0.437802340873385 1.3473428138152488 1.0719313265182344 -0.5151086216918775 -0.8379253589781778 0.7709003715652722 -0.8301165384949042 -1.8585119972869766 1.8996302509589227 0.3053484756213883 0.25711780727420236 0.8759307199930668 -0.2489261352398968 0.2376921156934663 0.17027105578219487 -1.280409608848016 -0.4731429546541577 -1.8245460321285871 -0.78046668238575 -1.3985961236754718 -1.1268526472336784 0.1363796001124547 0.38333955700301836 0.7115331188758035 0.014619683986557726 0.3596053484216427 -0.6976994879319964 -2.031977999299974
1919 0.18818331142720948 -1.0344541679049908 -1.195546867065431 0.6881786860169776 -1.5071812236100652 1.0571334354136266 0.4590384387149219 -1.312998951097606 2.5737088574040174 0.44575533264019984 0.24167735041848334 0.09735076401596851 -0.9780053771410292 -1.5593484139262714 -0.7295054521287117 -0.7566338755420517 -0.35491166941498586 0.18588261858833793 0.4614605437759484 -0.7592597021656798 -1.212714059707569 0.31192581022998883 1.8639319075039986 0.4760931631920521 0.6218997086168664 1.5937716473205648 1.0102499084103076 0.6253556935969173 -1.4431016979231537 -0.3041816063882067 -0.29122801102074325 -0.4461480723048223
2004 0.4452254499029664 0.6629811637079625 0.43392740210620184 0.0053321479640629265 -0.20030072450005765 0.4556234038136239 -0.9203086389626471 -0.19125703096127097 -0.8609952609427275 0.5366109769064801 0.23482501504189582 -0.3707247571703494 -0.14048162542132625 0.7210974858592396 1.0263402912963822 0.14478112639746374 -0.12215517833189926 -0.11617166771562344 0.47562208645092446 -0.0849678957355947 0.19814261789733553 -0.5970305150177445 0.584198098835637 -1.7878972250239449 0.19627646654272038 -0.6143792010396919 1.379873252295806 -0.10437355686459777 0.4731654866330183 -0.4317015210537857 -0.23891874105384855 -0.599234408311576
