3906 32
729 0.5515275383032064 0.43107643067059565 2.1183926084864706 1.7590384782663109 -2.130157153303061 -0.9866820998604355 -0.5269635712675893 1.5622469393117087 0.0014954662544425397 -0.32624706026063977 -0.47306454395569913 1.504532980243937 -0.8706298338096594 -0.48302261230087057 0.7279881117159083 1.195815352826764 -0.6146665218207585 -0.3007102902552569 -0.7969609646348385 -0.5337104574342665 -0.12031347688563103 -1.0294947404586507 0.2789592340162821 1.0083583558928684 0.9954455058121852 0.2311968677140765 0.33200205158905044 -0.804320051299203 -0.013007906963287222 0.8621028100321935 0.7047991143123804 -0.3727406542301789
1 -0.11950384572609248 1.3291298574095305 0.6215743625318212 0.3926702316609412 0.46691693394561756 0.5989385835684616 0.03698630735142651 -0.34940627353733617 0.8630271596579235 0.8499897393617095 0.04411657264338733 -0.487313551176239 1.5715261627277486 -0.006542678126312303 0.15901064484254548 3.0395885507982765 0.3566908763429605 0.972674904056709 -0.9002586786155812 -1.454833339452077 -0.6813280527715986 0.10110577055783188 0.14320663556576121 1.2191430331764304 1.1476973790628966 -0.4140358451149324 0.34344924617954903 0.33390945829128027 -0.6418636713391185 0.2559708035653702 -0.8685572351160862 1.2920001467770335
335 1.414946296434601 1.3102555019954125 0.49755532231264044 2.028850338612408 -0.6016646580267673 1.1688677882861989 0.9711458407349853 2.4253323107747926 0.5930349081895625 -0.8909394079194484 -0.39955295066958857 0.8453875295780475 -0.02150745118488217 -0.25068936933622116 0.23916671784136054 1.2312809199589794 1.8779202090049636 1.5935132892254917 0.8384414284876679 0.8183624780771244 -0.0459961340315707 0.5451915724506208 -0.39193565392898105 -0.9962132204204861 1.019224366887082 0.634124899341791 0.8082828105477077 1.574287428380081 0.3262862109979248 0.4734408702574101 0.1362951880537265 0.9583516394109616
585 -0.5724173943817127 0.49617020720644806 -1.2098326964797048 0.17666916012235725 1.1387660346657549 -1.328544702772894 0.16890003970756068 -1.7907743445690136 -1.2117652933112073 2.420992875129813 0.07193015524843666 0.8992335746326942 -1.5208957795503122 -0.5423635627232076 -1.3861247765904896 0.4929248239712945 -1.0064977998204356 -1.2791020841783853 1.0139232528109854 0.538557361075057 -1.160173967697905 -0.3553673203870663 0.5836394574151689 1.7582621474998452 -0.1603193365952485 0.9804171122265172 0.25098925604316996 -2.80741242847842 0.05707424939439955 2.639484832673031 0.09963176096548211 -0.3028135498050894
674 -0.6654253519109515 -0.5850692871796672 -0.3628724036134734 0.642484109718317 0.29159388803773 -0.9027460302477484 0.5398963897474494 -0.2253694440435683 -0.48631135653358554 1.0875847483296286 0.22829013530029899 0.6119719013144693 1.1267845722807364 1.7971277891089243 0.10518813593918372 0.46909997316518964 -2.6377270442238525 -0.38321510263709346 -0.46524905193056215 0.6726614103988148 -0.7251235884318611 0.9489965158908802 -0.2035140959377995 1.2557219916444726 0.16878704748952172 2.0791935916934583 -0.8038673378875524 0.5789508218076296 0.15231146533456438 -0.3077868297944791 0.7525392372802895 -0.39569445837127354
3178 -0.9998419232879372 0.01766096875780878 0.5031425776447078 -0.29654039750029604 0.5399371835586886 -1.0059989258054185 0.4481798364109765 -1.782584435926132 0.46250294207794135 -1.2023507116199517 -2.145571601483228 0.3048129173809077 0.3669077058219407 -0.5722050417298641 1.3104870386138328 -0.37977567282994645 1.214194040219061 -0.542994450832179 -1.4451132257339556 -0.1812634484349561 -0.320282732454922 0.2180379063697745 -1.2397732332359794 -0.36039211915347874 0.1332180019589715 -1.941716328933205 2.2186472014159357 0.3638566881658482 0.72953260901426 1.1091086257390759 -0.01861807078788131 0.25370431316118874
3715 0.906825958395494 -1.5795932809428948 -1.9231038014366195 -0.12289502188176304 0.15441896532363986 -1.3696641289287619 2.1111317957121916 -0.8055514371342831 0.6880290748437694 0.7194383260563698 -0.02736972307680942 0.44525688549574677 1.471689556673352 0.3601241666642119 0.9567410510395503 -1.6895971733254118 1.7162242978041484 0.06987526086386352 0.4008553657641293 0.36856703325964674 -0.7083489481039548 1.2302402037207862 1.520201595191942 -0.9732249598255936 0.6494655723748357 -0.939972769019699 -1.499877381093161 1.2139893473931254 1.117875675574845 -1.0455879269601815 0.3819379267256097 0.07241954257804888
50 0.2757167160506927 0.45988782126735733 0.22966801532048814 -0.7566515735834979 -0.790047235655905 -0.6805949146953149 -0.27705590568554267 -0.3556461687351202 -0.3751125631236228 -1.2037706495149796 -0.31322404685603816 -0.3037438907920433 0.9290858990392027 0.47172508720877404 -1.1194984377091672 0.9226012890159268 -0.6529035047617842 0.4724123374278205 0.09956692239342094 1.950574005364418 -1.6726666017745264 0.2970996964736488 0.5820157514617934 0.241174071092785 1.1104107525292026 -0.2389796405299642 0.3534706812942303 1.1195816082620624 -0.5907959308893898 -1.2471082284785582 -1.5243387288549006 1.1236810972562923
193 0.9931792227863131 0.15722171198530094 -1.887552352253131 -0.06617294952243996 -2.4296778830709918 -0.17975119828128194 0.5675754847943354 -0.7204782508831412 -0.7952206260235826 -0.27674916273516337 0.7940684820036609 0.26588135798571527 -0.324804963799809 1.1973732922818106 0.43024060597330654 -0.5625690897924175 -1.0132745317228937 -0.684209446616543 1.9880029778476667 -0.702388024222137 0.7275872118382616 -0.2810089093304296 0.5672585115183374 -1.6021940707908169 0.2579725948777226 -2.3037673972860584 0.8196666326046314 0.6988232002371141 0.16678479816155542 -0.042956667844683064 0.9685360545967128 0.6384370773362849
212 -0.9512237355424698 -1.9016300599919196 -0.22475402722740587 -1.917447716393445 0.9413843183446451 -1.2938554118076304 -1.2668043802544338 -0.05198345095523973 1.0821312258800284 -1.0527086597045379 -0.5086135173021831 -0.2946320978980158 1.3141991110014837 0.0971091540316952 0.05332976275522778 -1.3371766722415024 -1.158380906242978 0.3617492420936271 0.3572760292183812 1.316654832616386 1.2507672434838937 0.00813964282304734 0.043411718319347384 -0.7770630459710645 -0.07356141727059093 1.6510430798295028 0.020992976811348332 -0.8995149783159907 0.27488999864058733 0.334842238886008 -0.19055245850169902 0.4654756288361625
222 0.5349735530528451 0.5015591540103213 1.3368385910900091 0.20199697210172649 0.26071183226729255 0.6711670095982825 -0.11471464888603906 0.12252808038909584 -0.9518323474038319 -1.8122038413849098 -0.3929465862888098 -0.6076899557022599 -0.1007355432677276 -1.0385168583217297 -0.5763878232674684 0.2834864983434184 0.4153551493272089 -0.98622536999732 -0.6312037215032245 0.40984091589012295 1.7972066404656681 0.8864599004644492 -0.5503228052410691 1.236219371253276 -0.676716368438611 -0.8763949168771688 2.4552967533103836 -0.6764429420532116 -1.1676105332967566 1.2194496224669686 -0.5561001370256281 0.6228127791404036
847 0.699179114589029 1.1516642628433427 2.1483755223146344 -1.7816045241294747 0.23172670638325207 0.5829080993756635 1.3123363822535261 -1.2376986439458633 1.5800672184512363 0.3205948246423169 1.3966603683157452 0.5246611400508694 0.13024531116207885 0.8706395780311582 0.245582559298428 1.5656180089177476 1.7007525902593326 0.5420933622740246 -0.0950422660205006 0.16337432966936297 -0.7567254805805629 -0.8776301072903998 1.4531857224041136 -0.18999990367495684 -0.5123072505369012 0.6650883743063605 -0.8905863399988497 0.04842871285728464 -0.17988011199401185 -0.03638070074629945 -0.11360841139377992 0.1917031888453223
924 0.7491447544132456 0.43665837328096546 -0.0168046002747888 0.12469551802382728 -0.24127299234964175 -2.153993093567587 -1.5836110690012037 -1.001202971173141 -0.15461641393668943 0.07266050068557733 1.1675988766439958 0.781021651517912 -1.0972489855790368 0.16308788612582953 0.15409833896280944 -0.2163240578630885 0.003050782692312862 0.49513769264027974 2.7735553459931035 0.7299826930590053 -0.08055374002533679 0.3110298706186447 -0.22782836736189593 0.260857354884307 -0.5408314366564089 -0.6429890966888562 0.30129958239449456 -0.6141649740349527 -0.8257858661358622 0.712938603801702 -0.09341247186427924 -0.10636176082604898
961 -0.7567416469573568 0.03384932055446579 -0.1798599253165171 -1.6147424357715872 1.5273071519455725 0.4383360177965293 0.4363659893810897 -0.08378511387133669 -1.3540284519677446 1.955791831724914 0.6322234051228975 0.4023260528240405 -0.45761685270725155 -0.6084305113580057 -0.9564799399624001 0.7931327583862915 0.5049800836844359 0.5118835005123338 -0.7133901051066223 0.6999279114498086 0.032840178125000376 -2.2985425368708605 -0.6604228331913391 -0.6795204332662719 1.3292526512937668 0.6809459739056324 1.2571454186707274 0.1196463483305834 -1.7767558079645447 -0.16738989457500758 2.092318012270343 0.7328038941760594
995 0.901626118019044 -0.5466838086203653 0.5761648206598443 0.5675113960887544 0.09063374849061241 -1.633110770076605 0.8523502538842092 -0.130719215029255 -0.38943520838277207 -0.7344756449948746 -0.8882283056796217 2.047365161554273 0.6768343251102554 -2.3357786391025455 0.33904624980816755 0.9966512313217061 0.412548053941491 0.6608481133767377 -0.00847368373327861 -0.9725609031659366 -0.8444720463584803 -1.1542980539413588 -0.9244888067899427 1.3762671908673894 -0.10088120107676536 0.017152398262112425 0.6376497750277135 1.4944879383701388 0.040254956772838 -1.3471612073261816 0.1629466260320857 0.4030871620449912
1046 -0.17372552510689035 1.2634024325368889 1.156984165038727 -1.2383540740501482 1.239223089219729 0.08346044706453949 -0.7768738104142943 -0.5058048665592624 -0.5021744433724138 -0.4914385129166662 -1.270467743814312 0.5810214726006985 0.30621131030449755 0.08635271082144275 -0.49382591831810274 0.1610709854273928 -0.12899964142003265 0.29446747039366566 0.7281567758908617 -0.4906059502544441 -0.17669374071587146 0.9806340387675782 0.20965710727193562 0.9879790332119975 -1.1607819319011552 -0.5007162935623397 0.44054787738856416 -0.2865159533412081 -0.29398067151707274 -0.624483812807142 -1.1258674861897209 1.0613016035700333
1142 1.5612803926984369 2.182813132725754 -0.2842003410174182 -0.2551460662370072 -0.4825019359813945 1.1781529767821746 1.1440425201099629 -0.21770287877347094 0.3495240578498136 0.31529940392584427 -0.513385538209665 -0.4942123849371421 -0.3379721470068914 -0.8346063925798415 -0.508857330974872 0.5420333975363111 -0.021276266449887452 -0.1670949426998859 0.24681191997560886 0.9167361483485076 0.8109421754832885 1.492680235883531 -0.6723125026719556 -1.819090994578988 -0.5763956128048464 0.596170319117221 0.6599419855704646 -1.174395212598829 1.9090371530815697 -1.609898603871444 1.219264676052384 -1.0914875953666867
1202 0.38760472507723576 -1.0762819354483368 -0.4369113833502812 0.6316576888630381 2.0096354595243975 1.5108598894610612 2.146144682001961 1.478693651804309 1.2258963651947175 1.3732733814243192 -1.2779962562600116 0.4012712066394498 -0.3809519445806512 -0.6764285933384441 -0.7419940823998458 0.8137645947702614 -0.0906404499409562 -0.8783079361365911 -0.3098432981003588 -1.239266859017983 -0.11049949749434579 -0.3334708167522681 1.139176603433449 1.3113716147409278 -0.1938432597906421 -0.570883343222212 -0.10090082079236004 0.4406771661720821 1.0722331248235493 -0.5794809618564604 0.662985301751636 0.9627168626304687
1236 -0.9408604830583287 -0.23885721573250468 1.5943958120443122 0.7182488199588039 2.031063901133382 -0.39083829518709123 0.38769757781991354 0.027447421484981742 -0.2583280010321781 -0.6003239443710932 -1.2645913691519068 1.6215489590131114 -1.7259623469249077 2.2832458122708754 1.6028073296796428 -2.140581485693269 0.6571855188768619 -0.965616343150321 1.7495162770303623 0.7165832826164727 -1.6778645261073049 -0.4993861355700098 -0.578380815653237 -0.4952526546199161 -0.786324746924978 -0.22317053673917225 -0.7377501008829098 0.12149259405741697 2.25700734274707 0.8652681681316553 0.6958494053147317 0.508002991667847
1294 -0.9248271951237658 1.5296912617711178 -1.9320005083761422 0.6231549259021945 0.18051929569706218 0.9878736843876719 -1.5346320855321007 -0.24130929888711602 -0.8689311633041852 -0.733846318824511 -0.7974738057268279 -0.7811608207231672 -1.5858471038609858 -1.3404680840234189 -0.576933702628712 1.6421961233989868 -1.7495643095674955 1.8558256251752943 0.3706463970563467 -1.315631701230695 0.08874131964627409 -0.6642703973796277 0.5684443782617774 0.4303524451133289 -0.06914412499640542 -1.275688939388381 -1.0415059117043546 1.5282913960335727 1.2505967627372214 -1.0796036645697136 -0.6629953639475012 -0.7971988098528828
1432 -0.8715965159510562 1.2313248652479292 0.08517445303818426 -0.23917430643518695 1.084403795116961 -0.19733599487063663 0.6882866616410162 2.6662452489502937 1.0114984750400084 0.9383542309205952 -0.8083292500684587 -2.114459871353329 -1.8904149938979853 -1.2318442345237963 0.07183789446808386 -1.1857079959488834 -0.1789165827285668 0.16044471458054577 -0.13427177633889545 2.2973582393114973 0.6770568514734874 0.10885976772758613 -0.8866083118836343 -0.553645555535972 1.1763608759658704 -0.3984823766655606 -2.1100949427854734 0.35963695808879487 -1.799778642338735 -0.6832073531585944 -0.18938356042731724 -0.07024481655846843
1489 -0.463360199329751 -0.8319506338535568 -1.9188717654706946 -0.4703626941003794 -1.1127803135223102 -1.2201720159280252 1.3606571340114784 -1.6025364788760716 1.6927064737206876 -1.437739944597927 1.1930743679160654 0.39090460877403443 -1.2665513332056633 0.32947196270938983 0.4332768350266473 -0.38460637277821363 -0.3894618266005459 1.138586745366677 0.7847570489547927 -0.1840379868913215 0.8123611122632618 1.6180571850784324 0.5813572149281363 -0.5619502247964043 -0.44827936621554565 0.3241288827454294 -0.9308541577683802 -3.2725937928729563 -0.8931286613743825 0.042861246709088655 0.8439089147752855 -1.5445739824327456
1514 -0.08801465546548283 -1.5783608604449215 -1.6290668638917085 -1.2613708572978863 -1.6107744307615193 0.8328089298170026 0.567123185229325 -0.891759831771939 -0.7784013319720821 0.15042800201789994 1.5810761646454738 1.4377089332770114 0.9257558923364041 0.9793172027410857 0.23900263082697662 0.9487894848208286 0.18102976185642528 0.46037368368406556 -1.3845589165917882 -1.0258857466119542 1.3822845650616156 -0.40195396261203276 -2.0022775875261 1.3386951312535667 -0.09504348405068536 0.13360267419034427 -0.7432644947680425 1.0280958106451548 1.1954277337914059 0.6754097579777839 0.14153192506396195 -0.7954436656946594
1552 -2.4022438575175085 0.2498733917662482 -0.26270794877960324 0.9955371455266795 0.8385581898467086 -0.4603844280032379 0.6865328113085732 0.4808224105374838 0.9668859081150865 -0.2680889475753313 -1.5104092229753188 0.5640103686892877 -0.8769330827383799 0.05324323042271101 0.7229815579735276 0.42640719247419384 -0.41618407495049203 0.19765510444524836 1.1219705285237183 -1.7251783576863424 0.3139964927125711 0.9425272540544037 0.3994736159639428 -1.7505280721498628 -0.4859110388380519 0.01889926748048048 -0.596538688748882 1.3814034640015964 0.3135176864040981 -0.32164609742122807 1.6408398794641867 0.23182307862342025
1560 1.8746784911102727 -0.21704253690966832 0.9537954238190468 0.1103054190867834 -0.7348944055089471 -1.1176258226050846 -0.8012044837958376 -1.2631980183583995 0.2651662987061374 1.5062547479038646 -0.38041375377033626 -0.834886663805883 -0.1672838628866446 1.2226947533662003 0.04635020700032243 -1.474655646038164 -0.9390000105043389 0.2191286080038022 0.16988553810849336 -0.5279213259342931 1.0616511093559635 1.0124902998212209 0.8253533046463146 -0.8937719176107809 0.4230870497317523 -0.8158988224963156 -1.5938316367111007 -0.042584272080861324 -0.4890767796484181 -1.051764095885661 0.9705698221371005 -0.24684975638374623
1580 0.4610784178144358 0.49709993829524296 -0.9567866909061434 0.6027658398882504 -0.21182033970154385 -0.5771940579547746 -0.7574463930094499 0.5381392840859377 -0.1543658341604436 -0.15596005279312203 0.35595918328767767 -0.9081283007314482 -0.3688585509622078 -0.38326921266075614 -1.0439219569072156 -1.552801340057569 3.050056466496889 -0.5273854811134766 -1.220065595364867 -0.08325810179618438 0.12442218624849015 0.2996190366812831 -1.575162465539003 -0.2604480639413941 0.391244418012438 0.9227951222588803 0.8905301711288224 -0.7198768801886058 -1.5294541568488171 0.03274735011047462 0.8377813043029941 1.0245579447778725
1810 -0.5450186571876179 -1.0442440784457188 0.33983818569497515 -0.03504520646615944 1.2372139060187493 -0.9808964530714964 1.0016880109123885 0.6572676136086578 -1.4534357933638569 0.04152266167116257 -1.001932393327427 -0.022413244774799237 1.8176721875341655 0.8410526427300317 -0.08803395285852053 0.8356168290854972 1.7635870595919525 -0.3131126633902171 -1.3519281206130358 -0.2055157132959813 0.5430988461389602 -0.5108698572893027 -0.22089463085948774 0.1325809115735892 0.7272127318553058 -0.35683250880893613 -0.2058080861591545 -0.34150069004069 -1.5585514901106796 1.7554833770590503 -0.44524352914330245 -0.6019583792569522
2050 0.2099641236429023 -1.0421215269914863 0.8984921172314508 -0.49174681667716613 2.7043479559539634 0.5657592078088378 -1.1102952982059144 0.3393962673077598 -0.9070420217826484 -0.007056484060286087 -0.741332207721995 1.4387250003893892 0.39846414901924293 -0.05920338010218715 0.4730844994283445 -0.4477933160052291 -1.7931061857931179 -1.3772565615729002 0.016498623268574517 -0.9098431738464735 -1.2779375297801383 -0.5342358191295562 0.25097408358289874 -0.46595115298369433 -0.9068814104547858 -0.7963218405368968 0.5348429630618646 0.655517709743151 0.6168818751032151 -0.47944411657843583 -1.7596224539341156 0.057635450280073185
2237 1.176847315967609 0.21778813843227984 -0.6859644128714719 0.3821043986177707 -2.0822956968069297 1.7738611482364692 0.6813436507557336 0.3718847420657951 -0.04161403322105816 0.8026612262371915 -0.13297650906782632 0.4255520138166043 -0.7322955069708429 -0.14733262478226575 -0.1705327427898575 -1.931070971970176 0.23045962690631794 0.3774658011271226 1.715727568722139 -0.9851262240100362 1.7985129120171839 0.395443324880163 -0.844890980533505 0.44193610622959983 1.4103157525649315 -0.2293015785708283 0.06823067464300946 1.0623270043077087 1.343406998886834 -0.13815311517872206 -0.8488972524892465 0.5247028726781015
2295 -1.1562237388453458 -0.1586828838655729 0.9365970783674614 -0.8470328832354287 0.17291599274212166 0.8705662106304033 0.39899937292473403 0.5982138093222281 -0.3868715326962127 -0.11050078622546494 0.11877491968655626 -1.9368305885633499 0.363832573974455 -0.9246972635012707 -0.19625953400038312 0.4539327261882551 -0.47257520360834576 0.5253250398757379 -1.750573660423979 2.514793264253741 0.4888195752342607 -1.3553311838595161 -0.5875442332687913 -0.3617881325544667 0.8118114063190417 0.6284974180620589 0.455487974886433 0.6558908211272283 -0.38745335196450703 -0.6265428428389549 -0.19269366072843674 -1.0541727799200085
2689 1.161404151230099 -0.5004957415492362 -0.2883211854433832 -0.2961890632070618 -0.8918967767578234 -0.1183309826623186 -0.10848066500523185 0.034281106701407014 0.06667816043126686 1.5845610972700448 1.6665317782392046 0.4800823473021244 -0.5559122383143746 -0.4972030120256514 -1.106702519116554 1.8938892540956165 0.44792296298785084 0.09122223128922125 -1.4416659015461606 -0.9236580898068281 1.6586145699737938 0.6307695719200572 0.4045430294883074 0.009745173849968841 -0.17884684590921313 0.8326089657322904 0.018060366022374274 0.472381944524148 -1.0016102697116736 0.6302152911012228 1.1567229861302963 0.3809547270693676
3021 -0.037070523784309695 -0.9691647438119309 0.6826396622327884 0.021818316031269946 1.0684801899199676 0.5193232229669678 -0.5129609564122507 2.505056898858848 -0.27240298611950464 0.4244150999126501 -0.27860863808164094 -0.691411106682273 -0.33301844372729417 0.43713040607369036 0.14413416318897052 1.0560581858430351 0.14068493072386692 -0.42564838202454597 -1.784315481554258 -0.419949789864165 1.1107856500141962 -0.045953349604020755 -0.5481625725533436 1.649137634926018 1.146466447255063 1.017949209479076 0.01150657630019641 0.4783944957201843 0.5951380166367473 -0.6987269965142427 -0.3195205529610189 -0.20464106897487774
3038 0.022449431788611723 -0.2429555316979092 1.0085652383721646 1.1453019816924677 -1.8045232471093904 0.4037055149114064 0.24297112064635915 0.8568881759330076 -0.3436620099956162 1.568692645002938 -0.03975208214254861 -1.5390042344048565 -0.10522190827401122 -1.8216540392940495 1.6332718473730965 1.1399407637539862 -0.21919711103865225 -0.6612567509882387 -1.8092617873258003 0.3708569145689114 -1.0445140507063035 -0.07928760518473003 -0.016756879798836 0.2823015833147224 -2.7912594162928968 0.6341885979790165 0.9771100885500374 -0.21843900958542697 -0.054581531996403955 0.45688905601697183 -1.2087465345550266 -0.9264884302818577
3283 0.24060258568439646 0.14134367431367625 -0.3154042746880542 0.8778530069114823 -0.9598936224820644 -0.7434539079435789 -0.4069594138538761 0.18341211769794172 0.14164531916340214 1.5254347412048632 0.5796883138591233 -0.6344265046890795 0.1242112282057415 -1.1469483790102246 -0.35783437485908126 0.1820471129283322 1.0637317632312278 0.6457943718708503 0.6552914338345054 -0.003381726959584632 -0.4169609419260822 1.3974680358964597 -0.49711836502574813 0.9751625461353955 0.35036022779018855 -0.9336450553300779 -0.22765184495136714 0.5895343025287002 -0.2286433554541216 -1.9971722701370729 0.30664066298593046 -0.33890878311582967
3489 0.512642973394685 0.25719695995329633 -0.1557821365948299 -0.8037340013453489 0.9810009173885591 -0.08799048966845172 1.8936058718267017 0.11082583630936525 -1.1119231310933313 0.0791995116390911 0.6508406756478553 0.2316187794737438 1.3841890656838882 -0.10387692459962324 -2.3869153880858036 -0.7806441816374563 -1.2138192821276663 0.9282981468873401 -0.4463685466806892 1.9173187263889133 1.5882946032815066 -2.3907747189064015 -0.33699181040564385 1.191633124502258 0.287856653214978 0.4123178290214045 1.078129408258177 0.06826062337584579 1.0154069821033882 2.26167198952499 1.4148194210210499 0.20106714535689466
3583 -0.7639788284452095 1.4530669393656257 -0.435626121218064 0.6640372263106553 -1.8862572873565455 -0.3763409330256673 1.0294658989513281 -1.152748533071407 -1.0206272232131768 -0.6884130792969027 0.26458011060885056 0.49750826162406225 2.4214491354092207 -1.1228405568059043 0.00599797973673402 0.1566599729727295 -2.212453803487123 0.29656912358007403 0.6142393181114638 -0.4000707396956974 2.7538121744687816 -0.7306199616843913 0.6519963873484923 0.42696987586658613 0.7656189505588661 0.08633079682591138 0.279219286795252 0.40555418763275247 -0.07321531269096265 0.48201455596879594 0.5603348574758941 -0.41613687389464343
3836 -0.8856467523687708 0.3799910818363702 0.411365893763242 0.5953959549113018 -0.09055857352887567 1.23432982124702 0.8574994030946447 -1.4803163875715117 -0.4628218988469123 -1.0966641790627112 0.5303597057206557 -2.5387858519571056 -0.050079328154569516 0.3653719237999154 -0.30511258019325854 0.5999608866505143 -0.41577728835896843 -0.7854353226874979 -0.5845273606670036 -0.2061522781573797 -0.9209671144492616 0.6263787905052471 -0.3124360264943857 -0.3871285561816292 -0.7855101438070807 0.5499072754113414 0.6232700959584987 -0.9626063894925143 0.20495138610068925 0.28634994160653154 0.007443692592755649 -1.5428789149434976
161 1.8329335578564367 -0.32687922394401026 0.7859360198096054 -1.1619392941479414 -0.3940761186773112 0.2046017341069623 -0.40594815370120335 -0.6024178629576125 -0.10681379880966801 1.4297963086652379 0.12770333370053705 -0.08302598596925094 -0.10941300310335818 -0.3714157915470361 -0.5574600627240306 1.4056735800868125 0.5546730412936257 -0.3244066981113734 -1.3437495902544074 0.08264600366101676 1.2279013348140109 -1.1125771210530602 -0.17859994906818608 -0.08401935554482863 0.5069621646143205 0.07255052145618307 0.1538548522065888 -1.1656642778850848 -1.3956011184991952 0.01742763311191208 -0.003253409501503987 -0.6920357673410121
2 1.623884167925263 -0.6939107982802987 -0.8010242068270109 1.701591213986547 0.7851339941590701 -0.6008997849988695 -0.4835653855644868 0.571188340905879 -1.8046250674342044 -0.9648437726142959 -0.2984168584734238 -0.5697491744484025 -1.3154204195683168 1.723526440867134 0.5913712580733747 -0.3804114863077805 0.4498224793273951 0.12937850052331656 -0.3381946257192911 0.560697167992376 -1.3728628867814934 -0.07981710838640002 1.3948506637951252 0.9855808063969842 -1.358932353254581 -0.46375335600317413 -0.9409871760409807 -0.07490539343785238 0.7954693156103518 -1.4898211728214155 0.6486863342168573 -1.1294567421740702
868 0.8920165444001218 -0.7845822012486763 -1.5204969722273156 2.61494211484864 -1.219319384214183 1.2049776179960494 1.1243085487461724 0.14705732236450478 -0.13246227743410913 0.5103077461650065 0.05686663087500815 0.36898132481969925 0.7971398913141332 -0.10786919504704418 -0.6130891974384187 -0.021251665741353395 2.1416929384415004 1.1835005763055897 -1.0160104976248425 -1.2990123306977823 -0.34850794260280776 -0.01495558411683177 0.0383415993355889 -1.0220084640813085 1.3680118738052034 -0.5703928360733248 -2.067615980598865 1.0000194358133583 1.903377161051908 0.36123730901878115 -1.0371549164922425 0.3579579447244413
1192 0.29175876112143023 -0.07724459878728734 -0.8721013618286696 0.46239634218138215 0.5392241451786769 -1.029470578064515 -1.7263434029799858 -1.2831217850918395 -0.9763497555535747 0.9239140436629767 -1.129675185108106 -1.0658834423326424 1.1350743189706591 0.7806711333225577 -0.5134594320589224 -0.4779943502640126 0.6318707096233541 0.9928371813951374 -0.5458826042210391 -0.252441979584702 -0.12183067632287263 -0.3604861847387371 -1.996886370917295 0.15929932479325648 -0.07694163844356383 1.1047770561929016 0.3572460297867611 -0.888012327431306 -0.7628839564670137 0.20516228960292074 -2.9374723583411635 1.356957455728721
1240 -1.2863859268661648 0.4860975952983382 -0.17813710512596176 -0.6590842824848332 0.0484429151301522 0.9320961950765512 -0.4161455030297437 1.7554970410266595 -0.973636360681949 3.2637403543670813 -0.7416150468536367 -0.2615580835295295 2.380281092571975 -0.11976040348628592 0.7307370429996852 0.8331104720612285 -3.2784162530590724 0.06826916779110888 0.19241356170499968 0.17216684851688363 -1.164472472090496 2.3504910604445537 -1.923273308997354 0.7471524773410317 -0.6399326540347235 1.5489970700746647 0.857327344223749 1.3878679047885565 -1.356665397979395 -0.11768828201586563 -1.7408764941309147 1.3636312913911108
1242 -0.09626490042114517 0.594232602302885 -1.7352142723672366 0.020758582485191766 1.836350866322704 1.5659472300592512 1.2063447309375435 -1.3980142567816478 -0.6995357964276496 -0.5527980621805179 -0.6446325862703901 -0.5085826985015235 1.0856801179895548 1.5234146861763567 0.6748685270070329 0.3181519170476069 -0.9375417845164601 0.0559389053205207 2.037774275637516 0.45840529832693755 1.1545577568517718 0.43146109790936243 0.13860436133938508 1.0238723336747908 -1.7686978938996734 0.23346067362890927 -1.8948641423849708 0.6515953192808825 -0.7948479312340798 -2.15678293498886 1.0578007776697833 0.7145211176097774
2437 1.9413691960142299 1.2796726973590964 1.2846715244528168 1.2475292661558202 -0.7707091906931661 -0.8467156120448255 0.17795496155847765 -0.6374385590680361 -0.6469806429480106 -0.4577235533310829 -0.11989979858041505 1.7305225464826657 0.6288596775115258 0.07547995379306076 0.5235223354038911 0.27275580362741875 -1.1473965291874235 1.1795154432028436 -0.4845950939516766 0.3083988662197707 -1.7499399111715317 -2.6369246674268636 0.4510253412790909 0.6671508344732056 0.9448195601839993 -0.7284941289967983 -0.1822793353415939 0.3227872377037315 -1.848357408058017 -0.1477319432396888 0.26444164457499314 0.40609913231782907
2633 0.29665911210205936 1.2388587636363424 0.6968245631450591 0.4065226424076199 0.2986077462880507 0.23259416385651285 -0.8174616438240158 1.204994934058421 -0.48591966919109125 0.6264400647275771 0.7707688645189142 -1.510570617783464 0.3632284994759563 -0.15847571066500313 0.2071438624840891 1.1615932032758192 0.009492149351356153 -0.1461034732261744 0.1121966213899683 1.3491275574082893 -0.5312542356248903 1.4643571455144413 0.8253307845008361 0.8515418493328116 -1.266400046319164 0.005768550905843593 0.6398193442061217 -0.02270911608617437 -0.8743506216791105 0.3602362081084225 -1.2900847329645502 1.3936396074475783
56 1.3913407885797167 1.1390138343430045 -0.5172023241893249 0.2454774748395693 -0.19189831807858754 0.011844110242301949 -0.12101539298594112 0.43515869285320175 1.3546962339517532 -1.0652269336326725 -0.09762466880772283 0.39322251631546923 -0.13079427171230798 1.755993193879335 1.3374421206569154 -1.0146849020980873 0.4775470128505935 -0.9179383160108707 0.07773519507274843 0.4518360427026294 -0.9202292699158598 1.7803427903467122 0.3721171211197671 -0.4236239683561339 -1.044382134647594 -1.0319583677005295 -0.7738385973418437 0.13045026314114513 0.49587861605635797 -0.1800024325534727 -0.23885894758126308 -0.49059222599269137
154 -0.2697323258059754 -0.6299367067589103 1.6015239434775097 -0.3487711937207175 0.2250232522592937 0.4773886034284558 0.6817101671314634 -0.5888331861283764 0.49389297403626975 0.8274058331092419 1.0754280442069444 0.6189438552600789 -0.7371744572615271 -0.44684846387870136 1.0066152242152828 -1.8302279222622728 -0.5579527821973922 1.7140587269548049 0.5264672829877982 1.1078281182749914 -1.0403940683338042 -0.9608232297763651 -0.10293127322430282 2.1757674465786168 1.2228127827510964 0.16888984289599468 -2.729035534631607 0.2490546250938531 0.003744673794344604 -0.6365757377972061 -2.131250045068885 -1.9882906535439258
209 1.0193632011989315 -0.6349903581714965 -0.5945776697837041 -1.3432029462700092 -0.004208236925915912 0.4121301977383464 -0.5269232823281534 -0.48826576278651895 1.491166126999959 -0.05802953982254022 -2.464571658995411 -0.7383739903655787 -0.015410822013996028 -2.5053958936916767 0.3620782661955643 -0.8960391924991257 1.7859379050920485 -0.475164504691334 -0.6617007795004336 0.8711444841129456 -0.43064081483524047 -0.5924874716139601 1.0906381887321746 0.8800165658770479 0.6024530263663408 0.11094493622912527 -1.5710963557946394 -0.34274386730134654 -0.09429987187780042 -0.3080741768031027 1.845250088472048 -0.62973752772506
508 0.11603789012924086 -0.6477374725228333 2.424120266943997 0.6608172665676233 0.3882081986516024 0.5190247208314016 -1.054154215412419 -0.743270575541346 -0.1531496584111834 -0.8029003456319134 0.4660104936243235 -0.024932106040776905 -0.711841569827186 -0.44097565940752703 -1.516558859345234 2.22764142841359 0.608752138877663 -0.2518086412058474 0.47263157736493694 0.3240410839866677 -0.0357722850741921 -1.744668139955808 -1.274492021204021 -0.16767177694708957 -2.445437359747361 0.44371033275822974 -0.550501956032341 -0.9413922343313034 0.7055845572357794 -1.1520972175454487 0.04901917912112765 -2.303382582748017
842 -0.9626562026271234 0.14356277355171818 0.3175664584521212 0.9694578887920658 0.5942856241785645 -0.4770276835197743 -1.6352881652529416 1.0215587713717396 0.5484603200193577 -0.7658275313771764 0.7326708320752475 0.34151546240260094 1.358089570024404 1.3507050958932478 2.1879154649935244 0.743593039832166 -1.0208827747481402 0.4237250207726961 -1.9972850984930977 1.778198865667393 0.3295169653000903 1.11810736687893 0.6691999762538021 -0.2519587035837661 -0.22726298204683246 -1.4513922977135894 -1.8925850717160875 -1.5003573503372603 -0.14693497490983368 0.39660881295098116 -1.075905816639098 0.40635323303311044
1282 -0.09410627444465156 0.6854690496165554 0.3022119641488502 -1.1720746281799566 -0.7547327761674337 -0.41576913125992077 -0.02751515397913677 -0.40289026537256706 0.5486176072841046 0.7032267716191182 -0.47557972217822625 -0.7121292005297521 -1.4745119886441684 0.34753695653429106 -0.08739320107547216 1.171640949466018 -1.2817086740878596 0.20512087149756505 -0.6622820377531048 -0.736378808871759 -0.0268021586247363 -2.0374406628414765 0.4798683147144697 1.392567490326338 -0.374737986865891 -0.643470487019512 0.8124522349944919 1.3613437410350908 -0.4826522436254554 1.240932651458214 0.07381809401807665 -0.9733493449688593
1683 -2.735009754188835 0.31605475724622134 -0.001863687775941772 -0.7941634699761905 -0.31845203469041083 0.8642286256256092 0.934576014005018 0.014314750594876477 0.09984464499550538 0.3108153310609087 0.5469878452077387 0.6916258495307823 0.22327373716565221 -1.0474677056763222 0.3063233625484154 -0.0059524794905753435 -0.422246960740268 0.2968977138314583 0.09529247920662987 1.3361513603559443 -1.1758133659490118 0.2170863501742205 -1.907147286070088 2.0184216225218203 -1.4201482357443385 -0.6235151155562566 -1.657617464939848 -2.2290341931256004 -0.593393039165082 -0.7191613503573967 -0.832463558064932 0.8678979073364282
1847 0.6359680473567886 -0.2165315885514179 0.4112408593020508 0.6280747717472717 -0.6813631512759437 2.309888308482177 0.3504224674229405 0.7484208473645588 -0.39895770860865865 0.24286944277439132 0.8734837601501007 -0.4580037350952486 -0.690012639276811 -1.00563104084227 1.5627289559381956 1.2666251623892266 1.360974997782878 0.9049027108790345 -1.4749157014949497 -0.4937705491167422 1.5240774045843406 -0.05215204016033836 -1.4458248117959238 0.7509180701524794 0.4134750553275682 -0.23680598810089984 0.42078455985371876 0.20041739283016838 0.8168940578124594 -0.09027710978413835 -0.5714451974398953 0.632994177843658
141 -1.7735487203694043 0.8552667067660789 1.2391165786189446 -0.2158805626422098 -1.8337712876370325 2.2909866063669697 0.3326471411586827 -0.04688093170044275 -0.41816140009037994 0.9090172053899241 1.8178393762062646 0.8606115387402568 -0.2825300118348073 1.6265195637398808 1.0263486088838263 0.39262261907746104 -0.24380255431748474 0.290494871662686 0.18300444718263004 0.6425975872129208 2.106068892589437 -0.4901678711671935 -0.2532625980056476 -0.6103441344493368 -1.1855083600288854 0.47018666462158826 0.3813973285153084 1.8991324057728471 1.2403817743082381 0.35859154914458163 0.026114118364726786 -0.25837681034527465
1993 -1.0941245083618094 -0.492408170446757 -0.5563492077995784 -0.5131753887374805 -1.9850904908506697 0.44742966864468114 -1.942681775159773 -0.48643352120158473 -0.6100590911283018 2.970138317007425 0.11281261084716923 0.1998910787132723 0.44254246955753995 -0.8367593204912811 0.2372969512241006 0.2749881639487684 -0.34637669670167176 1.8065275865512913 -1.8690465188131675 -1.553412343278826 2.0591856601570426 -0.7326769588863864 1.316770355923806 -0.731517245398632 -0.10727753701582166 1.0250393704503675 -1.0071488395943402 0.12684845738839756 0.6141686689655592 -1.3271263880006878 -0.06824832418336456 -0.6219868655309936
15 -1.3238093170281855 0.8275152193496284 1.7700854178935936 -0.0602251212449639 1.3746226900579654 -0.8786148472502948 -0.17696618001194972 1.3134719977900462 -0.2563584559493585 -0.006845373598133996 -0.6763208095553994 -0.4274955700477568 2.2868848079067075 -0.8977130567196174 -1.0597993378341763 -0.8797176199609323 -0.18072701911907837 0.4609517534560335 1.593437881644844 -1.0359191035568702 -1.4541436446814777 0.007787564562729437 -0.6208247497949883 -0.2553799333291123 0.33126109085683936 -0.7105208336446451 -0.5505903423021493 -0.08209250170825885 0.8187635751924768 1.1934140311029406 -2.0767742003903074 0.6043539444549482
168 0.1391821575394813 -0.3934765198499396 -0.2151500440883928 0.5227010616729706 0.1738337415076514 1.7543690544576005 -2.7040337308109015 -1.951757291580378 -2.227461754929405 0.5597833557562357 1.1417157388180748 0.201244391557908 -1.4546729868089467 -0.4192397460752362 0.38191608010981937 -0.06364398988788558 -2.0253494264520384 1.1843331379393915 0.20316631200828167 0.5893869330042945 1.5870007858953108 -0.3330425889522112 -2.0130087307022735 1.708898569929842 1.2762461105998846 0.2591968809540396 2.1379640797000374 -0.8482962926755573 -0.7670667896749689 1.4544810633497798 0.2960382921413683 -0.2033743247555551
172 -0.3403536632601014 0.46017827398389105 -0.5578976266842484 -0.202158471667265 -0.41433473064430865 0.30941161515687454 -0.2557634325798947 0.05378071842221761 1.529640583464131 -0.5325822355694468 -2.1598973870150333 -1.2346273119360567 -0.24588783926868635 -0.7790786072681251 -0.33444474498506754 -1.072624325239502 -1.7944184984349927 -0.31953062495404466 -1.3135171661675562 -0.1089072430717174 -0.5368025252815983 -0.12033267897381367 0.09416508466613067 0.08102848553525323 0.3208726623505593 -0.06614536735306561 -1.1163816727854823 -0.0819735245574517 -0.8850699736942961 1.297011215005054 -0.22395546266275704 0.026633234055055313
545 0.32453990752520107 0.7710350771233139 -0.7053547970057061 1.523339977409318 -1.8802462075707085 -0.1599079912856664 -0.3954204110606364 1.4550043957747152 -2.6118818206685375 -1.016611952684885 0.38289855683935675 -0.377745047117979 -0.6594693718537148 0.395157504702021 0.5950973926818165 -0.011142484036268456 -2.3364270509296965 -0.4232205451963625 0.5050206568013581 -1.0144164544202683 1.8669946191296722 2.502753264875692 0.37548964417733294 1.2428297484665074 -0.7192856959249062 -0.36473318267229843 0.9808388806215228 1.7178061279258383 -1.3204697144397124 -1.7629192291040383 0.42219211430100617 1.1503039872575143
815 0.2433584213879821 1.4833451626474812 0.4651707901455958 -0.9503973937780917 0.7102132481410748 0.479231202233065 -0.08792744942748862 0.3537114539230732 2.5734398148181814 -1.3553975624404953 0.8111224680378979 1.3435564463018956 -0.9274881366632967 -0.22348985191169374 0.5247943894204995 -0.31424349173436716 0.5648794943540703 0.5760780631174132 -1.1470386387870244 0.05943321218205448 0.1968569216022879 1.1130521635646373 0.6962482403464302 -0.7253708104472495 1.096938161753383 -1.097450194266913 -0.8394995677030058 -0.03544506259596871 -1.115597882372522 0.39608678921402335 0.2226544168606319 -0.8903399422448621
879 -0.36963905537591185 -1.3553135490621055 1.6860718640950698 -0.15381591492344515 1.1117140406763935 0.5251540908034464 -1.0933349861243513 -0.23008268063503776 -1.219629736325214 -0.014036419255350638 0.5144561502297318 0.5385496129378831 0.37163523346489297 0.8298968478623653 0.4803643498043352 -0.8467864658600892 0.7747709863965362 0.9431576444749611 -0.16231642937224552 -2.1400586970096627 2.259057507934064 -0.7467160245948855 -1.236201274847025 -1.714985947860196 -1.099856225972414 -0.5501803022178726 1.912182779878489 0.0488511165960945 -1.0759071304713377 1.6268001494623456 0.246393288576903 -0.7819169156558461
1009 0.1857292530711871 1.859938526516658 -0.590012181417031 0.3777292860517372 -0.1270134105011523 0.18388042295924967 -1.3743274417097635 1.0254950007753796 1.4511354036021447 -0.5443913245721516 -1.5343335369464146 -1.218320402702629 1.137614387663703 0.8036887196058251 -0.28305558528525954 -0.56350015312443 0.049040002106202116 2.3365624390216344 0.8295815472502056 0.9817339074598634 0.21961844763154956 -0.9247738630047038 -0.8773837488034543 0.9206431703349013 0.7401173321570853 -1.405934019574496 -0.7336521712663616 -1.1287888192112203 -1.4312154057845685 -0.07032063702771245 0.5837204775402824 -0.12967804049068296
1048 -0.4235001748197677 -0.027495755960248197 0.4691144225047966 -0.11535876971103941 -0.9109381510023258 0.27116896770483134 -0.15152948903795954 -0.7249044498199925 1.8803653710347832 1.778016894039051 -1.49192789914593 1.0141493765002323 -1.3773301898301091 1.0961754096066207 -0.8987192562736918 -0.8615654270804722 -1.2223867667236927 -0.9788878222834236 -1.08092937759136 -0.7729684253741205 -0.87178104509397 0.500923249462875 0.5025187868035775 1.6383352269637639 -0.15399974202943886 -0.6106663058876205 -0.31076446968944466 0.3890320104446021 -0.5067980950112075 -1.6012876151285502 1.1434676206917542 -0.004954648228318691
1065 0.4463827490763621 -0.42804242631679773 -0.2691331685262108 1.5941499931324747 0.8098597826846043 1.6476121141890145 -0.3814758372283839 0.608521343315294 0.04179613039183928 -1.1206203733763056 -0.03982292237350431 -0.09615856488804327 -1.3923637591192797 -0.15033879465651678 0.10520780448069865 -0.08395599144453428 0.12869047919505908 1.1679261777871315 -0.28659104962883075 1.8547169066781661 0.3209281132902287 1.5619225257373537 1.954665901856995 -0.27687654198091693 0.20191829385652812 0.8314465804507863 0.4814251118666604 -1.044088349937453 0.6180554997025001 0.49900349090171386 1.275190208376219 1.0486576701684158
1139 0.3965486341827138 0.15992235513227493 1.288357666192625 0.6990732160580939 -0.07420793719774127 -0.6664625176103162 0.33577599915702605 0.15369125128149602 -1.5848893081568352 -0.6149963119439648 0.18661773060819575 0.061717071827230956 -0.18012815844136465 -0.6952847128193069 0.7793975226589249 1.6053281841283236 -0.7350120526662306 0.7087757137610651 0.5524316759330691 0.15913452181271992 0.8860178625304287 -1.1679140707095004 0.0020577713555830143 -0.8587135420438218 0.8643038595654952 0.5451280835406683 0.14301118922035744 -1.784260366500256 -0.9374003246158562 -0.8820657701795772 -0.6019410674447474 -0.002626587184204852
1167 -1.004144864558623 -0.5458705364743259 -0.8973603149874454 0.6582389279907574 0.5640093626738759 -1.0989986243236427 -0.34605271544770233 -1.318021114783256 -0.5482977843125123 0.870851423240733 0.9437996941107053 -1.4513766397449575 0.7720833414897925 -3.0570368552764084 0.11736887582948531 -1.283152316825878 -0.39409920355149747 -0.7443658554431662 -0.1310207299150005 0.8515781518342721 0.5288353405786919 0.6696839852217542 0.7090124484363143 0.6362758722388853 -1.1286084815913486 -0.5948458004071531 -1.2467127100834496 -0.5002152367930541 -0.6868228278682091 -1.3847603677578693 -0.08236708995613184 0.138606601312176
1179 -0.7815526254841967 0.7618760430834718 -1.02396368804573 -1.2039185454218513 1.1620585862140862 -0.7013693029518479 -0.7954938807469146 -0.042241153897076285 0.018237361250220224 -0.33521229312917133 -0.29525712757554273 -0.3790675378698879 -0.9707476217018787 0.683817600739162 0.6223481719065137 1.4070310965078223 -0.7445081063422039 1.449920058639825 1.0023255409704308 -0.7268331019667609 -1.0292170396622857 0.8245782844306384 -0.4697979001562884 -0.12859863026694984 0.2646573137210549 1.4780293155452013 0.6051028488115096 -0.34270728768691855 0.31830658737391243 0.6577454490317584 -0.14932806832140946 -0.014949081720100467
1223 0.9226629469526916 1.0488578277054694 1.7201942638914514 0.08777104924305061 0.16680980754921304 -1.237866243166856 -0.5780048951156915 1.6222354110910515 -0.052063745327015035 0.3143810506670979 -0.1423704615656422 -2.2160107971124208 0.4268808932789915 -1.3768562626766205 1.3336488905647939 0.2043966316968587 -0.37060400970830043 1.271062162694904 -1.1736330063708502 -3.2100919466176947 -1.6496898684879162 0.4578472425832558 -0.5885135059298215 0.6961228859580165 -0.7624966480500597 1.2053042284620454 0.2747479399461116 0.5843235047082451 -1.2092805298637603 -0.21220847707686147 1.2231344508344466 -0.825204957984326
1368 -0.8057020631118057 0.1554986827409458 1.161126234322248 0.03876865208973671 1.7800460466979442 -0.7801670234975432 -0.31680721839996073 1.2540425993582343 -0.8324713853540994 1.5340455608910497 0.1535131691979718 -0.6543041697044215 0.841642571684569 -1.274343677157722 -0.12148052405528462 -0.043713554121273764 0.7349157819740841 -0.2870864644444581 -0.06921512047654287 0.28567361652171436 -0.34233738102320277 -0.7869271730005475 0.9635935554666144 1.9838603923577929 -0.9614897717135896 0.6769380474176531 1.3557584042986908 0.4313537839177391 0.1430873523633848 1.2032027893508297 0.38273986910254504 -0.6128357342266751
1416 -0.43154857884781866 0.20607920000640212 1.0543940792781168 0.9994533766238122 -0.0095198998907199 2.0687162194421695 0.13110593892380892 1.4905163417433418 -0.8362561484795769 1.8983866695335008 -0.8674867890450805 0.7821018969830359 -0.6267771444698095 -0.6017068154630177 -1.1646785052597328 -2.7214590162981835 -0.24491947219701238 -0.27575683856385835 -0.6025477454033153 -1.026268608887103 0.8520493676018838 -0.364994294979148 0.5948739098329505 0.2435265610247876 -0.6014361991769098 -0.04570465254539655 -0.9610299499204122 -0.3755168870811447 -1.2313557244940363 -0.30948861138764167 0.8407981751941892 1.1181839687855493
1454 -0.8610523025701162 0.29130063512734805 -0.1847015946794213 0.15304807608061527 -0.32461733947249255 0.019224051673407506 -0.25594773503715035 0.19674410395034939 -0.3630042526631498 -0.07438650525946959 0.8280901684950358 0.8057828797519142 -0.9805427833428808 0.5698505581959961 0.6658790818125089 -2.0210719944551685 -0.3038041810709189 -0.7770532909443683 -0.6365501081402982 -0.2104499463485829 -0.14385206784494176 0.3418827699970149 -0.24981573058589673 -0.4199510810530116 1.362210365062873 1.3833821514283857 0.4662081340401563 1.3536293393763552 -1.9464870219755561 -0.8897748294287343 0.9913045709772915 -2.4056105066797198
1611 -0.32838655531408734 0.8248584012211636 -0.7592511240861728 1.000251333770283 1.4785644699276228 0.7930991452965126 -0.8343699455410761 0.8048658220027601 -0.5127093812056485 -0.5085885830271489 -1.4143969656943014 0.7075771586098728 0.5515955641190927 -0.9643524268495299 -1.6034682449905067 -0.5332373461204336 0.06404283200174322 2.4146727193711173 0.0021455059952517836 -0.13186918891514013 -1.2327168580425139 -0.9011168969650954 -0.7130104095861971 2.270893842403917 0.11028444082034851 -0.5503540384127348 -0.35646302294080595 -0.8428486442557229 0.9127998188952522 -0.4458837932532548 0.7250537002334473 0.6245348168933902
1664 -0.41536332047305763 -0.013059852842147314 -0.6778837012930496 3.1972428832225486 1.064296504170265 -2.688760325779639 0.07040194839166418 -0.905432326001211 0.7879953994938099 -0.21080273467791127 -0.4137183991881968 -0.0008673585398619181 0.6127380958275622 0.9851163515385689 1.1609619495515553 -2.38659937400852 0.8416868865983812 1.9692524075444113 0.8976798216984432 -1.0442580781810482 -0.756528041138906 0.09277213120391156 1.20892913588574 0.6536069182657724 -1.363084025661406 -1.0600489541372098 -0.3088299351123998 -0.3576756814005163 -0.11607162178990993 0.3474978131465056 1.8804858601128922 -1.2558721170724434
1686 1.4071588142548264 0.01997150454994746 -1.3319279981386576 -0.1560915061210579 0.9318962207269816 0.3054038563146417 0.2013209027478701 0.8892813967692784 0.0816357561328346 0.13093640734576267 -0.8476681346062791 0.7738151281221118 1.5993627219659956 1.0445193283158958 0.6076409739890367 2.201658800696312 0.2553734064997405 1.7547215910682243 0.2746855544476582 0.3711842843494277 0.030007635172007982 1.5767886486859728 -1.308159522095472 0.6308318804580482 0.5783331127282669 -0.23073386572301344 -1.893593577693973 -1.0949711579192034 0.009989986098948835 0.40978769792983816 -0.18542641477189148 0.4665057303854166
1703 1.0509038211758135 0.14332051833406434 0.13843100445468862 -0.7837895432853482 -1.7264086277412132 -0.006394890307201454 0.5063374310901385 1.371890861673493 -0.3340783649213312 1.1736071641615413 0.4094100065259002 0.04725896270572199 0.03909241851146176 0.4102170156332045 0.3737279229729469 -0.6008707873472515 -0.8520343641882994 -0.5378788463047438 0.24688284679047648 0.2079382095768694 0.6344781444124209 1.6409854378135391 0.9563848320257141 -0.8574296924453094 -0.4751417706553691 0.9886147697001614 2.087618266109491 0.27176401654788884 -0.140606411296889 -1.631862738199445 0.8836014818346545 -0.8743729046593377
1710 0.21056093645129365 -0.2805310518270083 -0.2029936775104998 -1.1003646522830566 0.23736755887781935 0.8707556225442507 1.39490608942085 -1.876324763257843 -1.0178718108991267 -1.2276376695084505 0.4732878044512493 1.11618423769411 0.07152616264858021 2.2432069670520303 -0.03356218678978485 2.6596900713923706 0.22331370110826168 0.5905591164770866 -0.4262857380522048 0.2112747049946264 -0.662612374680561 0.7343205357741703 -1.4532990896783597 0.374062846805665 0.6272262903099212 -0.465354286224338 -0.40375329239923774 0.3756644157655343 -0.6655607899927124 2.140121474007815 0.3777571597269538 1.8693084287289503
1714 0.8675929766440764 -0.9206892841338533 -0.009545865286415052 -0.41996754382480544 0.2628838410134998 -1.3325052317225663 0.17098438148451262 2.8293257202118895 0.7129443810800089 1.7268451796767064 0.2354162668507206 1.1201597329571318 1.2104856414404355 -0.87446622576068 1.944958910437091 0.3603913500630774 0.6655276968991105 1.1153111843977015 -0.681387842001366 1.0106610164069718 0.7295198046352522 -1.997706734316341 -0.06475120335479041 -1.7862552457810124 -0.5156646334640169 1.0600700819095146 1.2857008609515792 1.0117876851184688 1.1802398718356302 0.7067485313726224 -1.3509739000168073 -1.51931965891624
1737 0.46424805032923216 0.09776328106866991 -0.3904445046143515 -0.1306560362005485 -0.3833272464173221 1.3948893956990849 0.1164671623994565 -0.2286144980931871 0.773673122348902 -1.3724005101674042 1.0496652338540509 0.32025897625549515 -0.7173295476285284 0.0690522221604852 2.7215124742463974 0.10328241412483491 -0.11988412891378093 -2.099682497720521 -0.8952529648169438 0.9726504436303987 0.8092963814476877 -0.2070214317407167 -0.11418489705847804 -0.5275879930588837 -0.8347876708787138 1.8542170018650117 0.7673791741586172 -0.08026582563309845 -1.7518227142018508 0.832352162803209 -2.02133981059362 0.07307659683517581
1898 0.23713687300140812 1.1627422315025713 0.28762526532944316 2.1802884981069703 -0.919932493772983 1.0921977267242486 1.2131252129072796 -1.467362801032409 -0.24891431489229146 1.9345559153252747 0.34886260790892437 -0.6895673278903314 0.22556707824970695 -0.265642205696339 1.0504564092297173 -1.295431239389438 2.1822268439525003 -0.1019022864768891 -1.1469880058854591 -0.4886612384754031 0.5522469425741285 1.5683770141501139 0.4126603151823301 0.7941462674206732 0.5814598879587664 1.7475698382561242 0.4563602384543551 -1.0867358682034878 0.3994519937474896 -0.5455856865006846 -0.10786222586928516 0.23894630891906238
1966 -1.2438851480133812 1.072997771151104 -0.7171289890033438 -2.259459344996578 -0.11848305417498635 -0.41007805494879074 0.7353270259599533 -1.2281007397499544 0.7417288674428102 1.441464256344682 0.22825438868040115 0.8831027946978459 -1.2433581477433313 -0.6012221607591599 -2.259110451171886 -0.18045287837090557 -1.293500387430544 0.7423602970199878 -2.2991305755588485 0.11254970074249787 0.0434359670701618 -0.0023897487493761676 -0.009949208775541101 0.9018175203419786 -0.9567456791425724 -0.4192271026751643 -0.45092960550944466 -2.269862898999514 -0.04043660443790185 0.4629022730118799 0.9729854148227973 0.24826495668465803
2044 -0.11219239103801108 0.32898159531550214 0.8430702680875026 -1.6995123211606118 0.9153576985450355 0.09516223890078182 -0.8005833166012829 -1.3894617755756122 -1.3404692098588518 -0.295082763224092 2.224681499313832 2.618156407591662 -1.227583141454285 1.9396836036846838 -3.50678961842417 -0.5427265610410942 -0.43052873362389055 0.610447538224093 2.1333491551820862 0.39660306643461196 -0.23249739850430662 1.5017017693181982 0.5708963154588382 -0.29648268623093144 1.2441893313748411 -1.0677097203835937 0.9285397176186233 -1.6926749156149976 0.4664302724048628 1.1778885621211714 -0.3869618227562341 0.7621351397254108
2045 0.8476820033833969 0.01247954166936625 1.3386615551580072 0.5360558664356139 -0.9912344877821523 -0.5492789009182123 -1.1173035268126603 1.4131939320374844 0.3487243740942813 1.0205860705153351 -0.13051539952441676 -0.9841604335233829 -0.47821210608148423 0.006404913888452588 -0.16339972305320705 0.47840199646137826 -0.6820195663259564 2.2127793715906225 -0.11597377119730037 0.016635246076138498 1.1301158593635638 0.33449385203982923 0.8816048951809403 -0.10984362433097898 0.2684794728696333 -0.6654800562880557 0.24956854562478506 0.1474828408876192 -1.8381006648793579 0.2574179493927913 1.518412105998489 -0.37855326914388837
2096 -0.4293249094671757 0.6360749914885326 1.1333378208421172 1.541919344712504 0.4119958625354375 0.22176780337431296 -1.3325333831643538 -1.7185497070900049 -1.0369575439449739 -0.005739173883121928 -0.8303543348196382 2.3462932655905866 -0.3635206659812824 2.122073903703283 0.8161828152861502 1.449441739449632 0.29112474907318847 -1.0722644850994276 -1.0988777799817813 1.071152026766587 0.7787650051630737 -1.7732011570870871 -1.4361899562822336 -1.0177921063661381 2.90218917612986 0.379560076594721 0.6907118789773041 0.4383881347747388 1.7444159814853544 -0.8549236321737539 -0.9957939090034907 1.0757334186542105
2182 0.1814781589244995 1.7363963809257663 -0.13533162863811077 1.299445345898965 -0.7969667214780862 0.3103817234573283 -0.5930714467508363 0.8123056126799157 0.03759200745056158 -0.2395633225551608 0.7114987785665841 -1.1534160674829361 -1.0928735625268857 0.7509024444514107 0.0864186162724798 -0.7629529459270635 1.2370665867457338 -1.2003180762073868 0.6591502818148961 0.1161322963734406 0.42635346919492434 -0.33789954272340583 -0.9364826225165254 1.944368984751571 1.4803938349382078 0.5536689171694845 -0.372994661084122 -2.132219938192524 0.32069541696670334 -1.144066612855083 1.2243127028491312 -0.49628995959978645
2596 -0.7465408492166377 0.36153407884290856 0.7900329498406685 -0.08302842015849118 -0.9950842024703684 1.08851743038959 -0.02518243542787158 -0.6574493700628278 0.5083621010079165 0.18269905024186794 0.16948578657393878 -1.3102194431500576 -1.1103841113882778 -0.7778130938180357 -0.7780424881915211 -2.7328101297712535 -1.1001180596525073 1.9406019063548172 1.1635585468995464 0.6208488643512361 -0.41550834315363877 -2.406973183545165 0.7141851322767238 1.1556868877080326 -1.6099059218587983 -1.6398871147703515 -0.40711107431667204 -1.1862047288446123 0.8184851834166817 0.1728822558515742 0.3298786681808641 -1.280390222635273
2611 1.0516134694714485 0.4384291812201498 1.6422630693117775 -0.1763302098741368 0.9676042449219399 -1.022589210352858 0.517199206481357 0.10920164488427837 -1.0765837991425031 0.5305043327451541 -0.6811679324917178 -1.375528864255499 -0.4425137410038066 -0.16020909459834215 0.21464971471882632 0.22795387848504012 1.0788490603692 0.8196225718624555 -0.0431670215380666 1.1709194508950962 -1.556573428365923 -2.0251941032154015 -0.6312419313661234 -0.4183825940935005 1.0687543622313396 -0.16792678563399926 0.28403721645345087 0.056464923658168756 -0.6873053497214181 0.2424834046411369 -0.04590113625496789 -0.9784102905027593
2745 0.3458419237396571 -1.4100617319499957 1.8271333727749792 0.13431908446100832 1.175502304853183 -1.2515974350209953 -0.5277478001344966 -0.7966261843735339 -0.164522093548794 -0.5675467949577984 -0.7096829104548908 -0.32368640602748133 -1.4652662855484526 0.0849964149428266 -0.20926140743364507 1.8999987649158074 0.14822043547962868 1.6813433958068387 0.3376868073160876 0.5028069846830192 -2.3481008962848064 -0.5445272183609177 -1.2193338347903062 0.7003929914045064 0.5734705712553168 0.2523726180207147 -0.024414689321553697 1.608011293115763 0.4944309607776026 -1.3371425262458385 -0.18825672072086508 0.15428314164668866
3055 2.2608408869408017 -0.5080064644003086 0.43753420371339385 -2.5729678524605553 -0.6237294991951607 -1.275252905439917 -0.5970210399364461 0.3075840746344006 1.777317897592813 -1.050304219314605 -0.5260980336484505 0.48395130998919705 0.8465048517243208 -0.4953395883777288 1.5039820386818792 0.7448812936096771 0.2992138387630914 -0.7925239571101255 -1.5947949086552686 2.681995866655182 0.22146003007450202 0.9744723755817031 1.2964260226528768 0.09110981747280182 0.7539555526385545 1.5982571539724855 -1.4127283340444465 -1.1372045043666745 0.6095792078947575 1.6275800258579702 1.710991517176471 -0.19844335629129
3114 -0.20307583491071715 1.5333817248989896 0.348237441808925 1.2693314549136163 -1.3637722796627625 0.5804824373807775 -0.23977209155690696 0.6200674695169991 -1.3275213976892588 0.3279229086766182 1.0028596413276154 0.6653185217572991 0.3076669144027371 0.38468679090165164 1.4638142796934794 -0.8775397157182667 0.8873936636556546 0.6076022616399083 0.2179860374262625 1.011783693519357 1.3893750125051862 -0.6126572861465246 -0.3216506518527264 1.2393389223617022 -0.7446548475082646 0.4158555950660025 -2.212071395376653 0.8375055942904275 -0.35684876374199986 -0.959681037543962 1.6569382510741746 -0.3847342181660176
3118 1.8541634570336678 -0.6471564499926798 -0.6087877024937872 -1.0880425094640425 0.10261938024306748 -0.5159226503653145 1.3060064573049726 0.6810906332846441 -0.33367417607062533 0.8244260942874365 -1.0605433170920568 0.9849906337494628 -1.3340232673086536 -0.28020168284033536 -0.37252071590892705 -0.7456098408485348 -0.10361038763363384 -0.41772362854810907 -1.5190997903883414 -0.8539404746362366 -0.4119285376356939 0.5081668019086787 0.760815524338921 1.8851287427852743 -1.2135030832606752 1.49026314734264 -0.5484261243078138 0.06256609293902653 -0.29427665278288295 0.3873149977624484 -0.6025630705052549 1.7246508065047053
3244 0.5484105600960066 -1.1459368287614435 1.2022445659853 -0.39911431692119337 -0.2765884547833648 -1.0703848873522621 0.09143437897755144 -0.028658037580776518 -0.7577038237364373 0.1924145739455851 -2.420976937079418 -0.37794343285290655 1.2142516476840335 0.0010347239486295837 1.3983152724620622 -1.0304867108332594 -1.29836261942545 0.7402266978001059 -1.3978757607995276 1.9956978375446197 0.7073850624696598 1.4799277762553282 -1.2342931769108376 -0.44642001378573376 1.6989643287847869 0.37995410755209236 -0.44941041665179454 -0.29447271217331494 -0.36217525303554227 -0.6706705767510942 -1.78951701017499 -2.210989279796333
3408 -1.1462174670673142 -0.8135724553383299 0.2031444126731797 0.15831169124320052 0.22572463910481919 -0.0628251631782328 1.192209326243337 0.6039394113195918 -1.0965062752412573 0.37755759692926416 -0.3941917196612431 0.5208427130538641 0.24005108348988372 1.5651339535686442 0.9780532778115572 -0.7949162160287042 0.8211054409107451 -0.1159985758532455 -1.8409267287425406 -0.039004708666777216 -1.5579636466973315 1.152588745795107 -1.8730478805913253 -1.1550694827041763 -0.07221803147610734 1.484511388825502 -1.786882403426115 0.007100491106850825 2.1786415642420516 -0.1790511031423576 -0.6311085413900239 -1.4636734812507148
3722 -1.1247330709131647 0.3104737772169724 -1.5374876505102715 -1.0718362554841947 0.1971605833014898 0.1549569741358194 -0.31971202407499 0.2543203146986064 -1.4253460358837227 0.454525559829679 -0.892573241557271 0.36296083983226546 0.5693834146752449 0.24896788199462958 0.9954244213746644 -1.491703574625674 0.20680073604228527 -1.0647530727008356 0.1552633165422104 -0.7712639140072002 -0.6356143233127425 1.3439628653459552 -0.19809857622344115 1.0045459232796667 0.9019562826575175 -1.5320371107871353 0.8357714939073266 1.269490217621778 0.18030152961856444 1.082523806322314 -0.6194097313868001 0.44595875677011726
3850 0.8913344149216391 -0.6249733278614251 1.116162862956836 0.10349544262972302 -0.8095468784952617 2.2316956437940334 -0.11911345816968621 0.2600706087910482 -0.5250179017795916 -0.3511867901297008 2.5237745398822913 -0.2604080983248736 0.2276392822141489 1.6362940427314077 -0.08211120226545383 -0.8738037786701371 2.3407338826556336 -0.53473574874079 0.7726011711538378 0.5707117195722354 -2.195710400304205 0.5799006479410966 0.3693604652535583 -0.22387829397905942 0.6048408386986265 -0.15793082570698114 0.24254075209799045 -1.0735109969267769 0.9750806074936751 -0.08694470416310432 1.1711098665309283 0.474044269251358
89 0.9405682679045676 1.4510225013589535 -0.7938788405749548 1.0529695270723531 -0.11530031271354367 -0.01913832467812119 -0.11659470694337702 -0.28054935629918587 -0.711147187061829 0.9756850908751802 0.9922879888418612 -1.2284367105880638 0.5352123218501713 0.4108821982653765 1.4287845484798831 0.0736039239242222 0.127266994494109 0.9177818306356897 -0.021388161178667597 -0.6616981773572503 0.19672340197859128 1.035160970594708 -0.4530306248094573 1.2251864095898306 0.4440060328492547 -0.052161625550506914 -2.369910780820161 0.14127861940496636 -0.20585878763725707 -0.8421691892854312 0.4116415587153803 -1.0828159999950708
403 -1.1201471739313882 1.2138662459621614 -0.395390424243247 0.01269653644591322 -0.877830272635662 -0.4524988779018197 -0.9936831846251512 0.22471286193601112 -0.025503668509176035 0.36617360318744907 -0.8613843512266175 -1.3429979337411124 -0.8087013247205591 0.4888758964984035 0.9612438848836188 1.2829816836083594 -2.625130545879312 1.8376911632383857 0.7596109998850696 0.7142438808445569 -1.0123929120301751 -0.8366834453660658 -2.9660910361024877 1.6620046605961774 -1.8535191174563976 -0.5221476313697073 -1.5173412067965033 1.9550386291639688 1.2658951694611 0.7212999038441837 0.26530388571993596 -1.3382995137296383
424 -0.4374408283166213 -0.8791619489812226 0.01597432153854447 0.8708090249853929 0.08536166393733417 -0.7259126881965493 0.6260039057744042 1.8860034498521305 1.7036020307176465 0.9701250726577488 1.6682920440275641 0.48343246003093904 -0.2617789386783781 -0.7968787274396659 -0.6226337602125538 0.14444268466463026 -1.8569456040029728 -0.7549645357837843 -1.218920259415793 0.563659682919093 0.9792560904662172 -1.469044469778349 -0.6864518837156194 -0.25203488465704615 0.9962343583814596 0.6914983638651263 0.6000237604797238 -0.05212133651476633 -0.2669536469823869 0.8932071594802463 -1.1429738270698562 0.43852865741062014
584 -0.05622209081650352 -0.039559594172805065 -0.2895543455365516 0.1237982455070188 -0.2543657712425394 -1.4111942389759837 -0.6945016661425165 -1.3349783930614305 2.2198031664970155 1.659218052647988 -1.073965371457088 -0.3853479465063247 -1.1760337959373761 0.8794567463583242 -0.4907077453401133 -0.9520710943766761 1.0044448924283491 -0.34528462607430527 0.8698841662409376 1.7841124711909282 0.9860566005241689 -0.00515434630011552 -0.2635330878037846 0.38113131029897673 -1.5355592968912388 1.1156390564915457 0.7428859499601183 -0.017433160787835716 -0.11400531633294562 0.17224319093247178 0.47262301590030525 -0.8752464365340638
806 0.9013961644753203 1.2875022522891488 -1.0321287928346738 0.22377111442870068 -1.791580456125692 0.21129416935096917 0.31196209204890357 1.4833629244929023 -0.32630279390571454 -0.3763600571394139 -1.409514319413555 0.7301567088668273 -0.34521106960426406 1.1597629911666434 0.6530342842903339 -0.12845387370737923 0.013936667728381648 1.193282855622932 -1.829586093376394 -0.6587863643799102 -0.051472477899378165 -0.16797523902036127 -0.5085980123639302 1.0293055667405668 -1.5872341622656874 -0.12136103250582274 2.197575615470654 -0.5725352696896009 0.9521489069734648 1.509176748580813 0.4091764802723693 -1.256246358870166
1015 -0.5027643511033332 1.14552048236245 -0.7022783032996381 -2.1722779529347838 0.22616101960503524 0.9414152299346054 -0.25692602681063575 -0.03533342566339402 1.0815246855272564 -2.3090190242306847 0.0868847168335856 1.0651531234652563 0.3096502634575568 -2.8931676948026865 -0.19858574794145092 -0.7399545949475942 -1.246456306520032 0.528408587054811 0.796025332823081 -0.18937050323083682 1.4459067791379028 1.139829859204755 0.026396188970786542 2.1713406032706306 0.2529333254580559 -1.5863344081149653 -1.6355251245982365 -0.32742397502661824 0.14262910929608738 -0.5500273200963738 1.2617312211932397 1.2671776695306187
1120 -0.5812655386244937 -0.7842609976667513 0.8135651167417632 2.254941529185179 -0.3584727954793509 0.8153368001964019 0.6419120787667286 -0.20829208440101085 0.024292334313135835 0.9315591207961442 1.0699358558014218 0.6780170831274603 -1.2090391087228118 -0.3926306226926792 -1.1254351612139724 -0.8439035544384412 0.02271129500748642 1.3809390210832935 -0.7328454484998862 -1.28608333142218 1.6405685079030836 -0.7722207523171717 -0.027954974510255137 0.036722579406320385 0.9850833431606271 1.9894002946875058 1.560592544042735 -0.2623638833202061 0.38874024354730297 2.8532661732538687 0.7167308857442388 0.267132067649287
1206 0.2171078286928258 -0.05665894184346436 0.20249053539545828 0.12976603951373203 -0.44027538352463835 -0.3005278174905288 1.126075391325523 -1.453064115221231 0.723843325994546 0.22510115990730722 -0.3911988390386984 2.0977513345897987 -0.3919908863365776 0.004090013864892167 -2.0978403000706747 0.9815293534092209 -0.163692358191034 0.3951573863811004 0.20932329434610186 0.14351517234176386 0.9048534319115853 -0.11089193096521038 1.1250910841443795 -0.42163416763046907 1.035694684712489 -1.1196452331826172 1.5278827499128318 -2.125569688081963 -0.18064018357316872 -0.02005221655620882 -1.5015009059353561 -0.6741528807421991
1367 -1.4095395565377768 -1.124916219027787 -0.03817684216816514 -0.33001883294527096 -0.12035981660620294 -0.6904955856390271 0.42538872074515843 0.04100738964421183 -0.03883002284391875 0.009968949428242488 -0.40102133639802184 -0.9140475117561694 -1.5214414582728188 1.8446415884901735 0.13444801206179852 1.6484471313653764 0.3361560903675623 0.5863736076494737 0.06678474104462458 0.3100262343627601 0.09012684725755236 -0.17474635914600756 -0.8867330387977002 1.7525255044770933 1.518404813068362 0.08604016068030215 -0.3202535011708832 0.19859118349461896 -3.6496957233281284 -0.6496964362802519 -2.965082893055582 1.2017056699664277
1745 1.6945490984329152 -1.073613251097818 -0.4061532063891024 -1.5956048079529184 -0.8462024838401239 0.08407460123261835 0.8078693918822853 1.278057990349794 1.2090250455973215 -1.228299940464739 1.3854367827477023 1.02942821693866 -0.7476316996682644 0.9332576494253636 0.610848897364051 -0.4569418725510235 -0.1415224100187253 -0.747520180137425 -1.0854389705671599 -0.39872053537637303 0.8927117438825726 0.5675321747127264 -1.468891796655458 1.514613495546272 -0.16596713365184146 -2.0641899947465543 -0.35298129638806036 0.17208589780957165 -1.14927392267468 1.027486579534257 0.2874810491225666 0.696117397650955
2184 -0.6712345152157886 0.5930594702420494 -0.29638898932761004 0.4018486465760272 0.9070359727796056 0.8945568206195228 1.0427489264662562 -0.22163597482125733 -1.0947164995023906 1.3002647932478109 -1.6162210091983327 0.1983227791984275 0.5375073357562596 1.4163441909542391 -0.45196761334205604 -0.2443168039606236 1.6298991243399887 -1.5590248982014125 0.3972406870548966 0.8326979283799902 0.30658094417716664 -0.8771735207681001 -0.4825791990230372 -1.5542443738626281 1.029731739814657 2.101490269893641 -0.11192725593167956 0.33943249543143106 0.4046989830860898 1.218886425201526 -0.23592844940290147 -0.18091612873465582
2391 0.3864540823625356 -1.065204094721031 -0.38014239533355315 -0.6645885069375932 -2.069829429657284 0.6911287067511876 0.8101672572430069 1.039018352167064 -0.18654527947786634 0.22609059391315253 0.7969334626333832 -1.000361511298743 0.08110717015192262 -0.5700341722955033 1.6231825256770906 -0.01157847622148797 0.8710448766585644 0.18476906120500552 -1.1064257005777756 0.10650581696736049 -0.22300468789300854 -0.5013756315029184 -0.18098626030101528 -0.5321199213452337 0.437365433398082 1.3089344467349846 0.06498048826636293 -0.01001178099313077 1.3837714235053418 0.44319059786913934 -0.4820835704697946 0.4652403802749975
2514 0.4141419137129211 -1.1950518369464893 -0.06695086386506907 1.1606691345345514 -1.44483537953963 -0.844572388967701 -1.3400556248898927 -0.6232316352285342 0.549412867319105 -2.2235640292684713 0.37261232988240994 -0.4663211490646546 0.1143997889182241 -0.6305389261237511 1.0187616365536794 -0.8029737104274811 0.5163061557230059 0.6514254107294418 -1.4514428918391151 1.9475186227428107 -0.9435914174884686 1.797492657323532 0.05362118613235918 -0.38260373478896004 -0.8273400077167007 -0.19111228282483822 -0.11956958550720613 -0.030668076507174798 1.389690623911061 0.06763697376392838 0.7751984372852255 1.6304592795528057
2706 0.4952602348654659 -0.2290727302555246 0.813268719742108 -0.38937113028993403 -0.3429231623546271 1.1975771656619507 -0.15327342759777382 0.24758419066358212 0.07847395199342311 -0.5866308263766233 -1.3258006811523029 -1.9729618910720992 -1.0750650757488902 0.5541116894792631 -0.6954106198960915 -0.8272812874071813 -0.7565033930533202 0.6693830975604597 0.8312229956456866 -0.4289121790676821 0.6030705777236208 2.37408237891817 0.5549856270808955 1.0163580799709888 -0.23630404561413793 0.05411726351975119 0.1140102825142132 -0.13880394521742317 -0.6405050266034306 0.5432047210224412 -0.6307142336052818 0.8724548358106888
2784 1.5118116508765478 1.2793154339060402 0.21519499164910622 -0.5664203974510779 1.177949091841385 -0.46619562697687833 -0.28252078206916725 -0.13837928167089694 0.5731623563546214 0.7579602099891056 -1.0181914125388754 -1.3123712310455526 0.7547151879274296 -0.3254748068275507 0.46327613662258965 -0.15934440800675984 -0.11853624689111117 2.370015890629676 1.2253099050650471 -1.637652975996265 0.06216526122837206 -1.0116478311975976 -0.06832068798905565 -0.5336227834572245 0.8718292080808963 1.2668148261270027 -0.6538724779932963 -0.33745624560386334 -0.11936663139459783 0.03412502796925533 1.3648239396042605 -0.4235259920722002
3133 -0.9448187861701136 -0.3045089557630814 -1.0855645814710737 -0.6604027379245899 -2.0957474688276214 0.8352965484974947 -1.206859285657612 0.9487292712039381 0.3808714171356727 1.1955543337866679 0.12503242664226324 0.9600581530312376 1.3736740629909745 -0.6050539799651279 0.408653926014337 -1.2741508612137002 -0.22067666371754566 -0.6601367437108062 -1.042477737847019 0.4501747449561118 -1.0027055057910501 0.4426153542639549 0.7524504671926998 -0.6627570336239379 -0.413855697749614 -0.6287479439947431 0.5956669308591965 0.1688683113391938 0.8890088871131439 -1.1988545221903009 0.4113629360422082 -0.44985409348601707
3401 0.5231324778986116 0.6885442538835918 1.1614409080927586 -0.19494728083539928 -0.37706965159859523 1.0854318745351075 0.47309227354624944 1.4650666789935285 -0.0653475319693165 -0.23382729735888327 -0.27558985038231965 0.18191434591210828 -1.1291399732812937 0.322650553239772 1.9445557621628782 0.8602445342729554 0.8354355631623153 0.7835615066363317 0.6619565348245975 0.2586701755630595 2.0245006320782672 -0.3011843186702564 2.124472723583064 0.3950985544717011 -0.3005292412783906 1.167638219118092 1.696117454808561 1.1965351473278272 0.22852812172502965 0.018546487916505785 1.728546684712916 -0.3404614234952953
3534 0.14624755646221352 -0.9203171269380909 1.8606361582188837 0.23446375905862013 -1.0104801043770772 1.2454304037890906 1.0533592077942464 -0.1645017386569607 -0.9575997374900079 0.6733004911605344 0.6172960586911134 -0.12761893737982136 -1.0546417457009074 -0.1438342071259419 0.5203227744175383 0.3317747744325275 -0.8037326569289953 0.4088469110710403 0.5160722026461037 1.1412552297752065 0.10019501108000257 -0.34334281316766446 -0.35104383017893726 1.0925179190093395 -0.6474084005775714 0.37876163207486246 1.271163826436168 0.7432344153380659 -0.26806907631427257 -1.7120190451675108 0.5902661259854227 -1.4794695167014735
3565 -0.6059755956582974 -0.6527243566292866 -1.1849837635458187 0.31129442675995145 1.6647523973193765 1.0691983913323397 -0.33596290915545984 -0.7582313277870856 0.4268252931494499 -1.0293550285088693 0.19321640049591388 0.3430777841452535 -0.35527451618001726 -0.7683332650347822 -0.9185200679662158 -1.3238902241063069 -0.3164636287957935 0.018810677217447922 -0.030948408436577295 -0.10136231323916882 -0.8227609044148789 0.3564723758238745 -1.9279788521797374 -0.9084632430595438 -0.9980649601274802 0.3895553398861214 1.0725257737263314 0.036323195538984956 1.2320768769078607 1.2347097133359557 1.2384778542518464 -0.1788336319303444
3685 1.0228120082479126 1.4718511459975407 0.6698215914483837 -0.36717978983089494 1.3198848497100413 -0.057212784228733805 -0.3394182008822636 0.14967075559012313 0.6278393545641134 0.10593631392628207 0.740916149201395 1.4375714873272527 -1.0434316503883827 0.5324691498310425 -0.21522901645740958 0.008006051605019528 0.902542735515825 0.3346379142445502 -0.4842150031532083 1.0712412858384954 -2.5126243746948727 0.5210924061006622 0.06288250488603485 -0.8399094537778062 -0.7360105700162062 -0.14273874112335005 1.1444855433763568 0.35382349753615283 -2.72683631204432 -0.789141463539449 1.2477233023896264 -0.7924689055845633
3727 1.5804846211795012 -0.42681202492078946 -0.061910272814804705 0.2809692054079382 0.1739884530307384 -1.182443065712394 -0.2786636280457619 -0.18977072176407786 0.029758001724789568 -1.1344017312364152 -0.9076840943820177 0.8604090444886263 -1.012765246826659 -0.2803889382960818 -1.2711389036966347 -1.7326312445665144 -1.0368902034131686 -0.13993696222363528 -0.2358835908595005 1.1518261218169266 -1.2152094208319124 -2.094740545004632 -0.13925095440385923 -0.8606308473717936 1.0396671898910488 -0.4228328025816576 0.5446812601307032 0.637860367116926 0.3944595965444872 -1.1419481559459994 1.2503163050425103 -0.046607903192248154
3758 3.0273256175934042 0.2810044146516159 -0.6560099973942229 -0.7799631446851748 0.6424988289659126 -1.221150647462656 -1.6801088479976685 -0.5067781516940003 0.31515261316955834 1.4062032978065098 -0.04240975499636269 -1.6314247468238268 -0.6819676277310758 0.33950463439457634 -0.46368598181146614 -1.2155224310456372 1.575168208281676 0.5662668772720547 -1.5536576754573699 1.5432884534440248 -0.16234712284243544 -1.6948684042175644 0.209092266838078 -0.8910020872242379 1.5806734112844065 -1.0026322432984873 0.4121354398607151 -1.8304958325110794 0.2925040155388833 0.32682536029795134 0.08136646465843798 1.5498084301570934
1096 -0.7807934961070933 1.1474197239183235 -0.7733249802458959 -0.17612543737358316 -0.98568500920648 1.2702947053728386 -1.7598505340919128 -0.21893749701990037 0.2192453764946259 -0.1588309609381726 0.19569728650101645 0.23616844602115525 1.4272864445759423 0.794657827701024 0.3517879885929325 2.462543978811218 1.0279866261193293 -0.29252712858127516 1.4700958952889156 0.6336238383662485 -1.0359528380509602 -1.2467779371154435 -0.4239974704717129 -0.11523653501445749 -1.5543122983434472 -0.5103230998338402 0.8819972719050126 -1.9452550573028689 -0.5640561016514518 0.8628413494081831 0.048474436369093835 -2.356337171037377
2101 -0.4155331945256182 1.5147058854230306 0.4127143675546467 1.1148273943951417 -1.6056569568000287 -1.4068986376778645 0.5350251632065312 -0.12694407748257047 -1.445096162342799 0.16886433557287525 -0.11480981627581323 1.4340644422769202 -0.8985529960501651 -0.1716814371943202 0.3064930674430578 0.8298785795003943 1.2377226911810453 0.017339798667558 0.9162236147075921 -1.3971146739171774 0.8836034131216 0.6460259161504037 1.4628102264763725 0.31718645944866186 0.43335709544644574 0.7024235837234681 -1.040156899728211 -0.4686365498619851 -0.12569979302812692 -0.04748938340154919 -0.3799814636197205 -0.3287163583771009
79 0.6539861477764309 0.6512756114070555 0.033252434165407414 -0.5159037089368154 -0.62507318487957 0.6250500791794263 0.6191270682069786 -0.9305400862916544 -0.7333436014067546 0.563195199447031 2.263504979036406 0.8920141787882214 -1.6359827131782223 1.229904975335183 -0.9241196164939404 -1.7343754038998662 -1.8860423834125997 -1.5807519296851968 0.9670037869741213 -0.27144812256013134 -0.03638476367048824 -0.7448708989000996 0.14292907325813392 -0.2142596895550966 0.027320074866559452 -0.7928006616769264 -0.6426755935828762 1.4072649684221554 0.9644399284846846 0.34086263538949446 1.3627164572389026 0.9447771252841458
3 0.0837340100835262 -1.7951013705589831 -0.2452383936419674 0.655850405216794 0.4391371550839699 -0.8923496569331336 1.074135023446963 -1.1162454455163184 -0.43491204148011875 -1.6294109804944277 -0.1399741268668104 0.05849865286972236 1.3468732782624202 -0.46452481489915265 0.9096019987620704 1.904005125134554 -0.739099623315422 -0.6321364345915442 -1.2261150925109432 -0.7950576047187794 -0.25019032134187946 0.8078059188989184 1.694304082912965 -1.157663838988394 -0.05351564423791646 -0.4628454057171115 -0.9715489378785264 2.40595235944557 0.2757585908140825 1.1525203156116346 -0.17868088441280647 0.6644993299059188
460 -0.2999653577234649 -0.549281555272733 0.48566175000107514 0.7002939034975258 -0.3754940420549031 -0.6160997037962682 0.18296848356026693 -1.276138302089518 0.06778060591379886 -1.4807699767497184 -0.6468634214664953 -0.5301281934444103 -0.30394084410820893 0.17596291147116394 -0.10025140969375271 -0.45305384561484335 -0.1540907179819207 -1.7483490095697483 -1.0112279956805776 -0.6802518141776098 0.07858689057739063 -0.14439659311263067 0.0908079752100085 0.6480070393139948 0.20353354108817712 1.3405159550220327 -1.412039320241957 1.2306143604776238 1.4036068354436406 -0.32429067916653714 0.028299243878448673 0.15091938822024722
541 0.14193669830723402 -0.9645170870177422 0.34300420143359145 -1.530926094678567 -0.8636323218798301 0.9351707581151344 -0.8859695069215563 -0.5290356863872243 0.9158377100553166 -0.28546626605930875 -1.576443865574255 1.1800819893991947 -0.6031609597128783 0.5217352847604642 1.5157287441630867 0.8210197733992725 0.03945790772334151 -1.3510744629418316 0.11082500261465428 -3.129600747275379 -1.5915549181033757 -0.4243614951367094 -0.4314680131771229 1.0534511099304855 -1.362926355758128 0.2770125945093211 0.7271797096877933 -0.5009734874530414 1.3952150143906041 -0.5633065285941897 0.8212373308734884 0.7893900307471823
736 -2.0569973732548585 0.4316043592717042 -0.3704054035225479 -0.8067552712851043 -1.7760769305244015 -0.2548618038744628 0.6741996503525057 0.7074967406509961 -0.8257713121500586 -0.28837403859539446 -0.5611646769271798 -1.553714868572422 -2.5071698538887253 1.6501630464933705 0.20864672181908323 -1.5367225279143202 -1.2228425430737486 0.3945806575297651 0.34162668749742614 -0.8780076420905782 0.10617931056887041 -0.7254492679413753 0.8526993923797106 0.15390414309054679 -0.15913238177603406 0.13502729276822517 0.3746263945414182 -0.22509068884970604 0.5583363997583238 0.406084576777653 -0.48777379400409043 0.7235415307584697
1117 -1.3463709912757749 0.6256885547260084 -1.0947719006139138 -0.8914189562366485 -0.7274559950097923 1.5226461152953237 -0.04590443693135699 -0.3027415695724219 0.6393086384249222 -2.6638859888628397 -0.23017863603410674 -0.4368823038844996 0.10758698581458064 -0.951745252921698 -0.6435047734647721 0.24872879830954672 0.5133964619936708 0.21928878625796858 0.8161580829444675 0.0019421176399908803 -1.1705051701352418 -0.9982908270814391 0.16455604542874033 -0.4313961464683474 0.053601311884392766 0.2319720358145537 0.4947863876668158 -0.525784478136793 0.8769056137496433 -0.47323939892143124 0.17550435678965748 -1.0283262236692199
1119 -0.110027273192111 0.7876783362857798 -0.4219032771422777 1.835294050328809 1.2221453949333296 -0.2607839932993911 1.1708662230286546 0.810271535637771 1.8562919846893353 -2.39673241881113 -0.760192830017852 0.8723942925042542 0.40602532515259243 -0.21372367242661783 0.4771134660567683 -1.123199428866497 -1.0540613257457014 0.0633376804580146 -0.31884925285160565 -0.577511115124545 0.026869749075388173 -0.09782022656798878 1.3099116653759106 1.1311677343749071 -0.43414778238884305 0.3171984057045115 0.39515609403891033 0.8185476511166031 -1.653706500903397 -1.1239187184494464 0.01376252032467448 1.0532689143917775
1364 -0.5882392488453192 -0.22400358513130056 -0.1849257107640318 0.612897321570429 1.22506227694362 -0.32213326850647706 -0.824263059704189 0.9803478958119796 -1.0254318416685337 0.46719612753556616 -0.6061750408343844 -0.7971104820638872 -0.19543785168251473 0.41416021202465475 0.8575183362089155 -0.678469103016927 -1.195864923422384 0.8531926556674314 -0.2940315172118729 -1.000213135104188 -0.288921161140799 1.6999563410027287 -0.7797239354314475 0.3756913151377364 -0.03260538455237245 -1.1329914678862987 0.4493231994845335 1.218390923713273 -1.1020987347589524 0.17656983244820176 1.0787519080089214 -0.7785761872291175
2010 0.16506986089607806 0.20657225347848696 0.11413595197854068 -0.5370886783205043 0.2944549159890597 -0.31270250346677464 -2.214579315739525 0.5425147336960047 0.2985430546030664 -0.008573993098428453 -0.8037723521923725 0.1486716737999108 -1.0125297401804108 -2.531477341701025 1.8222779953850625 1.388948803579039 -0.19453568390098797 -0.06460748588029505 -1.414722122066777 -1.0110818914808848 -1.2027159518791484 0.9079574787473139 0.7775343023254166 -1.0199500413869125 0.24548288784380629 -1.508285121882503 0.4320490327969391 0.21048636461480144 0.3867223802916159 1.592163677667889 -0.07088336750514414 -0.5505613609574016
2029 0.7269039408274269 0.19341559662870442 -0.17227653292451484 0.7759841955163176 1.4941743306094266 0.39727717273881313 1.3331175931644483 -1.2033172171658555 -0.40728675498219413 -0.7827481330225552 0.08353917129041802 0.6602583822506005 -0.9188011565076081 0.44358517252617924 0.011129028884354417 -0.17519462123229226 -0.7975136087368786 1.214704529756106 0.3064357802019707 0.1500828274547886 -1.0201638418518966 0.42056292019407204 -1.1633047374073713 0.8121343277395975 0.5317411153156203 -1.0664128449517485 0.4821807184758967 1.1579934115892536 -0.7049133968385932 -0.25568077470882017 1.2099114957726274 -0.2639004334214398
2236 0.08396196416217143 0.04198623529594303 0.21159150436812782 -1.1287100189756596 -2.7033303585637105 -0.25397666499500016 -1.0579516377786473 0.043605909578811566 -0.010588416975589059 -0.5267611414481856 1.5456732888070819 1.3594179278377378 1.6793538958311385 -0.6634613643267918 0.7813349067541462 -0.6588913769127077 0.2863070078599207 -1.5847880714029905 -0.29836210214730124 -0.8639409503626457 -1.0919863980259135 2.2978090118678076 -0.01401496302353867 -0.4056436918699114 1.2744023409574246 -0.30599709345348386 0.2885680686844396 0.4009547570640231 1.2538881665041244 -0.24660877342354862 -0.5728539143340281 -1.034431637330246
3845 -0.11413991889148024 -2.281332249586317 -1.7041859140442184 -0.5352249094994039 0.034047620465726146 1.271035871065014 0.5956406593205085 1.7186873226232502 -0.1261205125253944 0.2156334357049999 0.6516251847134875 0.1696409427862887 -0.21145412542660472 1.509825824305919 -0.9982273258805675 0.9151325847907619 -0.7750380754255373 0.755010778702407 -1.2201507540410075 0.12265109161030478 -0.13537105669051785 0.3642310923064184 -1.0257181049588517 -0.3347595709560618 -0.025739949275108226 1.7044058350977136 0.8889586688143422 0.42930428784174635 -0.15880754095787947 1.9423545439658194 -1.1876956349318024 1.2459202455781584
326 -2.1420551813841695 0.2909530568417273 -1.0316978774220138 0.48897099643974345 -0.5535422304572133 1.3868809461618863 1.4375753223642294 0.09310977628450648 -0.3535131988941841 -0.4767838303674559 -1.4958721083189879 2.1657908639875507 0.4301623291845296 -1.0926040728078417 -2.117651614912321 -0.7654820875620627 -0.7593840987543774 0.37336871704949826 -0.5627918590382806 -0.009099340299023395 -0.16426641738746345 -0.0058891504734365895 0.8302249173324269 -1.6038723734505975 -0.9186748539906664 -0.4948121608606647 -0.3982211522351605 0.44126448918261846 1.4862065098859152 -1.067873256130648 0.3952627067013943 0.7585322583820469
973 -0.6090506204731844 -0.5169052046366396 0.3188597998706567 0.07786674932045085 1.4094778359982656 0.6711216087069526 0.09883720997570747 -0.2829217151647125 0.5178092223267604 0.24209035763873216 -0.7792379894170338 -0.3964908831551546 -1.3962733333913766 -0.01650963349500753 -2.077758236086018 -0.435776687661741 0.2001311190145695 0.06698660736213005 -1.0799799650530049 0.4388650148543287 0.5969588226801869 1.9448210220306599 -0.971460427372946 0.2807608916761683 0.009077382485098345 0.5640685057153316 0.7134155127161863 0.34901360237945256 0.17971618006633355 0.8772314014369458 -0.46949396609515925 0.6563056322563092
2232 -0.022132569472085802 -0.35279232723013865 -1.4907446497040304 -1.231687990966441 0.26832630835009497 0.3427530753718443 0.822092588395873 -1.496169972978023 -2.0634513169213555 0.31255707809604644 0.7510487039346355 -0.6608736784890509 0.5978660947795478 -0.6189554495099018 0.3014499540951329 0.13454599700470635 -0.5026299400616603 1.2647770443121296 0.20757879721477118 0.15142460581323464 0.5830940126754219 0.3139047107155461 0.26135126254305324 -0.6013291959976912 -0.617425646434493 2.185680553804589 -0.9107515257234289 -0.8227017018771136 -0.5141020298830077 1.1102183781039494 -0.8203816799615609 -0.11522991901651759
2517 0.04850689387020102 -0.24621136712730207 -1.5308713063562687 0.43987213665333574 0.1371487583999561 0.05604655100494906 -0.2861065503806242 0.4719790381082737 1.2753465048380002 -0.6741692066408727 -1.036155268529254 -0.17092036841068844 -0.007454654802351319 -0.29468244549332057 0.6455679832145224 0.4732936129387476 0.6281470367478256 0.6466119636669734 -0.2294294372697038 -0.711822540489379 0.030162934498374434 0.42543449457330246 0.530425057370222 2.7267723229303864 0.5420480899634619 0.6783646991278398 -0.7494041522497443 -1.3230085627992898 -0.2033346239328257 0.4087774978445984 0.20226627521601181 -0.40734740048769724
2578 1.1529404692164604 2.5515014716360183 -1.255762908991874 0.8744540211564663 0.5753703362262421 -0.16551572488766936 -0.008403833338462195 0.04990465744413605 0.8741300546102516 0.5708122063181724 1.8034834393144252 0.41296648954965043 -0.11473209556270283 -0.10216329549577478 -0.33871598162058913 2.7357864662240723 -0.15603801843482862 -0.9347270248439795 -0.12943494964094437 -0.5506244293770363 0.4910550053478671 1.436195136551408 0.46772925084676326 0.32776603788916325 -0.13877959310586457 0.7682882808555804 0.5769682277065271 0.8123918655750219 -1.0342678991855645 -0.014585595392749697 -1.1828703378585472 -1.0229069764557515
24 0.014240233719590004 -0.06109852057014988 -1.2307103748692667 0.13862210994195662 -0.571090214770203 0.0852546183062637 0.6608747842728584 -0.17084780428535862 -0.1509471953957044 -0.5528243219961413 -0.14208505994954773 0.5223337309993359 -0.9238914642144568 1.2556328279370947 -0.5488299401856578 0.666518048461636 0.7390588196316049 -0.8987425264871233 -1.6978363749436618 -1.638651048339553 -0.9284014496796025 0.24770123436204491 0.05498146010457464 0.10002793767059208 -0.4021724503689832 -0.737455887423731 0.5447095023396191 0.8026605576215902 -1.2173557484662403 0.6899356800456999 -0.2595684741986366 -0.7581906797858102
228 -0.5113644836287589 -0.0861023759239093 -0.34094115538765796 1.5959375323523242 -1.655114514128759 0.8588070122212335 0.37279878790524773 0.38702488956827813 0.38800224489975044 -0.6757405746712042 -0.0008218144685103123 1.2777033425802369 0.39754161238650476 0.7119628235112594 0.07726980980651942 -0.6592915764593992 0.01906231387732609 1.6677519462794301 1.3832691047169834 0.8303675193853511 0.1768184295698794 -0.7828318273661472 0.26868455612406944 0.9276059668872148 0.05841927721337542 0.07595978305559847 -0.9981668855443917 -0.18244628267987545 0.28708719069831923 0.22582194713759 -1.270792542568904 0.46104548406037066
409 0.4172620945969537 -0.8040212258997813 -0.822465129351906 -2.1132906346729916 0.22615214183355162 -1.8373572392297846 0.8926413287990065 -0.6348677894971366 -1.397144014057125 -0.6395769555695068 1.3358147851601527 0.5310658793264545 0.32409722342118424 0.011703386963602453 0.45095200492849563 -1.8691520803333452 0.336573962480927 -0.26636799295946967 -0.45885717522281505 -0.026080746057896727 0.33590242062956827 0.3079856074281539 1.482328919067405 0.3669075479405736 -0.5438456467710647 -0.48939326922664145 -1.4970737318185652 -1.048194304642495 1.3434917473411903 -1.2581761314645397 0.4769848512763653 0.10955235914303933
558 -0.31764982187049984 -0.8202704259728657 -0.37994304669203693 0.3519757433361532 0.18159939567919203 -1.385011061004637 0.5728325393907586 1.129222411790544 -1.912875956058517 -0.2825898199930662 0.29444281429029073 0.49337611312411994 -1.200289081103682 0.7262462452054155 0.045496578684341954 1.6068802428838371 0.5981895344997271 0.2864774566970861 0.4619304311031446 0.7608294288768067 -0.8929404819871202 1.2166787114581248 0.06894856500323032 -0.5341543218012593 1.3837824561582452 -0.8461171070955452 0.5011504785680467 -0.12441037720415558 -0.5555620226377499 0.3120990339186734 0.5467168771500581 -1.2067285583307046
732 -0.8210594034406541 0.33465178105267746 0.9784866239691299 -0.21169325296957286 -0.3903181797380029 -0.9878839596950316 -0.6522039247167344 0.8614888021497592 0.7336722688166639 -1.2123083345186907 0.5802754685905921 1.1135412207862365 -0.7825100262119893 -0.11393261531914033 -0.6320057067493464 1.0595622218583123 1.3325539818510708 1.5236988515313648 0.07893503141579108 1.4996162845407106 0.661925804365582 -0.09917503173260828 0.7248656522931802 0.14417323386263395 -0.6894678323565564 -0.715543137064554 -0.45904583135320903 -0.6411468882265997 0.9785638776423916 -0.22827589209051552 -0.2705009084613587 0.8140796266411066
776 -1.191325979277943 -1.014669706483174 0.11961293955170893 0.09455543489002126 -0.44257467196747463 1.3795625820234116 1.2430128609096145 1.7147005942743712 -0.07534601211027181 -1.6560067060939987 -1.2608750904763752 -0.7163329126892461 0.8019491046281368 0.998458022330582 -0.5354309553117794 -0.3075451016379659 -0.7708897952829338 1.015947026226608 -1.815451735912051 -0.2748296611405549 2.5857202999512077 -0.6498942289108246 -0.9698262726706668 0.08478676239555738 -0.6945807114980764 0.1084629815188195 -1.6234309417345636 -1.1809519479226633 0.9741289876009074 -0.300812157576486 1.0271582701376467 -2.1232952128002114
864 -0.5832078540089575 -0.30590936185939677 0.022900706507048518 -1.0377471891038939 0.6523373752243721 2.067942592708714 0.40109261265734625 -1.1206453917314128 0.6826422159993559 0.614805625234703 -0.19872643229967887 -0.425336368658633 0.836392129041441 -1.1336521067946792 -0.06500915131243246 0.4611004014794193 1.1897632189448497 0.4245750485984809 -0.3095228463876797 1.021209801316532 0.5915092629995993 0.23422818639060158 -0.25600042299668124 -0.275718261917209 1.4374073182011098 1.6087152086942198 0.08167769314726313 0.2888274621070994 -0.5870624275888175 -0.6896623200488878 -0.16832026183497764 0.41465988084178174
933 -1.8528578193058087 -0.28084188568291235 0.23534333314835526 1.0662733701974882 0.5067526948857626 0.5925287554439891 -0.8812994773916999 1.0907434560271079 -0.3105599771519756 1.4482749737495648 -0.1726252553773212 0.044981542874819556 1.047784554807411 1.2005177916552452 -0.23176094597590735 0.5678681165567996 0.8982477324218188 1.7319349141663642 0.012615455297872311 -0.29673829871181245 -1.626725483786744 0.154195746575582 0.8575648023876012 -0.3304761257358632 -0.5213849645534838 1.3890823338376403 1.0331090170980397 -1.4968395990404046 0.450675954324743 0.6344796802185152 -1.153224981341837 -0.6428069799430243
939 1.1795694443861167 -0.2213769721631905 -0.04138214563183614 -1.0039133360012515 1.4406463957796432 0.6299449545294653 -0.03183099593844852 0.2664111687506476 1.7492465750621293 -0.3204550011917266 0.22602587597459264 0.7562048847820815 0.24950988585333944 -0.5078882182136577 -1.3426616186664395 -0.9194551287959261 0.3732227230922535 -0.7453146650506783 0.7244558517257267 -0.07042807992325806 -0.2669973749580451 -0.24395239495521862 0.21064361734956197 1.4022806351619923 -0.4415290927502496 -0.9312524565434177 1.0095880374037813 1.8037208435951635 0.6411968934579673 0.090667479186375 -0.3048053482418418 -0.6738416622019868
1037 -0.5611595033938499 0.8312187351703992 0.698203750380993 -0.7940298929319889 1.0191302855784188 -1.765085246420117 -2.2943170986821224 0.2816010637207054 -1.4923470738579598 -0.7078011283025515 0.9023141930367944 1.6038537031966018 -0.135495918046845 0.7325388181030462 0.2392362318035832 -1.890601651399961 1.6980445303390388 0.20392908671954935 0.8821501699689901 -0.9331196571747337 0.7984659193142414 -0.1620616826127951 -1.4130227298800953 0.2644548236242082 -0.3396107903979361 0.9409697196327592 -0.13800441256755813 -1.3705002218387146 0.25344892767940697 -1.6118089968696252 0.6504083302667856 -0.10295960302770676
1092 0.44896200829192634 0.45286301254554606 -2.2294547944725087 -1.6468893241920897 -0.3556115519806519 1.85108599996219 0.09254307635758112 0.21989581163046668 1.2745849406382377 1.381087445495125 0.3227794434455106 0.11636264159404429 -2.111801444875457 -0.7430186889959548 2.864651178537404 -1.6566522028248933 -1.247256855874915 -0.026694543772344086 -0.49883078591658847 -1.2788979518244596 -0.5822699155301546 1.978876557094032 0.03962127297072685 1.091140874553119 1.5675399155127352 -0.6941342671955572 0.2480802350907202 -0.7238230741255821 -0.14161216550502115 -0.10405656919492956 0.43612752407777006 0.3027872708496593
1176 0.4824835608269798 -1.0700047975701739 -1.62527418141208 0.37442007496247626 -0.4467009070780847 0.031310131796864774 -0.5642582204454688 1.9425030982167633 1.0474169037779801 -0.11009019121112766 -0.49096777755563714 0.20117683021827315 -0.5145094232297072 1.5374002066892836 -0.7579097258647917 0.18276045996898868 1.2511841030344648 0.5496043851723981 -0.7513611791798686 1.039969846595721 1.1357135538144603 0.957471042853365 -0.11090090153769203 -2.2799973686988717 0.31265004562277443 -0.33998059892077664 0.9763298417955162 -1.3858190674100823 0.1599585180619676 1.738609008242633 -1.4600694378964996 0.5877683151349908
1313 1.4080105836048205 -0.6037739414946911 -1.4618935387441954 -0.7341673601610502 -3.0058493466870124 2.5745976278684375 -1.3940359258732429 0.6276350378884362 -0.6509934337496248 -0.47187713956352717 0.5312152268841626 1.5304417820990872 0.22735177419611186 -1.5468821965522859 -1.1854287111722033 0.31607861169026175 -0.4904485831262859 1.2876185525382962 -1.0884174340302768 1.5451676126058977 -0.5963596447769961 -1.3590856257243422 -0.025570099238826166 -0.7325337540861837 0.983272876819927 0.22909310278434347 -0.5272533677975643 1.2720185724705104 2.054216582937814 0.8129450895830659 0.825238668844657 1.3823637115668226
1478 0.17877343467156812 0.6795653088068173 0.8700472245143894 -0.011187598809531964 -1.523210500109761 0.35643409038171664 -0.37833993850553227 1.0568161480100955 -0.7243332547811125 -1.9756028169122757 -0.14443297662219312 -0.5389500220705391 -0.2103052215460309 0.8108008890500058 0.6433202003459927 0.024680746821160168 -1.085832986015168 -0.09067459536998604 0.4654146855058329 0.5345683692665973 -0.5980876753542812 0.7157865027295666 0.8018354147570382 1.0396904736554178 0.6956531151607577 -0.006655266599422946 0.9332117582842808 -0.36444644511329505 0.2547713676309085 0.6002556992010428 -1.444383197304768 -1.0382730426774325
1499 -0.4080998772678846 -0.6439183089927518 -0.6870972788584035 -1.191902398825885 0.6300414253694072 -0.4146304911048734 1.5744179557768645 -1.494164971105813 -1.7229378952085217 -0.222259340996251 -0.227831565002503 0.5703591993204458 1.5593478491289536 0.6907000480805789 0.48908586914062085 -0.5231623279922153 -1.7512821561692566 0.4475795640432121 0.08881027337295061 2.5781415107723857 -0.2842674585228219 0.016041847581467233 0.6214341214162008 0.7807250928782319 1.3269281480143176 -0.8824384886119578 1.4979269277519554 -0.10807705269099278 -1.3860654801563856 0.5146986470314652 -0.7625397445806845 1.6361672496803175
1596 0.6538871060811885 -2.0222491381153858 -0.36294938067190535 0.3971873824934422 -0.48631859267584354 0.05297890362966536 0.8590620112393177 0.6356983137099195 -2.5873386962443057 -0.38848893273596885 -1.4833196174460788 -0.6656533341581992 -0.4181099065285834 1.4955104604563088 -0.8398692464090606 -1.3685343310950535 -1.0930568706874169 -0.6675495249517152 0.13067671894580082 -1.2592539536722966 -0.9565230123869904 -0.5765212003343474 -0.3092286755722562 1.4165450554472627 -0.6593861441883776 -0.10290558194695078 0.9508430595056898 0.34960569032846806 0.9823962004874036 -0.7151791837964041 -1.4546324900778078 1.3451434186809652
1608 -0.005941316226117376 -0.5235104811954205 0.20792930875669985 -0.6471100736253489 -0.7015447752801216 -0.3037915190180888 -2.69263794325356 0.5374502680320072 0.2621964491512776 -0.10426902203292451 2.038265482422739 -0.3390700300757727 -0.2980533248233878 0.743223363593894 0.5355975610492281 -0.023584403836583393 1.560098375194248 0.3856846554943394 0.951411030891355 0.10661784702525252 0.26447371513634493 -0.39651530889977216 1.858301220763043 -0.039947590260369946 2.761428028600141 1.6239375626723351 0.6733387953217357 -1.5120986938352068 -0.8236571870520523 0.19971124240225813 0.44166730857700837 1.236641338214762
1621 0.9309620683057087 1.4653625813404205 0.3502966356744068 -1.139577615066542 -0.48789626899566063 -1.311362342140336 0.33736255850095775 0.6714338631838105 0.15500591659218357 -0.3346326822767823 0.7230673404837179 1.123308418357653 -0.25544859091527644 0.6113749364031208 -2.988783500011641 0.3453373603497464 -0.1621967983517181 -0.17799994645782408 0.7464980412163226 0.8150691902295836 0.6703787331702749 0.18923511126988438 -0.8287004239781925 0.24789435347397493 0.6918616171709425 -0.4693275256510149 -0.21514154309419706 -0.3949782964498108 0.17439757460722113 -1.511982070508217 -0.7030387901236745 -1.882576666304453
1637 0.3934440591829148 -0.5916173993958732 -0.15889809131949573 1.3767258353083776 -1.5065778542549473 -1.6708000563508105 -0.4196215297066005 0.3982626181886811 0.1804232681315473 -1.4661697314149773 -0.17882169969300396 0.25105548062551747 -0.8721670881780165 -0.36170701313513715 -0.7395502889363665 -0.05586745961177533 1.7889766231839654 -1.0498745664453535 0.16927255691882448 0.5071180537016136 0.010256080435306838 -2.5490381949065375 0.21129519573082517 -1.019352655895808 -1.4448953443604546 -0.11640636625000447 -1.6035522856189872 0.7737223777163081 0.4254668492080819 -1.7926651564003964 1.5732848061126474 0.4081631118463787
1717 0.7646628515979379 -1.7753351992762718 0.6394920312925942 -0.25866398448945893 -0.5594803143880389 1.205159201638362 1.73527798071238 0.901545756837235 1.9415289874416917 -0.511523988659132 -1.2690417956551572 -0.6136305729895785 -1.404472043124788 -0.022633013890884193 0.33445030844312634 -0.47711092581835596 -1.160677520391538 0.5687127330567251 0.7217114022501607 -1.766017923946036 0.7156376948575561 -1.5857972389159345 0.5710587278525496 0.35077278358773073 0.9877341668295553 0.36364000067425684 -1.5915090673134646 1.3699537683928293 -0.6473457047605192 -0.1959051199974602 0.8846814089800498 -1.3700837315277188
1788 -0.14741331571152072 1.1191249808971995 -0.6754131705713592 0.3591266646131961 1.0081242192536222 0.8352021665202308 1.495879018703753 -2.157596827496018 -0.4331627773649516 -0.5837752230976403 -0.396779720372327 -0.42746211992569044 0.3387207446073318 -0.39635617240162013 1.247946126864674 -0.27421979882965886 0.10291359923796005 0.5397854680450908 -0.7683195770812868 0.7238007182900531 0.20897875008243727 -0.3079453663440883 0.8455040948406753 -0.2867329749017237 0.5205439710800388 0.9076240530842363 1.0609541822230737 -0.6897924788564915 0.09622571107316905 0.5971026626618293 -0.4807737919686545 0.7972504503407966
1919 -0.18178540229594045 0.32946743834816294 0.25864107941176756 -0.6906106985861346 0.002807956476948546 -1.0451418824160734 -1.2139491658255297 0.5103842210445704 -0.07517973048714587 -1.2006195353451512 -0.5092781612822522 0.3549154502986204 -0.13894198045562775 1.9837487558362945 1.798087872279501 -2.621047372276443 1.1756666652435486 0.9763988291721221 -0.32990036054466404 0.7049278137416238 1.3699013168084586 -0.8112576576112088 1.7449187629272491 1.785866353964142 0.12772793625588585 -0.7821685106411388 -1.8505572128690944 2.0705098333157608 1.2906664149622875 0.05541473370864949 0.86780698173674 0.9764788240185194
2004 -0.42986320129829136 0.78438997713227 0.27333298367844533 -1.5858769464818785 -1.265002481053124 -0.6958191847679782 -0.9379049183712119 2.277062552987844 -0.3449564186962859 -0.04759980962583891 -1.7006232882708783 0.6865652601262126 0.45242793316604474 -0.959017654628382 0.7402438083963923 1.1390241597491275 -0.25181159725470603 1.386514649737091 -0.34600714798492305 0.6013119892428113 -0.032936575756057844 -0.08973814420120048 -0.7038278695158545 -0.37596576005816246 -0.8402939287456548 2.40906663331885 -1.5241205975109031 -0.028044351825301843 2.3169875546499 1.4591005618150883 0.4487418522230104 0.8709216911600359
