3906 32
729 0.5405758871811662 0.4518188735046213 2.1226896346891793 1.795823202446989 -2.153684726188912 -0.9921606803384652 -0.5276461310221063 1.594195350392758 0.007061237074344211 -0.3175798155170309 -0.49253103510739704 1.5245783290877202 -0.8933261916502176 -0.4752871336489259 0.7443058036213157 1.214691264899724 -0.6201456134616185 -0.27447904520081834 -0.792694482858903 -0.5332698724564698 -0.11523164329199102 -1.0430219134631893 0.3072381788412208 1.0189382907639408 1.017801665195596 0.25850187992040397 0.35301025958892773 -0.8161920864571391 -0.0037506921872851023 0.8793988410626282 0.6981927751007357 -0.37587262719188574
1 -0.1337227160039103 1.3512809203971523 0.6368997069128729 0.39716595603808874 0.4756950551191158 0.6166331732152691 0.015093772485028651 -0.35401185251403944 0.877518138931788 0.8539135296484616 0.047639537985679194 -0.49919692081976896 1.561337547171794 -0.01885178487111476 0.15445915047787126 3.0686104928707305 0.353408892160645 0.9731033185244865 -0.901351641432258 -1.4496581839051805 -0.6732352349016892 0.08951632357810209 0.1438043480161307 1.232693975151563 1.1545751855724182 -0.3936094138668936 0.35641846466204996 0.32948391655386344 -0.6597611100763083 0.2758532282852831 -0.8784337787458458 1.2958523606604022
335 1.4246021074942863 1.319659933428726 0.5060063187701145 2.04411620887649 -0.6083375218693022 1.1748556295630521 0.965509399006897 2.443678636678911 0.6198630439079856 -0.913262967551734 -0.4056380449084787 0.8532610189872704 0.011975404260778148 -0.2502235344471847 0.2268532146357905 1.2633695401859393 1.9127337281748666 1.6103979797236418 0.8465790742417045 0.8430324743647475 -0.05063282294084605 0.5406153477884035 -0.39249957856123385 -1.0048053651239428 1.031551000104515 0.659825630649654 0.7795421933488033 1.6005292333591645 0.3189352968306632 0.48883323619361707 0.13018307986180108 0.9800910650361189
585 -0.5854160392387936 0.514360632830471 -1.2385312790366028 0.1750606359138113 1.1508001714748712 -1.3278087542820671 0.15488897736434987 -1.799724704140455 -1.2258337013346332 2.4557842823401588 0.07305849160394234 0.9075434819135922 -1.5275019981447382 -0.5491358078622472 -1.402824497248385 0.4859388291542897 -1.0224615635504162 -1.2829692927563612 1.031397450086441 0.5357910180541333 -1.169376209253877 -0.3602979172166682 0.6077247664691692 1.7675479580296611 -0.16037248298675758 0.9954728627653934 0.24260706765511783 -2.8390224564817665 0.0631238432845034 2.6610441546915093 0.10526841024342969 -0.30605094924750104
674 -0.6806073669388776 -0.5850217381520847 -0.3850086281883951 0.6397325269375753 0.30432298617549297 -0.9179440360603153 0.5289636845921134 -0.23310774863563005 -0.4791335531501542 1.104598284918682 0.21841464153182058 0.6005460375627971 1.1423165304605685 1.8008912668673422 0.11698480295843637 0.45705280009388627 -2.6519375233921414 -0.3910828837727743 -0.4644295212224834 0.6914180340501227 -0.7397150567057998 0.965952316979935 -0.19905686383221877 1.2694041548568766 0.17012936531670533 2.1090007926239402 -0.8128025257444734 0.572288079729664 0.1671741428581601 -0.3050240804406302 0.7633260115567043 -0.38296238912202285
3178 -1.0040095112683884 0.013306567066760344 0.5027340402862845 -0.31155186076872676 0.5531399737991298 -1.0068185075868354 0.4590112154320388 -1.8103022300833385 0.4657411899731599 -1.2171579236248806 -2.1718284046239225 0.2892035041539698 0.3912475315284134 -0.5723514453170563 1.3281642396971742 -0.3876161851041289 1.2265165476065532 -0.5535986555116508 -1.4531514292321022 -0.17553177675989523 -0.3235400742956358 0.23450575527165826 -1.2533597041884061 -0.3720882286686105 0.1224760976335854 -1.9785369383446059 2.249949374919563 0.381483063669554 0.7336789473851182 1.105534985239742 -0.029822859109706223 0.26336456056212565
3715 0.9174291462300789 -1.6198596464475319 -1.9929828523932867 -0.11941354461115279 0.13779747579350277 -1.4024661050271707 2.1643448126806732 -0.8422645802855199 0.7183761915594324 0.7136185287992552 -0.04028403929583425 0.4756506166021939 1.50760842373966 0.401003964378417 0.9837914171489076 -1.7355824772081234 1.7474432401339297 0.06124536511786324 0.4227890711291233 0.3626762040755597 -0.7557787941929306 1.2678569029695324 1.551620110754539 -0.9807672121262785 0.6562210296059078 -0.9634332283967942 -1.5376042564045926 1.2415897348708937 1.1643547537107648 -1.0576278317050407 0.4118688268208289 0.06036040605429816
50 0.2642617005056334 0.48286419663276237 0.23580981481851576 -0.7682851765353167 -0.7966581748898328 -0.6890475856957099 -0.27240534767340857 -0.36256753654672863 -0.3757664188898992 -1.2270278540681359 -0.3323403240781272 -0.30991282439432066 0.9373202754933853 0.4820554604418999 -1.1316432314068896 0.9295279590166932 -0.6631310934767649 0.49441941643221393 0.08567647253657745 1.9827640096316674 -1.6926479847735558 0.29413238197376484 0.5855960976099552 0.25645745715454515 1.1041763191304328 -0.23339713193401324 0.36012470695859045 1.1483749004668728 -0.5974341160465392 -1.275666172957652 -1.5549660748046843 1.1458028560840616
193 1.0463815045585931 0.15814782885630238 -1.9193689407636365 -0.05616425209487214 -2.4838983742461247 -0.19393276575383436 0.5604994872328757 -0.7385288639478206 -0.7891550408097594 -0.2701175224646112 0.8271970336077481 0.3057407687574436 -0.3459919081776834 1.237895201147126 0.45439961542721213 -0.5622396259870326 -1.0436850974532093 -0.7091537702286334 2.028694688532651 -0.724334012937442 0.7536417794085061 -0.2646929418717257 0.5596162172321625 -1.6399054275980962 0.24854853986770845 -2.347680231021635 0.8277401254400008 0.7066402739886211 0.17585858074770694 -0.05781163071730619 0.9929916392236279 0.632042739674007
212 -0.975648731395999 -1.9270015853107567 -0.23547055004432457 -1.9436260108414662 0.9397804075100242 -1.316940071407255 -1.2793440308387043 -0.04796483239079373 1.0865915766302816 -1.061345296244005 -0.513134550704082 -0.2920017032367021 1.3120718365217772 0.11505536395412445 0.048394360578723664 -1.3670980858981558 -1.1689029122136976 0.37229963551345996 0.3723901480594728 1.3330089373220992 1.2778320635945204 -0.002169097747012812 0.050173229896642364 -0.7721078786595869 -0.05473135560806394 1.6693675589802566 0.015716819288855575 -0.911327410608198 0.2800231113866093 0.3531958101941481 -0.21596725448966927 0.47699064641689093
222 0.519437460685654 0.517812116544802 1.3538378184702133 0.2101679085377447 0.27527102244011803 0.7073897021706028 -0.10182955943420852 0.11302221582162086 -0.9632157476275434 -1.8464651687191593 -0.3949621298554396 -0.6232983633424638 -0.10037156158608872 -1.0453529478824526 -0.5932049813981 0.2943971681432174 0.43396058995031106 -1.0018430401337983 -0.6417944891174667 0.4163985885859861 1.8357445764935252 0.9080193180297771 -0.5656155027980329 1.2633831405776448 -0.695866884679656 -0.9011273802792423 2.4991526721590396 -0.6990542465162973 -1.1941449863934135 1.2482810103455297 -0.5703680204655767 0.6309244183890679
847 0.7028844998730193 1.1449837573491959 2.1767555384308097 -1.8246979295408436 0.23891394760413218 0.5786530443443532 1.3423034182878348 -1.2337482425315083 1.5979123420167956 0.330630571969919 1.410078439342449 0.5575507379387863 0.15303939405114217 0.907162776844825 0.24347689390949498 1.5986996168348744 1.7277785351089343 0.5322941519939208 -0.07603454614712926 0.15347413262507797 -0.7598669082277245 -0.9067525032429968 1.465393619101743 -0.17362641722698902 -0.5168034510159455 0.695393515758842 -0.885905250761242 0.05262118248380785 -0.17788132736289058 -0.026853399523370028 -0.11518645601608361 0.19233356356594564
924 0.7621736884536746 0.4532536624771386 0.009592567479788676 0.11234283551409764 -0.2387374877293439 -2.192059123447464 -1.6286859416284643 -1.0233165539575984 -0.1649128928307783 0.06282869048762799 1.1837858842720046 0.798406733861368 -1.1382117454558511 0.1998343427201825 0.1537054338587038 -0.19813147688838947 0.026751870636740848 0.5271695255855042 2.8302733689834056 0.7326619826303427 -0.07116060391354018 0.295078075782406 -0.23348377914408772 0.2821019517062856 -0.5558747818947443 -0.6506401607334044 0.31981107245047496 -0.6490554706387015 -0.8435573885562572 0.7307082272462775 -0.09912341931516021 -0.12643053310210378
961 -0.76328448872145 0.05158540634315766 -0.18147488699901568 -1.6385885811698246 1.5459001598558035 0.45444087806537825 0.4208277974063469 -0.06392545098662517 -1.399143576091068 1.9795228354457173 0.6289511093613486 0.4198564276688126 -0.4750094274100968 -0.6176044412889418 -1.0013129272280776 0.8226489730827362 0.4701296545375809 0.5424028688521702 -0.7538158185394099 0.7067044171764784 0.047899104547750385 -2.3447608533301354 -0.6715441565230699 -0.698562683128374 1.3643015428018042 0.6920612597006374 1.2707357622835926 0.11049387930142372 -1.8104038934724134 -0.1833806842251307 2.1258596414675024 0.7549721914006435
995 0.902652815797498 -0.5385253253654155 0.5912456111301065 0.5654182411658722 0.09772289394185887 -1.6365946672200868 0.8480356903438262 -0.12717236917734925 -0.4296062917844333 -0.7489858608396184 -0.905625124820209 2.079710988886932 0.6796771648937504 -2.356542175197715 0.3380981734646126 1.0071057183249899 0.39707742873834845 0.6626572439863525 -0.025019702268550208 -0.9854250804788852 -0.824135735842125 -1.1770541110931234 -0.9268819488613421 1.3800952469787022 -0.10755714925354883 0.0046402410383213485 0.649649421688642 1.5101320215190648 0.04206309265970954 -1.3423671548294305 0.1696296294426279 0.4126007151812262
1046 -0.20699061608522945 1.3232627944704025 1.2009439494191847 -1.2982655325764558 1.2994460545803976 0.0966596029206677 -0.8135203009358942 -0.526263246634482 -0.5439332349399983 -0.4957840112499092 -1.3270330448113978 0.6186111878351381 0.31109387581038056 0.10277628245236106 -0.5338944360518982 0.19175963545513566 -0.15135493475255918 0.3100685765932088 0.758430242505729 -0.5284639751987096 -0.16488953630188766 1.0122908561668866 0.23244679361954035 1.0354036204801575 -1.2162999809250372 -0.5245068806055513 0.48848868689804864 -0.2965503176965745 -0.3026338957776434 -0.6596469472601184 -1.1790287149683036 1.1028365769842443
1142 1.5696910104298154 2.217748838285003 -0.29528955365809934 -0.25843539472945937 -0.4779643468305306 1.203899076927887 1.1821585993450812 -0.2037162506001808 0.35834565881607305 0.3214234378423478 -0.523949240566783 -0.503212419504822 -0.3375297361856409 -0.844221330462933 -0.525191542202001 0.5457165988195003 -0.009268161358589579 -0.1633532337524508 0.23828241088149413 0.9338622942007263 0.8119429002582493 1.5086350857324407 -0.6949623773885574 -1.8498489985894033 -0.5704993496413413 0.5885799860774936 0.6601811288203419 -1.1951348737832663 1.9306278675115882 -1.6219574602845557 1.2452452320869483 -1.109041145879456
1202 0.3696727473151534 -1.0892077423410262 -0.4587161787805979 0.6305508855653986 2.022421002334903 1.5261954647217504 2.1491719421731474 1.4928996240841073 1.244228446446678 1.3717279970582956 -1.2993137953632152 0.4032503147860037 -0.38866825325147064 -0.67915067993342 -0.7499025512177271 0.841647277438053 -0.10924605198152634 -0.8963268240067059 -0.31816151995081904 -1.2657400813420416 -0.12881525317708875 -0.33129499139352087 1.150272536869236 1.3203995557367372 -0.1989453234490683 -0.5626590069895563 -0.10676004226695365 0.4545493415019516 1.0841160342889016 -0.5875069814441801 0.6845288057150343 0.9803842972888157
1236 -0.9515894045234974 -0.2576210121880323 1.5880825448551845 0.696343429684147 2.046905282216282 -0.38981944331996565 0.3848519781824047 0.034452842110988 -0.26766423130604483 -0.6234801365426398 -1.289745270917871 1.6408658104884677 -1.7685914893220955 2.314576819864564 1.621726456867324 -2.1710530078138865 0.6684217560600423 -0.9742354196741183 1.75554634331103 0.7326421695344837 -1.7234318769372787 -0.5065662803176513 -0.5894945586077602 -0.4958494123131185 -0.8180976833069621 -0.2460422655619283 -0.7487823645107589 0.11739508678956735 2.2891127300113663 0.8969977445176225 0.6858154801203737 0.5103903146428805
1294 -0.9483030884090717 1.5693616018843348 -1.9144947773429775 0.6138735367754662 0.17289080904066942 1.010103512050763 -1.5621499389328355 -0.23587306183182902 -0.8930354650509229 -0.7433272206106813 -0.8003302641029969 -0.7896716448225456 -1.599728615639659 -1.3557912901164415 -0.5884537343778435 1.661427494870023 -1.7747987906751337 1.881217689621312 0.37480547174792606 -1.334458506775467 0.10188176131733623 -0.6907408193862581 0.5684250997714897 0.4459091005824286 -0.06763573488958127 -1.2801645761304377 -1.041666919468581 1.5195430001925803 1.252349965711147 -1.0605959819645072 -0.6746474049087783 -0.7959054244061154
1432 -0.8878183558746003 1.2510642122242774 0.0927470235716661 -0.21469690364900015 1.120942970053137 -0.1901550372448685 0.6828405012714317 2.729799869055083 1.035271856016328 0.9441008678113899 -0.8481622387013464 -2.1663801848938973 -1.942089758472851 -1.2397970396956621 0.056353057536149546 -1.1983682789575885 -0.18393883415900486 0.1714372136309668 -0.1461544678148314 2.3369937543859867 0.7057773788673339 0.11804238539063916 -0.8756486136745252 -0.5867254538831191 1.2219052129445505 -0.3953865132680871 -2.1395762107432885 0.3806941381292203 -1.8317804008773304 -0.6867266572355788 -0.18729438213036956 -0.08594129238341087
1489 -0.45435919155775883 -0.8399457166920381 -1.9297444839887101 -0.4643457537042527 -1.1277220837543407 -1.2308927246115435 1.3833592167025655 -1.613489496052034 1.7260193161021158 -1.4472239081781857 1.219681585745392 0.38367521309037994 -1.278983721209917 0.3458440579951634 0.4596409339453037 -0.3830895166267681 -0.3914344592956842 1.1441817796118003 0.813656744581907 -0.1707951495942376 0.8200236497411355 1.6225858483020008 0.5890380644650781 -0.5709696583341981 -0.4545803363412298 0.3464150604896356 -0.9412058018257733 -3.304910159405778 -0.9079504320033026 0.04104933377681587 0.8542645260490351 -1.5689633057948917
1514 -0.0923179380133913 -1.5992682250287227 -1.6502761342027803 -1.2686241558844058 -1.650214945592667 0.841915149209411 0.5741103325835082 -0.9172797347976166 -0.785097313549177 0.13886801036976565 1.6137850256441186 1.4432146691462286 0.944042521998215 1.014602331653922 0.23853755223795287 0.9498897997147681 0.16813900688429423 0.43979134043461665 -1.3872523387761195 -1.0515114327017647 1.3891719062282908 -0.4014132904026341 -2.019794519178626 1.3681397213947772 -0.10416953251900753 0.12762450660384062 -0.749863198033013 1.0431658252797489 1.2141516735012374 0.6999224216326392 0.14324056392898196 -0.8046581555593285
1552 -2.461166312328744 0.2256305085596406 -0.26034813464908196 1.0319138661248937 0.8607003387684669 -0.46771834779429683 0.6976586278301229 0.4923423604375127 0.9708519209896227 -0.25934442759645476 -1.5522933284620033 0.5785937996108682 -0.918982118757945 0.03183545674058231 0.7386012049517003 0.40555705045301915 -0.42423914149337044 0.20189363884440753 1.1484618730273513 -1.7653282290157872 0.3453701882273493 0.9774356605927524 0.39202914106237763 -1.8012328908586186 -0.5169942112289306 0.02898642519398345 -0.6123965925024851 1.4185334672334184 0.32531666324284336 -0.307990772795324 1.6778130685598078 0.2427563050960902
1560 1.8912898166323266 -0.23228512158669146 0.9662427820465254 0.10837407723162472 -0.7400466461722254 -1.1310982701268213 -0.8043928445525222 -1.2710036331929535 0.26124482377500124 1.5101639839554486 -0.3716667466072109 -0.843235223305675 -0.1754608337188741 1.239130596560956 0.051635399173023934 -1.5089275997971705 -0.9580488020641171 0.2157543893020721 0.1865528643998249 -0.5428812533639589 1.082813027017142 1.0231868399699389 0.8155272491444182 -0.9182787578871193 0.43920655057511065 -0.8466666291474961 -1.6009647713535065 -0.045534377173636835 -0.4850924294253844 -1.0678393764385403 0.9792909140051919 -0.2528319666526247
1580 0.4561367550159491 0.49801865005829854 -0.9690963253978879 0.6070589839975569 -0.2325067222827597 -0.5736199355431881 -0.7793980724766453 0.5490040953128112 -0.16710106400347063 -0.16290574243083392 0.36550297419754557 -0.9416999398244249 -0.36583364684830444 -0.38858528985214313 -1.0765502933770328 -1.5786883666248255 3.101904820107164 -0.5345225599034779 -1.2365149107565858 -0.06268322546923907 0.10888592335803318 0.2946248171619536 -1.5905041319496234 -0.28000306936690883 0.38020701223695974 0.9327201011546752 0.9121325030556885 -0.7268913788372174 -1.5639448556025417 0.04759868771783759 0.8705044423587487 1.0226542724642174
1810 -0.5586936415991701 -1.0509971744796482 0.3469919710838178 -0.03667840529688353 1.2412075736536636 -0.9859533579067892 0.9908259557508658 0.6600413817833316 -1.445330849395773 0.0379965331342698 -1.0051642670849072 -0.026835457622503136 1.8308287701913866 0.8534844289622647 -0.08188449144800365 0.8383629275844423 1.7651246030574763 -0.30342875062715247 -1.362419717646172 -0.20217127254065037 0.5590209915092161 -0.5112786107539766 -0.2337051951789108 0.13809850727367434 0.7263235896306105 -0.3356274030587542 -0.21049877021643437 -0.3567476557728 -1.5697590963043828 1.7763480720966858 -0.4530755192863943 -0.6001284823838835
2050 0.2054822336046654 -1.0525716606573385 0.9205255299074371 -0.5028187443348787 2.726129148659598 0.5665095320666295 -1.129259816670223 0.33810351616649226 -0.9121266304457772 -0.023181097362254367 -0.747803059560031 1.459529406698222 0.41847937961128306 -0.05076729138748689 0.4697492025045235 -0.46020225236803114 -1.8122292524697325 -1.4093802831600946 0.007232818294310219 -0.9195332942984755 -1.3004739181801943 -0.5541462509462362 0.23823388872757095 -0.4396210935715205 -0.9174547021403893 -0.8170559577004731 0.5333472534434824 0.6524078253628253 0.6332592006000475 -0.48848419911549934 -1.7759345902313743 0.05997385160098097
2237 1.1803131399503621 0.23048521565711708 -0.6868264885940952 0.36693961128568375 -2.0924746905347056 1.7995149098610332 0.6785148956641048 0.37428023228637847 -0.04645912036052681 0.8120950715229596 -0.1530772036679275 0.43651223425202335 -0.7314997850784901 -0.14942416633314373 -0.178108090532389 -1.938021258401976 0.2554018437029462 0.3782273859208376 1.722429667662473 -1.0028921211063078 1.7922713695176462 0.381995856253916 -0.8398796788783883 0.4490683251452093 1.4190418989625824 -0.23118624558452952 0.06016271603850546 1.0745538366862122 1.3484581171357837 -0.13602144791327397 -0.8404317167685 0.5241343531077599
2295 -1.179522995863532 -0.1573419164096351 0.9668859627140443 -0.854685279195876 0.14963682757251887 0.8988051675648594 0.3758057945886619 0.615681550185553 -0.39014201302293705 -0.1095845348794467 0.12157742944307695 -1.956307981282508 0.3586643620347611 -0.9346176731115466 -0.21667940631168592 0.4629201194321011 -0.4918979807742015 0.5142692898743018 -1.764810482704815 2.5310164518395766 0.4838349509151917 -1.3790101159123413 -0.5958693082662158 -0.34804062564799604 0.8226781383961084 0.6406999187826622 0.48651697174876485 0.6330958564420153 -0.41488783218226843 -0.6226415128196509 -0.2043947663815933 -1.0689168113104153
2689 1.1775324388263326 -0.48944492237315307 -0.27865734761413535 -0.3118738877292385 -0.9241619516960133 -0.12030672865619135 -0.12974783083269179 0.00677263043435366 0.05708682301740311 1.5812940125044936 1.6911918359560785 0.48408925756999954 -0.5739155822875098 -0.4951178342430679 -1.1264146106002242 1.9281620870705016 0.44931039442530657 0.09598071094626479 -1.4571882704976236 -0.957317377337605 1.688659056272595 0.6176258402613329 0.4097726577024236 0.02291093717174754 -0.1686897879691044 0.8381704632961162 0.014221279951060074 0.46666532510641806 -0.9866594524129038 0.661520353043696 1.1773758408639703 0.3912602836441347
3021 -0.04805283134511885 -0.9628734448714358 0.69489811301201 0.034823241945595884 1.0590734828364428 0.5354475411560082 -0.5293614469421107 2.5189237555506363 -0.2805494523954445 0.4265919298080141 -0.29148693402418163 -0.711231429405772 -0.3435864129921947 0.4386972596397073 0.14309064145950962 1.0658407229049818 0.12793737129361454 -0.4339779596043226 -1.8125285665040995 -0.428429404332624 1.1184748897333203 -0.03669226821212692 -0.5673840934811256 1.6619455436056156 1.1538324332409142 1.0394671805723603 0.01301542824126015 0.4825218937038703 0.5964791652939044 -0.6756204259539945 -0.329589439100539 -0.2137524991828842
3038 0.020674249311045723 -0.24324841812042594 1.0166434009676046 1.1647182487791712 -1.824348664886106 0.4396566101957208 0.2311089831193938 0.8674127945947117 -0.3377984053621188 1.5738713812617802 -0.036847454024480454 -1.5599270445709315 -0.10949107770533952 -1.8241547882728644 1.6471943725378717 1.1727315445273057 -0.23496336283053154 -0.6612504838625195 -1.840149010580757 0.37539655322677157 -1.06634271671689 -0.09133117832683436 -0.02094941418708648 0.26695216895277607 -2.8235787890410067 0.6580833110353871 0.9755173910455686 -0.23265521153243368 -0.06197216088434481 0.4749935516232122 -1.2267972746236941 -0.9454730528364775
3283 0.2582432571064759 0.1696604312665531 -0.30956298958443074 0.909045813046244 -0.9662012050826244 -0.7559687551168061 -0.40594167302760353 0.19167893533491612 0.13530253320368615 1.5491055919736756 0.6041044938611361 -0.6432364237473529 0.13548911066461888 -1.1556125024063741 -0.3753594469241135 0.1747344350322955 1.0863774410473865 0.6547759622837025 0.6656157394544863 -0.009223274857424078 -0.40581996487041516 1.4263592523231219 -0.5186234109779226 0.9889261033809601 0.36676758848880114 -0.9500653584693146 -0.2064799334657026 0.5978836672495854 -0.24219929999439965 -2.0148342966491444 0.32930809152646656 -0.319375454221666
3489 0.5044663772311513 0.27059980143022017 -0.14648738832576533 -0.7953437540488495 0.9857206400253058 -0.0903118312222103 1.914483158122401 0.1362731568580228 -1.1275440351779824 0.08726389444830801 0.6559240214429957 0.21714260803492907 1.4085877932053474 -0.10391068656920108 -2.429292249114689 -0.7737357577051679 -1.2295369454826477 0.9407374005955841 -0.4521013676414782 1.9454641497804703 1.5926068902825217 -2.413104529765234 -0.34232461059585517 1.1968473340436407 0.27522509066190726 0.4150216977969859 1.0906107289230051 0.04576611456398819 1.037173302541076 2.2897076236228924 1.423530262481448 0.21921394224605092
3583 -0.802894574009229 1.5223916319925195 -0.4557196157748164 0.695188318975372 -1.9469226540114792 -0.38747329708889255 1.0654408123385146 -1.2006178080826373 -1.070554757658362 -0.7322843936569634 0.2712602397451598 0.5523154054571562 2.493050116409791 -1.180042375102965 0.019379897405905292 0.16065566516245747 -2.2824224317483077 0.27299184010411964 0.6171521229014212 -0.41732597447412234 2.840130023134165 -0.7793063921101369 0.6796520861439228 0.440318364812982 0.79891737556046 0.10350640896039362 0.28874912204248315 0.40946909756821354 -0.03408579065206713 0.5280942927881744 0.6096174575588116 -0.43464330626367575
3836 -0.893394864887985 0.3950480084625797 0.3996204521369767 0.6130517721676593 -0.09963314904497036 1.2432499134530965 0.8276969478375394 -1.5141198478828988 -0.4889392481426787 -1.0875928623318543 0.5443314017784547 -2.5621206457990615 -0.06683131193372356 0.37404253124812736 -0.308198808839078 0.6172527300642044 -0.43435737370029404 -0.7921471462688635 -0.5728094329025795 -0.2118902103562277 -0.9167597219942364 0.638511234898347 -0.33063447060726214 -0.380320533645412 -0.8160969175877117 0.5604499300433219 0.6354859728004494 -0.9843366683791104 0.20291860258903657 0.288813731761669 -0.02422000750607607 -1.5775552487289783
161 1.8281296584251012 -0.3130011177841339 0.802548549104364 -1.1833187844527113 -0.39090062130429354 0.2081788118277857 -0.3922993968725536 -0.624457158694705 -0.08178199006930764 1.4507039358090705 0.1539851333138426 -0.08848002615293815 -0.09986584989251343 -0.38683049139137365 -0.5595117611845584 1.4151950259131292 0.5386896567849561 -0.33533454825825315 -1.3431239787555864 0.08640622765213406 1.2510422951321374 -1.1143369405908432 -0.20445759825502785 -0.09392778508032053 0.5140440035828646 0.07496394061797845 0.1761592774862336 -1.1760231936558263 -1.4288521255166886 0.034499019705622164 0.0016827864575305967 -0.687356039246815
2 1.6246029086486748 -0.7134280604266725 -0.8133964481961095 1.745346814754889 0.7975806476840834 -0.6007846054897942 -0.48432401915481305 0.5760079529159117 -1.8197038164375 -0.9928530364171961 -0.3034909063858327 -0.5662782733965419 -1.350704100228014 1.7506773795183037 0.5988388204038396 -0.3956986669340942 0.45942675887523926 0.12731957918223147 -0.34196641890472806 0.5465526704726205 -1.3932686617311396 -0.08654219281631625 1.4358951151916644 0.9818015790208392 -1.3874656829395544 -0.48482703647623154 -0.9645859653481313 -0.07703523317776391 0.8273912009223506 -1.4870203778438995 0.6753318299686708 -1.156335820871081
868 0.8923632067829349 -0.7831756412465419 -1.553880191722294 2.6578527119921054 -1.212901082691849 1.2275085598614517 1.1595372640410038 0.170601907795805 -0.1348667245332198 0.5091021270110249 0.04934234787686308 0.393776434312985 0.8191436587179053 -0.10899686196442769 -0.6274388332830665 -0.04050467120881479 2.168214686445201 1.2173952814061193 -1.038940592529074 -1.3161300802981664 -0.3395004373066512 -0.04010020376264126 0.07629151864002089 -1.0329726732072009 1.3763703984835256 -0.5712902877559222 -2.1253028152104694 0.9963081301750075 1.9297434685304735 0.3890015821855187 -1.044576151671339 0.3550692604917211
1192 0.27863375279318725 -0.08149591194550998 -0.8998505960242188 0.4765867521438732 0.5595823450372729 -1.0365336676869408 -1.7529221281534768 -1.2810942938552843 -0.9979280916454073 0.9272209788035953 -1.1362734300761004 -1.0636500975641543 1.1692438484441006 0.7978877849643645 -0.5239632711535349 -0.4812250766868302 0.6210161451852392 1.0057687648336462 -0.5587641303462951 -0.2685967026875137 -0.11242510469845159 -0.35926162620136437 -2.0374022942488152 0.1328039450127298 -0.07797549931888456 1.122222223860042 0.38548357318827775 -0.9071926321424767 -0.7686732187836449 0.23476499525256264 -2.977885623369829 1.4044683638482978
1240 -1.3030595846253386 0.49547356511550766 -0.1735261126792981 -0.672527549804537 0.042548110431915115 0.947953380651977 -0.40429347612612 1.7652270012946607 -0.965323501021392 3.2886892746624734 -0.7482670581691688 -0.26121392233522905 2.40708541616079 -0.12793914367590925 0.7476967492295515 0.8286984799831607 -3.2886540157406365 0.07309378279316298 0.19364936039324127 0.16802655826707327 -1.1622558312672553 2.360353887929852 -1.946354517493718 0.7258417041779168 -0.6252638325688663 1.5625406537896818 0.8686900709870058 1.372993044368529 -1.3730956860516044 -0.10966955709050731 -1.7589580636946178 1.3676860313870078
1242 -0.10593772731130709 0.6145076417124734 -1.8020543747867095 0.05634133032972826 1.8686627066900825 1.5937016139818503 1.2401477272233592 -1.4381951994665618 -0.6908719220621169 -0.5698469294167744 -0.6707037793515207 -0.49450041093875186 1.1189507109182 1.5491265516259083 0.6651464090784175 0.3376988937660047 -0.9421842474952614 0.04407766036088548 2.0951282048018594 0.4655149930878755 1.18181133510496 0.4387279823652253 0.177722150837866 1.0276140790003734 -1.8074024201404795 0.22477409228614023 -1.9550487810669297 0.662056192254293 -0.8114775708631305 -2.20622967244572 1.0820234882810909 0.7497410279121498
2437 1.9907500668396478 1.3166918500968567 1.3013776041211131 1.2704050225933856 -0.7570264425682343 -0.898988630635696 0.19726692351119537 -0.6577821088549507 -0.6842708716934938 -0.4737695963695973 -0.12864880943606227 1.7522936034047023 0.6602767575697371 0.08675255442194141 0.5249138321886275 0.2894084690232841 -1.1689496331375806 1.1872886064344692 -0.48983078595291124 0.3007310654000912 -1.7907163081106023 -2.681264878416835 0.46706329703074506 0.6882386411401674 0.9679693449509232 -0.7397892581740444 -0.194025668813965 0.3208856520968135 -1.8984065861936683 -0.16393548418782863 0.2647232799910231 0.39634259264233734
2633 0.29867077054964675 1.2409128499379258 0.689406614826615 0.41483385174594184 0.31158114964001427 0.2420691794406322 -0.8330800465823852 1.2150705018595358 -0.4734297160148523 0.6531823359576613 0.7836295140295558 -1.5346955089078596 0.36758990942197645 -0.1724761202453138 0.19057242184403442 1.1561703064924147 0.002208905898933076 -0.1352006676596628 0.1332531024326665 1.3683618653114347 -0.5291213986168944 1.4835449225064883 0.8205192013500385 0.8500262231066992 -1.2913411565229131 0.013247704908794374 0.6372082100112152 -0.024417400406830776 -0.8622561476746005 0.358590149628983 -1.30792244266464 1.4103684673919423
56 1.3959094443626772 1.1452821496474566 -0.5094519789948778 0.23903697593981874 -0.19128637935244816 0.02588659129326696 -0.11291343402438489 0.4482309198108446 1.3769404156211706 -1.084818557134307 -0.07272686358171389 0.4093082658663416 -0.13812969675895878 1.7536766465332225 1.3484299337172878 -1.0149912225757531 0.46771208704836675 -0.9426428084438572 0.09833645650255823 0.471952992187856 -0.9176837886427794 1.8076671161718594 0.3827518602206481 -0.4382274614134688 -1.047870734791573 -1.0454530894670646 -0.7913994920698262 0.13111099612800795 0.5104576974006098 -0.19567621468270097 -0.22065494562327526 -0.5162601186804191
154 -0.28110867801044787 -0.6228260555858005 1.6271011174230094 -0.33996036865050094 0.2300464235204951 0.4715418054284328 0.6800926166040481 -0.6096979440796133 0.5104961303934888 0.8355106243568374 1.078832051278698 0.6260370281018216 -0.7551767864525794 -0.4646468373971841 1.0158867309326838 -1.8519360601305501 -0.5736800317254603 1.7383084154002857 0.5393225775539023 1.1067971590990564 -1.0559395704403673 -0.9844997837414252 -0.10406073229922481 2.203838408927884 1.232790869441918 0.1613963705029815 -2.7881953692328123 0.2824886062043565 0.01134408370077414 -0.632750453596481 -2.1469589294152382 -2.025737417033243
209 1.0376578390053468 -0.6302569331151102 -0.5931449909570355 -1.353218157841182 -0.018528084523947327 0.4215272704250327 -0.5430487698480894 -0.4703792210465547 1.5108406249814765 -0.0695489874371789 -2.506244120228215 -0.7070129405147694 -0.002583476824927293 -2.5560665262303726 0.3778692687417408 -0.9015937134955537 1.8098981741789457 -0.48444584357147336 -0.6794519043835924 0.8876520948782594 -0.4474631796474906 -0.5953365560421189 1.1205508734284881 0.8822763623967058 0.6159375606168579 0.108191572807248 -1.5862433192069763 -0.31661760181106324 -0.08797524136862984 -0.3022823772113667 1.8776810985958663 -0.6557648406637325
508 0.09463067112046393 -0.6552180027217207 2.4467227569701846 0.6780050030525341 0.39900845539202173 0.5195373425820503 -1.0578058355889552 -0.7515528489879241 -0.15462428698444652 -0.8070850279121988 0.4496277221891473 0.01259420264017615 -0.7383827455179574 -0.45558453153628314 -1.5235815405684068 2.2683365537549864 0.6114815009667512 -0.26404001621489037 0.49134204280340293 0.3190889621496469 -0.005982009892210887 -1.7722079084749194 -1.284362290254241 -0.17339916831968985 -2.4754599417654433 0.42589706814983785 -0.5497234922016058 -0.944946251356997 0.7066383324801988 -1.1720390498190243 0.07049228290635451 -2.3534405926471917
842 -0.9840532547498506 0.14181121928434506 0.3454735246455265 0.9990389364435237 0.6041327154425642 -0.48057433821758033 -1.6555176227740254 1.0214967241217403 0.5372608391741714 -0.7902029822879137 0.7367199642632978 0.34645750013042714 1.3650320281334276 1.381712719478119 2.2077267530498306 0.7539356605267896 -1.045170565521981 0.42430024557647544 -2.021158546179111 1.8116122327051645 0.3259041184989735 1.1156502535178718 0.6783408067987253 -0.23079018378009067 -0.20788680990025937 -1.4722672420555105 -1.9132173307294813 -1.5345771587617256 -0.14450581442644242 0.3989484254689293 -1.07348728821666 0.4315936931123426
1282 -0.09682201041706404 0.713767630607067 0.29115398838282164 -1.1982469524647672 -0.7592514063254112 -0.4239065809136011 -0.04861530737553271 -0.4141172820121112 0.5828200598145964 0.7324421707480513 -0.4930188786049531 -0.7075674087093127 -1.5376535386949863 0.35655867710301514 -0.09245685913542186 1.2013234201430245 -1.3171917191183264 0.20757543305512877 -0.6942723821185084 -0.7451587137837636 -0.026655663683346553 -2.100805467324405 0.5179032532940145 1.4414632556103018 -0.3680055092864849 -0.6583213545644351 0.8500339065170315 1.4001980191247128 -0.4990968486821076 1.2919595731654847 0.0841644646560198 -1.0238544709576936
1683 -2.775523785374234 0.3289977447365867 0.007780656345553444 -0.802867441579342 -0.3445500062328725 0.8975987926887963 0.9406760359473069 0.04916535273614427 0.08464030497888726 0.3003548449822441 0.5390592989397047 0.7031721454666168 0.23932727322276612 -1.0574873483846325 0.3019395834964191 0.006953546424963441 -0.42408118591652044 0.30701309252481596 0.09443180171872875 1.3572261935571264 -1.1902932086629143 0.2072687118924967 -1.9247396495822218 2.019753081362348 -1.458671676907016 -0.6101826270231485 -1.6605823470180794 -2.2543780731526177 -0.578950113294166 -0.735291262835285 -0.8637257422128032 0.8962767750892652
1847 0.639917159523151 -0.22320608493910707 0.40396764265560897 0.6688146329166174 -0.7042499469297088 2.343765658902469 0.3556942302191893 0.7701662774840349 -0.40794452450895025 0.2818543911383288 0.9075471770565489 -0.4520423082542484 -0.7217439097233161 -1.0379745082411742 1.589234490387081 1.2998537587062022 1.38979377506375 0.9335854762512126 -1.5112314577602812 -0.5058650761041156 1.5660529875996334 -0.06769216628585334 -1.4579597220213079 0.7699628370534563 0.4218249033589306 -0.25160645291711753 0.4381237795941228 0.19976501621099826 0.8497271794055044 -0.07262879341839695 -0.5757600226364518 0.659979699452057
141 -1.796135485155761 0.8630771302607507 1.2338361400537985 -0.2254091173068729 -1.8439233628177694 2.3177377678393127 0.3547190778369093 -0.044085438207997846 -0.4123772165669379 0.9012848613770398 1.8112594497676906 0.8599078222294956 -0.2949776880883824 1.6432515467017015 1.0396037354391476 0.3825559187574281 -0.23803440280494947 0.2852905562571997 0.19120025039293456 0.6322244322487586 2.1255567142866467 -0.47219605839626866 -0.25755011911764886 -0.618715462391431 -1.213368386955248 0.4860592186486769 0.384443388310945 1.8959728576020114 1.2449056555300662 0.35288595920588306 0.02035531041112021 -0.2667025785840304
1993 -1.085464937520031 -0.5092591341792145 -0.5531606335263399 -0.5040202223202169 -2.009541457185016 0.4613250264688997 -1.951992645944488 -0.49677903487281644 -0.6164967731769423 3.0042430817530335 0.11674430040241342 0.20144126912058558 0.42536051602547736 -0.8395706124175794 0.2672175663207649 0.2795680737560001 -0.3673631136490433 1.821059186047012 -1.8898254067078917 -1.567480503229873 2.0775742377284216 -0.7159402415100573 1.3219529532144034 -0.747604381916556 -0.09875931589469224 1.025805081619607 -1.0071545364138934 0.14159207769378837 0.6140182779421646 -1.3316804780128972 -0.06603585016504455 -0.6391020252458965
15 -1.3249198487677798 0.8605277361372372 1.787594984049975 -0.0780915609000924 1.3773756514744822 -0.8904499560513361 -0.18354242127849266 1.3487294755849961 -0.26534602432083804 0.008517177997045306 -0.6921124357715441 -0.4416838478193361 2.325662021519021 -0.9106546486012779 -1.0651623690188838 -0.9158154920013456 -0.17300481883194813 0.4572199957751726 1.6094526557888813 -1.0537054677244693 -1.4817885867794527 -0.006479244270000645 -0.6264099995341624 -0.2597538651786245 0.3560415893951331 -0.7369136978033769 -0.5372939696090581 -0.08708457617347565 0.805745912822777 1.2208098500460667 -2.1130180165961137 0.6103229147208957
168 0.15250909858645587 -0.3779176352956975 -0.21317658076265908 0.5328595258811101 0.17285151148828187 1.766337626947249 -2.7201721529304206 -1.9448736482271274 -2.2364868936345674 0.5538008760507626 1.1654069712078183 0.2093375655385118 -1.4738532971227745 -0.44022016797673946 0.38026121731790746 -0.06805827842231352 -2.037972347706818 1.1872952164788655 0.18546982179255075 0.5887358069584078 1.6053053304303035 -0.3536770254466127 -2.033712938215181 1.7173227637478339 1.2774489568067127 0.2650200670406359 2.1615238657753775 -0.8607184996357643 -0.7686434767539797 1.4741534171153428 0.2873256882214608 -0.20578107382511024
172 -0.35991899703066366 0.4730347857422827 -0.5552163253209985 -0.20258015603912974 -0.4168855484434732 0.2976885649022807 -0.2737418633729506 0.06413595881351739 1.5463196974497457 -0.5286786805940077 -2.1903521209063785 -1.2438809338506698 -0.2743656139985616 -0.8205391909554759 -0.330730821041335 -1.0825347281607656 -1.7843856900532287 -0.30412095880333345 -1.3511085820109274 -0.09782773933281766 -0.5553535422491193 -0.1319310600934494 0.1125977339542404 0.0949088072642298 0.34029868021609516 -0.05068152589352811 -1.1227843377568636 -0.11903240439835454 -0.8909979365334044 1.3205192164034851 -0.2494696222220492 0.02558428975383508
545 0.31755180358784035 0.7931646701766132 -0.7299010120308863 1.5397949444907755 -1.890332342420801 -0.16078706896156075 -0.4129039356447886 1.484677355396451 -2.6218864100792696 -1.0200171318541498 0.40005197493493233 -0.36568362441179936 -0.6528293897912033 0.4172564522298193 0.6044541468952263 -0.035680962917167894 -2.365381606653615 -0.4481318331446272 0.49808733504443947 -1.0440908278392014 1.888374000705896 2.5266614155373914 0.39546644791671154 1.2402341281782636 -0.7220319233878635 -0.3482722246147762 0.9918621552581697 1.717210450896551 -1.3267253317334227 -1.7538298242435075 0.42200259018996106 1.156662997056657
815 0.2571853736224451 1.4995463853696025 0.47257213759790095 -0.9592818929256376 0.7012702328969909 0.47922979719765846 -0.10384118693368505 0.36864643236648065 2.582820008956284 -1.379966508781302 0.8245577429213844 1.3460807119488956 -0.9420754421887132 -0.23586664527012718 0.519166978067719 -0.32540026511118597 0.5852807235536833 0.5690979162773923 -1.1620427584367412 0.06124620591344618 0.20443863960540942 1.1141895896280898 0.68217640760863 -0.735862948068962 1.1176893063281088 -1.1073067805273946 -0.839597786542044 -0.05108805196033169 -1.1343689331258235 0.41839700171315675 0.20553850743006072 -0.9039512267687382
879 -0.3842057654767342 -1.3825732862813354 1.7033098804365854 -0.16246316433373337 1.1217330625094735 0.5228870817046415 -1.1243853103592545 -0.23845819218885386 -1.2434712613438825 -0.03874297496531114 0.5300575469360044 0.5662314297260764 0.36029795403601483 0.8362807583383672 0.4727631877649869 -0.8733896693255531 0.7736530505152175 0.9573444122788686 -0.18775897752383544 -2.162720197320713 2.257607676638176 -0.7688251925387389 -1.2433853573991602 -1.735043245486193 -1.099630341515883 -0.5630105652565242 1.9454337717440526 0.032655876696355654 -1.0841826788953697 1.6426437580686815 0.2431991798752307 -0.7775607290507303
1009 0.18238897209442648 1.869012921721951 -0.5957835669036077 0.3808910265119902 -0.12231506854414759 0.21290804217663592 -1.3966534666603907 1.0445977829425497 1.4749014682034882 -0.5318360940947681 -1.56022575559634 -1.2378453808097014 1.1442640848846162 0.8322984174276402 -0.30435506870505596 -0.593525713954223 0.0499288258590294 2.365388583079208 0.8448457099103621 0.9750508980494428 0.2220739751815275 -0.9262795518843105 -0.9010096288543906 0.9264207981771184 0.7592389229308286 -1.4192272467794844 -0.7236310915450739 -1.131340669995056 -1.455050814690949 -0.06545343255988241 0.5973048231260536 -0.15439352696390404
1048 -0.45079105510558837 -0.01815692230898868 0.47762082486155005 -0.10987043840703743 -0.9146987471698682 0.28790789534672756 -0.1630777066359755 -0.7457739157082265 1.9101914969347455 1.8074823588846138 -1.5294729197977568 1.049382593229407 -1.4218143755680268 1.132015425834719 -0.9075736954512935 -0.8846813554580393 -1.2317882173056112 -1.0080613271788086 -1.1121564398073622 -0.7732444996179304 -0.9198347821709332 0.49662782018111523 0.5165504932765417 1.6662780336478509 -0.14472138445024643 -0.6300071328462847 -0.29248978244565677 0.3982369204414029 -0.5310283935360441 -1.62045392705812 1.1635767032997515 -0.016529162941392988
1065 0.4294304242189092 -0.4477996464091618 -0.2853301891266244 1.6542911879984168 0.8422149910268378 1.6798239899285525 -0.3876095387446737 0.6105851564323646 0.047020284463807405 -1.14408607506012 -0.046294951095979746 -0.1101439760206011 -1.4326695707973023 -0.1485652235578658 0.1190326540735097 -0.0752258712344735 0.1258341271450918 1.207414801216505 -0.30009972077375535 1.8802035571314404 0.3188170353041722 1.6017452681724016 1.9950567707557596 -0.2845518261079287 0.19810610421208838 0.844490983693962 0.48873844873555594 -1.0690218502963917 0.6513060008433069 0.527162282283205 1.3124518138789998 1.0742806761478076
1139 0.38320917435836543 0.15274450922750468 1.3435303203507367 0.7151963969328008 -0.09456660280132756 -0.7155900311576138 0.35267867726138197 0.16629883601288328 -1.5975279154926731 -0.621691578299424 0.22386973253132278 0.06641292412925591 -0.19136917619511445 -0.7271687319475711 0.7881221752169274 1.6353607108853636 -0.7366553562559719 0.7504678280452466 0.5448828445346563 0.16533945766145047 0.9160683518472863 -1.2078680155039052 -0.028165220385727188 -0.8911581558688195 0.8950428892092746 0.5581372698973135 0.1404938343090479 -1.8089249914236367 -0.9537465516800394 -0.8966681771397005 -0.6390958038553668 -0.0042503510083862365
1167 -1.0081017702399904 -0.5639698943718843 -0.9311690841579431 0.6739997947739981 0.5635517201749742 -1.1189920398549793 -0.3476795127970047 -1.332480593787173 -0.5439985602287495 0.8812295107339327 0.963175817240767 -1.4690473719525559 0.7950149448229078 -3.0882078570879 0.11583415908750669 -1.3177886367795029 -0.4156582734184797 -0.7345031001204118 -0.13903253681846384 0.8645357445984668 0.5336280874203969 0.694530905566087 0.7403047522295183 0.6546283398511761 -1.147445641265557 -0.628147977538464 -1.232769509592252 -0.5122621976785897 -0.6851822238400846 -1.399054272597083 -0.10365015649567628 0.12878124334621788
1179 -0.8100748945740858 0.7597509670437398 -1.0480182040269619 -1.2254110993964227 1.1771827541531579 -0.7210416269825719 -0.8240390460425094 -0.05203765337248624 0.033058094397493965 -0.3505718531542774 -0.2986006804017848 -0.37458287888414044 -0.972776702184613 0.7056965799390083 0.6411338999328269 1.408779627104215 -0.7453866929631987 1.48941687536389 1.0191577677550965 -0.7460036381648472 -1.0428993347736537 0.8223381472174457 -0.47803735075892567 -0.1290547646486379 0.25333483406508545 1.4858989910151357 0.630366448933945 -0.35748411399617175 0.3248992812783475 0.6707564142262411 -0.1740183203390227 -0.013572891284826898
1223 0.9196664042546753 1.0620483353050187 1.7465392250497254 0.08903245831724199 0.16332324362477224 -1.2619730121587558 -0.593336407850936 1.6346416083189799 -0.03844822734629754 0.3238344907117774 -0.13646677604461682 -2.2274089269090376 0.4236076247221363 -1.3932263227667476 1.34412739641488 0.19019128251562664 -0.37887330959601434 1.2712962582230758 -1.192691213622926 -3.2382458547992887 -1.6401039704469471 0.4471535411871988 -0.5855158621328078 0.6941796124920138 -0.7541669461484471 1.2071317836866262 0.27188721693991746 0.5853712111915542 -1.213443799564669 -0.1944026046514462 1.2293939361251371 -0.8351119422903739
1368 -0.8068360709073269 0.15921468810588948 1.1828958574334365 0.04595540658836668 1.7762843784793259 -0.8078295616869117 -0.3307382574025223 1.290216033897879 -0.830564164692175 1.5478935915630758 0.14634272896414185 -0.658936089725322 0.8467912318287154 -1.308635864444365 -0.1264445872623569 -0.03563326045248818 0.7367733929551997 -0.2832489855545612 -0.09588184786545444 0.2777863748045221 -0.34536944270323056 -0.8012697009216727 0.9884040594725189 1.9845055904715634 -0.9551069516296797 0.6817574577210102 1.3750344352010566 0.4341704552895091 0.1446613217020866 1.2371305673929314 0.37046393414629036 -0.6261911503054044
1416 -0.4619641820501558 0.21830680643002817 1.083566461584879 1.0203600510291806 -0.013789408381696176 2.1209820241514232 0.13974282849544606 1.5183664782025421 -0.8560246781761113 1.9366741585290739 -0.8845201296319216 0.7981136919288877 -0.6268147120738993 -0.6090156212764395 -1.1932633580692982 -2.772631151847855 -0.25385334990692693 -0.2968843549197436 -0.6033266314953497 -1.0608809977835252 0.893575561804073 -0.37958303340793864 0.6133290126030837 0.24167561088669764 -0.6181429119253904 -0.038211652488769156 -0.9840582635450705 -0.37330534902107804 -1.2689142424498048 -0.32572677837125064 0.8689566229741935 1.1307875347252239
1454 -0.8905014849079536 0.297555162026156 -0.18238408364168582 0.1812448853829528 -0.34063251994401983 0.013120130161106684 -0.26294378804492835 0.21809329686421178 -0.37217076917282 -0.05892306681534004 0.8500503702815542 0.8351421076200903 -1.0081177937350827 0.5732013270417391 0.6675455539155709 -2.0707723242997482 -0.2822079245030841 -0.8006393422018154 -0.6451396620954417 -0.2279664459684268 -0.14947562549789573 0.33357558822918154 -0.2320792926969395 -0.4308668615138595 1.3899783569997266 1.4152122585760079 0.48535671300484384 1.3787612073647462 -1.993067920282479 -0.8930738034563128 1.0042071787282745 -2.444165415679214
1611 -0.33062299164469344 0.8152594369342945 -0.7709560101950671 0.9994965224756986 1.481649734772221 0.793263936409315 -0.8379258829411789 0.8154053272563646 -0.5341552942806472 -0.5178027641753588 -1.4339365170886051 0.7032671618377541 0.5622023616645102 -0.9895505280099017 -1.6072555730500013 -0.535918781814375 0.07404337290670475 2.429333212627518 -0.013947476353625378 -0.12964702096493702 -1.2297289223605778 -0.9122724281328586 -0.7103297385319304 2.294098266880614 0.1129401761946747 -0.559962932619147 -0.37206843837278136 -0.8581890622283415 0.9074709621989775 -0.4439391913782424 0.7162717331104336 0.6266523394850907
1664 -0.4446451644733634 0.023452522126244803 -0.717215910861111 3.2665184845508417 1.1056354662291434 -2.765983709064307 0.0758096218656645 -0.9317090050467813 0.8174215840856941 -0.20658059842116394 -0.42928145453093314 -0.017798156141047263 0.6197319684879318 1.0121594563003222 1.2039275573564492 -2.4487791732544526 0.8689190217028626 2.0310430814909446 0.9258848088619889 -1.0691920711062244 -0.7530100834082535 0.11372938878561087 1.2356490135701657 0.6778293809325998 -1.394961579173039 -1.0834843679598385 -0.313662223919719 -0.3618394362939731 -0.10906497191767132 0.3552001538920415 1.9359832356930544 -1.3023822040807427
1686 1.4273588803942976 0.03686605925925598 -1.3476120468970216 -0.14126396032841498 0.9492829772000156 0.28932486508694133 0.20828014628687216 0.9054592269559395 0.07181744079559804 0.10979011417797244 -0.8400548663384483 0.7787566599738867 1.6193784888367755 1.0596560106594048 0.6101725065763726 2.225996795156044 0.2806172721451586 1.750788377651349 0.2639337109215196 0.3775641733803224 0.036586902383741515 1.584546136009973 -1.3196500048882325 0.6318614938450056 0.5876158821079067 -0.22933965031354375 -1.8900694057558858 -1.0984728725253279 0.0008530189332433677 0.41249890280617013 -0.16804111311814457 0.47956806377761585
1703 1.0630887845896906 0.13463596178868845 0.14360279304706064 -0.7932123435726973 -1.7448200379719998 -0.00862255522973209 0.5105669272434333 1.3921152548869946 -0.3299864073442669 1.1793283606390106 0.4079201174830143 0.04010501018030525 0.030830341939621343 0.4045390665607086 0.3823421901631909 -0.6043252643885124 -0.8405649775656159 -0.5279181466040862 0.2327364949351042 0.21200167218404575 0.6350658718214637 1.663487303349295 0.9721851707694503 -0.8646176864912135 -0.4672017976740131 1.0041849728576597 2.099777863173804 0.266322139480007 -0.15498898944366798 -1.6414666876991102 0.9004221236257717 -0.8882414870177151
1710 0.1997580801833974 -0.28885874191235683 -0.22038609508000093 -1.1158791598403073 0.22846806385832585 0.8792713772482553 1.4219936282707357 -1.90327513216814 -1.0458835645927043 -1.2501960415250426 0.4805651172497845 1.1113790737536122 0.08230115695926518 2.2808041245572146 -0.03747134282164449 2.692831281895566 0.20667198653184807 0.6006267564975696 -0.4585541734071818 0.20044499113478184 -0.6719247596407626 0.7435473078033402 -1.458692661470196 0.3722186289044156 0.6451605536906206 -0.49328597239555716 -0.39436928139132293 0.36502639966334793 -0.6681069799814007 2.1750982586527536 0.39546129625812376 1.889831273448
1714 0.8851155599286661 -0.9387471392395449 -0.009969251611292711 -0.4288444823479035 0.24562196720406887 -1.3564714326620464 0.18175145425181957 2.855335714403363 0.7127195718648754 1.7504000792638914 0.25118273226562876 1.1272439828103493 1.2175256922771927 -0.8958406554509527 1.9643730053106034 0.37291766824313954 0.6777371567476385 1.1303257917424026 -0.6857639358050159 1.0139589702406886 0.7303425035581451 -1.9899047155654686 -0.06272904374977771 -1.8189700273518725 -0.5060367750132381 1.039948716338591 1.3043880481847547 1.0103169723164263 1.2030511232125956 0.7257282133131112 -1.3669562662579569 -1.527279945554344
1737 0.4574038514257354 0.08453596369187565 -0.4027215902514577 -0.13635571228121057 -0.3984464777697283 1.4175361890782305 0.11014754027702277 -0.21244356800023567 0.767718997718362 -1.401806061799889 1.046151931356345 0.3212916742494355 -0.7412439816649529 0.06252427828065661 2.7501859772652075 0.08575869558807793 -0.10320649425657176 -2.1203881305765466 -0.9142646379380882 0.9710935892741969 0.8228003050444911 -0.2096247079779895 -0.11368477511788616 -0.5266672198034498 -0.8181300648174225 1.877085129859603 0.7840053458877214 -0.10497569863060596 -1.7621779135044464 0.8351336814389694 -2.0578035593875175 0.07017041628586
1898 0.24370450446420497 1.1833974583834297 0.293466592579264 2.2041094393105105 -0.927656698250177 1.098722193497917 1.229624205592129 -1.482887592471369 -0.22259196116920726 1.9505052546635533 0.36940717568378434 -0.7079440111831418 0.19681677694720814 -0.260013023178221 1.0747411506339963 -1.31883494123044 2.203705927070596 -0.09021782584003914 -1.162299769520308 -0.5154363050654164 0.5579716387399718 1.6143409862878777 0.42506338616333367 0.8119301416442013 0.5963896221874835 1.778136805178682 0.458864233390775 -1.1132173235864773 0.4285941337821735 -0.548519726901297 -0.10904261902701938 0.2233464179365173
1966 -1.2568496049252418 1.0914634696861527 -0.7201925581253039 -2.2879939806627836 -0.12548072394649445 -0.4170831415504431 0.7456929692398716 -1.2335371438527312 0.7604656595017906 1.4482754227296042 0.2224837325391296 0.8926595036575937 -1.2503521920730436 -0.6314732200853096 -2.2952739011724197 -0.20515157122779545 -1.30733783516821 0.7417478688239175 -2.333417959438769 0.09202130490491575 0.04682642518007453 -0.004173836926912458 -0.0038373106302228783 0.8886611132603671 -0.9490623916543265 -0.41545159467881015 -0.44727957972738774 -2.299410950068321 -0.05582083037955364 0.48030075800702354 0.9874118207882489 0.2482758654770265
2044 -0.12111953125419984 0.33481656224623424 0.8250226402843733 -1.7439111400113136 0.9224382103908986 0.07022400304664506 -0.8187893266300325 -1.3966740477532953 -1.3634886240593687 -0.308052261236592 2.246662715178469 2.6443474691512714 -1.2432019668431566 1.956707791270395 -3.525611485989972 -0.541742343234535 -0.43011228952600483 0.6018911969797781 2.1717991717979235 0.4067909558928449 -0.2134985471867972 1.5158944981155713 0.5835747000377414 -0.2991214360819209 1.2677133637259628 -1.0797850982884738 0.9647885034389997 -1.7365888225977593 0.4658532514173874 1.223924865470451 -0.42543677819591236 0.7628737349720901
2045 0.854818328280708 -0.0048139238966388815 1.352458703052958 0.5501043203975512 -1.0060539443491632 -0.5635296423963237 -1.1296258143150635 1.4298602151205275 0.35114125517491107 1.0257168628915636 -0.12104726150351883 -0.9811737818187926 -0.4806392288220602 -0.005542401281342808 -0.1756758824520077 0.4743137948605392 -0.6702041872808001 2.224937060021082 -0.12306052630689233 0.019289287569812 1.115797280061727 0.3419466677129933 0.886886000470488 -0.1163876284246414 0.27885264093105167 -0.6662823140331581 0.25961548636939225 0.1388336674312649 -1.851209967936769 0.2761122529717352 1.522177554863964 -0.3897733478977291
2096 -0.4337551744489316 0.6449400767120198 1.1529876782446826 1.555892696755604 0.40968044489667493 0.21824044313751745 -1.3416940964179502 -1.7222317173053254 -1.0323749397616857 0.0021635306347144575 -0.824584443185572 2.3589871226617327 -0.3563704985136483 2.1385515589363657 0.8174316227312691 1.461131062119657 0.29870486329171647 -1.0900749627300796 -1.1190965627153528 1.0693169682117578 0.7841015388034144 -1.7942874391379735 -1.4468694688449566 -1.043772123159646 2.93323679037802 0.3871049307820259 0.7097309701280446 0.4269887828462882 1.762089003750971 -0.8519968732680518 -1.0129498745859056 1.086029032527011
2182 0.1741425792091412 1.7643724063032868 -0.13891366375437783 1.318198933233745 -0.8151599495229254 0.33335362865329127 -0.5919672712608935 0.8439920561304376 0.04660977948832173 -0.26464320611745656 0.695462917531995 -1.1646434165563195 -1.1034021851758258 0.7664893772717554 0.09330413877520513 -0.7744346987702008 1.2700072954650317 -1.2141404641704665 0.6835652529481611 0.09708129698127295 0.4123635308659704 -0.34833241019800526 -0.9499276610259262 1.9580805589775607 1.5094800230575391 0.5650767990179301 -0.3656653474376675 -2.1566085902104275 0.3301479136515215 -1.1342272098982473 1.2410610339906356 -0.49214812355429427
2596 -0.7464876656995312 0.3736151946234018 0.78811009889693 -0.07962657481101479 -1.002227349453929 1.1024887159094177 -0.04037309095319462 -0.650424761135664 0.5116912014455379 0.19645754565607373 0.15710074339964328 -1.3314759377452043 -1.115855047166711 -0.7821141696407448 -0.7860860930867932 -2.7384482130007863 -1.115244554460269 1.9413273454776854 1.1524378861226188 0.6234422975205958 -0.4202813219893554 -2.443688264261001 0.7122394787463461 1.176372415593998 -1.6118594377344906 -1.6642141095395622 -0.3881238469316855 -1.187788079313218 0.8120692591438484 0.17757688443254566 0.329322410826494 -1.2963882367777977
2611 1.0372070694269853 0.44344890345095356 1.6794934039377332 -0.17430590900188947 0.990860367523833 -1.0519523415074128 0.5002186646303994 0.13367257413760758 -1.0775643747707213 0.539397746289547 -0.7049109399770557 -1.3941985613075363 -0.4408711806455564 -0.16888609184878403 0.19517379939839222 0.2148170615511356 1.098676086001843 0.8298093032454986 -0.0707701832070044 1.1861855425845342 -1.5722431117762627 -2.0322000310115915 -0.6492529536300472 -0.4313498700614164 1.1013715806967572 -0.16963751278073663 0.3133065420626943 0.028325352942186435 -0.7103380526156546 0.2532385261962318 -0.058537575929383884 -0.9958152852898334
2745 0.3557482166772369 -1.4386592699622716 1.8607140472480728 0.10842706950274571 1.177624130957919 -1.2874831721752222 -0.5415708809047931 -0.8138341286310866 -0.16427327972901126 -0.5735315829949603 -0.7132302405165221 -0.3395179392944108 -1.5027497353238592 0.07367656124538562 -0.2162055509657996 1.9350082061353993 0.15560792371451998 1.7045576865868133 0.33707218788597415 0.5143229723568248 -2.38808544601124 -0.5616985753971192 -1.2399926849693288 0.7137353070467973 0.5863340615230138 0.2676978755029401 -0.017726650776294733 1.6035023954716903 0.5128606170901984 -1.3391474726498864 -0.21015166816920688 0.1339476381476206
3055 2.299173729138756 -0.5305014709760819 0.4349021931441969 -2.6040968949424808 -0.6266735533345861 -1.2908805296927783 -0.5944534809541697 0.3153098907600261 1.7853503737430139 -1.0793605192762536 -0.5241499596261899 0.4801525153955676 0.852392017007854 -0.505262974683438 1.512158993545337 0.7759679606165129 0.3183071278958527 -0.8077225711651587 -1.61482262533276 2.7253513435958228 0.2457831344325402 0.9925500244462765 1.308261282934516 0.09499127901584616 0.7710308932852499 1.624469785325314 -1.4287949573501755 -1.1715996117649532 0.6207750026002739 1.6658161148971098 1.7078433417092242 -0.190841459484563
3114 -0.2044890255541057 1.5554229833987012 0.3483015195280875 1.2711126742937218 -1.3824761153865464 0.5697341533686793 -0.2551020629433006 0.6288949297897038 -1.3334227332182789 0.3287040136162698 1.0033757878171814 0.695333650533898 0.3126812414478753 0.3716609589858001 1.4699306260621274 -0.8875623714697621 0.8775052164673711 0.625342319135198 0.23087091044487426 1.0122289228691799 1.409040334216789 -0.6137292352255667 -0.30795394360246586 1.2445183982119454 -0.7560746893723818 0.4197353016814371 -2.23144480627808 0.848369657819566 -0.33686086891200273 -0.945456702176785 1.669139529220172 -0.3741508713849981
3118 1.8831222980637647 -0.6725648487330064 -0.6419699323947244 -1.11599144665415 0.09800349172508387 -0.5360209952606778 1.345261929353345 0.7012744918412702 -0.3405317041245586 0.8533990948009489 -1.1136177221509105 1.060432699575762 -1.3647177328699829 -0.2902976635916912 -0.3984332190804858 -0.7600576240337873 -0.1288856814035891 -0.4115126458296794 -1.556683249799035 -0.8721835129227445 -0.4259955633411081 0.5360600066686442 0.7848981317673545 1.9348575448880956 -1.2427725946003674 1.5351952454107614 -0.558852944408433 0.03472543285867584 -0.28632918549639774 0.4139106199415339 -0.6294624372883214 1.7883132569027282
3244 0.5642748320237756 -1.1648275201564946 1.2096896853568928 -0.3952499792006738 -0.30159250171571983 -1.094585228296454 0.08683169513860037 -0.00684770722561738 -0.7620984155128672 0.20696993057606253 -2.452973663955289 -0.3716948063611243 1.2116655624642643 -0.012809022146134762 1.3899437305484073 -1.0325395391996284 -1.2767457370675075 0.7539190375615097 -1.422553735782196 2.0215633198799847 0.7135854124980419 1.4718029434217035 -1.2522227133923935 -0.4375811498206064 1.7333753032126538 0.38854835906673757 -0.4578184386645098 -0.31267602591574783 -0.35341003955884664 -0.6624885485163478 -1.818228960920837 -2.227098926980312
3408 -1.1688305928192457 -0.8235124979947129 0.21798828159635913 0.18652029386853453 0.22138997711316735 -0.06672253010279074 1.2053241525475156 0.6126260534046014 -1.0858018358438597 0.3927831903553544 -0.4167743453692642 0.5319164559317303 0.24165204354507855 1.5684526180705687 0.995407716754804 -0.8058359699510408 0.8330890110588919 -0.12289722985594495 -1.8722904309847077 -0.035637715403591105 -1.5672832493772653 1.1591660764475926 -1.8911861714920553 -1.1843189977499546 -0.07777651529687414 1.5041709571842 -1.803602997924367 0.017177326793237007 2.205255100041883 -0.17423750704261862 -0.6527899739170645 -1.4983272124494835
3722 -1.1639316205829622 0.3084320312918814 -1.5933548171452674 -1.1076592582756755 0.2223446278876897 0.127423397132943 -0.33328597413873196 0.27409716235553766 -1.4641919080744312 0.47398887956893443 -0.9301984653241688 0.3675873639862671 0.5625821155347642 0.2623790081007223 0.9968766249647931 -1.559692454914677 0.22293644485561892 -1.1096036372412164 0.17987596105604678 -0.7971435133119239 -0.6483574559007566 1.4094735286263895 -0.2023583285721419 1.0508920094714647 0.9272211710656918 -1.5948100473903664 0.8684456889131736 1.3135105213372091 0.19950678404079927 1.1336241966124951 -0.6442335019257861 0.48632325646535196
3850 0.9244946450325253 -0.638324455661423 1.1637901947778964 0.11893875930060537 -0.848726307780806 2.28610532261055 -0.12362560622903802 0.2937177053484242 -0.5431728006598077 -0.34603219744896524 2.5877270718123757 -0.2767996466693994 0.22712470980452315 1.7021921353201042 -0.059194833352934954 -0.9013866831601858 2.391938954927025 -0.5375421009922002 0.7908795989088024 0.5909149964522835 -2.249465248575597 0.5830919944722623 0.36507070061575697 -0.2352766153664141 0.6328462939812012 -0.14684279639796527 0.26940507911757977 -1.1068225634929638 0.9840892231548677 -0.0802445337062374 1.1990005677398687 0.4831424226822169
89 0.9572147075469338 1.4929445412350064 -0.8331019545741393 1.0767837851164486 -0.11094784310342108 -0.0027472133542765006 -0.10676081958426772 -0.3000522615801397 -0.7620932774019906 0.9780797721499599 0.9952410262928917 -1.2706768549700336 0.5500023818264561 0.4053787946503327 1.473831897169238 0.04871527545026389 0.1360341784043472 0.9209530698055832 -0.034371783708152005 -0.7117718065542098 0.21400083107507079 1.052519726946882 -0.456913697568412 1.2671391975034954 0.43187452290338046 -0.05666049658473719 -2.429868949987509 0.14084728119141343 -0.21140437592694428 -0.8807670137252752 0.44273310736996047 -1.1169160947037065
403 -1.128615657745744 1.2381507003043635 -0.3861428591467545 0.020401468433918393 -0.8545070620559494 -0.4702587577544683 -1.0007804163403544 0.23093326091521027 -0.011948039984871575 0.35845929151194444 -0.8787713689806742 -1.3549213532729314 -0.8374863080792 0.49898715016901685 0.9496398985742023 1.2916932209037046 -2.6590963882049143 1.8746058372338776 0.7673747970234317 0.7099953565791681 -1.0126388872507754 -0.8468419875964931 -2.983752260830227 1.6542546226291777 -1.8661974402238672 -0.5335129389109191 -1.5077052814374234 1.9861428387958144 1.2905761313400241 0.7155572063456651 0.2576112224371825 -1.3555154539249419
424 -0.45002793765960125 -0.8888036333352123 0.023349707862436987 0.8897627646588322 0.07210496374628927 -0.732387403227768 0.6268587026181028 1.9214361266106748 1.7139063761237994 0.9912141753073528 1.6866003007074448 0.48512644843874075 -0.2756994033564255 -0.8067702990807337 -0.6402042418384578 0.15565375750095894 -1.8729652484664017 -0.7620973022016826 -1.2398012372669913 0.5700915321682525 0.9907283307522191 -1.4842871242933595 -0.6896603817074403 -0.26024035795826334 0.9915460661301355 0.7151522646539017 0.6013800036046051 -0.05852358454241904 -0.2738667562299252 0.9249244171716808 -1.141735603330295 0.44699967450781625
584 -0.08538165001189038 -0.05166971982112085 -0.2964187173040334 0.10655242891394065 -0.24707355782471 -1.4351066614381263 -0.7000024736727486 -1.3429688113513243 2.2464255775547546 1.6846274997192148 -1.0700233350186217 -0.41721355363505347 -1.2074691197922327 0.8944983928753075 -0.5060058930649818 -0.9707339086507406 1.0350319096438843 -0.3657581993377357 0.8999006746789958 1.8065775797358055 0.9983656159082495 0.017003641946032887 -0.28738307003095265 0.37778001916694687 -1.5529153766170851 1.151377817839942 0.7489461298638973 -0.018255053178921676 -0.09595153353350958 0.15934693555720345 0.47274409831409103 -0.8993599682995129
806 0.9052470147242281 1.2966361248339051 -1.0560448026321008 0.20806311512983636 -1.7948068395799763 0.2144359904109077 0.30480550265437095 1.4931384342308611 -0.3126680013870627 -0.3833960190013842 -1.4231649953223673 0.7354887682217979 -0.36817189791814237 1.1649122060854105 0.665143768887229 -0.1408780700936791 0.01466455652870179 1.1994398653346348 -1.8425777253238835 -0.6624027180342957 -0.05800139767533788 -0.16961989306802358 -0.520897279741685 1.030330380550211 -1.5961872018814647 -0.10774317731387414 2.21777602316231 -0.5759720191242637 0.9665982971718281 1.5240203382154847 0.4201949635164176 -1.2703776281680037
1015 -0.5162434716882711 1.1390596605783911 -0.7176772699292685 -2.1870964426245436 0.23962428816504447 0.9464654482608272 -0.2569285215558742 -0.021556459008509898 1.0848602967071657 -2.3053824551849713 0.08870371306469065 1.0532584106758176 0.319990114564874 -2.9075208584924876 -0.20603987823933514 -0.7402218691998762 -1.2392462946350478 0.527006355813004 0.8068327844373832 -0.1957144044005309 1.46031016810489 1.1504037925384238 0.025933743740736384 2.168097460376906 0.2447837980333924 -1.5783587912116424 -1.631916498448015 -0.32551825483792823 0.15631597033705194 -0.5457994123306762 1.2680709229800036 1.2587197362922558
1120 -0.5941565088298658 -0.7945739105391099 0.806844796567062 2.2659586961057245 -0.3603612933918604 0.8260263491450924 0.6357269939718102 -0.20817430491579442 0.015581122034854834 0.9277213589864781 1.0663238443303558 0.6949467739301849 -1.2202021127237188 -0.39372103236166656 -1.14283797979863 -0.8529257885604169 0.020041483984225512 1.37946784219315 -0.742788926584317 -1.3023917105084228 1.6586962376320127 -0.7593328505883008 -0.03058921789525966 0.024238204070501847 0.9850590855822926 2.001466727165104 1.5686033677403481 -0.2604288183786795 0.40053772634739965 2.8755331397800794 0.7244735810919036 0.27294314957204774
1206 0.22168289847969636 -0.04549005233730558 0.21764161144281888 0.13334353784458533 -0.4423850792260219 -0.2897339958516046 1.1465444434559862 -1.4738229745812217 0.7390236058334678 0.22018938208882227 -0.39380881055103484 2.13216074065612 -0.4000144052775549 0.009935307487753356 -2.130470082838476 0.9801120452224737 -0.166341424290605 0.388291723145173 0.2000449191087564 0.13326977227769335 0.9249805813987638 -0.11201274312178659 1.1336949735100772 -0.4255149269691543 1.042216852778978 -1.131285175084938 1.553670368645519 -2.1505604075774594 -0.17398015041939693 -0.02542314131970455 -1.5183560440112642 -0.658444869899213
1367 -1.3901262595363602 -1.132922934359259 -0.014108875573108314 -0.31898858913987665 -0.10544205611665655 -0.7124641808347167 0.41421741133911555 0.04000613030275542 -0.02933397893411759 0.012146392235456842 -0.41429631324391714 -0.9086012731516675 -1.520929606353782 1.8704429013584465 0.12301475821698125 1.6634100445069944 0.3272240214364385 0.5751004343183922 0.06642401845383916 0.32953278334167496 0.09535856988782646 -0.17953403119464173 -0.8906524454879704 1.768286199455527 1.529613978776501 0.10526063899851042 -0.33452482228888286 0.18627041773974531 -3.7016612235316 -0.6562140536384549 -2.990510036459391 1.2138326026614106
1745 1.7180411391129187 -1.0929324962618705 -0.39657754438036213 -1.6038212083567769 -0.8796446141840627 0.10665541084720519 0.8198682522902035 1.3131375379312054 1.246717549442691 -1.2455100750179635 1.3920927397625267 1.0293734995999155 -0.7654111662659563 0.9622559549135781 0.6090536615671063 -0.45156610306923795 -0.14621312606440462 -0.7719256781706988 -1.0949790614777384 -0.4052857678458544 0.9014216698972867 0.5867059105611012 -1.501101099036496 1.5195065983199376 -0.16728366477783302 -2.1043130072723355 -0.32582665760446816 0.1819748012682238 -1.1711841530821674 1.0319137621602936 0.29509788820968885 0.7094707964868749
2184 -0.679530988502825 0.5893446748076165 -0.32148909006848475 0.420689001430699 0.9416026714486263 0.89626551355051 1.0627015638247028 -0.23676561804320864 -1.1137432469014186 1.3027011955514114 -1.6259905216217772 0.1923432813669748 0.5545368733756688 1.4396340413050415 -0.46415319964547125 -0.2632438187769942 1.6746223806084592 -1.5867925733108503 0.40965840636174766 0.8446196492590309 0.31374697610232277 -0.8553428255670565 -0.48683138957915983 -1.5802421354606508 1.003297646405779 2.136729039882686 -0.07347275493161297 0.3389837582875567 0.4194451351943364 1.2570557836453462 -0.20684783526761727 -0.2008583965670739
2391 0.37227792811452076 -1.079608480350512 -0.39309756652098427 -0.6796355826332773 -2.083417406182148 0.6975283356272339 0.8159801926854026 1.0681545232297103 -0.200769200477728 0.2295172259407114 0.7961428016245263 -1.023030430227785 0.08068797291715428 -0.5758117392795403 1.6364994201335696 -0.0068430412343235 0.8880193763097219 0.17828023153608524 -1.1107872875682805 0.10692620484293784 -0.2063979822974514 -0.4979796841331976 -0.18818933775505786 -0.5469664524223593 0.430876441854743 1.3318661312157924 0.05616070986951404 -0.010534710401544271 1.407485040157933 0.46732958427781673 -0.4786926729964437 0.47652499146105365
2514 0.3983854931771234 -1.211581203918272 -0.08287682929985332 1.1530788511980092 -1.4546241715249009 -0.8376372881949014 -1.3439603693422477 -0.6105253355475133 0.5702107654505056 -2.225522509522273 0.3761008791667575 -0.48384220614291323 0.10820798872431989 -0.6295423846451021 1.0229857713671286 -0.8128063961213128 0.5289945957327296 0.644446102858231 -1.447470851793003 1.9659778493431497 -0.9410298562890909 1.816090265172387 0.0562297923372087 -0.40494430478157495 -0.8397286884359069 -0.18715115284348577 -0.10126986946868397 -0.030134718343511932 1.404391522477361 0.0496626914220794 0.7861818027994305 1.6334990303685897
2706 0.4850223422886479 -0.23861511219860024 0.7999358536620782 -0.4025450042972269 -0.34118367026198854 1.2097764470098256 -0.16449570788424236 0.2469941009101984 0.0881694368587226 -0.5729916007714876 -1.3314413423720555 -1.9849834021251243 -1.0831441045433492 0.5686457143807597 -0.7043149839762721 -0.8339361079318734 -0.7453236419546766 0.6612722795982762 0.8398968129509827 -0.4355073426071803 0.6158282258752451 2.3896973260653778 0.5536183075069799 1.0074026437650052 -0.24324887519095617 0.06015655317017011 0.118888970527293 -0.14803956521028094 -0.6265158798764616 0.5559446294953332 -0.6329564730175825 0.8700702551935274
2784 1.521043123834049 1.3091797828325318 0.23790636756308284 -0.553797645358115 1.1667482290436808 -0.47396057758047755 -0.27970682380111617 -0.13125393071264863 0.5932100489695901 0.77039015538582 -1.0467139092975026 -1.3189969523577367 0.7741914787220918 -0.3389363521810983 0.4866796478282795 -0.17618134952791006 -0.12403422047623704 2.3917477362793753 1.2528067505167029 -1.6562383747677187 0.06518301525796891 -1.0215706778359264 -0.07263161416226682 -0.50405567837008 0.9040720798215295 1.2938489481090758 -0.6703710876192823 -0.3418787673096268 -0.12736418489588622 0.0013940270060968127 1.4058223839311104 -0.4332876224689846
3133 -0.9766368677042867 -0.3309461818178954 -1.1284488159702568 -0.6690690570203957 -2.145407960163288 0.8693284280433669 -1.234485823617356 0.9756001155422318 0.4048091400757251 1.2325662175814738 0.12288865534721342 0.9574875355128324 1.3978144952455966 -0.5859121788215693 0.41839622136144633 -1.2978995620566096 -0.20603007361123427 -0.690373524070334 -1.0782021257466134 0.47031358200154 -1.0131475565614525 0.46476298663439986 0.7492567854224952 -0.6544955514105231 -0.4045427107331651 -0.6424217155452824 0.6105870914690686 0.1629590240543461 0.918125695248688 -1.211596059653265 0.44860355431707677 -0.44382603427018574
3401 0.5102430224861877 0.6966344819485598 1.1739529556017512 -0.21164976547072958 -0.3846558817344985 1.103552487189668 0.4832331477483161 1.4796631420387165 -0.08236949012232488 -0.2154610711250436 -0.285836257404762 0.1992557242346779 -1.1285190200258808 0.32304261641519316 1.957601965924253 0.8579820631174906 0.8432646924032368 0.7821277956114752 0.6581825146140112 0.25868196323285764 2.055938142192364 -0.3053870716738546 2.1554792098097866 0.392479443859243 -0.30844563775074385 1.19938931925863 1.6895482077172628 1.201000908324502 0.2523311523650585 0.021065099088053513 1.7434820172945105 -0.3462880095026854
3534 0.1586938789865725 -0.9129685529522311 1.8935634807412378 0.24956358500339607 -1.0122919480233592 1.266542343174542 1.0723309934900596 -0.17581606199130845 -0.9810600330350134 0.6775636956822695 0.6418199912900179 -0.13491693682590108 -1.064046666518809 -0.13672594783747063 0.5247198768681888 0.3391458613951599 -0.8240689410623357 0.3970129302455501 0.5089146581430569 1.1534835630173692 0.0818741339147475 -0.3522400302862241 -0.3716896283744134 1.1061678192602944 -0.6743814093907123 0.3727613143141902 1.2943454037846593 0.7531316074768699 -0.2731451592336427 -1.734854126374319 0.6030474653774938 -1.50897391292817
3565 -0.6226984313396393 -0.6698291150642508 -1.1945885021056857 0.3118552196464171 1.6747362936754648 1.0887724723686176 -0.33730286936568277 -0.762988177221247 0.4399542910079027 -1.0306184944129546 0.18787133644626527 0.3296229949404544 -0.374593576212993 -0.7752238453294565 -0.9336249928229322 -1.3434661013121616 -0.31886212970842626 0.001359128473423394 -0.033304076543053084 -0.09762706250788027 -0.8080866430178333 0.3713197348862239 -1.941734658355958 -0.9282221017538723 -1.0065978449303727 0.39979732526591605 1.0999883986512773 0.027328025142882233 1.2617593140079253 1.2522022979143943 1.2317361184638955 -0.1743930056168542
3685 1.0401139201400533 1.4760164720615103 0.6839920651093404 -0.38667186865927017 1.3301376218802525 -0.04404156683617475 -0.34615332630838 0.1451654288366683 0.6327372681096652 0.10157479317858072 0.751503578105539 1.4377021011212063 -1.0496189369296058 0.5485093911128709 -0.21467671160498727 0.010655837618031558 0.918909927393941 0.3554878523472847 -0.4949591562178784 1.077043267223543 -2.5259823617941315 0.5136008651175181 0.06257363893758669 -0.8477765480203425 -0.7546288465806654 -0.1388825305390667 1.134512524459096 0.3522371093542515 -2.74958665632207 -0.8036678205835149 1.2756190984597482 -0.7912323278137459
3727 1.5745862793284555 -0.4272194144838025 -0.07113230290305225 0.2941820019239863 0.18117603452480388 -1.1906805611103974 -0.29164124978400024 -0.18490249610319623 0.014504663828529921 -1.1442147641099099 -0.9111437306127942 0.8783128102611538 -1.0320592040488767 -0.2745313382358753 -1.2831999626019615 -1.7499465056630914 -1.0403996221285783 -0.12961650675485833 -0.23709839014459524 1.152684369242227 -1.205141484328253 -2.1185359077328174 -0.13327166724997366 -0.8533920267413667 1.048732566616754 -0.42401514926344935 0.5481365903025873 0.6331942194261397 0.39673580926500707 -1.152955462967525 1.2769568888037126 -0.05960905459298562
3758 3.0577258799642357 0.25864350183130996 -0.673600286784777 -0.7905190919564526 0.6485462430209605 -1.239742863382189 -1.6961777899833106 -0.5058559634648581 0.34214508022940365 1.43442864034389 -0.03618213392263678 -1.6650437302522838 -0.6795634076540623 0.3570055333369819 -0.4750646084681803 -1.249684954181615 1.610471046791081 0.5782401818634326 -1.5697981028458594 1.5581282399453558 -0.186388266692133 -1.7042096447210713 0.22501539388973796 -0.9138736875511785 1.6068110165644731 -0.9909102365913933 0.40932402252587075 -1.8548174359481109 0.2904882967415943 0.32982264614619106 0.0879435131351839 1.5611160572988807
1096 -0.7960677201442259 1.1572629681464222 -0.763659611042162 -0.17749773623726448 -0.9737966496849738 1.282672137159158 -1.771047247483363 -0.2202765069680726 0.22599923133943628 -0.16506954343452634 0.20674039413437983 0.23001340047363192 1.4305558218315126 0.8043359812897328 0.35273363764793775 2.4723129510073543 1.027660975601929 -0.3010731588445776 1.4798487988053028 0.6492442095462241 -1.0429476674569182 -1.2457311738566121 -0.43307355159935707 -0.12101028848443622 -1.5612755844765571 -0.5021696560517336 0.8958387238401827 -1.9737566298790434 -0.5688604332586864 0.8684726353716167 0.048093597964068646 -2.3732022943205346
2101 -0.452370760156787 1.5695450275469998 0.41760831861823705 1.1688260752611148 -1.6519427535993265 -1.4507120115273258 0.537866315408584 -0.17291407706373862 -1.4971494150444042 0.20103695254360715 -0.1184067748436661 1.463483626226247 -0.9384344811989895 -0.17831171398897336 0.3073301289633181 0.8490709020611951 1.2781103054027614 0.026561285928244086 0.9474431301044678 -1.4314343126406843 0.9408761480419277 0.6820672436281128 1.5227462195704193 0.35502472588261486 0.46018648748887087 0.7354019619587955 -1.0878849290133568 -0.48868744285410326 -0.11056862376328634 -0.016984025439345164 -0.38111549732412064 -0.3519657172213901
79 0.6628938558417354 0.667586534220419 0.04541818700214007 -0.5222782608080452 -0.6227015916603298 0.6410443458166513 0.6332118619963554 -0.9406704811968907 -0.7524173397599143 0.5867643631851531 2.3022165421867786 0.921770627161481 -1.6596697267968679 1.2553467038448523 -0.9531248237358007 -1.768866171683817 -1.8941813443810531 -1.6134034007269422 0.9862321578057991 -0.25299662726551214 -0.006500372316491604 -0.762805574772867 0.1511166375173101 -0.21582159160446043 0.027059852538445398 -0.7932084733629361 -0.6696077932754764 1.4087338173156898 0.9679156893121416 0.34632443742808267 1.3777098903845542 0.9679745205082284
3 0.07291408338495395 -1.817475830095395 -0.2489265025698867 0.6582816313395132 0.4420361783539107 -0.9136849667602044 1.0823275670172758 -1.1174708904181012 -0.4507652864426949 -1.6553581727519524 -0.13400080345132773 0.05667715450097016 1.3875713519188997 -0.4868619704776174 0.9423182959689871 1.9500157778361276 -0.7422395732075296 -0.6417591781475345 -1.2338018525202856 -0.8015071977891015 -0.2507700988320421 0.798931405562551 1.7245958042583924 -1.1762992371415235 -0.05926608186423056 -0.45403585017574377 -0.9841788516237359 2.416596861193253 0.27322028123819186 1.1793755750813368 -0.17538011002567058 0.6618374413162765
460 -0.30721471576940557 -0.5327865305745797 0.49842122096517943 0.7004321932388963 -0.3877745723455453 -0.63213884618428 0.1862958737081255 -1.2842231173507652 0.07271912878295318 -1.5072139653631254 -0.6637464614223562 -0.5224103388348954 -0.2910537944154936 0.17945801684796395 -0.09995071059757821 -0.46886470970739563 -0.1374613533652566 -1.7615636967482013 -0.996672994039209 -0.7057487741150653 0.06647757889319539 -0.156762851700067 0.09056668548740172 0.6437157319073114 0.21806523868718533 1.3580432663889006 -1.4369788971853061 1.236194000618472 1.4217568629226176 -0.31326828032488385 0.00775373039547485 0.12570396361249067
541 0.16101262770734756 -0.9992584170527844 0.34040053516820895 -1.56561498796215 -0.86513729402554 0.9396302595193653 -0.9155770751385072 -0.5282561672677768 0.9283996996402586 -0.2877704478035146 -1.6199496580479902 1.2056198526895126 -0.6003363789637457 0.5355660712021152 1.5579463160862277 0.8572586667804182 0.0656337100672525 -1.3839950561022256 0.11732790361584745 -3.1753676925486936 -1.6228381268575636 -0.43895021549521657 -0.4472509773087793 1.0777084858382144 -1.3779459272935366 0.29212959418374046 0.7542028770656266 -0.5142584768921266 1.4260940614831412 -0.5599842520840534 0.8314761467822104 0.8010605806467077
736 -2.0958200626905907 0.39339764306765496 -0.385516007048239 -0.8220663012055909 -1.8133833545789468 -0.25841142056969013 0.6827400721154021 0.7296542722972416 -0.8671963801516793 -0.2962310926692278 -0.5856116553828709 -1.572987089039226 -2.552998761544177 1.6820262592292492 0.20299801147637758 -1.5550391743944258 -1.22958249276352 0.3993566431659719 0.33706138419248377 -0.8761268351505669 0.08719418226055728 -0.7381951561451844 0.8583283270346442 0.13845223886459299 -0.166602037776081 0.15131566582963835 0.3995524595270343 -0.2356358186646917 0.5759889675166242 0.41708671259336505 -0.4889006536416496 0.7400017155469159
1117 -1.3641315110699128 0.6359989898450908 -1.1049100723873486 -0.9220710107553404 -0.7626751261874584 1.548950605800869 -0.04980907938917215 -0.3012206196108426 0.6537849234136669 -2.6961551011159925 -0.2685554971293499 -0.42151156983891536 0.11120637473822208 -0.9810213149673659 -0.6682011095765372 0.27455870712973873 0.524203980192988 0.22748897059088136 0.8080357055966414 -0.0050908442530233486 -1.1705881033984111 -1.0129419208949841 0.16821613412033815 -0.4547410887242751 0.04404096028444161 0.2483360391588648 0.5033490083355242 -0.5441947037308317 0.9041614068933187 -0.4819306457927243 0.14937725603063645 -1.0286202129365452
1119 -0.12594968813572538 0.7883629284853478 -0.42185461064047713 1.8695582661626697 1.2217582029289995 -0.2421907144395735 1.1722512574860928 0.8226802761467957 1.8716347430208953 -2.4275125122045527 -0.7772557446457812 0.8927191122548863 0.4283773882370094 -0.23936899408943538 0.49234947412805996 -1.1407179272190926 -1.051830363796193 0.07976349849944031 -0.3431823488710341 -0.5968256678815734 0.013179787390338106 -0.09021114319882916 1.3260062645940578 1.155409613243766 -0.43308642226624466 0.31634231687007014 0.4048811628686169 0.8091746556211359 -1.6463354020177414 -1.1323470198341665 0.015155466749935745 1.0812357869056364
1364 -0.6058560872577722 -0.21576361133578073 -0.18289272536121917 0.6217104684171624 1.244610450530761 -0.33242508647937025 -0.8300378169300769 0.9933607829968704 -1.0264128516123057 0.4560632164505819 -0.6287551599867851 -0.8127010928814032 -0.19541222804212077 0.4189642448021689 0.8699399675822793 -0.6812700945531117 -1.1766650124880778 0.8701939951060496 -0.3069732777273909 -0.9941829855767509 -0.2956463978786502 1.7092086468815895 -0.7901848051275054 0.3895286163754542 -0.041667660220817776 -1.126435860024508 0.45550054827234654 1.2217958173360943 -1.104247550927113 0.17344872855224477 1.0856929258477792 -0.8020399663506602
2010 0.16510257209745022 0.230825338181179 0.11353737053296907 -0.5608485751454436 0.30859797717030896 -0.312684452263484 -2.2341837911888067 0.5680340891360022 0.2886801824082512 -0.02893048433723678 -0.8197730681304283 0.13742617194099713 -1.0116620262411946 -2.5519945275217446 1.8539192619828617 1.422047180789034 -0.1818041145300858 -0.053059731123928866 -1.449045452090396 -1.0191006854286562 -1.2078759777752002 0.9302734689983776 0.790342164015266 -1.0284357318160782 0.25775731747021774 -1.504109711279637 0.42962246136552734 0.18985304678775541 0.3802902208484666 1.606732928440183 -0.07563688672967768 -0.5697966261771087
2029 0.7311679702273131 0.20418325668327783 -0.17732416237137355 0.7857136516570994 1.5144745886575732 0.39875253530091476 1.3429691035361002 -1.2161688320171584 -0.4035655612511096 -0.7900748257170812 0.08154738669255494 0.6597468059711252 -0.9243579181275262 0.4409769260603246 0.004689649919871608 -0.1795544365298418 -0.8004183079328061 1.236603948283145 0.3034040061356951 0.15629172993305077 -1.043690347756847 0.423312963304155 -1.1713060356478908 0.7940337837553524 0.5304805807514457 -1.0735426431372888 0.49455915586875193 1.1606498255790136 -0.7052576491845398 -0.26894145483136667 1.2025326645097887 -0.26015470885153413
2236 0.10085711856439594 0.026970443144475144 0.19745751834652306 -1.1374816001281665 -2.7248084973692435 -0.24081381036242766 -1.0793026950514002 0.06340071452015297 -0.010133120383759143 -0.5141578542853 1.5624906769030902 1.3730268854047625 1.6793133857295894 -0.6677480223520259 0.8021524808532277 -0.6670398414170433 0.28627049310667896 -1.5860827602847787 -0.2967140032169255 -0.8778267229799044 -1.102424946512189 2.3052249828032845 -0.020781160067923223 -0.4176540442992444 1.281383019864944 -0.3064344814322954 0.2957537236949108 0.3977538613772696 1.281554721534334 -0.23298766450168562 -0.5709964424768716 -1.0350074384278447
3845 -0.12188533664627178 -2.330850036583744 -1.740735271717011 -0.5473807588812806 0.04026802167176976 1.3045224272361342 0.6142187478499423 1.7572164012615372 -0.10333446192182509 0.24034396866278515 0.665113662388427 0.17042351775001918 -0.21311055187574623 1.5520126788340798 -1.0135589760735009 0.9196402458046746 -0.783179818805651 0.7650048890866493 -1.2593192015181967 0.13572463306628602 -0.1318893078806274 0.36440443310914483 -1.053002218695733 -0.35063040007438256 -0.0013228478134794468 1.74363941291652 0.9129278091887301 0.4175498125848773 -0.13646890226226774 1.9864779929158514 -1.218903242584547 1.276502650262871
326 -2.1947404511456123 0.29107023137727417 -1.0596406201609476 0.5201851158595813 -0.5552294413367318 1.4187842782210964 1.4924729534099643 0.08339564465591692 -0.34244260034448554 -0.4808028671113177 -1.5531499704073313 2.237244832456776 0.458192031179913 -1.1479872600769394 -2.1689793609230916 -0.7831316412836518 -0.7506628906648849 0.3772767196055491 -0.5671101366615019 0.005760136074911281 -0.1493959985988689 -0.029176619071876738 0.8687256320088738 -1.6377257798164975 -0.9570762497360105 -0.5154726317278757 -0.403097613189712 0.46204871973841705 1.5211339678791949 -1.062326624832613 0.41310425299375364 0.7890439251871899
973 -0.6382075693541968 -0.5303197918974059 0.32529615708199533 0.09397715662935673 1.4611525893967754 0.720032710575848 0.1261646667319233 -0.2911278932682231 0.505906731028788 0.2556466785583651 -0.8191515814098779 -0.3895309379497884 -1.4376188230052638 -0.008446109199144552 -2.1405432781390807 -0.4456841604061533 0.19007073569010977 0.05540774537697798 -1.1175306131384546 0.4599312324516778 0.6179659098757759 2.012504371755382 -1.006333800204381 0.271424240212509 0.001745640052479823 0.5914490155601123 0.744437306081429 0.33913256609364206 0.1727769678531987 0.9106362219381586 -0.4776722615488466 0.6830981984048772
2232 -0.03676214699500232 -0.3652236710146774 -1.5090760456425567 -1.243913901190525 0.27486312909498245 0.3371506993018768 0.8376705712126017 -1.5210395817119033 -2.080851537984828 0.30343567205778355 0.7731684915228305 -0.6507680540129286 0.5996766200380365 -0.6326190782373382 0.2996154580569494 0.15516353267893176 -0.4837712193655299 1.2866064934004366 0.23227144580175885 0.16573114606830042 0.5581950250448318 0.2858039724686462 0.27990518980512813 -0.6287916909563956 -0.6235566887195213 2.1901566829479364 -0.9173545179829526 -0.8429270953909529 -0.511343231143294 1.1313454207527205 -0.8451964125209278 -0.1235518676941916
2517 0.05075278183645081 -0.23151567778753587 -1.5588259562193538 0.4321310098092399 0.145275099237892 0.06502313088784495 -0.2983351748302216 0.4944738856710236 1.3158253016924284 -0.654746656102692 -1.049607135386873 -0.17747566374295487 -0.03051005293286456 -0.2839212769879933 0.6534279961311229 0.44802427836160785 0.6524311915235576 0.6673326802339824 -0.24109853620253263 -0.6965539692891126 0.03626523339225816 0.4373201096079529 0.5090768019270129 2.7807292522484617 0.5462508703796229 0.6856144995435423 -0.78845505754769 -1.3271843797908498 -0.22744520692992226 0.3991089372107118 0.19009247275884278 -0.43287527757463484
2578 1.174162980631131 2.6035999081887113 -1.291368166502711 0.9052427956353181 0.5833070606238029 -0.1663161623870487 -0.022488616874068217 0.03551789962263585 0.909483202781517 0.5991415363340352 1.8283902383626307 0.43302457634735764 -0.11749296560627571 -0.11330889977748233 -0.363182026478439 2.7892650111986845 -0.15729060936639228 -0.9523061893684542 -0.1236176321984454 -0.5282730034292873 0.51709885472268 1.4525073803377284 0.49453911478589074 0.32291358274808135 -0.16452762817672476 0.7748380722029229 0.5972235314411616 0.814176485636208 -1.0605311872647316 -0.021826598591833047 -1.2084952284597121 -1.0323072877420725
24 0.027224236855143316 -0.06256455581702233 -1.2414357797695803 0.13361514110395098 -0.5723828340702808 0.06489904096542183 0.6575782063587224 -0.16792634451468308 -0.15147242793116913 -0.5516416097372906 -0.12387938700291026 0.5197813128080455 -0.9257928084120534 1.279473650911187 -0.5451228941193096 0.6757464737587814 0.7579297027276676 -0.9109746142441819 -1.7241649721302321 -1.6338349694680812 -0.9365260660465481 0.2699186958332065 0.051026898576828655 0.08891374987708829 -0.4067958134402534 -0.7261000721237041 0.5286049945146726 0.8091198288210928 -1.2371407357820472 0.7107835474367771 -0.2654469986716917 -0.78403113095754
228 -0.5345967220971777 -0.08362213471973713 -0.36001506393443533 1.6420662494731915 -1.6756745466607248 0.8899992640886747 0.37435071522438323 0.409141941403484 0.40416512469399213 -0.6878064414944404 -0.01760340457481496 1.2939430675381218 0.379521031183137 0.7181303143298252 0.07601155850839353 -0.6685363552987797 0.02260376375951996 1.6875038835808098 1.4084513519900328 0.8569408958250978 0.18664964855434524 -0.7977541924938478 0.23849298221478163 0.9467022751325415 0.05703618292926399 0.07973703100499725 -1.0094717222217333 -0.2062737440808054 0.2903215743238407 0.2167588325465278 -1.3049036449779268 0.46551562505759414
409 0.39629136187234304 -0.8149296438571823 -0.844172702752032 -2.135862720661403 0.23617344591734904 -1.849472459488356 0.8907068117810302 -0.6507294450531544 -1.4034362251347368 -0.6604008714994065 1.3277729110522505 0.5128968443734233 0.3448842262577642 0.02293296084419847 0.4490621520531424 -1.8886090680682779 0.33235015656955885 -0.27344280551694355 -0.4694430733534673 -0.04159334859848037 0.3548755507909174 0.3041734698503963 1.4964070023904996 0.3566580117828774 -0.5451568110583539 -0.5073522479010747 -1.5091123334333936 -1.0564705587858314 1.3574548756619618 -1.2811392781623085 0.47865872447501884 0.11117482174011131
558 -0.3204973257553583 -0.8286302049602138 -0.38670615803260266 0.34870018357863186 0.1727172086546379 -1.410107245286529 0.5633081358650053 1.1203484521581037 -1.9461167947408669 -0.2723092325495318 0.30847895735957154 0.479868013315351 -1.2185042563564588 0.7240079972660645 0.06181425764857756 1.6359108833041074 0.6035798034806145 0.27715376649523066 0.46114326910560377 0.780285716739004 -0.9096416713361171 1.2282961752613288 0.04331898493600788 -0.5274928953367836 1.3893524925888598 -0.8631433796775381 0.5128897181909406 -0.13186377090714113 -0.5629293700429734 0.33367827818202056 0.5490007552465881 -1.236023984797579
732 -0.842000976973815 0.3295071824960797 0.9886823448092107 -0.21143137792034794 -0.3891585052113863 -0.989038860749195 -0.6657712869171599 0.8882857739435205 0.735898386816873 -1.2374402672931022 0.5702582083311927 1.1330297022376408 -0.8081929381013836 -0.12121856726905995 -0.6324049800988889 1.0929712011293098 1.3667971875086014 1.5663287028544965 0.06639579113467087 1.5202924896629604 0.6762123576577678 -0.0782127346861367 0.746443772515526 0.14446604851313247 -0.7239011521485629 -0.7245761856444545 -0.46821928744085944 -0.6637801703936375 1.00839139932664 -0.22277881409530653 -0.2974645796691428 0.8256288483591493
776 -1.2209101654636279 -1.0374902893140798 0.11406947429399233 0.11769564959262153 -0.42768151873348087 1.408473284406742 1.2600341974118419 1.7533056832922675 -0.08712359555939098 -1.689461664263908 -1.2873013574595942 -0.740480930589064 0.8125353424080017 0.9914323164786412 -0.5340228430070026 -0.32170202033267503 -0.785896551999646 1.0546380760268195 -1.864465117092838 -0.2719152608901499 2.649086410123306 -0.6622131173955835 -0.9737391080197905 0.08421173732400247 -0.7324348762267375 0.10641267615255873 -1.666487121155882 -1.2072333040677403 0.996897673304598 -0.32233605679515265 1.0449095998362903 -2.162380573163749
864 -0.601579597953767 -0.28411541406671476 0.026979137172719353 -1.0544368775534096 0.6423864410074457 2.109599548280744 0.41315961573897414 -1.144207687576461 0.6986879361161952 0.6060255806263802 -0.20084267705153122 -0.41171058539168237 0.8579647515124547 -1.1620465602204306 -0.062422736010981736 0.4598320529271716 1.2098594674855214 0.4244139148739999 -0.2960980164076312 0.9981720881764519 0.6144119766667593 0.24384265885744846 -0.27272526216979454 -0.29524862176543476 1.481016203083773 1.6582873504391298 0.05046193706174309 0.2978018684277209 -0.5724676329464321 -0.6869786988870867 -0.16366944092257257 0.41759330865199035
933 -1.8793252576888004 -0.2825570266489003 0.23488585940725434 1.087117102210963 0.5225849136118069 0.5875056882337923 -0.8979423767310101 1.1254431672452008 -0.3179040369184483 1.4719167364443169 -0.19310646730516762 0.04844031737162061 1.0713357449307288 1.2520696886904665 -0.2240792513639299 0.5742619181389849 0.9386271620470922 1.7627175704711966 0.00037534738019143 -0.29228993207583137 -1.659474057996602 0.171263819258102 0.8847533705010749 -0.3155512659605075 -0.5375399096589561 1.4329769820658427 1.0453665954372064 -1.5395009902465104 0.4434621505424182 0.6529755853803536 -1.1845430019684866 -0.6638950121068051
939 1.2014552723489944 -0.22600146696878057 -0.03855011532746236 -1.0116307135151132 1.4632913382771904 0.6385165711110484 -0.03269992530707281 0.2757528916910706 1.768655005454037 -0.33052054354786725 0.24963542577199116 0.7502666631735294 0.24357778552227266 -0.49738327730101284 -1.3502907550116363 -0.9373151654328759 0.3754727896408179 -0.7562400875356846 0.7361941447735962 -0.07025071097245687 -0.2616950941958257 -0.24324867470125225 0.2020883624143721 1.4258715281684655 -0.44496307729039586 -0.9523034441601861 1.0251315532841005 1.8113690763925396 0.652594358937896 0.08091048725614063 -0.3164439910871835 -0.6832703484748982
1037 -0.5470666591047051 0.8369531390482633 0.732811081338003 -0.7912203878154159 1.0361296812946004 -1.7938695015807404 -2.345717607851949 0.3017717355546051 -1.5156661813040746 -0.7334310310354561 0.9128677610352278 1.6307869903834717 -0.14458824403737172 0.760844600007694 0.26226296819922923 -1.931468947009569 1.7312784676093862 0.19745614637558187 0.8896929734107993 -0.9736190042139814 0.8342670683636693 -0.1761802120281301 -1.449704866724099 0.28417501877525486 -0.3492760596992145 0.957824479622472 -0.14858494724285912 -1.3861115243281312 0.25695334461001834 -1.6157694203636255 0.6784749580330754 -0.08784654332902511
1092 0.4522971506030695 0.4542093185598521 -2.2493755958165247 -1.6702049739163645 -0.3503633221790741 1.8640748935174314 0.07091550302800377 0.2132087824240342 1.3211237416222545 1.4098680303399442 0.33010194184301056 0.10868429157927818 -2.1433059957207474 -0.7242562818304624 2.8939834875308286 -1.7014107076054736 -1.2518889571603107 -0.04442221137213327 -0.5067023348891526 -1.3141007330957546 -0.6092278804526997 1.98735133459426 0.037246962746217464 1.1209241640401777 1.5927541956116071 -0.6997754483652874 0.25029179951313846 -0.7485242816222369 -0.1744341310292331 -0.11806616199769236 0.41586383065375954 0.27833502775376284
1176 0.4957579306601966 -1.0853324170680128 -1.649626229082783 0.3816015374375263 -0.4473037016345359 0.01739748546627261 -0.5900409699023482 1.945226699832812 1.0476354223621729 -0.12784670782189578 -0.48407117557833523 0.19867163906199478 -0.5097554448629403 1.5536105774146662 -0.7543202834311606 0.16835486461709967 1.2555810978898472 0.5530912706005114 -0.7586714024569051 1.0537944651193398 1.1407874713464516 0.9520975365756956 -0.11922778789108603 -2.2916609953351483 0.3185536327512819 -0.35261259031696873 0.9872965899377856 -1.394816589712171 0.172452061137348 1.7670521488082678 -1.458435673708496 0.5968094360607868
1313 1.4533045096015813 -0.6185451745857918 -1.489164941101841 -0.7607162276360978 -3.0581846881633483 2.616894994170804 -1.4296163090143772 0.6256749918223314 -0.657920886656392 -0.4867270009436007 0.5395700666225806 1.5728910269223868 0.21629414688662635 -1.5810617676170642 -1.2229375901536919 0.34270602657142185 -0.47874282389868983 1.3055254021698943 -1.1157624469624063 1.5858950448973508 -0.6084421445224653 -1.397011323448576 -0.007866173543833444 -0.7701770846276093 0.9938785676861602 0.229569833434724 -0.5434576508661157 1.2951765762231355 2.076924653636625 0.8474320385497428 0.8341610206857659 1.418967743376582
1478 0.1703731254072373 0.7186767762331729 0.8758324929345208 -0.02376745806092626 -1.5541596453110673 0.3811929593819568 -0.387980800198282 1.0839790459591818 -0.7683754657867141 -1.9966905447829375 -0.15337457311158526 -0.5486410991164749 -0.21089144683408886 0.8132878533076956 0.6868399111660622 0.01934940512691069 -1.107776538226414 -0.12429614668107977 0.4950022886119125 0.5212823399456789 -0.6142506757616629 0.7314070287691739 0.8284657331831426 1.0752136077592456 0.7076357085953778 0.0009213146553012907 0.934943380880235 -0.36076641000203247 0.24370754194374503 0.6516090707913713 -1.467912232401529 -1.0680606956644922
1499 -0.4145822940914602 -0.640506284461126 -0.6878683569287128 -1.1916415902333135 0.6482211363359965 -0.4119204039136309 1.5765010275372984 -1.5193404746521804 -1.7518132149900145 -0.2181244481771553 -0.23209542413729428 0.588220766674349 1.5648793170460638 0.707589854750005 0.4790665462162875 -0.5272984957313126 -1.7645377504972135 0.45620854900359814 0.10151957127138891 2.6041372174650532 -0.3019583109252388 0.019897186561340915 0.6363313502173666 0.7932025120851464 1.3382420996859348 -0.8867347636534417 1.5068951966887907 -0.11553238834145686 -1.3830090061107427 0.5209403358361249 -0.7682775066462332 1.6510478887824571
1596 0.6354622190884096 -2.0468624727467706 -0.3863545247575037 0.4137767503882638 -0.4740872898699972 0.047138304363774974 0.8923541603974678 0.6432784707165609 -2.6134219314752434 -0.3702830149984045 -1.4908701858748241 -0.6829088197434839 -0.4349869388153049 1.52493472044113 -0.8463703413953069 -1.3898025114659223 -1.101040856980137 -0.6813078071410025 0.134578880881307 -1.2549541940917641 -0.9622623401901508 -0.5817325614500003 -0.296387142794555 1.4288752890606575 -0.6715802823865049 -0.12404325580228003 0.9657719487967452 0.34932426171201153 0.9696821347327161 -0.7534814071110391 -1.4571463802233522 1.3320586395445355
1608 0.0006049582104454912 -0.5321575393268486 0.20498863878065304 -0.6677350305219366 -0.7358364209849643 -0.3160509559681413 -2.7345846440174277 0.5651383478293681 0.2411738780811419 -0.07978086777824113 2.0942725362693033 -0.35649812563318495 -0.2790241303485819 0.7674175729849451 0.559057793622693 -0.03528450177602243 1.5950518601228498 0.3731231420100411 0.9434136996011984 0.11969426998277395 0.24393659278563434 -0.41226986452178854 1.9034134571314114 -0.047887269450186475 2.7999056259193864 1.6511452403517366 0.6798677325699665 -1.5685713572408029 -0.8279724253899758 0.21990953480335262 0.4567346601103019 1.2551485236056825
1621 0.9268392246779095 1.4720319639729056 0.3242469527237711 -1.1731821099366158 -0.5062757418567473 -1.3350622192631008 0.33131271918100186 0.6796940350197878 0.14011774107363142 -0.30989489874411397 0.7331909695834432 1.1184394092241867 -0.2534615915766329 0.6131256368388103 -3.035917236810029 0.3284805653121945 -0.15384449351270774 -0.17848366164184454 0.7569909069198756 0.8350059868594304 0.69380470413401 0.16552336773038576 -0.8418516852657724 0.2573271327234359 0.704452807243196 -0.49067278993133717 -0.2040445782213506 -0.3879210470415564 0.1733093982666066 -1.554010976460242 -0.7098040427689677 -1.9212024310813067
1637 0.38368043343155844 -0.6094779376931525 -0.1729085933260654 1.4054763711863776 -1.5251072054383579 -1.6810533872490832 -0.42937242807704196 0.38582614467761794 0.17699510765967003 -1.4740493463754938 -0.1762503304549198 0.27461716325151597 -0.8891854891461738 -0.36083724053890015 -0.7467009768086643 -0.059675303985472404 1.8069131856291882 -1.0534487808874313 0.15917392060583996 0.49586976380446046 0.012959434753461844 -2.576913160351347 0.19822154025800393 -1.0538047826477888 -1.4621318966157084 -0.12459837747179431 -1.6273978736206858 0.7935452842589549 0.45211025951758477 -1.8073343358412008 1.5889786388704603 0.42306309773542705
1717 0.7667445260957676 -1.8049877121847835 0.6448978553906978 -0.28282350290905955 -0.5681380963690256 1.2453688041502322 1.760967702890333 0.9322192632605563 1.9913187637496654 -0.5031507813741588 -1.2973125701444597 -0.6275608253812577 -1.4396198284181734 0.001438317605425883 0.3582658708538814 -0.49827818737605195 -1.1743560579119752 0.5316095369918817 0.7139170997449492 -1.8095084482332753 0.7478451686211545 -1.6227270711168331 0.5860676832213558 0.3745438256047189 1.0115806387255744 0.33551931869372814 -1.5840957569117382 1.4027964491671476 -0.6747009545778515 -0.17928928809757674 0.9100060890288572 -1.4023886077923502
1788 -0.16824588914224775 1.1474720092253552 -0.6814570910874642 0.39913230968195845 1.0466416077231038 0.8611246762138156 1.5362354315671594 -2.207860944149156 -0.43040649814638593 -0.5866643007863814 -0.4043657226096591 -0.46202954364804677 0.33667858454000454 -0.39970146910564536 1.2546246736868403 -0.2763507265349059 0.08128018001173178 0.5724498698640179 -0.7909585675986198 0.7588254146835395 0.2148072830629035 -0.30942077620278813 0.8757740900477434 -0.2912509170709084 0.5196974262092314 0.920012903012579 1.1047690532625825 -0.7199908187459189 0.07164247995710657 0.6320006217372198 -0.508991489803948 0.8125337044140563
1919 -0.1722475972876949 0.3309966885615578 0.2489549010370653 -0.6813945542343305 -0.010653310234886058 -1.0478191428872092 -1.2357812109616668 0.5209061999267631 -0.08366492501255324 -1.1823672133177523 -0.49368930414929413 0.34326039999650665 -0.14015178759517868 2.017593920302258 1.8279370560127224 -2.651621325649238 1.1908086706483303 0.9827831317115528 -0.29960611722721747 0.6895847578598476 1.3926338203733803 -0.8124994526272538 1.7800772776364215 1.8247072060335892 0.13965686895653465 -0.7770386421368636 -1.8606216032679588 2.083689865794343 1.2946693342168607 0.06887209897737959 0.8846005857888379 1.0008534504102116
2004 -0.4500949157803153 0.8229625854783921 0.2672287819562744 -1.6339226373577762 -1.3220929014798157 -0.7230705648127396 -0.9884907711390238 2.3405986094464932 -0.367226437002997 -0.07858744752455238 -1.7774671812241738 0.7273833050624353 0.47158942925403474 -1.001134112817395 0.7593775510804396 1.1814292621501046 -0.26651594335066664 1.434548381315559 -0.35894291262805816 0.6007494728227918 -0.04335102227430556 -0.14091698750641496 -0.7182588408062618 -0.39567103395233216 -0.893984767479138 2.4738787833917706 -1.5745023423292346 -0.05457905916752918 2.3759212345428886 1.4993661321289027 0.4788980401198054 0.875141035011401
