3906 32
729 0.5400309266678642 0.4429786021084018 2.1200104924427308 1.780593980049064 -2.147613463681874 -0.9914708536796495 -0.5301885659083636 1.5786462012925777 0.00945138634195913 -0.31369342072850004 -0.4847167265880311 1.5181609674972463 -0.8832738157956918 -0.47165036049899306 0.7359305709989349 1.2028105894712608 -0.618892623444667 -0.27599547430571153 -0.8008041309205871 -0.5280486581635111 -0.11206557059974655 -1.0365967614988458 0.29273470117979683 1.0113925340640608 1.0212852258422191 0.25078919409376327 0.34516292674389054 -0.8146504415828447 -0.007158464291527343 0.8667363056669884 0.6990959859712202 -0.37521091870511714
1 -0.12376695504478695 1.337681164550935 0.6272371501633631 0.39830564785081796 0.46968100963273257 0.6052460446792353 0.028449184125921616 -0.3506316174927103 0.8698004997788417 0.850033493633352 0.049510283005630144 -0.49066628920685385 1.564135597875898 -0.01118845920322097 0.15632118267449682 3.0535305281804104 0.35866294370558083 0.9710930347914353 -0.8991407270323651 -1.4528553105478326 -0.6801304189186048 0.09874115943325326 0.14343072782788235 1.2244701205179633 1.1476141701240383 -0.40601314414442524 0.34591968458650674 0.3345793672634158 -0.6502137872996485 0.26313538730073577 -0.871469799704525 1.288644676345419
335 1.418218392046021 1.3170141080363968 0.5045747814773193 2.0297620409695214 -0.6064515891285897 1.1696878321164732 0.9681266243818915 2.43277916456829 0.6081708749433498 -0.89568189872824 -0.40866521911546877 0.8469684637650223 -0.0058453870122654236 -0.24368813202987918 0.23505428329612588 1.2468600493664783 1.8981654806565578 1.5983261889657754 0.8416124036953424 0.8283818383603216 -0.04913472978311521 0.5404638319392973 -0.38500792299575115 -1.0033746463210218 1.0248881871536584 0.6502292294909876 0.7881887873649402 1.5877472233614947 0.32309545413164276 0.4788616705865433 0.13402826345577667 0.9669925521198854
585 -0.5779894137494946 0.5024298286704768 -1.2259804470573779 0.18267147728267522 1.149885375911048 -1.331761600863942 0.1607329571567489 -1.7896983256648615 -1.219903814668445 2.437624917419338 0.07019169379860987 0.9016176954131015 -1.5208642275979214 -0.5398451009252606 -1.3925577999844498 0.4872970168270394 -1.0130482906162797 -1.2796527547857721 1.024221122746776 0.5378105966451241 -1.1588871068219257 -0.35118517031532864 0.5902540391408179 1.7572691286962743 -0.16412560982814045 0.9836962927922436 0.2449354663120734 -2.8228710817297147 0.058710868207987515 2.654997584553723 0.10648843304432311 -0.3100046522011955
674 -0.6772731851216315 -0.5823081049885968 -0.37615025500764365 0.6382052203231944 0.29874263868253903 -0.9136723871986431 0.5303921730527031 -0.2303697181750955 -0.48036062746186686 1.1003340472326057 0.22211372922725686 0.6052527592153882 1.138142878738882 1.801606216578437 0.11245065468756302 0.46628348411837306 -2.6453141969781013 -0.3899567330667598 -0.46810489842320513 0.6853114217219298 -0.7368977618462377 0.9623825580006203 -0.20423166162699294 1.2615615497066035 0.17139965212500272 2.099000549103665 -0.8099354045344045 0.5731843960498259 0.16611367695205284 -0.3033418196887285 0.7566103051250209 -0.38641302874157263
3178 -0.9980362151270393 0.013635911086484655 0.502084169618124 -0.3085208143438491 0.5480762928159449 -1.006048490520035 0.45123367220682303 -1.7972019157650054 0.4622334387644541 -1.2156729503298966 -2.156078290545302 0.2950071081957328 0.37661649531102614 -0.5716153589776126 1.322485607414713 -0.38571859460506497 1.2201394370905814 -0.5459421673349291 -1.445406898514978 -0.18645492580292355 -0.3235591686687222 0.23131054097371942 -1.246810283460206 -0.3675382442448182 0.12727625256554956 -1.9622305132524833 2.233315588016688 0.3800592234114172 0.7284118297807103 1.102690584877585 -0.031133899226915812 0.2599340366546067
3715 0.9100344381801744 -1.591653916303704 -1.9580148719815733 -0.11375252539228986 0.14879162142133923 -1.3865539514672953 2.1401132060978885 -0.8289348476073033 0.7073831275426846 0.718694728728231 -0.047520252376332464 0.45845741084224695 1.4889448556818792 0.3838715379423481 0.9647384925867856 -1.7131790881630693 1.7291558612630247 0.07296876926360425 0.413117399956075 0.36976226679297175 -0.7367683658887719 1.2511512199457084 1.5385909427565534 -0.9733741603775403 0.6574834915422271 -0.9471695018445897 -1.5166982122373347 1.2296224317822206 1.13038522562733 -1.0547871239442943 0.4020561132466449 0.06807773480829514
50 0.27053039945461016 0.46517739652755397 0.23144148203596798 -0.7529417489734134 -0.7984577400478666 -0.6857442374625445 -0.2676350631759116 -0.35827183131183793 -0.37602114222578625 -1.2092712222380333 -0.3176830428001211 -0.30306221090116187 0.9334711273343366 0.47904094319335155 -1.1213374935266742 0.921179230232881 -0.657076745825696 0.4829978997691461 0.09999111095367672 1.9600786215789316 -1.6793817613761701 0.2975589245647405 0.5820298913619586 0.25309602658215913 1.1039565353787142 -0.23828566985047847 0.3569831661795845 1.1299627517827222 -0.5893265487514615 -1.255209933368967 -1.5327074954757316 1.1361060391871427
193 1.0176062580471066 0.16579568099625921 -1.899382352379116 -0.06287318985194337 -2.451629023935651 -0.1901514156762701 0.5597772965415444 -0.7328465190703263 -0.7974005372994601 -0.27287624871740385 0.8102457443415151 0.2861038099087081 -0.334803829321386 1.218014646696852 0.44145946033276146 -0.5604193750618852 -1.0241907393377285 -0.6917194201847462 2.006374875063865 -0.7105839004464461 0.743633225978432 -0.27631554462299956 0.560225090308622 -1.6208235985264088 0.25110752888307114 -2.330618879816269 0.8203979127948682 0.7045182487435373 0.17273707465597932 -0.04240803348284972 0.9836225975074867 0.6361774007671519
212 -0.9697771858889634 -1.9139338164882278 -0.22936121278161986 -1.934030816217685 0.933812938707273 -1.3019063470010457 -1.2713091709201059 -0.056300342184650846 1.0910926315807479 -1.0551669167934044 -0.5205127441295685 -0.2938673331434445 1.3098514503361436 0.10738269992718469 0.04929994671429524 -1.355097911751077 -1.1635782926572713 0.36403410840852957 0.3673118799396736 1.3229688128963402 1.2636284293481084 0.0027598392056405073 0.0456903277543947 -0.777471615545741 -0.06526231987102533 1.6611819962592826 0.01737260053755888 -0.907583319418768 0.27703054260108145 0.3455011194350014 -0.20321764927838729 0.4644209957401358
222 0.5264573126398806 0.4997109736422765 1.3469667787552722 0.20376493287632835 0.2629880592303429 0.6882025101151034 -0.10949515510485047 0.11559096207359777 -0.9627331991552377 -1.8321793866997036 -0.3948211187116253 -0.6169450078495026 -0.10252568361505034 -1.039245302205475 -0.5827625130994454 0.2870655731741103 0.4240772742970401 -1.0012379581335453 -0.6324664633457991 0.40682309975525266 1.8175085462329912 0.8963541968342212 -0.5545606270826541 1.2487975820417525 -0.6859187181980468 -0.8860898630111845 2.4742155797174235 -0.6834507040084076 -1.1775167311321948 1.229512350198358 -0.5629956972484553 0.625637183773924
847 0.7077664477481461 1.1495809566749726 2.160783885400987 -1.797883166838837 0.2346198454193856 0.5840709785349659 1.3296022064480917 -1.237404270200293 1.5967029080778397 0.332130492440381 1.401960081877023 0.5426125880992096 0.14547035404540504 0.8902616908797036 0.23843187466545276 1.5809987339672553 1.7167041565364023 0.5416199633504641 -0.08747564909557728 0.1514802462310429 -0.7619562985583137 -0.8947664573935165 1.4598763095376643 -0.18596092039361764 -0.5180310595886931 0.6769987587282879 -0.8904210504195601 0.05281498605291052 -0.1722617708394598 -0.03617889273513956 -0.1140796473132081 0.18362411892319028
924 0.7591601634718216 0.4405676511841605 -0.004569319127805785 0.10529886257031365 -0.2382104735652821 -2.175154637492167 -1.6109197141878433 -1.0136094380673824 -0.16018697982445854 0.07003358106146768 1.1773193949956584 0.786085391759337 -1.121040800724079 0.1841270042755121 0.14884514186555262 -0.20393870448651175 0.0138355751303337 0.5200494304423271 2.79917928299941 0.7337868592068483 -0.07658972319814099 0.306945549203318 -0.23347067091268028 0.26673987266185506 -0.5496092666098024 -0.6574558932162914 0.3074764649435982 -0.6303620319614561 -0.8284157641460032 0.7216483546326546 -0.09442894838160763 -0.11079124728103722
961 -0.7592629821808919 0.037263746463272976 -0.17663163530420337 -1.622598477715871 1.5435955992206805 0.4483863726920163 0.42877269509322463 -0.07795840683068712 -1.3689264530403245 1.967318670746267 0.6289405559256971 0.41212924101431037 -0.465026052615714 -0.6104648377333198 -0.977839665817131 0.8017893271601113 0.4874668937862008 0.5286395938172241 -0.7363951077408545 0.6977681475676438 0.04232961310772672 -2.319093563957021 -0.6693451117171492 -0.6822730794699124 1.341600953980849 0.6847735992482856 1.2661582321952387 0.11477541302585295 -1.7914159721015535 -0.16964093481135017 2.10676881234924 0.7438623860868983
995 0.8964554998852139 -0.5357698400249833 0.5801749086079373 0.5671125277752709 0.09454185920223272 -1.6318581771124137 0.8522257294219252 -0.12852300798291796 -0.4073214563683222 -0.741637069644368 -0.890297223478101 2.0598177471880232 0.6767192669410014 -2.3434788956097545 0.33743715884683967 0.9985563725580184 0.4120038356079371 0.6620164585510002 -0.011021295793522892 -0.9744083678118612 -0.8361226284678723 -1.1589377758363064 -0.9279393497553925 1.3781512040421406 -0.10548361771070539 0.016451206685372675 0.6369681394662632 1.499394542200925 0.03967038513740981 -1.3477082682263515 0.17172055539867942 0.41045075450183427
1046 -0.18987837397608037 1.2921570377140879 1.1802772858303263 -1.2742727670252583 1.2728798675166686 0.09335731359630581 -0.7925451005976474 -0.510783524116182 -0.5241264857633203 -0.4967021994774881 -1.2995840947156616 0.5929941903052203 0.30668143603055276 0.08939739564936348 -0.5195678185990391 0.1732232431327711 -0.13465434606920013 0.29709756786410946 0.7435809916436346 -0.5119435474853781 -0.16340113147813895 0.9924443281143809 0.22008244318661968 1.017337156706807 -1.185464256561201 -0.5156935087895363 0.460983952914133 -0.28299734044330727 -0.29653943294106244 -0.6414773097734928 -1.1518310058915744 1.0781706506859998
1142 1.5761885066093464 2.200501430444404 -0.2877056046858728 -0.24757148384371072 -0.4820116766630047 1.1956774363535114 1.163872866407281 -0.20611728578892619 0.35775847987659676 0.3147046654399658 -0.5189276720113102 -0.4925193985335145 -0.3406981298013437 -0.8458955415086039 -0.5221586002823485 0.5469304744091659 -0.014974010988720319 -0.16667564377409985 0.24457241952590172 0.9245003625689455 0.812104374994461 1.4981206684546806 -0.6869243404422279 -1.835589883988607 -0.5759693360215925 0.583836999875414 0.6604613844840905 -1.1875191634787339 1.9169244861951056 -1.619178742054739 1.2352408088094662 -1.0999332368337842
1202 0.38389674504952614 -1.0791284945036532 -0.44656755398431597 0.6366449189551305 2.018929253821604 1.5161387133526103 2.14816264345013 1.485408322423772 1.2349347927220686 1.3682103198523554 -1.2821288325266442 0.4131047757834971 -0.3858326943560753 -0.6744560833059043 -0.7394972806667194 0.8315666808956969 -0.09997849969112696 -0.8815894156612945 -0.31064346506855534 -1.247656294373341 -0.11425687057313356 -0.32706123320367947 1.1443874951594246 1.3184547206548811 -0.19961346567320776 -0.5772417562669032 -0.09632224145148433 0.4463557524404419 1.0795081494071361 -0.5782717762982325 0.6663119267151345 0.9704268653012639
1236 -0.9424098771611938 -0.24828372240373883 1.5836542699264018 0.7120096442111762 2.0475675794403356 -0.38777245490250134 0.3907433578266197 0.030848818393967678 -0.26042358331847576 -0.6113066490558382 -1.2747014343532366 1.6328123073493768 -1.7486908897694167 2.3033202987989085 1.6081853146399863 -2.1534682075599267 0.660369691775665 -0.9639160379872381 1.7551986919724496 0.7307085832463293 -1.7036191818278639 -0.5032207679042646 -0.5894264108714012 -0.5036853304407738 -0.7971074965981105 -0.2358619956202228 -0.7469425154532042 0.12394328200963547 2.270447024411181 0.8816903034989614 0.6948453484877706 0.5158236140116544
1294 -0.9341119994700549 1.55146027921192 -1.9241640665545616 0.6191361456121094 0.18017057505958828 0.9987139965663854 -1.5484964569379913 -0.23457721923668257 -0.8809050414175565 -0.7327560927974759 -0.7950431784230574 -0.7893786221611815 -1.6017731323834854 -1.352914073206491 -0.5852621193819803 1.6546481627056957 -1.7643816882641123 1.8676695923320905 0.3827757751029073 -1.3238641161394626 0.09284055537225934 -0.6800475809127915 0.5685291837465276 0.4354876591069282 -0.06875250060459545 -1.2760594856479486 -1.045302320165663 1.5198193360210788 1.2502493039872173 -1.0769514429677378 -0.6745261516217412 -0.7962996941345907
1432 -0.8766560273411698 1.2420607472369345 0.09365394475770857 -0.22927823475510414 1.1090779940290443 -0.19257484495549898 0.6868696686580388 2.6987942084840544 1.0188826053746374 0.9402869025828681 -0.828733119785907 -2.139277384461706 -1.9158065943509006 -1.237185477841477 0.06196485539450123 -1.188456717621029 -0.1839203472780333 0.16062324284795385 -0.14101981978941502 2.3190954873036373 0.693308588595328 0.11264460278268926 -0.8820231890223708 -0.5707836493454089 1.2086500169170338 -0.39598381923012815 -2.127172473201722 0.3682669587737353 -1.8111086971185881 -0.6885207995147496 -0.18636803647116296 -0.08482183563227848
1489 -0.4642647794127647 -0.8367102514207865 -1.9229296439499837 -0.4760201657247189 -1.1194683034827484 -1.2299483476305701 1.3668901554775454 -1.6103290595758146 1.7050549822623717 -1.4437558556800687 1.206895816891249 0.3928884160080245 -1.2707929165385083 0.33991735109527965 0.4443265865922863 -0.3808082361939964 -0.39058396788713023 1.1447184473083516 0.797713425184358 -0.1822096532794258 0.8164827809816955 1.6140071742748876 0.587661848312595 -0.5714105473697172 -0.44789748318413186 0.3359792962387746 -0.9288565888558675 -3.29057089989769 -0.9012437700746931 0.0454434442080364 0.8466923001553589 -1.5505802981857202
1514 -0.09708694624378114 -1.5826749979572534 -1.638808628633404 -1.2710143251917971 -1.6275883189335278 0.834266937660602 0.5647167902346092 -0.9012545488476618 -0.7820577942193381 0.15047128317711705 1.5949715410351113 1.438943091585091 0.9305899671575993 0.9880535191145011 0.23180731102787158 0.9515160831370273 0.17857984963595244 0.4479622905816001 -1.3821313618069946 -1.0373407631395017 1.384198718769931 -0.39673116368814365 -2.010577473668638 1.3552513137963584 -0.10004556613717155 0.1296390420514524 -0.7456243187233127 1.041041263948794 1.2080973701181832 0.6912545965180698 0.13747857184459542 -0.7985944507434143
1552 -2.4381272008665724 0.23645957859530492 -0.2636743697704022 1.0108939524860028 0.8485528300634877 -0.46428959415514026 0.6913349323135471 0.4908187819234105 0.9648833347192376 -0.2633973127425686 -1.5306731276492864 0.5750983128896724 -0.8994571281063954 0.03363326574853446 0.7255194601165409 0.4185421257351317 -0.42143808569225005 0.19642353592825285 1.1376366689584283 -1.7408493277704762 0.3332394809568837 0.9644335858373452 0.39553497424077383 -1.7752230183256215 -0.5006155150374888 0.024314059921665715 -0.5980240606691862 1.3968159413388115 0.31478055171210917 -0.31888273915070975 1.6596207596092956 0.2369959276775859
1560 1.8769102064129197 -0.21895266615175601 0.9700328348820965 0.10399184172910743 -0.7386200710687365 -1.1219793430529879 -0.8012950456973134 -1.2726196374513337 0.2582034636784762 1.5022369124120143 -0.37582962119413377 -0.8342878361997181 -0.18005718466925505 1.2319610886191439 0.04365475969306416 -1.4881084762523025 -0.9530194203492054 0.22296519479037544 0.18184498035077573 -0.5340745333998882 1.067007692393796 1.0218154649153572 0.8164181857915601 -0.9090195553210452 0.4342345270971677 -0.8260959592188022 -1.596979781288246 -0.04077116401608191 -0.48873274102095005 -1.0599640758726538 0.9785997159198508 -0.24771291614870192
1580 0.4593137569339809 0.4971586248521185 -0.963986747794809 0.6061772689570163 -0.229673789823091 -0.5801498996148394 -0.7714759128805857 0.5473636179092919 -0.16323841162275624 -0.16284324727049984 0.3586015231043533 -0.9256669408946597 -0.367683816232668 -0.3814699846853995 -1.0624688036150447 -1.5687711929412007 3.0752689336740473 -0.5219743767631575 -1.2359539134047672 -0.06841844528975134 0.11540549355097585 0.2949076644075528 -1.5827899906672263 -0.26952503878921485 0.3768226442990397 0.9214945076977848 0.9017398486981681 -0.7238421168059269 -1.5467919276531839 0.035717063612461575 0.8484844498604519 1.029409257381658
1810 -0.5541754150284964 -1.0490773588957751 0.34261693814490796 -0.03416943948197152 1.237170713166568 -0.9863869309660959 0.9964294619340349 0.6576544161154038 -1.4473495833516223 0.0376159996098553 -1.0035668902856711 -0.027731696381533912 1.825812942727341 0.8455087558306366 -0.084925724852857 0.8360244760763408 1.761598965356704 -0.30804355942789263 -1.357315549540491 -0.20138704395117338 0.5552905246406474 -0.511109468924898 -0.22730841315717046 0.1384045851238767 0.7245660118824193 -0.3482410161914529 -0.2005703814460448 -0.34974702179095324 -1.568058294867211 1.7675266770024733 -0.4501252353947181 -0.603224554684765
2050 0.2036279272294272 -1.0509076633382892 0.909817226366274 -0.4972825399542046 2.7133102837970786 0.5693239126372742 -1.1248205272586835 0.3435324282322967 -0.9076825645252484 -0.009830132213248976 -0.7377839838565036 1.4492854316097452 0.4098219316243771 -0.054832535292163524 0.46985565836631765 -0.45908830077648277 -1.802135851348755 -1.3976892973664055 0.005459366951969207 -0.9144019411018761 -1.2924370338205058 -0.5450607420698386 0.2410425928180477 -0.45302856068109226 -0.9110494648403888 -0.810971289535707 0.5383822141960762 0.6579309008550224 0.6290919386613374 -0.48540163339947257 -1.7613684241420786 0.05497616822291834
2237 1.1820596283083424 0.2256974020756241 -0.6893751850421349 0.37854548311275543 -2.086386003693214 1.7844567256231545 0.6789452241807076 0.37241467165212105 -0.044959884526952064 0.8021123439835788 -0.14136985633075583 0.4315013099440044 -0.7319064556206764 -0.15164493517692362 -0.17702274955397107 -1.9364034824108083 0.24654357379962197 0.38007087681113355 1.715946907908632 -0.9911855715621056 1.7977671127994173 0.38817332025715096 -0.841667314091619 0.4459421871230752 1.4129124139465608 -0.226155331685522 0.0621040495488393 1.0659849452676469 1.3459424137491536 -0.13215399039204537 -0.848317204096915 0.5271465311955151
2295 -1.1705180872551681 -0.15445847017181735 0.9554127214477143 -0.8528123402322426 0.15932510775014955 0.8879300087766214 0.38525608416525015 0.6034970927020328 -0.3910755888194825 -0.11206176348855366 0.120383913803791 -1.948362511937297 0.36148275288485476 -0.9241254237074032 -0.20864067178121676 0.4590120525558682 -0.48251119023495614 0.517388403551623 -1.758721276041109 2.5251488863310705 0.48498140413042023 -1.367930591172717 -0.5916044774361507 -0.3552595469835012 0.8181005967183456 0.6319183353942287 0.47547434280081546 0.639988617864355 -0.40400311960309626 -0.6196406094673347 -0.20184704394342254 -1.0601304142217418
2689 1.168408738193281 -0.5026930961302429 -0.27874818253898676 -0.3106165512871412 -0.9075549084410002 -0.11883892131207065 -0.11847601752297231 0.020723065094904784 0.06492653263552177 1.581178958227066 1.6761526867066912 0.48248830033150053 -0.57168774604744 -0.4974909916021578 -1.1158812972254537 1.9130408184841112 0.4535710347479207 0.09620706615837352 -1.4492250595060354 -0.9404948735801585 1.6721674149332852 0.6247948881523854 0.4142548117858744 0.013778287540218169 -0.17771550942189293 0.8310423166058919 0.02134614201234426 0.4688622792495575 -0.9836003394006971 0.6429572566082993 1.1670988495706274 0.38393125136043366
3021 -0.039562778167134986 -0.966917108085703 0.686525201296139 0.025442600782216353 1.0637907325022342 0.5252915790595861 -0.5194632082002284 2.508634982938645 -0.2780534452560055 0.4250961520717438 -0.2804700403850634 -0.6997580316290396 -0.33786742454318675 0.4364319257773148 0.14585931304931646 1.0573062274465073 0.1332304055402111 -0.4333960127421048 -1.7963067395225154 -0.4257864093566625 1.1136491108021918 -0.03939569317558086 -0.5573898988052116 1.659249354286186 1.1528993390868412 1.0245731815205792 0.016368665987617083 0.47874801846531456 0.5952631650785537 -0.6907096780520868 -0.3239335005051109 -0.20769254028022396
3038 0.0192793170346513 -0.2361551991798033 1.0195968457393982 1.1590503112448722 -1.8133721348571081 0.42316597120689214 0.24236964853553383 0.868486193117878 -0.3410757079481984 1.569859994184598 -0.039736358183363206 -1.5424750815560635 -0.10830227636850773 -1.824960916003149 1.6402503940619217 1.1632214458854029 -0.23027545759317886 -0.6599633303279661 -1.822940391186809 0.3734988731935708 -1.0621174661141357 -0.09378309694592192 -0.02027586771274939 0.2775000007681794 -2.8074304888106645 0.6416650733167305 0.9743145934431889 -0.22451480564179918 -0.053819407162880216 0.4656710707894893 -1.208918580563177 -0.9329528319653767
3283 0.25396225043239357 0.15615625304576494 -0.3156526555346878 0.8978259616935051 -0.9606018771531577 -0.7532802424538025 -0.41114414387851245 0.1845235959853929 0.13968968885518754 1.5362338001138343 0.5901984667125039 -0.6434161721349926 0.12932165332793782 -1.1548305596681268 -0.3699232063200877 0.1757266908122283 1.07684455106019 0.6514422951788423 0.6607890836837543 -0.010829979827482135 -0.4110243925272899 1.410752829048695 -0.5087424933028334 0.9793474044665529 0.36032614246269684 -0.9405213537704691 -0.21368254305082493 0.5953969578162699 -0.23454521980430826 -2.0079139928597276 0.31818404141555773 -0.331495245272568
3489 0.510551958670201 0.26637063081067924 -0.15458395368167938 -0.7975541966471824 0.9764767201653637 -0.09059590138969988 1.903483967109445 0.12200476187322785 -1.1180552420246648 0.0782486015624458 0.6642601984052163 0.23229806584133267 1.3955359322360943 -0.09756913650064154 -2.4076493296830015 -0.7793793794575069 -1.221186847383639 0.9350557514903263 -0.4467381404049515 1.9284393989567188 1.5960505527347282 -2.395435519918241 -0.3378691980971801 1.1946786017728621 0.28645007110611004 0.40976198846182066 1.0827440362405762 0.056804605077810905 1.027512720511298 2.2787412229098196 1.4175609792012507 0.2101692868843879
3583 -0.7872227256196511 1.4834023192314596 -0.43652360169780013 0.6756799520072471 -1.9159164263607857 -0.3838864250961792 1.050817194261942 -1.1740869359740516 -1.0478240436803872 -0.7102548885707056 0.26539579515826706 0.5227479046085007 2.4569726425890495 -1.1546721940650004 0.022172422222335668 0.15745032914928003 -2.242398875640694 0.28720912489900113 0.6107244969944758 -0.4056186055204298 2.7943171575018635 -0.7607267328272955 0.6691965731628894 0.4246717096219684 0.7835239105638404 0.09875069329072146 0.28732797265147825 0.40760507716966093 -0.05421457404656157 0.5029873366906922 0.5888289560537631 -0.42427181480628784
3836 -0.8900390061718252 0.3853993483593801 0.4080303250375221 0.603109480567645 -0.09788760949000863 1.2413699587253917 0.8447928272885974 -1.4988319326982256 -0.4743885635255054 -1.0917440100466433 0.5358211132576178 -2.5479830896984894 -0.06398373324866848 0.36860208102228115 -0.30365047639414633 0.6090126187380698 -0.42889004219759236 -0.7904900504128632 -0.5811783730600375 -0.20697507113929442 -0.9158363786721516 0.6313605599875339 -0.3245595411113472 -0.3900784559434411 -0.8019341605812464 0.5569892181678798 0.6274415046149442 -0.9690298036430597 0.2035740264923206 0.28574555202622964 -0.009145235101946179 -1.5601359071115102
161 1.8301515956428422 -0.32122811993213 0.794002240222872 -1.1730338108766534 -0.38815653136881784 0.20774607753489818 -0.401291877283087 -0.6128964395197871 -0.09739780986003294 1.4416300267703859 0.1380943401946177 -0.08219289111310561 -0.10539695562645675 -0.38005031022817076 -0.5538588328081251 1.4087561421587 0.5440149983095438 -0.3321177687542293 -1.3437031035360176 0.08611277671029095 1.2381512608061702 -1.1146925033160138 -0.18784200879566726 -0.09135421217987064 0.5131306264546056 0.07010696190163056 0.16522378439248614 -1.1739848655497958 -1.410161605638667 0.02759127785173678 0.0018843717593552192 -0.6894073745594499
2 1.6230731138923256 -0.6950628459468194 -0.8106922009865546 1.7186318094004844 0.7952122495498904 -0.5995848026490671 -0.48128384406796343 0.5735977999984404 -1.810517954680442 -0.9788590029081244 -0.29797395353857964 -0.5655331269483327 -1.3348219676268334 1.7359939734757037 0.6016221596849293 -0.38534379431805876 0.4532426624419083 0.12214678583552112 -0.3313182639095141 0.5465129456274171 -1.3840663521823193 -0.08269285950070042 1.417518580344108 0.9831644914160425 -1.3719196817846186 -0.4686779599333783 -0.9498491073500812 -0.08147574557518551 0.8152903480306699 -1.4824335852990427 0.6603775066304709 -1.144843603561927
868 0.8900209588242322 -0.7845065707532816 -1.5341779543202674 2.631766285498739 -1.2153281004661707 1.218104774677383 1.1426846640627852 0.16029858014623483 -0.13906063385502784 0.5123631281652796 0.04606122289875473 0.37847481875176864 0.810034668573653 -0.11242355169370102 -0.6211967447781734 -0.02869274038318136 2.154412231545171 1.1927725573968653 -1.025978975588412 -1.3063124367989425 -0.33964727936594163 -0.02530684810829019 0.05785701207039556 -1.0252456439619848 1.3694351215929241 -0.5666542063252533 -2.096065795269435 0.9982377459609968 1.9170462293552992 0.3781991473367448 -1.0442534220248703 0.36152770168170784
1192 0.2890012067276666 -0.07529141829353694 -0.8887890777711421 0.4696378046882633 0.5475005259546246 -1.0356881066639279 -1.7393110198696613 -1.2820400728421515 -0.9844964305516516 0.929802061429699 -1.1309560010063502 -1.060814955015229 1.157062483239043 0.7898205745592346 -0.5222905912884136 -0.47982950910189914 0.6318187294265585 1.0056562271139873 -0.5591120303999579 -0.2571993409670858 -0.11827114863864514 -0.36353181245747934 -2.0212222044916657 0.1415585237061955 -0.08418621209562581 1.1202771142271906 0.36872493960170544 -0.9019196581982357 -0.7684406255855584 0.22501352506092395 -2.952116438112944 1.3780723537424968
1240 -1.2947451602648419 0.4887293170679289 -0.1755156549606081 -0.668850952604903 0.045092255131269895 0.940984196012063 -0.4109214784241445 1.760865877531049 -0.9711602981525026 3.2753693370799857 -0.7481523304128236 -0.25855620015876973 2.3953744620782857 -0.12346977670973222 0.7435229420422975 0.8263815482500327 -3.2872320986696475 0.07445334375795072 0.1926926269598408 0.17396368768373108 -1.1653798621620821 2.358849503902303 -1.9382842331610581 0.7342140326531398 -0.6313286363399492 1.5544559395899342 0.8667214882319438 1.3794593357894576 -1.3662979624797131 -0.11579339762321869 -1.74691968070751 1.3635292048641232
1242 -0.09122484248172438 0.6080614728029975 -1.7696580399201387 0.04059985061581427 1.8497341223932386 1.5792549863456238 1.2187045167023332 -1.4180523430717062 -0.695791024648043 -0.5646788918507596 -0.6473007338669847 -0.5009773145289674 1.0989001898751172 1.5394610305906025 0.6693300575616851 0.32867307130227497 -0.936573665889644 0.051654517094547873 2.067198953720578 0.46477531376787107 1.165173564211687 0.4475081952531199 0.1571433049852884 1.0254615233741002 -1.787323719281324 0.22469343199040007 -1.9249344756566618 0.6573660228656313 -0.8059554118221041 -2.177738560355671 1.0710753643988726 0.7343638659411881
2437 1.9655397906134402 1.3000676962303672 1.2934056900326518 1.2535558363118784 -0.7662790846451548 -0.870410682020115 0.1861127709955321 -0.6559285756374944 -0.6666719313698538 -0.46640723250681476 -0.12601881501084272 1.7441626777671977 0.6409515554342994 0.08072571618598355 0.5220056210477115 0.28135051696306806 -1.1552296111848046 1.1741137517234834 -0.48788883302698943 0.3025668612938365 -1.7732251714765175 -2.6556248685096437 0.45953432854663956 0.6826329834528562 0.9570323716305057 -0.7378521486367868 -0.18828104725873102 0.3222412215325663 -1.8730563071996438 -0.15073956401734734 0.2679101004703815 0.39777310190595344
2633 0.2983790139880677 1.2432829290261838 0.6985393734756464 0.403542493085288 0.308140413771731 0.24154300572616658 -0.8307595850217243 1.212642283316594 -0.4820912941681922 0.6405201833935577 0.7752364849762526 -1.524689191522107 0.36530345996959185 -0.17011785377822586 0.19698127330468296 1.1514310247504065 0.005673080850788843 -0.14390044864234303 0.12459546060968861 1.3594493798687117 -0.538018659535316 1.4750806117450648 0.823902820484761 0.8512651975432243 -1.2828303147767353 0.005594465198698846 0.6382856409455041 -0.02735365353957254 -0.8709026550291749 0.35785128942483924 -1.293153997674619 1.3977869472340245
56 1.3938235937084746 1.13826096108943 -0.5139008714221057 0.24318257559945317 -0.1940944527461995 0.017710517048716116 -0.11740405758052459 0.4357288858781499 1.3715761711755865 -1.0696009441604322 -0.08482620673814802 0.4055018849585465 -0.1355083919135829 1.7565362498818349 1.3419931757493804 -1.0131970405708721 0.47522224567536697 -0.9297002163911172 0.08909598660068754 0.46089968326780983 -0.918686744983482 1.7929544805777982 0.37563242518229806 -0.43142404579933125 -1.0403327943344838 -1.039147940758141 -0.781197115769032 0.12704537631396595 0.5015698421991178 -0.18846916804411795 -0.23246531757202685 -0.5050245287588545
154 -0.28157732956618803 -0.6214710933670053 1.6162761807629227 -0.3475404221251702 0.22209467632644822 0.4767411178560937 0.6740347555597722 -0.6001330120259293 0.5020564172111274 0.8311963790396378 1.0794587141084495 0.6227344368284911 -0.7560031533821766 -0.4580470513296514 1.0126859235973216 -1.8410095848830688 -0.5719727339991496 1.7230399718827902 0.5297496516342683 1.1162716277686073 -1.0429809057445938 -0.9695214305811772 -0.09762704568083562 2.187268934246774 1.226677853206663 0.16508009391312847 -2.7606372844530163 0.2626361402258441 0.00962372116562093 -0.6351047530394001 -2.1397652018946656 -2.013910806793548
209 1.0357954981453392 -0.639296284100855 -0.5941411255139349 -1.3424861029287893 -0.0251967842548714 0.4155009671497229 -0.5394352888480732 -0.4744690839129853 1.5083494285706918 -0.06485986188228385 -2.4906563631311975 -0.7206694292083949 -0.0026852229611328085 -2.5362716625074166 0.37175903597576887 -0.8875860627597425 1.804598349478068 -0.48743946058319576 -0.6676346646712111 0.8901413216268287 -0.4383627215067111 -0.5938365705581772 1.1122630751426765 0.8761845705819978 0.613886362455573 0.10725043932633078 -1.5759429060586578 -0.3309411504907649 -0.08690622411702134 -0.31095568076103186 1.8619694089993521 -0.6368633612893516
508 0.11315921208741919 -0.65240714174999 2.4284704993689123 0.6689906192791729 0.388656833342952 0.5136900151259297 -1.0547678203558521 -0.7456641175256375 -0.1528410275313142 -0.8071872734089313 0.46277336752965087 -0.008281511158023171 -0.7223868197031498 -0.44033931533843995 -1.522846535626866 2.2423011118871243 0.6057082597507162 -0.2568873525708888 0.4766365551046912 0.3240807594954434 -0.024618814665163028 -1.7611750394495411 -1.2702966371358357 -0.16609576168675882 -2.469109947498657 0.44049923099078364 -0.5477681269158796 -0.950734673647584 0.7050969005303948 -1.160932321387705 0.06158571286140656 -2.3259474811425385
842 -0.9726807700500723 0.14837017875887742 0.3320412099206908 0.978178803543174 0.5963467727011598 -0.47506187985834253 -1.645375014946402 1.0243939858952882 0.5466317618428566 -0.7710441547833201 0.736818288692722 0.3346478597865474 1.3614283628273927 1.3669193319692683 2.193276589048436 0.7443818167238261 -1.0350470374291703 0.4306866737712747 -2.0095731396055965 1.791321157392729 0.31704495348829986 1.1142621079398685 0.6786654146793326 -0.23316286417550516 -0.22087045357948798 -1.4605087445465554 -1.904752368521967 -1.5186942151640375 -0.14852689551145165 0.402286394818192 -1.0826489879827486 0.4110061792037647
1282 -0.08363335894962631 0.7044906718786831 0.2953120955663408 -1.1902722078138788 -0.7556804739385573 -0.4132405099723979 -0.03705292672841337 -0.40280070343809105 0.5686885662257063 0.7161890175643348 -0.4792027261199902 -0.7095258873983553 -1.5060019562015825 0.3552624529874255 -0.09607763902769942 1.1822496730519692 -1.3049472514567542 0.2017579819490098 -0.6791285762504813 -0.7390123238303479 -0.022828866698064314 -2.072284102724531 0.5010016850449196 1.423957100236954 -0.3592507866738437 -0.6463668804936236 0.8266999382617213 1.37127857530443 -0.49149525453106485 1.2727208006688284 0.07566877774033047 -1.0008424032870167
1683 -2.7534842772750276 0.32228780194911805 -0.005125476837015539 -0.7889982287888883 -0.3186610143124161 0.8812440957666797 0.939418756377811 0.025035127235839297 0.09197273321618817 0.3105384260298472 0.5463910273771133 0.6903614906699934 0.23540875519365492 -1.0582351791718014 0.3048849320031546 0.0004874639916575956 -0.4236244505557421 0.29996863944954144 0.08885725064886396 1.3390619832844635 -1.185904463690502 0.21504900103039926 -1.913644500241062 2.020091193511212 -1.4433068602305132 -0.6182547429572102 -1.6645482485321992 -2.2435558572287815 -0.5843506060734583 -0.7286117678260388 -0.8477674324770555 0.8834705106536891
1847 0.638108458497868 -0.2141399854931081 0.4069928111109183 0.643632373351918 -0.6956055016272681 2.3277998401179247 0.3482882457925057 0.757019068935156 -0.4019107040278456 0.26945555804978055 0.8889722439189213 -0.45494873114665 -0.7030253592709986 -1.0215771509353846 1.5757760154947413 1.2804750945365495 1.3731886809845497 0.9213457959750014 -1.4953620129584464 -0.49227941946632064 1.5483581440885803 -0.06968990453058435 -1.4545628677916764 0.7595248586659175 0.4203165171278441 -0.24066535836560068 0.42740615335392357 0.20139258157960746 0.8428684504545411 -0.07663950823955856 -0.5754610151276723 0.6442838003534711
141 -1.7865473821039028 0.8599886327853339 1.2292436744361064 -0.21947065471508787 -1.8354639656172294 2.3096463429854555 0.3456903834723865 -0.042035196198188275 -0.4132550671678373 0.9060755084042914 1.8157287391700148 0.8570439368040962 -0.2882636064907351 1.6387726682958061 1.0356997080204216 0.38557215985074034 -0.23935907297942774 0.28432535097956935 0.19262826580942047 0.6355368566527355 2.1200888625007295 -0.4802692824270894 -0.2568038698864534 -0.6151634349907145 -1.20468802294903 0.4808014276705433 0.3813383814728971 1.895880403736526 1.2445790919718307 0.34954425782967974 0.02442273697144224 -0.2624619529286291
1993 -1.0890133134108892 -0.49562323173267503 -0.5562179690461309 -0.5093843139236588 -1.9965114597018472 0.4458323740683451 -1.9422730918770927 -0.49011676436041435 -0.6160788765897475 2.989192934453524 0.10978762401119802 0.19730682312243314 0.4371167762915707 -0.8322097290651632 0.2521951385829553 0.2777065055125348 -0.35561517446417323 1.8142724431837007 -1.8825690260223988 -1.560896314394323 2.0652294098157187 -0.7298709007902812 1.3190948369018531 -0.7345994647739054 -0.10336157407880943 1.023839661220142 -1.014287011693184 0.13214919995268093 0.6101134789307497 -1.3330953700265114 -0.063322688385096 -0.6333965524784536
15 -1.321118211320677 0.8499168543631055 1.7793316242554256 -0.07345356862485122 1.379253394147493 -0.892281250351763 -0.1818753979723885 1.3319509464639392 -0.2639204217592946 0.0042176621054443135 -0.6842618701022591 -0.4310111726799089 2.307149914833799 -0.9045119613502584 -1.0595585913429353 -0.8971648001516386 -0.1799931146061063 0.46333960928788676 1.594116264610459 -1.0420002804058557 -1.4745519290211895 -0.0013424848984979645 -0.6225059984064796 -0.25269936502619306 0.34125845175103175 -0.7274842196832709 -0.543780824120182 -0.0890497182471866 0.8079354031005266 1.20588937258087 -2.093722476819904 0.6133074466241768
168 0.14488039173820083 -0.3890656826893529 -0.20805083243527842 0.5350398520901579 0.17042018772099207 1.755907059684768 -2.7142013642393965 -1.9550300214630651 -2.233138894939291 0.5568447602188659 1.1524735649910676 0.21159272589178466 -1.4658003689441734 -0.4299799327648575 0.3742371735356921 -0.06967722622161202 -2.026914718957866 1.1951508084258373 0.1906280569431618 0.5933651887927172 1.6013947943121825 -0.34397133497661914 -2.0190316540152144 1.7105510550795922 1.2746714066057474 0.2545474474433157 2.145547756767084 -0.8505543589770648 -0.7688019873912484 1.4593377995856605 0.2913509063213529 -0.2043199806932817
172 -0.35295420454390336 0.46410708565915226 -0.5567446267210291 -0.20527074549187424 -0.41331110528516446 0.3040304677820354 -0.2779960846460296 0.05664906248541697 1.539887421043763 -0.5315661839174858 -2.1779879774859006 -1.2411575676428557 -0.25849732445683293 -0.7980758640601737 -0.3366392036385258 -1.06566033330038 -1.7979330203742174 -0.30955729643702995 -1.3339154154706951 -0.1066220796589054 -0.5453902316969018 -0.12618521462307025 0.10067822401446258 0.08330652334445518 0.331168500145723 -0.05214855454629481 -1.126413847074294 -0.1068845914597173 -0.8852544190585272 1.3083473185853884 -0.2368682113417384 0.03422517055199661
545 0.31945474285640996 0.7794631014565432 -0.7160084892590153 1.5333690964006905 -1.8833542781398585 -0.1648784766329511 -0.4051975928715113 1.4656569217256772 -2.6156482749368544 -1.013846691658375 0.39308565577649496 -0.3747571552877487 -0.654231177772251 0.40844970763075167 0.5964810140351773 -0.020619472480077932 -2.350376846687763 -0.4347683759194014 0.5030600989927713 -1.0319850980605134 1.8816899041937192 2.517734651959641 0.3863576245191866 1.2439633093500648 -0.7263499862435535 -0.3552733282443815 0.9867579135495786 1.716102707760061 -1.322174044936344 -1.766803767703214 0.4246213695220368 1.1591127814145767
815 0.24777570532938714 1.4901727860190703 0.46972310783113674 -0.9547459954505066 0.7045991894098128 0.4771653255204962 -0.09651827898414968 0.3607981462073549 2.5789277655610934 -1.3656146910587548 0.8223512320840425 1.3478698127014312 -0.9355542420294096 -0.23316901217136832 0.5185688886471346 -0.3198352623936134 0.5765524353765126 0.5789093527710452 -1.1556501248420141 0.06092252909046241 0.1968699032323398 1.1082376820315143 0.6906303991041588 -0.731772262578571 1.1062912336717632 -1.1014276071729616 -0.8374888205366517 -0.04440268147967733 -1.120716849936586 0.4064854638988657 0.2132304613996003 -0.8968664191918784
879 -0.373094136808599 -1.3656683727238894 1.6942691904524443 -0.15873523846593302 1.1161927956874245 0.5223426274998535 -1.1076159027385681 -0.2330683728817266 -1.2295274695132299 -0.024039570110054965 0.5275597865352004 0.5527201355578846 0.36520319635631415 0.8347226862459528 0.4798295799093928 -0.8602935483518224 0.7708509151469466 0.9531054060597719 -0.17373200116137383 -2.145174198908122 2.2592737184793354 -0.7543311067080964 -1.2380846455278027 -1.7214553360711167 -1.0986476684869024 -0.5523298456565839 1.9270502337160167 0.03646186535034832 -1.0790965332682538 1.6347204876577441 0.24699676588050162 -0.7804934528152851
1009 0.184332655573918 1.8674242829411754 -0.5950767937132658 0.378951732051569 -0.12150821348461352 0.1938120599709048 -1.383148847386992 1.033080544640101 1.4612045978375887 -0.5373073830726727 -1.548612724138902 -1.2249654176395577 1.1333422852767725 0.8144770940927456 -0.28860734114054976 -0.5735973663414534 0.04840824222647951 2.35653994182487 0.8364123505610318 0.9815811393518055 0.22578222035590015 -0.931845858006678 -0.881460871643957 0.916963655114016 0.749718604049074 -1.4103698603484962 -0.7321550708336211 -1.1260597182126297 -1.4397021759578128 -0.06500981895874725 0.5857540311377422 -0.1352920983155866
1048 -0.43876000918799485 -0.02192814152561925 0.4691790465745315 -0.11093516583352632 -0.9143644049785172 0.2816165195506403 -0.16415493853717028 -0.7330867534569465 1.8912718263535453 1.7912052417709117 -1.5091921461527043 1.039889090772603 -1.4004386310774637 1.1105946572488294 -0.9008672877673293 -0.8758934805636504 -1.2261260497285293 -0.9964146432265523 -1.102507428775089 -0.7743889523325767 -0.8953635596891043 0.5017833139206423 0.5044871067928263 1.6475491853732585 -0.14896883510389036 -0.6271638851383119 -0.3028105055071186 0.3968226794753962 -0.5150749133018807 -1.6173602292233906 1.154236679180029 -0.0019061757395189714
1065 0.4389053270101798 -0.43239079795728075 -0.2821039768179974 1.6273220207618275 0.8287789026006097 1.66139232415697 -0.3907431298097068 0.6098521770785112 0.04380025161029237 -1.1340629463314693 -0.039329455183127845 -0.10155987037814145 -1.41296289709191 -0.14586883838540152 0.11234483782630596 -0.08562224742817309 0.13013706167979922 1.195848978896008 -0.29017492204733525 1.8648753043902522 0.3232378822960664 1.5807971164673804 1.9766595610756235 -0.281327701181458 0.19411657784566222 0.8376256559666018 0.4808063770046526 -1.061213415368501 0.635451037543707 0.5186871848496377 1.2864613007251813 1.0689369055000364
1139 0.38750857050764914 0.14746464180515753 1.3189705953304645 0.7106587905561701 -0.08368905609678606 -0.6935079081739325 0.349333199378777 0.16180730880249003 -1.5900387793947122 -0.624214026733168 0.20449998447827666 0.06439653075878429 -0.18180722656737927 -0.7137008847099336 0.7834597364644991 1.6182398458575802 -0.7424375036112215 0.7344208504184628 0.5481996182841085 0.15669858843099102 0.9007030932614668 -1.1920739402670186 -0.020593554992317208 -0.8796034053245398 0.8802552190036838 0.5469800611063366 0.13549917733961767 -1.7970605562022346 -0.9432177747249378 -0.8885378738890897 -0.6241213764104958 -0.005198665621363798
1167 -1.007641998569003 -0.5534501742426511 -0.9128148164997612 0.664777888395259 0.5574124015915272 -1.1004596059183036 -0.34893394866918426 -1.3230657752432233 -0.5423444769599477 0.8823843299441051 0.9518863443580747 -1.4628544479104975 0.7793567032118985 -3.0731801311266356 0.1121689131080141 -1.3021994907019248 -0.40594223123548756 -0.7503309234958779 -0.1338208240304395 0.856293516870251 0.5348990378439924 0.6913755145932999 0.7220365376056477 0.6431436691725526 -1.1360538648441043 -0.6153464369906206 -1.2406922503800004 -0.5098626634761941 -0.6805501026645449 -1.3933149784994754 -0.09709436906018336 0.1348565016071843
1179 -0.7952686726115217 0.7616695945695913 -1.0388623596835262 -1.214256311813209 1.1703869692157312 -0.710516345437406 -0.8128319110411502 -0.03976874112049159 0.019507323790391818 -0.34345219553974465 -0.30009519270573515 -0.37722423556560386 -0.9694849766827551 0.6916156641900727 0.6329753157938726 1.4013201268827136 -0.7438519564704335 1.4673847866437912 1.0082500644872165 -0.7348150462455378 -1.0327000029701303 0.8246625416639409 -0.47580865927196325 -0.12294949364409308 0.25442446265689406 1.4735201770756774 0.6202463810789568 -0.3428169754678824 0.314603433825646 0.6631813434846033 -0.15418840460507793 -0.008311384920587705
1223 0.9230370281047926 1.0530717302868478 1.7324396431068974 0.08398081799945155 0.17049905407957164 -1.2455074199016336 -0.5832841593672534 1.6271956488490604 -0.04399309697075096 0.31654133561798 -0.13748044854785166 -2.2222804998975585 0.42322216064861273 -1.3837415080957287 1.3366503484889845 0.19980051693107587 -0.37204230096298163 1.2701590671263572 -1.1825711079072505 -3.221428888228468 -1.6509897657143442 0.4535743664088658 -0.5869388775701925 0.6916445258996816 -0.7569275571735266 1.2102299366927043 0.2774578763747156 0.586826559124227 -1.2138599064215219 -0.19940402195326556 1.2265340714497002 -0.8378157747502754
1368 -0.8081207207906703 0.16125260904531008 1.1674553473735647 0.04320465012208732 1.783460802154832 -0.7949140058239912 -0.32615936433237824 1.271632908563549 -0.8357276186737024 1.5399451454374071 0.14713588350061435 -0.6538240174043627 0.8493218235374421 -1.2871068996260175 -0.12370965172192641 -0.0417966270092375 0.7372022555855805 -0.2918532672355908 -0.07803503172607033 0.285509331608622 -0.34102116722461445 -0.7890689268515689 0.9729287727854582 1.9819695988389736 -0.9587597113590799 0.6779853524482176 1.3618045949876028 0.43083315867407823 0.15004720838764704 1.2191778991918765 0.37819431101833284 -0.6182210666433684
1416 -0.45636770380399183 0.21141776654749161 1.0632645749890872 1.0129579400048532 -0.006328088817028865 2.1036152872013076 0.13337413224598887 1.5086800614729692 -0.8494708877807076 1.9170700787061152 -0.8770826588394091 0.7904036627366812 -0.6238498151964083 -0.6097596898662045 -1.1806414725541912 -2.744889144343826 -0.2539872494725912 -0.2839960402071146 -0.6082892142458284 -1.0423814493893382 0.8715147149716022 -0.365097972979838 0.6068150102357629 0.23802848432903262 -0.6120750024921635 -0.04227237752955174 -0.9769843867303584 -0.37236281412907324 -1.2541573526958905 -0.31685352444367487 0.8561063164959625 1.1221223363997472
1454 -0.8715868512454187 0.29385381569476643 -0.18502410821704013 0.16130891903524902 -0.3371475752758677 0.018734676846236194 -0.2588667793199875 0.20589707029245566 -0.3676526218771283 -0.06826978355989904 0.8420208578945516 0.8236006271424914 -0.999532687527833 0.5697760569848251 0.667517192484865 -2.0539621894679585 -0.2965099255683505 -0.7926350595127065 -0.6424461435462061 -0.2217529110583519 -0.1462112297462205 0.33801204990435085 -0.24831261420049733 -0.42241253582682814 1.3727107563265457 1.3909581019162889 0.47710274853967966 1.3609803094750204 -1.9666376876119174 -0.8875939661481946 0.9903148094667177 -2.4240307460579515
1611 -0.3300292812454244 0.8139856142034033 -0.7658882186597108 0.9997986813023787 1.4790458907722552 0.7908945132799725 -0.8361579789061383 0.8095847101080919 -0.5240487478837268 -0.5154586152112276 -1.4258850101286982 0.7096527775982463 0.5554250098561122 -0.9779983227040279 -1.6061144777409047 -0.5335379907984633 0.07052803697710337 2.4251841420723284 -0.012189222347061433 -0.13487926985925208 -1.2310154615566369 -0.9076959912511222 -0.7140863945851371 2.2861220161423716 0.11352348910264864 -0.5565903092752391 -0.3693871594466414 -0.8494794080141425 0.9094934406968436 -0.4417488355438265 0.716320947059285 0.6239053908988103
1664 -0.42891569288776543 0.0034050835958960167 -0.6957505265585009 3.232618082606499 1.0795543834688417 -2.736887778583289 0.07201165917795659 -0.9157130937273342 0.8034574575288089 -0.20141633901578687 -0.4197882931396071 -0.007577508662276929 0.6066976224323539 1.0026473979948671 1.1775523831885977 -2.4140859088234703 0.8515153386352976 2.002578180431747 0.9138465960945006 -1.0600687113587182 -0.7501979190464715 0.09895873726370949 1.2248739746634842 0.6654073290079289 -1.3756408925630363 -1.0693069424045558 -0.3074531541485994 -0.36213656855537474 -0.11229410636760082 0.348916566127274 1.9076802073324632 -1.2760818558766445
1686 1.4159284993755965 0.03465622802885477 -1.3415445502046777 -0.14986223943602084 0.9415114605982418 0.2964965198804078 0.20830433481113486 0.8926601709360232 0.07003465670114878 0.12045132465364473 -0.8475377389559066 0.7811302063669765 1.613877239973049 1.0474166208519455 0.6076607961175319 2.2138873650939486 0.26331510982576595 1.7442325472764078 0.2728794920986871 0.3705753494230886 0.02591171601696855 1.5735835300735221 -1.3146834595101726 0.632634709741109 0.5851588166772522 -0.22946282659063572 -1.8916303505127783 -1.10449520350126 0.0049423629331165845 0.40907543961223924 -0.17321496131242478 0.4704917631202555
1703 1.0555264072763235 0.1404174895408302 0.13693734778153638 -0.787258324712155 -1.7342130243501954 -0.009684559287008778 0.5039744578626058 1.3784357901845596 -0.33370441157626185 1.1770333427499282 0.40743344311497837 0.04698844810484432 0.03500680758089215 0.4068865320998761 0.37546030472133896 -0.6021951779926618 -0.846964778620194 -0.5361293832173329 0.2451471542095062 0.21046264223557704 0.6350913319701982 1.6482345803682044 0.9586745549282679 -0.8586602787187005 -0.467029056290207 0.999079291642873 2.093014663355823 0.2729824471585306 -0.14221459353180368 -1.6347455612008532 0.8889808702814446 -0.8813439032919177
1710 0.2056886227980417 -0.2781733949983352 -0.2207412657961015 -1.1075381041517545 0.23148730741654971 0.875639445668047 1.407296623945113 -1.8951908781303108 -1.0318496466182445 -1.2358891167244586 0.47719214143033617 1.1108147940263777 0.08168590645418024 2.2548298900447854 -0.03505810946727381 2.671115870676575 0.2106562275312794 0.6029281169889559 -0.4370501737469125 0.20203103969227754 -0.6643798034326379 0.7414158183004959 -1.4512773812531339 0.37302953487539037 0.6339139748241452 -0.482914737669463 -0.40248508241330705 0.37054359784420865 -0.666828697364155 2.151757543099866 0.38581315862906174 1.8787760018679958
1714 0.8790115947397266 -0.9292933604060277 -0.013530853462794139 -0.4304949501558017 0.25348341298673305 -1.3442710182812767 0.17502533899522585 2.8420858209255657 0.7097327344389132 1.7352854606256234 0.24542805542572915 1.1202382284073513 1.2161092097630033 -0.8820428413546604 1.9593699827036353 0.3668803914376154 0.6705400581592261 1.1192870197031748 -0.6899876921883248 1.010068844467231 0.7233898690333113 -1.9962219173898808 -0.06883412971631898 -1.8022012669494967 -0.5124555118263443 1.0516575218644406 1.2959134659752027 1.0147909251324565 1.18845204314802 0.7201088339510336 -1.353740981651435 -1.524398517386019
1737 0.4609595280471881 0.09122132567638316 -0.3957008174687297 -0.13235943650920978 -0.38881019847562004 1.400342727356086 0.11602356552561464 -0.21898454738324294 0.7729435230532513 -1.3827222747721817 1.051502000159427 0.32622426189443315 -0.7294272179651939 0.06890592424759107 2.729429042320601 0.09073452808136281 -0.11130597689893809 -2.1131607653393716 -0.8993901688401456 0.9677309171432805 0.8170630099836825 -0.2049556518135325 -0.11147443798072353 -0.5236441104300154 -0.8258721971761915 1.8635787098784304 0.7755684137026195 -0.08624709009170632 -1.757640889603873 0.8335234298727167 -2.046808435991674 0.07530953178063617
1898 0.24397272691285257 1.1675231739867518 0.2930887440808015 2.1936492236398375 -0.9260505726939438 1.0903112979498013 1.220381704292828 -1.4712725750519455 -0.23057616811835116 1.9409547234824096 0.36215718405138425 -0.6930712810633085 0.2132126091669082 -0.2678117586280949 1.0617184086945366 -1.308105386388743 2.1963074571548535 -0.09015395757368609 -1.1518579417143622 -0.5009741867850216 0.5543344100060766 1.5896406425566028 0.42432591948647924 0.800782808396056 0.5934118255795491 1.7678050241170877 0.4519228372118934 -1.100264858916201 0.41082664527690116 -0.5471983706850969 -0.10829362133045145 0.23234047995799523
1966 -1.2468091815535514 1.0787407383099765 -0.7168848524204633 -2.278557770664976 -0.12558324005688626 -0.41297108075765954 0.738044126988063 -1.2336692171295416 0.7516489696163683 1.4424074383698169 0.23098954768513552 0.8916605504505567 -1.2519329217135862 -0.6192555167794523 -2.2802335826802604 -0.19016102708154814 -1.3010795460597142 0.7423814107861453 -2.3167471418390875 0.0885240847819276 0.045867187184964825 0.003913142749225189 -0.008605622512568368 0.8882887225163104 -0.9568853481160053 -0.4242646923935796 -0.44759318242734697 -2.285249664261757 -0.04741557712762778 0.47488522770694075 0.9785815382696363 0.24959403313988618
2044 -0.11709806946475824 0.33219860817495794 0.8318720847183249 -1.7187628422668657 0.9304760099148318 0.08310172759516561 -0.8109584707844849 -1.389823351181478 -1.3590465052855092 -0.30081735540182136 2.2392811729242847 2.6307314739709065 -1.2365094903985219 1.9513033850273815 -3.510207327062139 -0.5373055202759616 -0.43430268866824295 0.6043654870539009 2.155039547233972 0.39614840414217883 -0.2219056632771953 1.5098259887475722 0.573684967461101 -0.2988857027069694 1.2532489501234236 -1.0753935097083258 0.9435968347056705 -1.708960920095431 0.46492332975779915 1.1984556345430593 -0.40533146799509134 0.759688888499941
2045 0.8527683153831429 0.0008588325110812392 1.3468186655748808 0.5458871098649549 -1.0020248878023248 -0.5571778207129489 -1.126997515319771 1.4252673219955638 0.3500301986664447 1.0233066365639414 -0.12193653098330179 -0.9793095969797296 -0.4813796085815358 -0.0015564926588194593 -0.1713264920706181 0.4747390133859476 -0.6780199057932189 2.219068378815734 -0.12119234598246252 0.018205486327512753 1.1198583022211666 0.3366752131734245 0.8858894041805044 -0.11746649100016887 0.275432602600225 -0.6676183729056531 0.25847686019411725 0.1424461132422398 -1.8447634457945075 0.26989582774804993 1.5205976708808324 -0.38509691775993216
2096 -0.43381533924574456 0.64062175337136 1.1412426179907393 1.552352069960944 0.40579801689000794 0.22052572618976587 -1.3382579400953398 -1.7193493583595003 -1.0369973109763526 0.002736281843404599 -0.8341557198252839 2.3493291471326248 -0.35958652383309586 2.119767537801317 0.8063274308398051 1.4509118891030492 0.29608286193240146 -1.0830025212213281 -1.108410569708214 1.0667512822323606 0.781600290776897 -1.7874118601761622 -1.4426045629952988 -1.0333615880996383 2.9180493585757072 0.37636184004658113 0.701217917699246 0.4362222920701687 1.753445144948117 -0.8563608717578658 -1.0016861368631436 1.0770401502514846
2182 0.1820740176024245 1.755499254020947 -0.14001620896542907 1.3105192600245252 -0.8049220429342057 0.3221933991836941 -0.5906934055196859 0.8253703036271882 0.0438283970248507 -0.24997322228656912 0.7060672844284436 -1.160501314701919 -1.0984703568776844 0.752478845583433 0.08848386729854982 -0.7677183658047193 1.2551944803031188 -1.2164525429004442 0.671060272696659 0.10717903439207849 0.4229102904851048 -0.3413736637853574 -0.942509737838174 1.9556424164298492 1.493397102388956 0.5546904988282586 -0.3759690625613799 -2.1368757121328863 0.3248024000103982 -1.1408254090932433 1.227530403737089 -0.49484661059774865
2596 -0.7493653726008055 0.3663825980158375 0.7876391508495431 -0.08198683930290096 -0.9991623720594209 1.0917500172502674 -0.03835380690819719 -0.6549470929492952 0.5045602697733882 0.19202539305257987 0.1604732555022267 -1.3197978677252424 -1.1172421982914953 -0.7866218892671739 -0.7851270427582225 -2.736811617667471 -1.1048453506299953 1.9399319209833839 1.1532533294428118 0.6241978837625161 -0.4224136207210536 -2.4245449303473614 0.7124053904762851 1.1675309052995404 -1.612670667688674 -1.6502039808646138 -0.3973488215924391 -1.1810350786095987 0.8210822705272046 0.1742169316221321 0.3332644219361054 -1.2851730343148053
2611 1.0476968127394575 0.4439666611759747 1.65943956952892 -0.17528555282404545 0.9745666704062612 -1.0395761613923058 0.508601033414888 0.12113506121565824 -1.0769929368496778 0.5304299901177391 -0.6915178301470103 -1.3827999625812184 -0.4363877352398203 -0.16009413596403882 0.20297197111483864 0.2193996299221566 1.0867519211470869 0.8207105289414871 -0.05641789900349036 1.1777742462723195 -1.5622847250317475 -2.029734068043861 -0.6437018365074949 -0.4213571843617385 1.0812584529045166 -0.16507713690118295 0.295483638720072 0.03849762547108694 -0.7030735364771991 0.2416619808069312 -0.049509820572948664 -0.9836635087042488
2745 0.349026420709044 -1.4264665217249044 1.84408026681876 0.12689559343479387 1.1795427224359802 -1.2651811331100826 -0.531952901397001 -0.8006741058188005 -0.1715323828168707 -0.5712891551758641 -0.7161378131604528 -0.3374464076446813 -1.4841508283009173 0.0788004780454659 -0.21161246667361083 1.9116439123175732 0.1595255477468742 1.6955614664223642 0.3374155313893607 0.5033622979348125 -2.3688188501071314 -0.5508399117220174 -1.2219308530331034 0.708309875251163 0.5784434592098764 0.25929894941132225 -0.016580933539391773 1.6044612244682994 0.5020151603782572 -1.3370774621619872 -0.202129523290127 0.15404190264607698
3055 2.2816144068323805 -0.5168983216297323 0.43808515261239583 -2.587483232843542 -0.6232099779371981 -1.283639901092939 -0.6038782690366937 0.31793383027382227 1.783025775023248 -1.0657125575678177 -0.5342302679997332 0.4953459255453723 0.8562958189490971 -0.5045708572535927 1.5020759797614869 0.7636120863145252 0.3110014323147606 -0.8059602860688647 -1.6025082783630544 2.7071612930673714 0.23133029144651027 0.9819127951180584 1.3085401200550504 0.09067319246286232 0.7626068726873539 1.615985406767269 -1.420091528407751 -1.1533152151878168 0.6165504362950333 1.643608352410186 1.7098219231491905 -0.19218484094616484
3114 -0.2020743831401512 1.544085100048294 0.3477312819093979 1.2746353909773929 -1.3708352860027784 0.5736102798707662 -0.24800336650465166 0.6243852196656828 -1.3267766649746133 0.32991821312778996 1.0045349003175816 0.6790368682134684 0.31043733056831363 0.3780312653498286 1.4719864836918075 -0.8868247563227248 0.8835942651079411 0.6121956804218901 0.22010432345955455 1.015175470728103 1.4012008168347725 -0.6088742543383896 -0.31546211211473124 1.2426111997612332 -0.7449964812154813 0.4195174781863159 -2.220424032835535 0.8498505665266056 -0.348979196605704 -0.9543734650210082 1.6663683619743832 -0.3754002337079236
3118 1.8678022397102192 -0.6546581461646677 -0.6236459388605963 -1.1015165781087854 0.1025798512097983 -0.5268265234609771 1.32816726070181 0.6986907451658594 -0.33765072431675974 0.8389135050809621 -1.0840261206460604 1.0212403214744796 -1.3516621651026226 -0.289875204442561 -0.3808962478400682 -0.7600039634396032 -0.11990836674996938 -0.41211290624200464 -1.5452734427903283 -0.8618228601818297 -0.4212419418977287 0.5155716287083314 0.7757720289554664 1.9110836711270296 -1.2248477647928657 1.5134233624295959 -0.562125673512024 0.05037541177262827 -0.2932013050586057 0.4052341920459758 -0.6248388793962261 1.7619441776140732
3244 0.5555678682508745 -1.152927561416771 1.2003991671064376 -0.4004508226526103 -0.28462191180706226 -1.0809707462682216 0.08774281216797472 -0.012980067481407126 -0.7542311646042934 0.19978894317549092 -2.442326639516792 -0.38035294471762005 1.2191365862937615 -0.0038570956773621113 1.3948234347304256 -1.027852130107421 -1.294253625118952 0.7504092334734193 -1.4096174689441603 2.0062749721482787 0.7125254588208574 1.4802787369296884 -1.2428038007784659 -0.4389193730510296 1.7226018019687042 0.37851045920433923 -0.4583993604909041 -0.30283147424986034 -0.3536300365470171 -0.6643804982493987 -1.8010315961624952 -2.217149946845218
3408 -1.1560327877709333 -0.8125981127805789 0.2123008592602168 0.1725219104115747 0.2261261308921687 -0.0667085619749356 1.1897501866241673 0.611305169809125 -1.091265459026139 0.3903992195719913 -0.40482202183790206 0.5268274370143693 0.24138031959342665 1.5709235254313638 0.984823158738702 -0.7930897788046396 0.8277942201507394 -0.13148309309441011 -1.8566118623216321 -0.03347591389578071 -1.5612120196692025 1.1539340041821877 -1.8836336739066326 -1.168107495737843 -0.07408614868772291 1.4943949270801222 -1.7980395263618385 0.007216238830779761 2.196716223452578 -0.17455552610824104 -0.6417289528623339 -1.4794270614009166
3722 -1.1391625345553662 0.3086343897694415 -1.570261826671034 -1.083940390486154 0.20173672803058573 0.14461414267743594 -0.32112488981808146 0.25790919254006683 -1.442716173296031 0.4617431932380479 -0.9037046117444655 0.36826996344449164 0.566193461419877 0.2592274878676561 1.0005745675621753 -1.5337819249390463 0.21328565896092944 -1.088234659842207 0.15941387520317324 -0.7782413385863157 -0.6423092744088096 1.3779869768121276 -0.2062971566859832 1.0271980686239148 0.9116586726671618 -1.5607024008448298 0.8543186730600457 1.290845571398484 0.17874100459547584 1.1098546141972565 -0.6285317863792274 0.46463260114553034
3850 0.9141292984240045 -0.6313440998891635 1.1405455557431559 0.11364523616473374 -0.8313348339547337 2.2665624279206305 -0.12250109697265837 0.27434806942010637 -0.5317344869950152 -0.34382677532717837 2.5560598576626323 -0.27295106863113944 0.23191420090939846 1.6682752381227939 -0.0712202509869502 -0.8919166968319979 2.3654847122723774 -0.537055384549218 0.7810911915773728 0.5868567230980379 -2.2253567615038126 0.5802535452999193 0.37246576898268824 -0.22648687969069922 0.6178111078646342 -0.15338580770123422 0.2521679734288022 -1.0995844241715835 0.9745417217305917 -0.07936982944919169 1.1773247895568917 0.4727736029643948
89 0.954461680413427 1.4756234196581335 -0.8184803062994898 1.0727602409527144 -0.11337776040286844 -0.002422648436068718 -0.113650098099322 -0.2819057649562868 -0.7403379295083733 0.9762607057117281 0.9916907996796499 -1.247276597848412 0.5357808157907361 0.40639253040619383 1.4497199153166627 0.0627371498729352 0.12754806564929763 0.9173889409556808 -0.022748246766040838 -0.6937091287697124 0.20453132901465393 1.0457290271130415 -0.4544613607553315 1.2534697934386325 0.43357515186037976 -0.04511972395883251 -2.400054803991504 0.1461805806050675 -0.2042913722998307 -0.8701415204654354 0.42599260477976497 -1.101119182284135
403 -1.1220473891882423 1.229437570299821 -0.39069409157607315 0.022643775770200762 -0.8667059878753269 -0.46494112726449355 -1.0052544662178715 0.22765040336652587 -0.022945237809198122 0.3644933506259786 -0.8663815618006836 -1.3465301351204415 -0.822554240915592 0.49651194956423433 0.9591090547411305 1.2860410571906675 -2.639956818052795 1.8578714945288493 0.7643404924346558 0.70993387151464 -1.012360905858393 -0.8378042648343466 -2.9710276162217912 1.6620957288633096 -1.8590962582826667 -0.53597240898658 -1.508190808342403 1.970615117552482 1.2789681290745414 0.7148052472827653 0.2681371301866016 -1.3486566508368953
424 -0.44314132228441233 -0.8821219413987615 0.020403260995103884 0.8814674316408195 0.08272991751072699 -0.7334057520333529 0.6342622417056447 1.9051546713788612 1.7104328154420867 0.9787974027570636 1.6764014722330975 0.48493764363242586 -0.2676656004580942 -0.7995811824114438 -0.6364922731802386 0.14931272126471182 -1.8638070242958034 -0.7609666316942661 -1.227385308383922 0.5719799848303668 0.9814092104576629 -1.4738002829773182 -0.6882948524817968 -0.2615972192381312 1.007352381298683 0.7024489042893431 0.6024208480260783 -0.04906145958010867 -0.26373425468869216 0.9107995857462582 -1.1361732507281161 0.44596680296214225
584 -0.06985352030718152 -0.04440258538994346 -0.2903876977941339 0.1110269963515286 -0.252572796075293 -1.4189625096221772 -0.7009931509969848 -1.3402913326378563 2.231327777832779 1.6670619653857204 -1.0706361021301662 -0.40020830530460655 -1.1913898246680632 0.8854996612112571 -0.49499147296236407 -0.9669472172997384 1.0162477395681797 -0.35152971923621185 0.8757487058720352 1.7985031109468288 0.9933390672068961 -0.0017656016035659241 -0.27205548258176027 0.37465960432920836 -1.5397642668622826 1.1321185221418062 0.7493623595172237 -0.02662483743552045 -0.10505729738551448 0.16346756544778668 0.47231089171955337 -0.8849520901496155
806 0.896436496683702 1.2870273688907168 -1.0432054229144745 0.21798592977311557 -1.7892207606070687 0.20882837002953136 0.3080473757805886 1.4834044927499965 -0.32455666270463496 -0.380465717751549 -1.4149062409449773 0.7272801107354128 -0.3559193727672339 1.1650509591918707 0.6601977114881786 -0.13008474907876774 0.018840700490460046 1.19779867031354 -1.8344530602306064 -0.6601585776129252 -0.05029000184495293 -0.16999774363132017 -0.5159986282852991 1.0280304294689289 -1.5910560393869109 -0.11751890003630817 2.205529454287235 -0.5759968706329881 0.9547946098636967 1.5114404214686932 0.4139827775172149 -1.262379658487693
1015 -0.5100773379845528 1.143092288024739 -0.710080486146334 -2.181109562067469 0.23389895954114592 0.9444209657041481 -0.25693831212358376 -0.027736975343448784 1.0830957142813114 -2.3114652641770426 0.08612726926136922 1.057856782888106 0.3167533389850544 -2.9005027140508997 -0.20458058338345392 -0.7409339415977256 -1.2420322569844713 0.5295173841946029 0.8018518870952432 -0.1950398903101036 1.4521604146290548 1.1434677538910916 0.02639680834656406 2.1725339347047856 0.24653194009828264 -1.584069954438386 -1.635343103115757 -0.3294983457665812 0.15031899144183228 -0.5473573090189655 1.2698699811340088 1.263233203949696
1120 -0.5872784387289155 -0.7873907116957279 0.8110606752955377 2.257814333781381 -0.3616097206399617 0.8184255583574919 0.6371081465210734 -0.20782417302167663 0.02211237994933028 0.9295750741404417 1.0695451102242646 0.6845458270295238 -1.2130968604215833 -0.3942005196438479 -1.1332805860600126 -0.844784966316429 0.022704325696460227 1.3800760689525273 -0.7379610463885836 -1.2965913356282968 1.6528971145066842 -0.7664900558845319 -0.02679634098351687 0.026139578832355615 0.9829767962820971 1.996018707119776 1.5596269926391557 -0.25961781303109194 0.39264929682390437 2.8651973047857435 0.7223397247003753 0.2685724806407859
1206 0.21755805565317077 -0.045017190137127724 0.20959627395905245 0.12556924960361174 -0.4373827653819894 -0.29591561231256175 1.1342595587719593 -1.4657255502440696 0.727335899215569 0.22063224784074986 -0.39003724132297446 2.117617913983855 -0.393827599861316 0.00913776237405874 -2.1175707584159182 0.9800083503500857 -0.15838250608291948 0.3960355591926443 0.21122869479402553 0.13626438508494365 0.9112937623166816 -0.10884786070461783 1.1294932737049146 -0.4153704086951004 1.0351178836128858 -1.1229559995756357 1.5418518834263695 -2.1376938402408077 -0.18397849332982627 -0.02637670973481092 -1.516210219021539 -0.6675159312123278
1367 -1.4015295455227141 -1.1309824517118388 -0.02593959543919225 -0.3151063307699212 -0.10633791182744261 -0.7041748358007431 0.4182520660126847 0.03758567300003152 -0.036653921874885406 0.013670413674924171 -0.4079236847845917 -0.9171484573767926 -1.5175573128826696 1.8597375986068854 0.13180154005802694 1.6540069023373507 0.32848437409150333 0.5812987097468907 0.07441391124261854 0.3207279241964729 0.09696318386153222 -0.18281321356315022 -0.8971590572460825 1.758558220239661 1.5302056493809468 0.09502586430884648 -0.32737178019786844 0.19079703936145834 -3.681976233950008 -0.6488057332463566 -2.9789072895783466 1.2092834950345037
1745 1.7120075214166146 -1.0778648118382785 -0.40256893694076273 -1.6002147639247049 -0.8602973967853023 0.09020989727917016 0.8112717383797895 1.2971850651618728 1.229640069931144 -1.2244569056926073 1.3803973414934443 1.037005440235409 -0.7554898909619017 0.9373432986816468 0.6088121563016806 -0.4467825554502255 -0.1430009014803111 -0.7570500496088985 -1.0883518293076577 -0.402055979781791 0.8905558571956933 0.5798710016970197 -1.4867161378128528 1.518869905000102 -0.16330583312657013 -2.081111515235456 -0.34402951514533536 0.18032431658828504 -1.1642542418906514 1.0205753923099166 0.287023037714912 0.6982856400793629
2184 -0.6734361397599182 0.5904470124385558 -0.31381285652561736 0.41504057300792097 0.9300567123960777 0.9046479423780767 1.0564717719373609 -0.2273245708313236 -1.0986551622880114 1.306800361970751 -1.6223022813915184 0.19693121640703729 0.5464640147955083 1.4290392859546317 -0.4611420723499739 -0.25106147871589135 1.6526897088476857 -1.5734781751956557 0.3992273462776097 0.8386830190134734 0.3124950285790393 -0.8631676974518905 -0.48995425700604134 -1.5689669046061496 1.0135221938579029 2.1262778934845272 -0.08819250334566865 0.3377806651236524 0.4098155575880543 1.2439562007083396 -0.21758499176120505 -0.18345506874289627
2391 0.3817985481469492 -1.0690245055200827 -0.38782765101357564 -0.6672902305421566 -2.0730340359439725 0.693220944017157 0.8102761133256896 1.0527741687209873 -0.19350059935226524 0.22536411122316544 0.7984523816864495 -1.0134363341289803 0.08245950583904194 -0.5757114968599365 1.627655915250387 -0.005748550581994454 0.8792849223457004 0.18020904471535193 -1.1081889599127506 0.10905289244123821 -0.21640373074034974 -0.5029899146313692 -0.18060317861685776 -0.5414741614624241 0.4346152502881824 1.3164205462753522 0.06110889294087974 -0.012523976457818867 1.3927690691741395 0.45430596063724127 -0.48061584070450186 0.4700292879378007
2514 0.40452544613275815 -1.204827253537937 -0.07797470820815632 1.157039357223346 -1.4501305446624706 -0.8407304973735559 -1.3436770522885106 -0.6159973873161168 0.5617034429709222 -2.226146565945192 0.3742215439896985 -0.4765495590609919 0.11125842555649088 -0.6291218856707064 1.0209542798407003 -0.8104400225883885 0.5234439132227214 0.6461798151563503 -1.44992099379693 1.956436636323173 -0.9403302831516581 1.807313858322412 0.055886297547520634 -0.3947528958977077 -0.8350441514563588 -0.1884268457709348 -0.1111508811767106 -0.029914161400126097 1.3977415514273879 0.05738991936723934 0.7800601558754604 1.6322916463540436
2706 0.48949346456458936 -0.23197270706910467 0.8054940325552397 -0.3952048643668307 -0.34106724588582643 1.2017043832006484 -0.15822382307314567 0.24604082754732193 0.08249741749726458 -0.5802711572066527 -1.3256949877792403 -1.9789949855231261 -1.0792693344346602 0.5602869622742823 -0.6973919174519144 -0.830134257884685 -0.7519762417000689 0.6651827310949459 0.8363340641212388 -0.4326577566715375 0.6102771211997045 2.3821364552443027 0.5519980714466408 1.0152781369372492 -0.24039146849288004 0.057260367124643996 0.11392605322913162 -0.1432663428674976 -0.6339849435648486 0.5475743723510295 -0.6293737192279603 0.8737736375106546
2784 1.5162445623801675 1.2954412251856033 0.22497704394918622 -0.5548515063624876 1.1767974769165443 -0.470060286455375 -0.28731391622074726 -0.1345336294662611 0.5752046056120952 0.7695197384604617 -1.0325910542870653 -1.3182912472387458 0.7688864876945036 -0.33648139167370394 0.47578080276173307 -0.17153360456881286 -0.12427845883755928 2.3844283065092573 1.2450505478917284 -1.6495524376581956 0.06428269699167588 -1.0148775770421399 -0.06637576934736152 -0.5169383330085077 0.890707942755368 1.281909517675896 -0.6647473814994481 -0.34104052826236525 -0.11760628273288197 0.016097535674291594 1.3891018978923022 -0.4346248441978204
3133 -0.9640659995988885 -0.32263571017482534 -1.1079267491054092 -0.6634673523994512 -2.1184535181995146 0.8472227738796744 -1.231900565149816 0.9643337830522366 0.38820131338747266 1.212054547093004 0.11893608317576118 0.9611259261842051 1.3814552095753454 -0.5994949352376164 0.41005058312843345 -1.2885215532172236 -0.22167548842097828 -0.6778870605836509 -1.0593105921306385 0.4652187659106619 -1.016413293988539 0.44859740566682127 0.7587994252047227 -0.6587412198263453 -0.407749549743684 -0.6279226399923177 0.6024967824530466 0.1632150768877175 0.9052096881736168 -1.1994153538656234 0.4337746741441137 -0.44008904076391764
3401 0.5190433676063032 0.6948286481780149 1.1673985839273553 -0.20555398752947282 -0.3838308204842371 1.0939509816204727 0.47692497066386386 1.4724571387089862 -0.07714775153010658 -0.21785553830944485 -0.276911076226455 0.1863156016658569 -1.1245919792119823 0.321479699010722 1.9461908213301795 0.8618564240420433 0.8329443745846824 0.7849085516043443 0.6592577803129853 0.26436768593912624 2.040293800973602 -0.2998803258667216 2.134763735305142 0.38891656309905803 -0.30450353599402874 1.1833886758133936 1.6964540220800106 1.1977207324538397 0.23602157346005037 0.01893630734054386 1.736113025838193 -0.3474644060756532
3534 0.14681551813200017 -0.9171779830968947 1.8747029967801803 0.2396924880705026 -1.0146136996589825 1.255847929909281 1.0567251555697468 -0.1684841255209508 -0.9648829523463412 0.6775689275436161 0.6281224509007236 -0.13492602141649138 -1.0622206896759432 -0.1349658048310196 0.5242177115839924 0.332420152966796 -0.8177605979210114 0.39454360367449653 0.5165239146499029 1.1461238408719059 0.09276479478734799 -0.349507922980766 -0.35894078642852345 1.0941362575500122 -0.657655729883252 0.37305761246572017 1.2808616532978185 0.7474072440125883 -0.27333301269552424 -1.7184514579923638 0.5970821157605477 -1.49356303722935
3565 -0.6142453631240085 -0.6588355840992706 -1.1833350899851645 0.31532638699245663 1.669455823192938 1.077334792372376 -0.3355116702204349 -0.7643224616402754 0.43479288984982245 -1.035084210074911 0.19189370301410286 0.3374870296400879 -0.3670534784566979 -0.7769733170279067 -0.9244872795237291 -1.3397724376644347 -0.3215133495184668 0.010776065917238507 -0.030627769285858805 -0.10059840813125176 -0.8160362423415111 0.36537571291324633 -1.9328557591928373 -0.9205638219690875 -1.0026679699463015 0.3901493102556324 1.0842853017301286 0.03490504778643504 1.2447996010356641 1.241743269531639 1.2376316875790294 -0.18039110083505575
3685 1.0282746474659687 1.4718081888327972 0.6736559434599105 -0.37178506119582994 1.328219449006865 -0.05274354666789342 -0.34072480927493975 0.14199125372054902 0.6325000241072533 0.09766538634453381 0.7469715362244707 1.431563079444797 -1.0492184756461014 0.5424622321420144 -0.21560624395330907 0.01304044136014952 0.9102742493605759 0.34235631460252836 -0.4911980685310325 1.0782576982000505 -2.5201450364299727 0.518095224723042 0.0660410165021709 -0.8489952918594122 -0.7459254184695152 -0.14437595500064024 1.1443981348753383 0.34943482797784114 -2.73102088132109 -0.8011103131515624 1.2550379323097698 -0.7918462440883739
3727 1.5778164974124136 -0.42877532854673606 -0.06556409912160106 0.28839374105940874 0.17513510701457038 -1.185165677006848 -0.2847022327598794 -0.19142151192745857 0.025740150847539132 -1.1398581623376034 -0.9065369921822242 0.8736882697554847 -1.0232623488611576 -0.2744336861117647 -1.275971097658317 -1.746821004174663 -1.0422551058951641 -0.13566830998609053 -0.23733923731332043 1.1478551579940832 -1.2114967543732122 -2.107600974646643 -0.1321476601178291 -0.851523076658542 1.0482515748483632 -0.425712287557398 0.5463874998759087 0.6313867726676945 0.39855366401691744 -1.1502359415659367 1.2620869911025985 -0.05030162070683165
3758 3.0446999114743662 0.2669433359616954 -0.6685663633087988 -0.7830478265392699 0.6455428674905296 -1.2288908405957386 -1.6951850701465965 -0.5073433156906221 0.33494356967830863 1.4224466008370928 -0.03815604225269593 -1.644022846287688 -0.6749326670277799 0.34954393421785895 -0.46235819205583545 -1.2330815421997865 1.5913475752791892 0.5773154511784363 -1.5612636880922517 1.5519665590044458 -0.17413622489343414 -1.6982979816750745 0.2173530347008097 -0.8991989309514489 1.6009596791813974 -0.9929964900935204 0.41010461096259043 -1.8439296334079827 0.28512757878970046 0.3260937107783474 0.08338361528155705 1.5545815476192417
1096 -0.7949007741228714 1.1550236942953993 -0.7665929029098469 -0.1776085090297144 -0.979809824201512 1.2722123039056845 -1.7610075418814648 -0.2190233575011824 0.2244399624454173 -0.16003809706334143 0.19768793250466288 0.23975896080954834 1.4305381061019125 0.802395170854377 0.3515696649341703 2.470496088586697 1.020955000071298 -0.2977817711771799 1.477516752487648 0.639828485974826 -1.040723321458675 -1.2445189506206258 -0.4305890458094054 -0.12627647979188011 -1.5599749927990154 -0.5055218465132701 0.8873212025512571 -1.9563476964759792 -0.568853307503334 0.862842457638993 0.043076867457967793 -2.3633928180522474
2101 -0.4334959771481902 1.5440912684810701 0.4175881805492473 1.1390273305577396 -1.6323825558488447 -1.4357464251876597 0.5428881541786451 -0.14786458886335194 -1.4770524811551617 0.19240948879045494 -0.11648699545363513 1.4513409054976167 -0.9206827154928809 -0.1784712251251986 0.3128210034462762 0.835527951748908 1.2629865685026638 0.03160019348051875 0.9257836433722348 -1.4213369763177 0.905803008276723 0.6671564536450159 1.4868088468179352 0.33511050406691206 0.45089321912864017 0.7181952357032643 -1.0679374643637454 -0.482525573216881 -0.12174688842174859 -0.037117094244599885 -0.38801455254387135 -0.3465614570376917
79 0.6493913713812722 0.6563596716855752 0.03962993233809395 -0.5206173741334833 -0.6254034240653383 0.6282690175074842 0.6306729592772623 -0.9388412768451684 -0.7333709524440563 0.5767812762996767 2.2888931016784064 0.9115428729526286 -1.6496926535951848 1.248407031172777 -0.9400171246602643 -1.7545741258528627 -1.8873324939867115 -1.596899909845593 0.9794862954449577 -0.26243565072439756 -0.019493936257697023 -0.7566460247595657 0.14637892994665566 -0.21809642518810501 0.028847502308065428 -0.7844574688244887 -0.645115707155739 1.4157716881799856 0.9661946573924196 0.3388705952467711 1.368839809249538 0.9617592441084534
3 0.07556193207821713 -1.8146053891868534 -0.2485294599964382 0.6583922404831266 0.4413335540356069 -0.9023334973431612 1.0754552231051182 -1.1209033929795515 -0.44774757958485106 -1.638678138043058 -0.13333120082786898 0.06215515797139579 1.3665888652566973 -0.478711583204662 0.924585763014563 1.923640043883723 -0.7406263304299565 -0.6306910455532901 -1.2338664225710307 -0.8021510345735671 -0.2546572235927537 0.8064438690795431 1.7081570606812566 -1.1704568563678437 -0.060055927197508595 -0.4707724723166356 -0.9760597627412976 2.410334352915687 0.2782084423097466 1.1698187965013356 -0.1765425944377237 0.658918232864973
460 -0.3029897001680385 -0.5414055115837731 0.49623153419092786 0.7024243697688543 -0.37907425605149553 -0.6252348239742599 0.1896587101253355 -1.2892916584070753 0.06433344342535859 -1.4964014926639815 -0.6572141522697802 -0.5286453425566627 -0.30276753446813126 0.18395095593192487 -0.09503004122844337 -0.45930955218067887 -0.14949259190224112 -1.7536564866282975 -1.0042797727298913 -0.6898087103764149 0.07534760846511011 -0.1531417877213639 0.09352573894141131 0.6429580924845628 0.20724232739807422 1.349606276672264 -1.4221293404484288 1.2298432795732162 1.4145716953655354 -0.3194011666178816 0.01778567909676752 0.13528063049128275
541 0.15514819441627267 -0.9826042967550869 0.3467641085351796 -1.5488420998764416 -0.8638977573297381 0.9301344256976511 -0.9002045819412522 -0.5293143824699277 0.9246995938675433 -0.2846591239881268 -1.6002914476006471 1.183459517731148 -0.597741413055544 0.5255450101877019 1.5334159428667546 0.831630736882246 0.04302985428733888 -1.3671779698110678 0.10774297169151673 -3.1484080973074335 -1.6124475311335977 -0.4321808150937283 -0.4370125278568535 1.0661214356668491 -1.3681376407658004 0.28429222722991715 0.7386454023321596 -0.5043688036266689 1.410856396860463 -0.568394797485792 0.826473078306744 0.7847609327585701
736 -2.0780125129003055 0.4074962300658165 -0.38599132791425295 -0.811991382328401 -1.7990780037238923 -0.2647337089642736 0.6792203431396133 0.7118391719789826 -0.8539989611292209 -0.294154608130044 -0.5750437857206769 -1.5610181992319818 -2.53768940499708 1.6721674545564207 0.20576151585581462 -1.5476381395123213 -1.231755480292536 0.39691786768374077 0.334869930634628 -0.8703738798977666 0.09052197288172469 -0.7369375459902637 0.8593637913694149 0.1431765229371998 -0.16797078680173666 0.13943607234346286 0.38807516955106053 -0.2265310559550934 0.5729103479105141 0.4075056476890096 -0.4914779470089883 0.7297019963775566
1117 -1.361110149683083 0.6380659035310033 -1.0969534068356377 -0.9113532871163205 -0.7507711752408042 1.542688048222181 -0.04640510127712596 -0.30063944190573494 0.6494406445625854 -2.6826935213317578 -0.25090240647521095 -0.41608931296721197 0.10585798654804492 -0.9665130820434754 -0.6617054201136738 0.26473599562070765 0.517704290707439 0.2197825630164206 0.8114783506380417 -0.001983307304429991 -1.1724115809600841 -1.0056351059147508 0.16667340734265385 -0.44501395755625456 0.05207734149823531 0.23728992331980098 0.49915583745585845 -0.5364469825550926 0.8927820996835961 -0.480474954423635 0.14899205852201544 -1.026336166184132
1119 -0.1140762460115083 0.786948835276251 -0.4169930751263678 1.8475393762422159 1.218173124073431 -0.24846875533437085 1.1684416498351309 0.8154767588483786 1.8656527999655266 -2.413947382943052 -0.7623196524430988 0.8790994465815639 0.41532707766040516 -0.22401592108103344 0.4857642073254134 -1.132852871642399 -1.0545438809702443 0.06352472171213179 -0.3294772038109338 -0.5863041483302998 0.016208033958887053 -0.09610999300467254 1.3175334223685935 1.1451002187415373 -0.43021514215414364 0.3136726016504617 0.4064372154206958 0.8127762164613076 -1.6466186857411755 -1.1242341551922834 0.017650778717226236 1.0659561970422011
1364 -0.5959974493254155 -0.21762345988479986 -0.18092505388407107 0.6173961453908177 1.2362435640627722 -0.3295924004341173 -0.8280587147003904 0.9832434342679959 -1.0286439689826083 0.4604559752309525 -0.6192919001284942 -0.805627839918681 -0.1942841578090438 0.4184428369348301 0.8646434892872 -0.6790542616683269 -1.1856326456193713 0.8648359391146506 -0.3001331765822078 -0.9941455507905497 -0.29395805282772874 1.703783871176574 -0.7819006835592905 0.3828344359367136 -0.033921729366524725 -1.1290366095110302 0.4578216975590979 1.2240800408939687 -1.1017899300512617 0.1728640957079365 1.0813831132426055 -0.7928977972633313
2010 0.16710333156170845 0.21654970785894256 0.11265879498202543 -0.5501478105257033 0.299436496626112 -0.31812020490141313 -2.2293717458810627 0.5565639561414913 0.2922701705042914 -0.019079090647345295 -0.8174181144551073 0.14095745269376855 -1.0155605277242794 -2.5462835873312413 1.8429360093501466 1.4099733215580157 -0.185957988961682 -0.05507109635446458 -1.4342834269647398 -1.0146388232466552 -1.2064597033130444 0.9173357372671119 0.7893993069485946 -1.024975552308335 0.25402033030063537 -1.500103950000271 0.4305811646655642 0.20007954937128258 0.38687678242310447 1.6012169516461432 -0.07784239502713841 -0.560061596625535
2029 0.7299820316879688 0.2026284801317417 -0.17869132200652668 0.7815601839721474 1.507641812809337 0.3957353131941204 1.3391978512474838 -1.2149048927423853 -0.4023588472635409 -0.7835106239122182 0.07889262102873189 0.6601046608539761 -0.9280785516758524 0.4443491382675557 0.008204093958282392 -0.1762000710959761 -0.8019232296343504 1.2302579983899258 0.3036012796342194 0.1560646947626278 -1.0382095024239348 0.42857984383545555 -1.1642892611963733 0.800000368214131 0.5284006251394874 -1.0706656601108953 0.4904762838041586 1.1599542308925876 -0.7083227564175721 -0.2569990125152607 1.2030441691505882 -0.26249864957629654
2236 0.09596681014697937 0.033917100037682016 0.20201765463505125 -1.1316582305379133 -2.7075575716059417 -0.2442051399320859 -1.0647079715187218 0.051842870145915536 -0.00535706469323429 -0.5215662649328217 1.5578373022486032 1.3664236361258675 1.6792290197645652 -0.6680380410519235 0.7937015171698211 -0.6681371352178775 0.2883404528824542 -1.5890327869707677 -0.29322636432933696 -0.8711016884223941 -1.0956398582799727 2.302994171492261 -0.015496623100199163 -0.4098997613792846 1.279464424365376 -0.3112997801262905 0.29336362361936585 0.3954287019593232 1.2686815128179036 -0.24310875793574419 -0.5793037609381608 -1.0339280571853084
3845 -0.12075845215461911 -2.3037351429067225 -1.7155229005516848 -0.5381799229530417 0.03322339806546311 1.2874405061436052 0.6079762125806346 1.741535777618457 -0.10905947242137609 0.23283282994935772 0.6552388455008186 0.16969525480575542 -0.21212905292077203 1.5294091915786392 -1.008236328704174 0.9162493245164152 -0.7855405056361581 0.7603562256110848 -1.2332371262291937 0.12610640501265774 -0.1275598297023533 0.36399839194992495 -1.0390312658564012 -0.3442680985148052 -0.013539781978886131 1.7195268321921866 0.8958916723727077 0.41685475494207463 -0.15390356681408252 1.965966150938901 -1.2072855112465277 1.2595179223568231
326 -2.166656773078479 0.29247996539498733 -1.0489753929542907 0.5010756651134811 -0.557649786871891 1.404308743757976 1.4629705017926637 0.08779772952861005 -0.346707545517577 -0.48045024234514766 -1.5312936570818718 2.2013716352264123 0.4415611237457365 -1.1161627632884776 -2.1411307120361083 -0.7799702777572123 -0.7548194307012887 0.376906497602211 -0.5719662787703574 -0.0036334036026918213 -0.1621981587069141 -0.020636257559160025 0.8533932899494747 -1.6180636341662253 -0.9379353098590105 -0.5036527944242373 -0.4032313957456418 0.4526842624367121 1.4950474805418255 -1.0626104046678977 0.40124188601109084 0.7752141523017021
973 -0.6201084818223511 -0.529403045437928 0.32264508080649795 0.08685554797163278 1.4326390392777217 0.6945242986755245 0.11215652824852443 -0.2904199050961974 0.5135104161356812 0.25502073085041005 -0.7957296125066009 -0.40196798958400326 -1.4132066408974029 -0.01090424073497084 -2.1081314685624535 -0.4394314495682846 0.19631436565044819 0.06717946087471122 -1.0964983356971314 0.4498273483482665 0.6046805618690374 1.9807561640497355 -0.9851529081828222 0.2756641273966184 0.002380335592600488 0.5740109411858723 0.7289890356781353 0.3411900597839352 0.1757727257648435 0.8905590985939119 -0.4732101649891035 0.6649410795840359
2232 -0.027830323582363804 -0.3615157453220542 -1.501229981858783 -1.23876426019157 0.2769265147580537 0.33671742931270776 0.8215079790292266 -1.516156242806382 -2.0726618057962214 0.30607604786258824 0.7710958307290579 -0.6519545706008817 0.5939523150275406 -0.6270399470134184 0.2912057086001979 0.14478039408127386 -0.49662989084961157 1.2852023085792317 0.22658785127817727 0.15596221992566767 0.5661259762325035 0.2965845532529383 0.2757374844291998 -0.6153206891727186 -0.6206918017731996 2.184557060952546 -0.9139600854778227 -0.8373516337992886 -0.5167222502288017 1.1203762659742074 -0.8344955232291136 -0.12268554642231694
2517 0.04853065613301649 -0.23268446838817025 -1.546525921216787 0.4344039013536274 0.14465973640012747 0.06497039072045094 -0.29416969099111345 0.48269305307954424 1.2935313783306808 -0.6640991525796237 -1.041995153524473 -0.17564618312056335 -0.008720855439424366 -0.28949648584162097 0.6447791980126979 0.45934033498081867 0.6481263867784228 0.6627014319719385 -0.23018467626060266 -0.7068674827701947 0.04347586067905458 0.43288318497258194 0.5144461809950173 2.752876616072994 0.5529715273052106 0.6807657468852853 -0.7700286931328303 -1.3290476627109966 -0.21770824898386235 0.4064088112846843 0.19261735580842984 -0.4179966871934188
2578 1.167708333414592 2.5800991752010387 -1.2789966157920587 0.8873164570801327 0.5857871338282127 -0.16167108039974695 -0.015425906891632873 0.03886300877244383 0.8856217871483401 0.5796391744552787 1.8159252384214162 0.42167866500510426 -0.11248810173534245 -0.10671763299070897 -0.34911026876233897 2.761806363164125 -0.16737599904019101 -0.9406104258588754 -0.11790407294204439 -0.5369448006627954 0.503300364481311 1.448103276344583 0.4815380696217511 0.3259849772563059 -0.15681046444725794 0.7698702580938432 0.5859051183866945 0.8143702203693673 -1.0509092575819847 -0.015444388235502721 -1.1944314504179583 -1.0257581327076037
24 0.018039023582596105 -0.06270303619959686 -1.231657988821667 0.13551432384410347 -0.5671735596768306 0.07329920133677625 0.6530257485028186 -0.17677752287913606 -0.1520501909277113 -0.5529490290503332 -0.13240656242678137 0.5236258796297418 -0.922286177695291 1.2689199844796613 -0.5431425361639477 0.671156420845546 0.7509410371760242 -0.8981444847560365 -1.7113501928199224 -1.6367395047451583 -0.9277206555138393 0.25431863794148274 0.053128757826025386 0.09762563377393285 -0.4065057720448478 -0.7345455949079527 0.5301719328253633 0.8102246592789387 -1.2259445367942823 0.6960170466255886 -0.2614272862191895 -0.7690018098535605
228 -0.5243272740510163 -0.09025923079685008 -0.35145102501617775 1.6236235634972758 -1.6672562292114494 0.8752427400241566 0.3742741210306186 0.3923184563136158 0.39011065755033403 -0.682176796019471 -0.007826133189597793 1.2885294101459004 0.3785918019718129 0.7239803851155688 0.07335273137792019 -0.6689306606907507 0.016852825491251108 1.6751640338044138 1.3996598103828044 0.8392827366736679 0.17724516259882023 -0.7883450347057954 0.25895066809873385 0.9318460917613767 0.05890459012343103 0.07400484936128959 -1.001667239623728 -0.18933334114127004 0.28332631872344016 0.22689047678302005 -1.2939169331092661 0.4665544678613659
409 0.40974736873138323 -0.8057456569369069 -0.8285557201316079 -2.1230267853696425 0.2321546701693904 -1.8445189358071783 0.8892792299364872 -0.638825305609799 -1.3976317427170872 -0.6517021019288858 1.3307904234294516 0.5226039643075202 0.3342163143226975 0.020173815482158273 0.4486861392966134 -1.8758643805680697 0.33509280286890475 -0.2695079634306345 -0.4586121062873176 -0.030854053108952333 0.34321188333751496 0.3083976641835474 1.482883691461447 0.36555465068048304 -0.5450251988468162 -0.49543650447346954 -1.504306540668433 -1.0509492170551369 1.3495088492016285 -1.2703828107847612 0.4776382020698193 0.11030095540396834
558 -0.3154533186386805 -0.8286652127206896 -0.3863765356035863 0.3469595035521548 0.17296243390622468 -1.3997581376234463 0.5689949406835547 1.1260686537653408 -1.9256758414929405 -0.27823432085970623 0.2969049679916761 0.4901794556741451 -1.2041837059055203 0.7215188833712254 0.05369656572326178 1.6211631333957903 0.5989700111293514 0.28097523416266695 0.4609570509022485 0.7682419987179595 -0.8994797736304746 1.2241328050932623 0.058082233292451366 -0.5321163989561137 1.3852404308782147 -0.8516979408823826 0.5059281380400859 -0.12613868754785382 -0.5603853077573768 0.31599329385385044 0.5445811281269176 -1.2174133187650358
732 -0.8272168110472281 0.3315518305796804 0.9893966492025992 -0.21185485486169278 -0.3848369098391007 -0.9856572406100497 -0.657170228517466 0.8756423921178231 0.7383756042199351 -1.2238479484203995 0.5747630427693217 1.130727716591208 -0.8003143851024702 -0.12201556503585015 -0.6350903404831929 1.0675052752538148 1.3524042358944393 1.544867146088261 0.07395441973867722 1.500661715565575 0.6744638822930702 -0.07749529983590045 0.7347839429513517 0.1431521734249819 -0.7041991423515588 -0.7198485367582403 -0.46093090922536184 -0.6516644516936052 0.9908970240460391 -0.2297117382529331 -0.2909168916791378 0.8219143162930108
776 -1.2004604168795707 -1.0252212882955618 0.12474064017607438 0.10465568726030028 -0.43541841861610175 1.3957318987127474 1.2567908250714857 1.7372014961874516 -0.08640997645103636 -1.669153151135368 -1.273111430287679 -0.7259081916589536 0.8034689591206281 0.9971981836029248 -0.5442245880881449 -0.3187729646559081 -0.7743564821938473 1.0311018895250303 -1.8427770491677655 -0.2754947023583611 2.61551044481963 -0.6659263409591425 -0.9813720447246181 0.08828811980467753 -0.7122427655521798 0.10822705998607074 -1.642907217186231 -1.1904579305531444 0.9751488686840892 -0.31815356557212104 1.0278585187519842 -2.1410394952266625
864 -0.5884042645496053 -0.28878462721785086 0.028493892666674788 -1.0460983763597078 0.6443449559400397 2.0916835580336866 0.4076795908225969 -1.1398348633382527 0.6919344972518058 0.6110162266642409 -0.20331231683154238 -0.4163752011396516 0.8492035603628759 -1.1509808967436197 -0.06502144238733615 0.45668849323962096 1.1969053224806658 0.4250964263162824 -0.2971722744067076 1.011078268040716 0.6036165803019842 0.23721054569499955 -0.26223588754496174 -0.2895802986724182 1.462272260292506 1.6350912324818134 0.062214596233143134 0.2980392472975961 -0.5896204928763147 -0.6800688717077576 -0.1615632500491264 0.4138877651541271
933 -1.861207660345761 -0.28656664179943675 0.2385257267575125 1.076431566421561 0.5159009954062291 0.5913313824236698 -0.8846793730143773 1.1108016095386395 -0.3098319188228645 1.4611144728945196 -0.18074180786750113 0.053779730823205 1.0595652641733955 1.223109181236807 -0.22897935357116228 0.5669897562641318 0.9147292976457194 1.7512593976920219 -0.004408551142465375 -0.30268249021952903 -1.6431260792824922 0.1585888344367992 0.8676457149208429 -0.3255973215135331 -0.5260582524851023 1.4114789053828758 1.0445411432162832 -1.5196454073309125 0.44053081692279356 0.6460455666350922 -1.1664997346381074 -0.6551666078525883
939 1.1916936509989084 -0.21982751165528563 -0.03682179382337968 -1.0085634992920895 1.4518961214753983 0.6347632895709934 -0.03858045411630074 0.2723113766743016 1.7564772998112013 -0.32701504772902396 0.23412357745218995 0.751294346864324 0.24459386897210805 -0.5065749170791729 -1.349436486748916 -0.9270046148308481 0.3756292988544788 -0.7566409727500124 0.733320141693291 -0.07810475200113172 -0.26534945149338696 -0.247991915509837 0.21398740458448812 1.4119887238346764 -0.44365141471313513 -0.9436176635978131 1.0185019905484558 1.809248085897053 0.648437368476159 0.08561943037066196 -0.31147666183867845 -0.6805802456779979
1037 -0.5514449265313861 0.8312670345574436 0.7215972452613488 -0.7889157036315242 1.0265727027122231 -1.78690898167012 -2.3152915499188915 0.2952553610365329 -1.5043304123757435 -0.7234522297390198 0.9090382867648505 1.6185028872104208 -0.1389919632801763 0.7510504765381163 0.25025129738509455 -1.9097250241671613 1.7149791954679137 0.2035518540485817 0.8860086722511831 -0.9448080873478181 0.8201955771864211 -0.16802951982643857 -1.4352708865064605 0.272339215201725 -0.34190319043394346 0.9566380549616849 -0.14161110275343486 -1.3789190489929952 0.26234570898549314 -1.6133357727057966 0.6666816866342166 -0.09703430302234588
1092 0.4534908651763063 0.45267757990942104 -2.2391058336936025 -1.6606771592707859 -0.354016414890795 1.8602498547232975 0.08437661035851507 0.21515618385327515 1.303631614586948 1.4006943638609384 0.32628152274267874 0.11487816414904495 -2.1254842074302265 -0.7328878822854957 2.8744172825076775 -1.6789033891510354 -1.2446729393238318 -0.04041147664773176 -0.504892551981161 -1.2971934676863481 -0.601935714980059 1.9876656365739827 0.04108810394024928 1.1075010000546077 1.5833043186927027 -0.6978712915946734 0.25023439175171 -0.7372443264693254 -0.16030615033193316 -0.11439881401325944 0.4197633970151401 0.2909157340229469
1176 0.48755798794574895 -1.0787868029919898 -1.6407877219663076 0.37690086804917927 -0.45103964165893023 0.02713526511359657 -0.5763211844740463 1.9448859310885729 1.0521885153157036 -0.12119701550426214 -0.4908683528303923 0.2048301067550412 -0.5110525961319318 1.5453020442184238 -0.7578135572287884 0.17369556760764923 1.2537687468517764 0.559438197359445 -0.7569817001970583 1.0518241400295398 1.1390915259051524 0.9500477331787152 -0.11274291476730046 -2.286932749261337 0.3145675515349758 -0.3526683616706056 0.980066788009066 -1.3893010541650124 0.1694380350290779 1.7543412135201986 -1.4569961460195673 0.5989979528135129
1313 1.424966561761996 -0.6090843466289495 -1.472195747878208 -0.7442427033774368 -3.0309781466468544 2.593730589115581 -1.4071026194786587 0.6307184721015718 -0.6416854328367279 -0.4803556427361999 0.5320952560676363 1.5459964547338432 0.22213219918433535 -1.5668995778233343 -1.211727864051901 0.33182968562262155 -0.4876621289692298 1.2999355779800918 -1.104326027343564 1.564660123254951 -0.6040434587757652 -1.3786517581141544 -0.015571447510476118 -0.7512333233361463 0.9906167067427969 0.2278918171102851 -0.5414425001675447 1.2895251129738337 2.0688038134760807 0.8363380393245824 0.8266893340952374 1.406537260571957
1478 0.17592046522259067 0.701700316697515 0.8769463155765161 -0.019160699698248945 -1.535273215498451 0.364745949833805 -0.39254178291685876 1.0755437206869884 -0.752325352468151 -1.9844292496628075 -0.15771941051077934 -0.5414828521202671 -0.199584307366839 0.809353570338482 0.6629329722215925 0.01900032156285848 -1.1031516923027855 -0.10680485114620186 0.4780153575132223 0.524430928048796 -0.6065882759816895 0.7230072024860446 0.8114028450156245 1.05537348533895 0.7085377386247891 -0.012694810898131879 0.9359984818477558 -0.36259039038413465 0.24841068349153955 0.6302298263349452 -1.4516844332345107 -1.0481038000655445
1499 -0.4111362688546818 -0.6419091903402272 -0.6837714521872936 -1.1902204973425088 0.6379747840031121 -0.4088912309011051 1.5730382505817013 -1.5047469881251303 -1.7362126427873181 -0.21709429370877312 -0.23187748192760083 0.5779916199144237 1.5660028264201709 0.6974305624957582 0.48375290519315484 -0.5277238704893724 -1.7568275920423748 0.44756779162528115 0.09217962773019364 2.589740709351589 -0.2950259493317663 0.018189331359615483 0.6294105311105792 0.7847170735544865 1.3378201693712946 -0.882665369824791 1.500995378998796 -0.11110888720343183 -1.3871403272536829 0.5165301202057466 -0.765141931212593 1.637745897791299
1596 0.6407676074770702 -2.0378468773137266 -0.37894922785070473 0.4073774838489056 -0.47793242652871676 0.04816483166331211 0.8763878370442492 0.6421793327305416 -2.605323620109997 -0.3777221614553916 -1.4888141230620795 -0.6724132934319728 -0.4319182149749848 1.5122969471907382 -0.8407042276605979 -1.3776396150215948 -1.0972413236228125 -0.6736983875048211 0.13340307463792067 -1.2547676076726366 -0.9544629947943497 -0.5775435575555812 -0.3014563783279449 1.4274314080526174 -0.6712801620599748 -0.10904733081099098 0.9612594902716507 0.3456914217031278 0.9787127288992802 -0.736601239998084 -1.4552163936986353 1.3416311464217667
1608 0.006400021536611896 -0.5337799377420436 0.2092797547479122 -0.6604412839434406 -0.7243452130851425 -0.3070186336730064 -2.705596068856179 0.5481780431226178 0.24567288533280757 -0.09382320141903296 2.0691250980093634 -0.3473910678143743 -0.2857127916722016 0.7522218008514862 0.5430621070975701 -0.030099754001511235 1.57623355939053 0.38091022980074535 0.9519855081498071 0.11257904252217694 0.2543575388246849 -0.4054725813152146 1.8794056119329905 -0.03519090166648274 2.7831105745365567 1.640221436205345 0.6691432772296976 -1.5395058185846617 -0.824966418819917 0.2030052319033312 0.4471650387519104 1.243895698655791
1621 0.9300532814312553 1.4683789177210362 0.3358441858709208 -1.1535447452747938 -0.4928923812351935 -1.3189230653816937 0.34060464985518407 0.6793095952127352 0.149188485030745 -0.3226734124303736 0.7251572684397802 1.1256651593770473 -0.25597916490589623 0.6088880026542539 -3.0127818924854717 0.3316024982282108 -0.16369275196061614 -0.17317924450855593 0.7515747154593303 0.8232803094971327 0.6771655144797298 0.17351858999953945 -0.8341867252977407 0.24924250476343704 0.7024776018526178 -0.4781648261509506 -0.2141620127045438 -0.38971155136859625 0.17458845222809458 -1.5320983056891286 -0.7060569502307181 -1.8996582588999078
1637 0.38967636007186607 -0.6006366730639129 -0.16207832224306357 1.387568598134844 -1.5091478759171768 -1.6710933376582287 -0.43141503193532776 0.3926815434788249 0.17483009961852586 -1.4615654515935252 -0.17527538453001534 0.2663757787595718 -0.8785848877675816 -0.3575405626514675 -0.7430970645555233 -0.052433570005348054 1.7992935014463225 -1.0550511846094381 0.16838840469953575 0.4992462156351948 0.0071596265003202875 -2.567186230627449 0.20362785900153318 -1.032442728633687 -1.4495027140929986 -0.1128349534117696 -1.6227150579177887 0.780840169811284 0.4390998215220358 -1.80356294595878 1.574038163365856 0.41294936083660655
1717 0.7621983993407174 -1.7909988375845831 0.6398919377245259 -0.27192635362726797 -0.5629324745569616 1.2202743843900161 1.7491926103283948 0.9129688063238568 1.9656849875279867 -0.5081114527626778 -1.2800997413617206 -0.6123015725661398 -1.4222118870999763 -0.01506562953209592 0.3370332248923366 -0.48321082756657624 -1.1734102508404425 0.5475477427716506 0.7122977736878977 -1.7865545942407488 0.7282556816448824 -1.5997689816723066 0.5740205457862302 0.3571628092587988 0.9965912766461974 0.35118902040360356 -1.5869056996595488 1.3839265198456145 -0.6543988842729903 -0.1840732099948537 0.9009510674548619 -1.3836435417822281
1788 -0.1537660729129416 1.1302911561370657 -0.675234093491237 0.3856118985432818 1.02688173842956 0.8481379504207491 1.5186284650081137 -2.1813627139102008 -0.43206965348545306 -0.5845683025944949 -0.4051835138505825 -0.439763150054558 0.34056810660853054 -0.3974600626137626 1.2466959758272043 -0.2809238355122654 0.0907325569966698 0.5564154488507757 -0.7770895463631609 0.7399594246958603 0.215147374769594 -0.3050276683503793 0.8532479381782148 -0.2804302331116169 0.5137767473299548 0.9094109978785473 1.090466280814951 -0.6993474269358153 0.0861327892060664 0.6068016280235101 -0.48999164092385183 0.805146427828151
1919 -0.17797203592294178 0.33118092586350545 0.25803210838836504 -0.6827198088270352 -0.006990767043160221 -1.0501309992753738 -1.2209948373237043 0.5164167996941182 -0.0805589176841607 -1.1961955043659482 -0.5010690509164573 0.35335719185915776 -0.13753331078095346 2.003031495685042 1.8130972549169833 -2.637229141187139 1.1853674450185294 0.9731297272583823 -0.3147401954134167 0.7039759124380739 1.3802381200687646 -0.8122985722116156 1.7643960494438984 1.8052142115030945 0.13328990801539456 -0.7814162772652218 -1.854883008805441 2.081579678835054 1.2906230522423745 0.06327951349851645 0.874770097598379 0.9925190125612104
2004 -0.4450554404190403 0.8065779859465202 0.28033380355085624 -1.6057774637988256 -1.292925102015847 -0.7094411455214431 -0.9589619986745826 2.3129032937652836 -0.36322245922165114 -0.060762595550752564 -1.7409522335227885 0.7095474760056375 0.4673218538044783 -0.9830734636821522 0.7483312981853278 1.1663130530401766 -0.2584703353416629 1.4086867571206152 -0.35227945327542515 0.6035596291821572 -0.02857246355925903 -0.11549841002724506 -0.70147650269697 -0.3959737681576915 -0.862069116883786 2.4406931492903654 -1.5473265417821438 -0.04144993290978799 2.3427951096436828 1.4905483801668398 0.46373435935042934 0.8705156435826565
