3906 32
729 -0.635047669646931 0.949938076791599 2.287930263623342 -0.6621168746194124 -0.25202663733169844 -0.3613961847284475 0.7945222391399739 0.4965343535446282 0.30855972779855434 1.330787239298945 -0.7214330204513121 -1.101036111755926 0.11623522395423898 1.2999197699400131 -0.16212824211366858 2.394935940024785 0.1306883417660783 1.4850167288393663 0.5003722917933909 0.8297009339315244 0.019956485064762525 -0.7077148105318634 -1.5977833820314438 2.5291014253026214 0.047610493751056485 0.4184394296340151 0.9533563946719658 -0.06742369113744631 -0.2886408887613833 -0.2502037819322246 0.1061445293434747 -0.664194451138438
1 -0.8527980494064563 0.5041622066113394 0.10070656484003096 -0.2811555860036683 1.0408682435834113 0.02026449063782999 0.94428245738903 1.5848710177601104 0.532458757413449 2.650978991183794 1.0637216190536027 -0.8753063250903295 -0.44538734383284534 -2.257782360095312 -0.4820320458781516 0.6553788972559359 0.45567301504079727 -0.873763622665858 0.5064596943752888 -0.03654857554558782 0.9406441832641195 1.4514585623925953 0.16557550580813385 -0.9794507294041521 -1.946928752079918 -1.1009412590987753 -0.18535495764705 -0.43440248328809716 1.233599520166085 -0.09644836514542487 -1.0402068320278126 0.23181135841907774
335 -2.773941946052396 1.3767977460635394 0.32617087611497214 -0.312351618040618 -1.4302122924782408 -0.14415060118194414 1.1783868062710223 -0.30175220236132133 -0.06194996188664887 0.4569563383315141 -0.16519053463989536 0.5292179106941292 0.9991010737668736 0.3499819402903912 0.7446528337120263 1.1141725002208596 2.514363121362488 -0.6180793340781086 -0.982653601047596 -0.7167635526179859 0.08494317380805608 0.34957512605915403 -2.4434824732640124 -0.25918982035167276 1.2732197356252404 0.4840830235601438 0.5932971718402046 0.5624543778878173 -0.8021839668408701 1.2962578765760722 0.4633234566131005 -0.21395333110798745
585 0.6042321000977557 -0.5134595611065916 -1.2537434674244414 0.6261634051074529 -1.2719545439181486 1.569455421502021 -0.3662641356686859 -0.7328558769104234 0.010233356712560641 0.04079399385256445 0.3654168169695614 1.2586067167570414 -1.8108668390183293 -1.214089456875669 1.4595698504144732 -1.1230149716494167 0.8518567731707578 -0.21180165368425266 -0.08736584942656495 0.07933323675317494 -0.7575240123350165 -0.004230132609933644 0.572419884570991 0.9436052577587323 -0.7883878710973051 -0.45424501887159735 -0.9090485551538915 1.456026169492854 -0.0028496019011472573 -1.631223209886764 0.5131918539752792 0.5989090330600312
674 -0.476410810942654 -1.9445451638540594 -0.8222838579893819 0.733538823790985 -0.35267289422427656 -0.8054321942160125 0.45217969583647577 1.084834628766754 0.30411526775816927 -0.6589947751700389 0.7689870735458811 1.6800996075646226 0.9979116463201948 0.059384803745372396 -0.2917159186478458 0.2448920930236814 -1.4456980985781203 -0.35151073194126387 -0.7400417704205787 0.6395690411909544 -0.7585738132539098 0.6821573140517508 -0.7736896760589883 -0.8021530706184676 -0.04589972487958752 -1.0333436210160014 -0.38847649933714623 0.14829934418110305 1.4509831692347988 -0.6869936937832641 1.886770837278235 0.2170237645589204
3178 0.007532881741845481 -2.3839732055880263 -0.7099190455997415 0.39962004514643945 0.6138365571806706 -0.1898770303411432 1.2061675706695096 1.4285183737970883 1.0170704136990385 -1.1202656605145171 -0.03215231804768142 -1.5583702257690961 -0.5416932097061407 -0.5047513837033696 -0.8826711597376181 -0.7924059893601715 0.5529763791439427 -0.8466598530501913 1.6307028214118817 1.109211774082728 -1.8706226574496854 0.1919257601275846 0.1350596379793934 1.2698867572230474 1.4424925211766966 0.9083524653751938 -1.3024030555163777 0.5799507887793127 -0.9509619342165159 1.6622012553794727 -1.0649356550398767 0.9551737455682339
3715 -1.1648587562607524 0.8892938839709245 0.7409477733192095 -0.4465703121145694 0.6720681366758926 0.7687684176262808 0.19160121896078863 0.8412110593650044 0.7381228403755117 -0.30180831959971166 -1.7308094496807342 -0.08011518350807911 0.1259234597278288 -0.3188067268107039 -1.5916038625097324 0.9358283361888522 0.010933252960427256 -0.2948219107877001 -0.4743718888173966 0.5225848816881661 0.11981963504265883 0.21052578869830396 0.5513128474501715 -0.004634308685251278 0.634333565912384 1.0010654604710123 -0.12696714041732687 1.013690876159462 -0.2022913185355472 1.1203654331010615 -1.4613497000744105 -1.9183664257199788
50 -1.5049178824272718 0.7945349453758642 0.8953512690391086 1.292906626167446 0.6153554213363502 -0.9430463757010032 0.41808450275308684 -2.5727271343363287 0.9448843306016104 1.2914340905563209 -1.2851024876877495 0.29908718163593834 -0.14308399029649566 -0.08165572704036077 0.39113167328213405 -0.9017978139224577 0.14164540511835083 -0.37012663514076594 -0.2247022469389035 -0.5069907045999847 -0.899516624822853 -0.5911315912931544 -1.906917729236338 -1.0938085976073606 0.28715375517964337 0.06052327029159988 -1.1906712794197807 -0.15825528258859348 -0.9639144075599788 0.4347573803806863 -0.7794863452727436 -1.8789047854655183
193 0.010941972157393608 0.015444268163362888 -0.352171745185117 -0.8006036203095896 0.05478228504997596 -0.9617386992635266 -1.1390918117709685 0.6277224072934784 -0.6422086663877936 1.155796754101555 -0.753365895563691 -0.17005869696910625 -1.0195596661818545 -0.19132389562783342 0.10892597764509718 0.8409114534741781 -0.9916159748577145 0.7304660281543164 0.1694359860134503 1.0272318213117742 0.3498889182529258 0.8591503147910767 -1.4234056720238306 -0.17685628389662927 1.0314745598225987 0.24708836292057104 -0.6355605491299763 -0.8995758600578272 0.1977731510755479 -0.5045013969681639 0.3384435042881886 0.5791473030468892
212 0.019945032194454555 0.025208307152837207 1.086148845601783 -2.0417748223459826 -1.4550250763461523 -0.2066803050686088 0.9272561461632614 0.07256672642676432 0.4679877831783471 -0.13632767433822318 0.1925208641672704 1.509763138985657 -0.8235354202576826 -0.5045660843425255 -1.0416764769715048 -0.5449443671128248 0.3950351692442125 0.06238366054654411 0.7657201907796874 0.41468345727122047 -1.5941500382750629 -2.0661908322049585 0.2748208804754264 -0.8792792912824285 1.2712120054401816 -0.9794096432556428 0.1873820405468319 -0.12905514559463097 -1.924724573121389 0.01761992383203129 -1.6485083193774013 -0.45150566067529774
222 -0.24972891779346565 -0.38334191958440667 0.08818373194193921 0.6033797042186129 1.3836767607920841 -1.9136208367303689 0.9354663853885771 0.8870053380385534 -0.5151925711516067 0.53645005970099 0.4117906030202844 0.07551490037979461 0.8734840741917758 -0.009425920839191833 0.3991517043685977 -0.9276843505451255 0.1792151506994223 1.524998885213503 -0.13658571982322654 -1.389385920616867 -1.0323575059122536 -0.18522819574177093 0.9340668582846859 0.46362335786809356 1.4671828518037582 0.10013414941867013 0.8142473750060877 -0.09988139956434072 -0.2962237160371809 -0.5686288813823993 0.129765150946204 -1.0805704464409651
847 0.3878652240626705 -0.17617234200580556 -0.21132703285968418 -1.8221356095727523 1.2185473212060565 0.6755554777552437 -0.0699887013272895 -1.6013612713362466 0.6220066888719822 0.6503595848954867 0.2290869546339329 0.24732706405009833 -0.49678587234417193 0.8805770333358555 -1.6621500010252017 -1.2163112781045191 0.2915240565425141 -2.5516927943407066 0.6341907670280174 1.672080230343195 0.8576545687183355 0.4445377923708887 0.6957100239167782 -0.8594108766341572 -1.5638700122798643 -0.061921709704839664 0.7101555379909783 -1.4864395431599413 -0.12902414278726104 -0.453400977118519 0.39383684389809315 0.9688423396009498
924 -1.4478444187770014 0.33500504882239035 -0.8427008441604152 -0.24067981871377378 -0.6136411600340844 2.936426310213584 -0.5074116556881283 -1.1027577570190272 -1.0307125248215212 1.2819619386813217 0.13984359831122872 -0.7792380868476532 -0.23702614061524124 1.1898068913989126 -0.33331829643692495 1.5903907485454758 -0.6807355603130318 -1.14109212919868 0.9414802129237801 1.7074558821488317 -0.03783510293659279 -2.0019260448605416 0.6948126776179346 0.6966022840154299 1.417657544910437 1.0644912532217286 1.797567914290211 1.8573404456283051 0.10604192058074513 0.5272968893498101 -0.3531263505837622 0.6551293872898223
961 -1.2483959557260151 1.4224800270131608 -0.21941942780008697 0.04455837990582807 -2.495162563316494 -1.6053903748316642 -0.4096578220465039 0.53056559638724 0.029931745538225675 2.0628646371358954 1.4603769652674095 -1.0818043966909168 -0.8127960364221486 -0.8694350924739905 0.23257004008200718 -0.24260150071546463 0.3228446102726417 -0.17540258805778453 -0.8338814594487863 0.33331105286988666 -0.24871015238154576 -0.6987354593682207 0.05642105353204724 -1.1884117614364869 -0.9070282471352582 -1.656839201956521 0.9237157884525187 -0.2627186471690281 -0.9086752810667261 -1.3289896657662175 -1.1007751024812185 0.028487920260917128
995 -0.22334537364564902 -0.6931230509652792 0.6314776807646765 1.7153372725348461 1.1108516501520578 -3.016697001348045 0.5159386746874719 -0.9872960243445171 -0.5381616472202114 -0.9873885917301093 0.6639024844772031 0.9508068124343315 1.5743813178372623 0.7488008376050742 -0.34427613653963696 1.7331328361595209 0.008048614634782254 0.45050650831209116 -0.009331203951521521 -1.667866281188139 0.08427047814399476 -1.4806849144164178 0.6223190087386136 0.6159866805330236 -0.6632426889368572 -0.21170780389052987 0.040069473426427034 -0.04917166950242977 1.6807476714372978 -0.34585020659906285 -0.3884334618875672 -0.7593165308451796
1046 0.13358554083418744 0.6201192311018859 0.8039440259843591 -0.7239731250384226 0.1906050427796916 -1.992074290786339 -0.43358178394348523 -0.6301948862184887 0.2750703560936805 -1.1933877235218455 0.4240543633615587 -0.7893134195543691 -0.5903400977333254 0.8470232528164234 -0.07451886710821397 0.5182723705157023 0.7137125323113729 -0.26221535723835115 -1.4914656659159276 -1.9394282710944692 -0.2147982710193369 -1.5490800492780024 1.2907160098571606 1.170779379543649 1.7072021071041326 0.5872978411544878 0.8030779226368451 -0.13052748429025685 -1.0687301062591317 -1.3114660455117972 -0.4860342364278177 0.3636440698374134
1142 0.8748652442705271 0.9716846947542666 0.6945118213496823 0.7709439925783662 2.017520801002226 -0.7891803614663755 2.225917058541096 -0.8954512306752812 1.0153554619805902 0.1704443116028426 -0.045795791123691004 0.7881943296911306 0.46532461778240053 0.5691905047182624 -0.9149789331520278 0.10288381048628847 1.3831107756544287 0.2109794749158363 -0.06806964191912034 -2.2860577330900824 -1.16789300125684 2.095928925280677 0.3259887811011064 -0.08836414054630179 1.2454467923990686 0.35364444152208746 -0.43312543045131163 0.9549601536670902 -0.7592327760444364 0.18898727535609275 -0.6482725984816071 -1.0014520387464034
1202 -0.07389157016814635 -0.25576628934517903 -0.9024180159047573 -0.47977994679269154 0.9261691745816014 0.8726871777005744 1.0852935781765993 -0.2095854847983071 -0.7494783924999614 0.03412073075071797 0.7011615058332705 1.1720678431105613 0.4188287354410271 1.2511500420160881 -0.48809884209898896 -2.419929449111694 -0.2612155458650793 0.5863427011477448 -0.40807241359309576 0.6421118043930348 0.5930277485972199 -0.5811651252480162 0.8546995395121056 -1.2931405315714466 -0.03932543820513535 0.5450491170376306 -0.28524003613720816 -0.5776150064721781 0.4175074266012808 -1.1192849568299292 -0.08712010504202429 0.5461346851365443
1236 -2.572358672223521 -0.48518879436645923 -1.2435339845924414 0.642670663243573 -0.373448485287541 1.4623079891760873 -1.259841888875272 -0.2895137619568138 -0.7455551234466942 -0.021852624908457435 1.1974181755769084 -1.1288581226155816 1.1677330257520095 0.6205822793391966 -0.10182406717525991 0.016201681726849305 -0.39392315869703426 -0.0687795459495249 0.8282688852935899 0.14194126398300258 1.4386323191816095 -0.47688036371705106 -0.26569221168931806 1.977971493729418 0.940348777754373 -0.2033659796081001 -0.8431011101238279 -0.07293010936224688 -0.27924473648825404 0.7033966953060419 -0.24032817590938357 0.38960402493527346
1294 -0.07549277061084175 -1.5565324272456957 0.9181063977484283 -1.4786862642057186 1.9008395861280838 1.2078536980809778 -1.1353217553463066 1.0269603134708154 -0.37896192625370845 -0.5307350578179802 0.27561228696247875 -1.3570570110350009 -0.04131023574204492 -1.0754693749202762 -0.7772497093261977 -1.3907525915690402 -0.10935338230491538 0.3600163417808269 0.7405725825411644 0.7006120831343617 1.0462182582682857 -2.8555332041903134 1.4094662980660462 -0.4458226664677747 -0.028957166946317926 1.011714990766157 0.17946463031092988 0.8414933367491735 -0.19521092230534312 -0.493184619048135 -1.3481923987568176 -0.739763585862197
1432 -0.26496882095022284 1.1849769596172546 1.896236759873221 -0.27930337621999707 -1.459590553923528 -2.1794412211806558 -0.8020608498327377 -0.2077006908535909 -1.5819191782721074 -0.3783663593658762 -0.1642683589845183 -1.442091324695565 -1.5352149009745062 -0.058935639023603346 1.116848589640057 -0.6348800943523603 0.5471119098002292 0.6476112600826053 0.8116558158064132 1.5206127513845997 0.8875025013183769 0.7708403824058228 -0.28816346604004855 -0.588587023350577 -0.18181319765494208 -1.1659677460169973 0.07682819355346428 -1.3738084414927096 -1.3171118089875502 -0.1497220275653996 -0.5654902635281016 0.06681576168266799
1489 -0.17481523650355746 0.15287625760160548 2.727026330236739 -1.642841578980116 -0.4155147361314848 0.05514125893874219 -0.40232282208957554 -0.1310379598250475 -0.3430551538017766 -1.0781127064288658 -0.5675977137320488 -0.3316044053424848 1.4169010417785055 0.5795236182349194 0.11115737543510905 -0.15169654465920202 -0.7446249806768734 -0.12625052095308836 1.2402178425938144 2.014095491584003 -0.6072240117806066 0.2553569030203923 0.40621423279476615 1.560657130677542 0.973245677907508 1.6646219944407963 -0.9556039828352314 -1.2147044113332477 -0.010536594806026948 -1.334648708591027 -0.423059203217236 1.0332672270835617
1514 -0.2580458671312481 -0.4552574631684226 0.04126158216439487 -0.09085037775719805 1.5458358613800245 -0.32581406335276536 -0.3556761321060262 1.0477822682878013 0.27140142846926335 0.015141264123215085 0.8278065421399003 -0.31960061561030684 -0.5521861256546525 -0.8692899619174896 -0.6912043452878603 0.9486428913446056 -0.707642571499079 -1.3081619806177747 -0.6082904119775421 -0.3297793833741919 -1.0981344594765279 0.19876433278407793 -1.288783173376411 0.947552900551997 -0.7949955036119015 -0.8706730592904179 -1.5029556677087907 -0.4762053803788566 -0.4307140315026467 0.7509470329384565 -0.8360811362139402 1.4701284563727288
1552 0.7994368861391994 -0.1402753734599079 1.2891700794512782 -2.553792723702641 0.39255164251399544 -0.3450875874224817 -0.5888571307355678 0.011903148524930912 -1.3709736065421734 -2.5698592621347935 0.9575943105484028 -0.43609515519607694 1.794943008965311 0.03250785918585114 -0.14082405284366178 -1.2783880070801468 0.03480701797876617 -0.9921269242867877 -0.5108846354191824 1.0790589197179212 0.7135261222372005 -1.2851782252782313 -0.7238602934498536 -0.4594462278504716 0.3536200636312146 1.1139719588361074 -0.5458023619728621 1.1802494287406986 -0.42469458641296115 0.46636339689594614 0.009214442916201883 0.41045905556244067
1560 1.0210578997896709 -0.8497570096250332 1.1204241547914093 0.3766656412200271 -0.002034139704532661 1.1227698918544609 0.004794822059367826 -0.7006741420643251 0.3997433468926578 0.8514270636027558 -0.3749656308961771 -0.989272736974399 -0.16849564060769 0.8341227760734266 -0.47496802666369514 -1.0126865358680681 0.1285364098929923 -0.7566160348505622 0.3986273204052389 -1.1662460621505604 -0.30235909044365816 0.01558416705081843 -0.16482476714026326 0.46968252622959333 -0.43664320473611534 -1.3416835897121393 -0.8517443973644809 1.1553560683218649 -0.3119511698328573 -1.4504817474229788 0.08292353572462983 -0.4859919894569503
1580 0.010645182865656504 2.7581083988746373 2.7162413578665094 -0.2660797046147152 -0.39094481604558323 0.9943933133593628 -0.3751362982388768 3.0791638385207656 0.2685977624283698 -0.4719757822049916 1.5286312344670512 -0.5525197656273133 0.10862377902735076 -0.1404456009360469 -0.41629705023259683 -0.13060171099470663 1.0400641267354616 -0.5576668172420453 0.10659829991400739 1.0210316197173726 0.3817398412225151 -0.4561382485234411 2.8440124492741474 0.7202624718759737 0.34955302822178536 -0.9696912412974777 0.6255768656112862 0.1514200067194047 0.7536577409978951 -1.2461341940767738 1.2600648621756723 0.014738199603430877
1810 0.1403323790953692 2.002158015758914 1.4383078943382128 0.1425460323626237 -0.22206164738063883 0.8179047765635009 0.35671714508655816 2.1576735188590233 -0.2715408549866809 1.0053254306976713 -1.2751453174195175 0.0899028901910151 0.29130405865032727 -1.351830075254833 -1.1521848514678126 -0.5696870014038251 2.1782665870467404 0.2159363817781526 -0.9305036037099507 -0.4459988458996296 -0.49767694857637684 1.847512755369967 -0.3520368766676783 0.23235953933586836 -1.2316505051199158 0.19148462829687043 -0.4266819930829389 0.8505873821997473 0.5817803957057409 2.771920356556718 0.10836149631161374 0.18025159610575114
2050 1.788654229464445 -0.17887536263795242 -1.6353229817781143 -0.7095154774999509 0.5843153000647813 -0.4505223484171768 1.174880691715664 -0.40045350685506326 0.3216651309046266 0.4482562564960254 -0.7055333419564989 -2.2272172437807374 -0.3898377115156185 0.21026927455371416 0.6709926440288374 0.8977655890692268 0.13780563609685373 1.5369149483438187 1.9039667857109979 -0.5289634067270352 0.707614406699967 1.2886772292783693 -0.4137321637105177 0.3603106481921522 1.1936292252447656 0.33235882482064494 -0.03724288950464318 -0.3670475201718066 1.1041937408179132 -0.6564724481683519 -1.4258343091737624 2.0287893971262627
2237 2.3193053494373848 -1.6709760417913553 0.4422483298778358 1.1798512504466732 0.6659131986177782 0.823990383888685 -0.5104858995557434 -1.684928708759122 -1.4160461420368162 -1.0148962269538784 -0.55950332534949 -1.3799529003872104 0.6853621571088531 1.7066443317165023 -0.18951087132961625 -0.6577014106192046 -1.4756982705321062 -1.6324801751988238 -0.33435702285937174 -0.14439260697950315 0.5582329801130518 0.27481322001300634 -2.3476668514885564 0.1537394136784705 0.21097431806897068 0.46375280563628124 0.11501161917355747 -1.162269904573637 0.7606927319114684 -1.7011159735031358 -0.4908916511527856 -0.9632717711253486
2295 -1.6380958235843976 -1.1024148853343663 1.5063716975052506 2.0661945916590128 0.5844724776162483 -1.3164533788158492 -0.8740919977878399 -0.6077489361214574 -0.9000353642338591 1.2719730189483434 -0.5985129854195916 -1.0842030575818735 1.71589248438528 -0.7597663442533065 0.5973059245318414 0.3383168958935444 -0.3078605869285375 0.35851661247425437 -0.5262740107659459 -0.2011774521818111 -1.3626536602198944 1.332583159017503 1.526639884200272 0.7801626918699089 -1.541956844743248 -0.9473952262474508 -0.7578622871004694 0.8429581810287744 -0.47669000758966695 -0.7774450765082369 -0.7744814193385162 0.4499808043028862
2689 -0.3332277646126591 -1.278599827833117 -0.5405613505050196 -1.623400166802057 -1.077604540724154 -0.5449238762935207 -1.8273169028805705 1.2067788420152712 -0.9111088784626563 -0.4037289042414352 0.46657103048722254 -0.4295192328698569 -1.828598306248025 -0.4358410030449194 0.7607111825636794 1.3776334232391527 0.5566467921561443 0.5975822268587547 0.48359250719820246 0.7068676676653811 -0.2866820405163474 -0.1784616857167421 -1.3310973621482103 0.9328591416128179 -0.3228345768995745 1.3377090886562224 -2.655699071218552 -0.0911305486947448 0.6079343264550733 0.44625029905838826 -0.3508949340365757 -2.057909841512596
3021 -0.163501067952933 -0.5446151894040505 -0.4320482296691982 -1.114023765724901 -0.8834124526981173 -2.520583758879417 -0.09792169195807895 -0.7308990554858144 -0.03884707240299144 1.1384282432281143 0.1053732039614436 0.28944316365419864 -0.5922635017265523 0.7820503571170997 -1.426792699902151 0.5766516465845836 0.16086006958109844 -0.8140935013280971 0.37498420622117634 -0.1664125205612858 0.17654598953076028 0.9334213608876578 -1.4244672344523235 -1.0252926882410063 -0.3263293782036892 0.9543857310001435 -0.234231467334143 -0.74726283037908 0.9177766653746745 -0.10801315722035244 -0.8635120048776648 1.0400480433312254
3038 -1.01017019183568 -2.1997591888245407 -0.30032754785097066 1.0410087933699648 1.6610878962898006 -1.4546901183114318 -0.897101698501379 -0.46928252865921677 -0.3682607505462519 -0.854008160815117 0.7825876361934171 -0.8988871553381403 0.9669252302109141 -0.25446562549593316 -1.0252082042571218 0.0953642809974203 -0.750114000806488 -0.5070615700821158 0.46389308097393195 1.092776919940579 -1.1458783155135097 1.2140422439104654 0.03487368468810946 -1.0212280942928924 -0.4753990552382567 -0.8158302283758202 0.04190708152062843 -0.43780171854043604 1.3248940189939862 -0.28550889889635206 1.3475393383160275 -0.6901006330518928
3283 1.0110770852364788 -0.6143580757620971 -1.4829518473691736 -1.6934585598047636 -0.7171657597022875 0.0009572289491853029 -0.9539963573169811 1.0926141321748088 1.2476164587286458 -0.7580860913061738 -0.11496449961615057 0.07507833817889724 -1.1223084137043575 1.442106576337203 -0.9347288664846503 -0.2704445408399171 -0.9004874389064488 -0.011497669860067167 0.143805286051822 -0.35979149287571305 1.4997301601857025 1.2414326365942412 2.011095092449021 0.6463880414347857 -2.3216945931473374 -0.34467382222151177 0.011627725336491763 2.2174970512307315 0.45779558261142855 2.2928303070225575 -0.5082117187626201 -0.03376947474715641
3489 0.03658084862280645 0.5624454961431617 0.13477800310764615 -0.9631451668457721 -0.17665336743751245 -0.13020910702209887 1.634386804099069 -1.338126139820806 0.6355575379515296 1.1894405021735284 0.28832192592271483 -0.6311878851970193 -0.2600791107838097 -0.0497898599233687 1.3500508786892158 0.4235044841594008 -1.6107578438557497 -0.13452913019227905 0.4136452982947712 1.305098469765002 -0.48440086789236064 -1.4879589270041107 -2.4010995653359153 1.163801081497935 2.5240335999045502 0.27315450430400634 0.9195253242146755 0.29434666687422084 0.392243539082319 0.338634010573857 -0.5506777913180264 -0.44919110245458965
3583 -0.5023978311806322 0.9156936204294528 -0.11917457069024362 -0.339166658015921 1.3769005407456805 -0.6269103648357406 1.1790130674548362 0.7710089645021494 -0.8125058769989999 0.34278628424983565 0.5091589179073455 -1.4170399487318885 0.30267814767174156 -0.9508094894299817 1.1228447762159328 -0.7714610527524361 0.38068154379017194 1.0244841440995929 -0.05983613620609739 -1.2795019692972918 0.5376334347805184 -0.9197535387561582 -0.3581629474884568 0.0757780843216876 -0.15172682777485705 0.5787781433537769 -0.1628121709444854 2.8632875460858216 -0.7303804734732813 1.6988080262682599 1.2261009829670129 -1.634396760068523
3836 -0.7687574389415387 0.0965620846207198 1.2840239334844032 0.703919043148422 -0.05571867826406092 1.1460324943687774 -0.735106388754957 -0.5402111826100827 -0.7284396939644499 0.7138466547924158 0.7650504561127157 0.7620134288979341 -1.1886370018052608 0.06065790810468439 0.9468194604226922 1.1092140657989151 -0.6722788936768471 1.5002352682045368 -0.3783387929202402 -0.90483095221837 -0.3466435138628551 -0.4574866662659131 -1.6589527075983486 -0.3655562477850676 0.7178379873335772 -3.256032443870614 -0.29084710039597533 0.7373706560950141 -0.03194455967150845 0.6965963903520227 -0.945153789091788 1.4593334002180776
161 -1.5777962826954623 0.6478564942244693 1.1619050799600852 3.620356654172405 1.295194043176668 0.27026849205371056 -1.3684651487069701 -1.8555922302118213 -0.025587282634298478 0.23744285880207064 1.640116408715007 0.4729923552252478 -0.5199045615736549 0.11180895461777081 1.3290048941376198 1.3550092205778914 0.5306609878874378 -2.9280950223857967 -0.018691288637493714 0.06715321369085303 0.09604788281645617 2.146912221351171 -0.6438003775223119 1.4478303171289502 -1.3408050154553934 -2.14824098366871 0.0662065820786865 0.06434861327157494 -1.1677696387421226 -0.5256772297690148 1.4441497333106228 -0.9726206609541526
2 -0.3118338603209162 1.395883628449579 -0.9057910767288078 -0.7803985111824273 -0.626092990252797 0.14193033392768903 0.4228650305755455 -0.9601005898984629 0.7799307836791367 -1.163921879938416 -0.18276078654157438 0.1869622679494209 0.3247990346569429 0.47903787572118867 -0.558765016222823 0.6394682440489285 1.8041796966449029 0.934639419544631 0.8421264661170713 -0.44127527251246734 1.4161997851056787 -0.3538850603719922 -0.969570644497783 0.13135655344844077 1.8461272067208663 1.3182612112482681 -0.916823561495792 1.6283338760695976 1.959253849619908 0.7493856646627649 1.57059463418863 -0.07663690450601247
868 1.0916274391446055 0.9673091641726803 -0.15224509926262628 0.20032590273924075 1.0737285434746715 -1.8439716594662925 0.2573857052963342 0.4812628026405558 0.9316282930075523 -0.3919776108704524 -1.8204637608433332 0.7547081832637259 2.3625210905215464 1.3426480360745614 -1.0684733315880297 0.2181927971421378 -0.5081267509488884 -1.2951435884386355 0.5483235097295628 0.8751811901132865 -2.3975707445335024 0.5483570097004711 -0.6893190911312783 -1.015379476812603 -0.3857336021427003 0.8822894204787923 0.6036169427725436 1.3186022512730364 0.04257043032985403 0.6040405637005264 -0.391875910314858 0.189401114815837
1192 -0.05365648638876907 0.06034900224426356 -0.1145314175884324 -0.2593003389737234 -3.349175336056087 -0.16187476300120987 -0.20556607298479487 -0.6902885520776825 -1.5057440214137001 0.2267501546062379 -0.8149256699705418 -0.4324684066194676 1.837328913726048 1.475448482282613 1.1200671665392856 1.2112119087634792 1.0632340490627181 -0.5537080397111336 -1.403577954341136 -0.6006334357749216 -2.2318932208912474 0.8653079248326596 -0.021611171433270144 -0.6938649373304092 -0.40153885199553063 1.3070096485316711 -0.418680486127551 -0.10658125356262184 -0.3555623200747121 0.3999608997921597 1.04133313423118 0.35440606517163625
1240 -0.5121923978215728 0.6185724308742517 -0.2896286126919451 -1.3960081084600788 -0.8172738848672435 -0.5146350852444893 3.371406004742417 0.6682703685991116 -0.05213674222838614 0.836925093191584 -0.523953115589798 1.3580492835012659 0.4121072153080163 -1.8818399226131954 -0.14527190825061914 -0.9803604079215114 -1.7168326285111182 -0.4227003413297338 0.15218987337108408 -1.019825046463403 0.3408775534399387 -0.6235953626097036 -0.12404938838750432 1.1315353397743129 -0.8290060919556919 -0.8684183700489652 0.5887902740386721 -1.5307370684026407 -0.5145798729904153 -0.6549882569377811 0.4085832412649451 -1.8961380895202935
1242 -0.03938981571963003 0.2679388676951272 1.1944052121730924 1.6069792638231584 -0.14390660180254694 1.2406608159701586 2.803596984700871 -1.40040515687945 -0.673206107404174 0.13545344086041097 0.612354398352297 -0.822548286855699 0.3542480329947997 -0.1366342750125414 -1.9870278821741254 0.1732388155387557 0.096155806043259 0.611583252723813 -0.6299409714116946 -1.055224539053036 -1.0191393621333227 -1.3921090455489284 0.6944173740867937 -0.1284043189196092 -0.635866916875471 1.7225437484165884 0.9485882670017969 1.2773024036780498 1.7240547518889016 -0.21596269096995638 -0.6648621940280863 1.5079854044145546
2437 1.0193446684889678 -0.6851895051051572 1.2557890154095206 -1.273552328000409 -0.5909421728674943 0.5901571233515344 1.5558911753448847 -0.09722884313672296 -0.6956399958301018 -0.32786240126494753 -0.5187761804835547 -1.7644061535922924 0.47688665703597866 1.550836607418241 -1.9165795174306492 -0.4767764011162744 0.7682469260004187 -0.23185675390994742 -0.4538925283447806 -0.6671316423511647 0.23014413487395521 -0.5430431969282965 -0.805162624247052 0.5298501309917655 -0.48525051625162924 -0.3933820387197901 -0.7127769668608973 0.24148189059883401 -1.98821131954375 2.003103099259508 0.04731488407154707 0.5134432207176877
2633 -1.0061882408463985 -0.03745083848405456 0.8616157182927145 -1.2847625406884073 -1.3490661375557271 -0.017418936518798292 0.6615379387528766 0.3508050066206595 1.1466554991287636 -2.0076543196542986 -0.8114739867749311 0.6794225748068639 0.034045735540759126 -0.038714529287830556 -1.1099591960887965 -0.36982774181716604 1.564189897998858 -0.09539573017212424 0.07531227496799181 -0.9755226324993453 -0.8955868156432235 -2.0185541384950176 -0.5212618794782481 -2.31591275564958 -0.6317931879227004 1.6815948041657598 0.04048769681426127 -0.6872203975526464 -1.612673069330453 -1.6189880777082735 -1.597604888575231 0.6843759752406675
56 1.8981660690862059 0.9044721968199059 0.46687219180540523 0.606089932012187 0.3472090578521953 -0.3790706451253755 0.43730982985915823 -0.3454609762092171 -0.5339410602979029 -0.3063653704146856 -0.5665565072734076 -1.975457780751429 -0.4664056620993127 -0.5487898011984939 -0.8167638776447467 -1.0999137703726516 0.8807392746880984 1.5322825150993058 0.06947642179262661 -0.7869826859017321 -0.38596627593700183 -0.162877269965974 -0.7958134454645168 0.9480306385372841 0.34121936241933043 -0.47867178070180944 0.17062220234200592 -0.7822719416193306 1.0811539204228997 0.2534165052163341 -0.177819720021185 0.41963190580945653
154 -0.9327179516536446 -1.4127134986337968 0.1694214072980303 1.2055130467418127 -0.5889817701436045 0.3980550214052284 -1.847379067057068 -0.21935081002735166 2.5089561529525657 -0.3031829938891504 -1.105342904269191 -0.05802013014765903 0.2817017461643728 0.24367179584896984 1.5504247793120502 -0.3381883314716479 0.393152598439723 -0.009565691160064081 0.9722631068329575 1.114767013703591 -0.38411457086939127 1.3286368721760642 0.47576278597342125 1.2485538235556388 -0.41707206039846006 0.3420939926647969 -0.6385728120561107 0.9098022692288896 1.9948362026796727 -0.33472815517685267 0.6412083729130352 -0.5515064464402251
209 1.3364928187394218 0.1587621407807803 -2.3479963690884587 0.7009860621283485 1.0828703359313856 -0.7217409685046562 -1.7180193497715115 0.46599117976261284 -0.20259355979413896 -0.15876994413504383 -0.45827568139899055 1.1342919771904905 -1.4059294554099915 -0.10496253105229805 0.5005190264362231 -1.3339380588496947 2.459864631865591 0.16292915331915728 -0.29098462338015507 1.8966179337199593 0.09686025515253881 1.2146497563619765 -1.7067247084382453 0.5539042855597348 2.742873900594456 0.7575805319645936 -0.984721405300644 -0.177128267470592 1.1286978514393589 0.4097480979652391 -1.511102080376844 -0.15079353154022052
508 3.15013719495054 -0.7398087232056949 0.6039564750255972 -1.1308353683733583 -1.2377194337058455 1.014648474742417 1.761477092561682 -0.07932873727609104 -1.0537435038711407 -0.27185750430451866 -1.3897239151268441 0.9651894427351525 1.3561904589637834 0.4473584416703997 -0.5394229308380495 -0.3922656004306325 0.008332569723872604 -0.3805461539586435 0.1176828397800365 1.8002230446758032 -0.6322251840599629 1.2246406157091527 -0.21454484322366943 0.10214493290922971 -0.3240008644078126 -0.12069586209184122 -0.4107234304288641 3.245997307856542 -0.06026454645698447 -0.36726645130910385 -0.5848346060674046 0.6336926363935347
842 -0.7110706473319238 0.024952354143800093 -0.6683676452624238 0.4295504515985353 0.32027080235035227 0.5096442569629324 0.8398311266897006 0.2560127747100408 0.25545086158101576 -0.20009186100913506 0.7477193073886779 1.7860575662439828 -2.6499449807874043 -0.48377395943171864 0.1941012977984441 -1.2780616708671315 -0.340594771653696 -1.1405217490807318 0.6784427203909343 -0.2245684213989428 0.5310889456872033 1.4252011349640543 -0.7471867691491098 1.6615461911748775 1.3957262629559108 0.9848169812249835 0.1653329794659437 0.20743282766617668 0.5987761325994981 2.024809931793251 -0.38908439892364205 1.2194845720470286
1282 1.219996758075569 -0.3678931474291819 -0.39779580714712937 -0.9720842664602456 -0.9906021411375031 0.24453809294768417 0.5398332422724085 -1.056885630125985 0.01842793829434044 -0.1625797318924848 -0.7079879175419566 -0.7723313122652641 0.17726033454465662 -0.6227586858860817 1.1282243195451638 0.007532942220657484 0.498474743247572 -1.0164239818013916 -2.160393996573466 0.003533082539137034 0.9859913590343501 -2.8658159999671726 0.9802409249611 -1.061304607962134 1.6677388029613192 -0.7265348576065508 -0.7254171520276211 0.47447982958403406 0.5009232736498583 0.6216130905378836 -0.07330590285611857 -0.9856033865065175
1683 0.6404493787628153 1.70786862447415 -0.204066640455515 0.3961410275670185 -0.42778375941105856 -1.882864935486926 0.4608822696041677 -0.33597123411208935 -1.666047724939829 -1.1301464922384368 0.654889291039084 -0.1586694211735002 0.4548672502096109 -0.39943679238093205 -1.4460181554173897 -0.3243808972312245 0.5580142551071909 -0.6768779967858544 0.8704455017896486 -1.3981190241729289 0.1627766952308598 0.3620736178975195 -0.7940286938391786 -0.4717469389976155 1.2160003061463278 -0.013506313160077568 0.2383332759218019 -0.706278653049809 0.22782812054965634 0.39143913154024385 0.7784429414696702 -0.2514118369979025
1847 1.1019669219741863 2.6741323238580765 0.4999117332661152 -1.4311446323498236 -1.5019554044386567 0.17319601188619335 -0.11992609300029208 2.50672678166874 -0.9274917796007447 0.4573045433539135 0.16213641741802612 -0.18041626274323339 -1.008168671072806 -0.21035289713225155 0.037040376505007216 -0.5874709492016368 2.2804572978068562 -1.6851719933853473 1.1438063249371624 -0.5671517425907691 -1.1524801627792711 -1.1684398401871507 -0.7045164813107673 -1.3904340136646358 0.44089074849550963 -0.8233448817183159 1.4324036583563662 -0.3535060892380065 0.9945385759727424 -0.5890482371218564 -1.2906330286114105 1.9593288319100417
141 -1.4565683970531218 2.0281372478219413 0.6649053489635939 0.6074503211798216 0.12156861354494991 -0.7280222570186035 -2.1027141993808733 -0.6272783862468438 0.145453744131249 -0.595327052404302 2.092363733881689 -2.1976483224716277 0.4474707755286952 -0.05452378307309522 0.9308785797998302 0.33012104148143245 -0.07227350010880622 1.7308947565132327 0.35732993298373883 -1.6378730368692132 0.36019658305754143 -1.0459022591742508 -1.0774285311529166 -0.8848432492490339 0.06345412565906765 -1.1578739464840144 -0.38289898979046255 0.18364128788894488 -0.3060733807767841 -1.3266233272433174 -0.4199103095342901 -0.7378527185598798
1993 -1.3078546189271312 -1.6991618326805966 0.39415685225158553 -1.0663436593445692 -0.6997665286294112 0.8020909341680701 1.5921666079036851 -0.08990407983682838 1.0866720494274518 0.40491306545147254 -0.7101940770943093 1.8030389617300053 0.2748803911830112 -0.11128809271076223 0.13830113602987823 0.7557682803708353 0.6779531628404075 -0.4289452130173239 -0.699498953061178 1.2494432606113726 0.3942927820775642 -0.9973845609304602 -0.8938364227068311 -1.4983154536242564 -2.10273383063393 -0.22720230906910135 0.3560896765830617 0.22241834362647658 1.343596935879605 -0.07362091766417912 0.27602556544828905 -1.1448668873353443
15 0.44895058221740825 -0.03568555853953847 0.021311825946324057 -0.7229253962255641 -1.2524709802714427 -1.5120388849558204 0.8675350610201176 -0.4015561050546749 -1.8308303824998473 -0.2627467137604954 -0.9542974004720639 -0.21526774732940743 0.4185004285198494 -0.8570039126330596 -1.0477679078366038 0.7695269580435472 -0.4068288284301318 1.5041631865445062 -0.7630474300795971 1.1091782636183114 0.7060613845361138 -0.776192981002113 -0.05226443644729287 -0.15809282697427726 0.43402752752594304 -1.2823753428738731 0.6156191755022878 0.09121098344272015 -1.9250127824416743 1.3450031186657212 -0.579882651661704 -0.6186088883864727
168 -0.3819875358701434 0.8697919110333477 0.6166284205343965 0.12578317567294 1.517340503583386 2.474161436567386 0.5481010484311949 1.251595762064318 0.6396947538274986 -0.9673757569787831 0.33603929342073696 -0.7318284637850199 2.040809667804393 -0.05423931137197208 0.34255247567053787 -0.7718653241354696 -1.8010367331920785 -0.19218643036491778 -0.35190594619430454 -0.8100976359607749 -0.6022729539392345 -1.7005764967917336 0.23061360211710483 -2.0548834086652117 0.9271289847787214 1.362346369640522 -0.21516180869733809 0.8468198719060412 1.003314326685309 -0.34189998599074484 1.590974813864897 0.9564300735428997
172 -0.5872566782256115 -0.403594415547244 1.1330944588826346 -1.3592140578288594 0.6041537162261862 -0.30000115856511206 -0.23158324173912606 0.24378677764484982 1.0796790799673874 0.6272510878836145 -2.019556971459585 0.935432499364068 -0.7517771860701903 0.2636573617613602 1.8407543143442133 2.132777997944352 1.2919526750153216 0.16052420353044117 -0.2681347925028874 0.8969383538071651 0.6621985477694492 -0.9760549036265095 0.36302677365388586 0.6931125136996235 -0.8435253530506118 0.9690141095267363 0.9406265127927935 1.3417599753532208 -0.4925454165021352 0.3169974440417925 0.8877053199294509 -1.921051644579297
545 0.29076848677464945 -1.94826743240258 -1.044721438205938 -1.940900782737553 0.11735976952698253 -0.14213831906326296 -0.55766494514789 -0.2093859340538495 1.6733033852325405 -0.7466244787599544 1.1601138117220506 -0.9733718754284674 -1.290748662573739 1.0377286337092884 1.1795616513295735 -0.7090147006295332 -2.1979311316837395 -0.5027284276703196 -1.0834832672349182 1.1374092969816274 0.3127940977358933 -0.5713145534255505 2.3723394612152955 0.16194093562729264 0.16106903734971556 -1.2962056712556416 0.28690402536512977 0.3980544456264199 -0.4427160328939312 2.071441801301895 -0.3649963902442862 -1.6448271478436638
815 0.32701010313301215 -0.2621086958390086 -0.13884045704778392 -1.2757998244597282 -0.3653997993970674 1.355238144120645 -0.6340139117138383 0.21833964220216515 0.3436350736316104 0.013903347361841952 0.5703955928441922 -0.3301891600417867 0.5165746388804643 -1.5860521719402643 1.066153825835843 0.013626430530370543 -1.4306963885421047 0.3766580848910554 -0.8716712935918562 2.4572806393493014 -0.1099967041639871 0.8246875334446716 -0.5591238659911084 0.10396682367678635 0.730274040238581 -1.2450061191928117 2.1768394401264124 -1.457646471859628 -0.22219459570331127 -0.2805132895172049 -1.2131023389473268 -0.19315808374546325
879 -1.5418245951246976 -0.18192144144922856 1.038088678210326 0.11315041138606392 0.08127076301215691 0.6969988216082564 -2.9781883456468643 0.511758756379455 0.665178341743266 -0.8021293031421312 -1.450530395431839 0.32457648098902003 0.21988538878363298 0.9760310595254168 0.08246414489465226 0.6620408990312242 -0.9636441197058631 0.9052166684818521 0.9721263072367734 0.3550975359392343 0.7437386115355143 -2.8483500727121336 0.12383029667130323 -1.435476440424553 1.5164901245680495 0.292605112719504 -1.1321177140980794 0.04824087932938184 2.029152153080934 1.7123256511627345 0.7441118403677579 -0.33919490727064416
1009 -1.6141522570478806 1.1280790363810336 -0.629811349543262 0.6865365843650696 0.7700936027368247 -0.5460606469277398 0.6747818432986058 -0.33736266089050015 -0.8181621312893819 1.8483426061263013 0.9823213850185132 -1.4782395839599924 -0.8226626988739785 0.014986542110094786 -0.30445667173403235 0.8956957660002997 0.46134488182752287 2.5484840420266925 -0.031218464720869407 1.3429150431907813 0.5077121931149419 -0.18923770928477718 -0.7235067493435345 0.8391955877039481 -1.6887894247120858 1.1552698803205173 1.2408841003005222 0.8305148671453187 0.08574544644223903 1.0992058403424072 -1.348552141272478 0.2936765200128528
1048 -0.34971962934694145 0.11692500095329263 -1.0538869487810878 0.36723208072536057 0.19929660807668614 0.41988106019195415 1.2798749609987166 0.6366199122221513 -0.5816358577803654 -0.6923285957096671 0.5346460104349803 -1.2147251923250684 -0.697880660862726 -0.5254407050936676 0.7111458018888028 0.9341310961260727 1.1790322854524415 0.5120157373257033 -1.3514684159784496 1.3093544905174936 -0.30355986747622266 -0.5892658154195597 -0.49821964131399704 1.9638012247386014 -1.1566283537405437 -0.7742563914958573 -0.09700351892208092 -1.7543932469061159 -0.9940211870692979 0.08997685323384177 -0.6353046606194864 -0.8370268095123405
1065 0.12090265460328499 0.9129674037773118 -1.5660298867565527 1.520042345134344 -1.8131295320625924 1.1400810903736047 1.1163373540418569 1.327642176309564 -1.344706905783468 2.0530440565702857 1.2052348211759008 1.52945279376231 -0.4695134156661158 0.18860650227356307 -0.8791026409477294 -0.315437237896682 0.6086339239491168 0.373164075356472 0.20143557707473947 -2.1011586180049693 -0.4337126652562202 0.2764602432292822 0.6787504457660503 1.4946607420908464 -0.5856664670509059 0.008182219769012365 -0.6140526136840442 0.7503818213639057 1.4255138090924409 -0.5973441122745887 0.7210973455768481 0.6234102730420923
1139 2.4041014459001255 1.1826225079477468 0.22049752350889656 -0.34706736006977995 0.7075027053325921 -1.193964956101231 -1.115871374039513 -0.07808643133685657 2.072889434849455 0.3581989242509844 1.6942135775493312 1.061695050849499 -1.1834016509420147 -0.7398460422404942 1.8216707162477357 -0.45595165074218136 1.249528262875205 1.3926164896178779 -2.8639057456551216 -0.009075284060368855 2.9768664397381257 -1.0814978051774198 1.2204729304267565 0.037294077395037595 0.15097102808415638 -0.9078960238237637 -0.17101542719740653 0.6151442030771634 0.133674343598714 -0.49458665123013656 0.8236989374760241 0.2037099071557702
1167 -1.240949630891937 0.09184231769298393 -2.0380475015252886 1.3159863692801461 1.487973369777175 -0.8680780136211692 -1.2603724142056547 -0.35460219756163125 -0.655917588032916 -1.0130931270646355 -0.9039070651074479 -0.6889161735873672 -0.612494908165857 1.0644480978061734 -0.5078563512443242 -0.13601913404933821 -0.9784031306144073 -0.7153413321105786 -0.11626868235503707 0.49433019648307175 -0.7205405352035894 1.8744142378257438 1.259502057736072 -0.6122310247290721 -0.24087273369014572 0.5610378283779051 1.4647394972798153 0.6605860443151526 -0.9629078885440059 -0.7496027969259556 0.445732061558385 0.5034200842315665
1179 -0.4305368090642405 -1.442298278077223 -0.2811957221454035 -1.8046186561756583 0.9083374772289857 -0.13118837690493018 0.5994464537888972 -1.2298933873285895 -0.249356543089436 0.21250959335141684 -0.2259833933816115 1.5483247373799045 -1.705963772824387 -0.4902366308980451 -0.31110917814376876 -1.2831326783266215 0.3840959836410707 -0.913120415049623 -1.6031728552852482 1.1625550733594288 1.3314796649624558 0.16056315743325333 -0.8429275631805064 -0.20227219214991052 -0.17264719719092017 -0.3265427569888965 -0.1606137538536605 1.0023555980251417 1.4141579756078473 -0.23898305102913392 -0.14377287657100973 -0.9254687148888904
1223 0.3193996620837717 -1.195366255731425 -0.937864979456714 1.1497591413245527 0.27054141034060347 0.744231582663275 -1.3889850220456443 0.48143359408620146 -2.1268813847672905 0.25165792541851106 2.1155165531952127 -0.9918563391499176 -0.750539259079239 -0.2880153415859511 -1.230508670347705 -1.764411290855051 -0.19440956247306876 -0.674380180250288 0.4912454309817836 -0.39870147686933416 -0.7966338530858724 1.0765257719673083 0.6442216025316911 2.184367014235927 -0.7445803426901217 -0.8034966196506947 0.9344063058038957 0.2771152034208653 -1.8849767140129394 -0.8843032871834653 -0.7176795038670291 0.8212199379796332
1368 -1.0764145421964846 -1.8119252120986538 -2.211133534192724 -2.8381895452904256 0.5653004843576109 -0.46385272748195405 -0.712890678023358 -0.4136850572182075 0.12185768932303553 -0.2492578983060857 0.48455289715516503 -0.3457230980387326 -0.9870491234886972 1.8518428201815855 0.5556521472910153 -0.3620519596675255 0.6137149988507751 2.9568438070035055 1.3379354960933134 1.8740790216564542 -0.17651829407212538 1.9557262031677478 -0.0399538769213096 -0.8443602430821898 0.22944561008390005 -0.6463119930362039 0.30085857468179233 -0.799980915616803 0.7043597572451142 -1.6114519830927079 -0.5708675225103061 1.4466082029714207
1416 1.2262012457593892 -0.09429270623041103 1.8676101578066453 -0.019193137556127556 -0.8933764192893855 -2.2152103025793717 0.3872778334719364 -0.3163542263793786 0.4253041158627691 0.6442778734469449 -0.36974041293020377 -0.06634316553765965 -1.8120504821440087 2.8150683207846363 0.16755762639765415 1.9261354616685393 0.6579483736381616 0.49375536468246495 -1.8835187357210308 -0.14442939126717505 -1.807443031881836 -1.207358022640126 -0.5924648941437864 -0.20723231096359387 1.7282604988286776 1.3087222277826212 0.5750590530377703 -0.3656579302274808 -1.7506006636540161 0.4289170438614881 0.7820273043862991 0.2751742330465757
1454 0.2085187319402019 0.6523226663247964 0.43991341065395906 -0.6991423420064639 -0.1305280564938196 -0.4326142609984264 0.054746381955320715 -0.47502298353015177 -1.586822914545029 1.262587267854064 0.4299384498758718 0.3658690391724675 -2.0703258240858804 -2.106699593893885 1.5813213798314145 -1.3228717027187207 -0.8868669969006968 -0.8689540903699035 0.3530438599939355 0.18349674772802688 -1.4864885966182109 -0.3559244256133421 0.3813228175577459 -0.43983894180877664 -1.7063498839605895 1.3528419901591717 -0.2653673300877221 -0.962936390701949 0.45523003453762917 0.933980602381266 0.2532640993634814 -0.1916471018919306
1611 0.14154850181731052 -0.8217664427627165 -1.2743999441774359 0.9315982270333286 -0.176926842466048 -0.92972821299087 -1.1763096695159174 -1.5760841728117423 1.2523017657952773 -0.1795132842046652 1.0072205768237943 0.819066012003125 -0.09717917996713375 -2.426062244715707 0.08802582474282789 0.8271630419643154 -0.6690925428006886 -1.6614242147395188 0.6728170658772454 -1.9038288536004913 -0.7585376327109292 -1.669789930037136 0.6350732579201838 0.39889922765001495 -0.7116237168698755 -0.2662149256597747 -0.06873470775198555 0.651187975255143 0.3083842248351306 -0.17624962666177155 0.1691212829269334 0.3897587094888317
1664 1.288007996465442 -0.32653971858624714 1.463945112553759 -0.20831368656740087 0.26539422563171366 0.6587453900327502 0.4003190107838443 0.9695310251038596 -0.20872045272595321 -0.4943642221112065 1.202429321055463 1.7804193001056863 2.3476664167471704 -0.642543824552667 0.23396078658177769 -0.633365101962118 -0.4819842766169564 1.370434063438582 0.23425595153172007 0.685462027797162 0.2836891563893856 -0.41776715244312407 -0.7620857328319275 0.26841612589509717 0.36445654384155646 -0.8713736242073861 0.14521628895635502 -0.8618084337021825 0.1394451861054178 0.2590542284454825 -0.6713611373535504 0.14041758274184196
1686 -0.06362588364199467 -0.7855672164043861 -0.19066419937014922 -0.10218374031190032 0.026724041556826002 -0.03492753267361479 0.939786385012314 -1.4711253527458936 -0.642578908587709 0.20095032229627874 0.9978336823986323 0.974349136898476 1.0434129825281178 -0.17428201700091903 -0.7741656471072075 2.07208273956064 0.40913799266274475 -0.17515414570308097 -1.2524087129261916 -0.5979247776318072 -1.5423340378228458 -1.5778817265303955 -0.03814592893933079 0.2084432873845156 -0.5500263343455984 0.5804652965125938 -0.17318601593079191 -1.4870497096421689 -0.20367851563928338 0.15263919507542 0.9785030013522434 -1.516349098942165
1703 0.9340064551204591 0.22710437557865232 0.17925017677513994 0.31262205083734274 -0.23310978907281607 -1.0687510128326188 1.5716447927673483 -0.46705823728439133 -0.601399502319374 0.22222414846711377 -0.1417584752528895 0.8903010856875896 -0.8123603276465923 -0.731057909722687 -1.411157128809661 0.35613840509519595 1.2458162066061602 0.9573657855117222 0.46591749964741136 0.4459302571718307 0.04310346787880569 -1.322986456704006 -0.7862721383337775 -1.4914732106723745 0.5266310500141778 -1.2825170159473815 -0.14022642727554474 1.3009725834151529 0.3911148443614571 -1.4583070244139167 0.831212537069711 0.45097284190137055
1710 -0.8667415015414598 -0.3114968983869672 0.8983280286295569 0.06727304602616303 -1.0947546746343502 0.3904041771092919 -0.2808775835782291 2.525525950914236 2.166344835838685 -1.6354195709993264 1.3223629719122116 0.40891046512042356 0.7081596116920462 0.34140705914518815 1.1297259780741924 1.1110770801571226 1.5002221293204263 -0.5932665782969022 0.4352826959644993 -0.10697808224707728 -0.3167982238588108 0.765781276901685 0.23477037357374184 -0.5921658560999958 -1.1049658683871728 0.6306534776541509 -0.24078790402083203 -0.5460868417163657 -0.43611897998036037 -0.37542922841506104 -0.6773852842122744 -1.4137498056055549
1714 -0.333406936695561 -0.06410369159618183 0.1380670188525427 0.43164157127727615 0.3557818762660601 0.26833822745683306 0.15418469924016653 -1.0124893335186695 -0.23770861155219214 -1.0903473846441643 -1.5983977900183317 -2.4058669699999986 -2.308229565768665 0.431734077670542 0.5719288163347708 1.875437976299448 -1.1463662474292557 -0.3274834498971573 1.6582652479411595 0.5903230735465964 0.009927126039031293 -1.017677464268635 0.17225606041975525 -1.1305064238506095 1.0388850015853233 -0.6883116748373838 0.7330298876802926 0.17131494742253617 0.006724129995056852 -1.7381224091984955 -0.5694255088350284 -0.8304539022580794
1737 -0.8364046774334869 0.626141094002067 -0.08718471059518024 -0.6984542956574314 -0.05586853507543038 2.310920715756562 -0.6919377593544171 0.36270003070849594 1.722823026369516 0.7592880846646074 0.837944202963868 0.5439908851900307 0.7735811820318291 -0.35940823220795987 0.5259625779362811 0.41475059224758465 0.47223429381819554 -0.30719216446208947 -0.5708690159313891 -0.30913339425432645 2.080951522294328 -0.5424634001083766 -1.3230246430377888 1.9449873910270994 0.9999645662638945 0.7723042180996863 -0.5351363074158935 -1.8178565257198727 0.6630005432769611 0.7691468660114299 0.9996988873215746 -0.07338328640473436
1898 -0.38205765757867594 0.5073526970630456 -1.072238674539937 -0.3182581153115355 -0.49249930734521175 -1.0192643183087755 1.296451079757755 1.0808610293023293 0.3830557551712319 0.6013838522142038 0.8612600972346153 2.3812693739032142 -0.09198883715256638 0.4681786755738289 2.5124769850534703 0.45843581511501785 -0.42296762908444174 -0.5933793761603224 -1.338450579505566 -0.9777116997803146 -0.6306995404331968 1.2912023493692348 -1.1268730912616671 1.2313754655379647 0.2251997647892097 0.010176148836443152 0.24974688857358437 -0.5528174514854247 0.7071403597609043 -1.338206642392017 0.7465212005958942 0.014531917580570907
1966 -0.8519253260490786 -0.3971481443617327 -1.0102393448505504 0.5662724237045643 2.6356363577254434 -0.38493667674793347 0.18795737263653237 -2.2144157814411516 -1.1270726377806894 0.6041255940290415 1.3930855110952514 1.4011012847063236 0.23724365314800663 1.343443757970653 0.49094007446403903 0.20627451866322621 0.9220509555721815 -1.1364939143499708 1.8531512701228596 -0.30021992780089113 -0.49996025991617543 1.0507234191935426 -1.391009355762531 0.5236554370400769 -0.0060529446910591945 -1.9379588441612572 1.641504857332471 0.11611610505521042 0.4967346328716511 0.4739413415452376 0.01542010480054581 0.27568447615891817
2044 0.8645282264654496 0.20902601236175203 0.7084242713244888 -0.7729955317414569 -1.5349997997866829 0.537403398503105 0.4495093026622277 0.417662261768601 0.20812550072938604 0.20796535877516314 0.2153291720367353 1.1821435043052373 0.02579387441818288 -1.4218633890829888 -0.5582057082283226 -0.3508984902320164 -0.15299011241782012 0.9774706599637375 0.5896740100909015 -0.4403738009106613 0.8081062397224631 -1.5273837204757157 -0.8441875515354058 -1.3967366247885742 0.6051328322481092 0.8090920584599758 -2.3586213217695278 1.2290345649290229 -0.8715718870241 -0.5333437020260308 1.0123728833196903 -1.5857803891348992
2045 -1.2085004836930076 1.1100533853067958 -0.8857943149740303 -0.42918755062626845 -0.4785301144982284 0.4395295800124347 -0.6404939715749701 -1.046591926877582 1.2433328738507923 0.23404134262621878 0.21927897757192794 1.0264560094681305 -0.79925867953044 0.16391194138835752 -0.614434574406345 2.2536624441559967 -0.5646747217801942 1.3416824010620159 1.9482450753232274 0.41148313545479764 0.9840939595877128 0.23002465875127176 -2.4426830526409815 -0.6021577300775948 1.596802260190864 0.2803069167526445 -0.5633253143562561 1.453454703163434 -0.14672120906495834 -0.48655380309061785 1.8853022681102967 0.19293763616964382
2096 0.5439721696469906 0.8491195485648749 -1.4607906313937604 1.3138405420155892 0.21653903322497203 0.30070486185771783 -0.8465121965839512 -1.1913596090688159 -0.25523522646897767 2.7338569270019737 -1.5063192012196485 1.089095455040893 -0.15775115785603647 0.04649091356609758 -1.6353732254634314 1.0289624053066821 -0.4547624812745632 -0.4966163628345884 -0.6291012396400466 0.048440070686431365 -0.4243342121268914 1.811152781885295 0.3759312495258701 1.042941857551241 -2.103855100994792 -0.36617609580225696 0.21351568173880944 -1.940039797591026 0.904932189076013 0.2886266798437131 -0.5343112176456399 0.9033316308673882
2182 0.7346981204544789 0.42368719130873617 0.0732755948529099 -0.16962465417448494 -0.2019211942715194 0.5645664398847585 -1.2395312026017058 -1.0866490091331793 -0.20752904356289623 1.2570917740145096 -0.6639213180622838 0.15715817154793066 -0.4101984293970031 -0.5773310279326798 0.5515568850092917 -0.3807546119464964 -0.3678984183881269 0.5261092508064885 1.0327272579545983 -1.753913001265918 -0.0820332707663493 0.33569537044703374 0.8420747125694894 -0.283806016857841 1.2754008609839143 -0.9944706862262018 -0.7608125172843939 -0.4445710834574718 0.5237040877462279 0.9903744201893104 -0.6450399111629259 0.010877352536821018
2596 -0.3074186810634539 0.026605154030766277 0.12442517478370214 0.9448681155542936 -0.34772919520659185 1.3007916600158143 -0.10527844076746876 -0.948902166634136 0.6949224793845522 -1.9339933750721268 -1.0399688232896274 -0.9441704217317988 1.5258634639636581 1.7336498831909668 -0.4703424977852418 0.022148281256693124 0.20354527887516527 1.5077608971383594 0.5874423952475326 0.43329703832811817 -1.3300613644864938 -1.0056516981613237 -0.8346271688485843 -0.8008811826056164 -0.9164033623519173 -0.14305932734906787 -1.4614305885837542 0.11172138662436648 0.0384654692306452 0.2616725479785686 1.6538416796664346 -0.5389630505675448
2611 -0.2492500942417722 0.8664275687236879 1.0566705949529047 0.3483404766162124 -0.6279820660741633 1.3802939908994656 -0.20389989149452112 1.2525405313948594 1.0748405952949664 0.6883407272106989 0.23450542864963492 1.444086010237868 -0.26583685734665374 0.31771323868169704 0.3151522444489656 0.6318825682067245 -0.5175494700849306 0.3308201339736824 1.1487170530028439 1.9197348508430057 0.22102274201561936 1.0338760813962726 -0.03584005088443844 -0.5017520301940743 -0.20582999459859805 0.5878899473132726 -2.0469574792428156 -0.018931173767346963 -0.5586226457498545 1.6293872201354422 0.9044144168455253 1.7055731941047332
2745 0.1082764576403076 0.057436752950030215 1.395530708590155 -0.3210751525392043 -0.04829651523951377 0.8024071397152565 -0.5536799056195222 -0.44419276161312904 1.2429410973972586 -0.165146362748595 0.9221405405752028 -1.416590428412405 -0.5008377552851124 0.46126911481483696 1.5590821792412934 -0.2917158230188932 -0.4813783457400012 2.9800632809168657 -0.6558254730969874 0.14380677127599775 0.5135239428026156 0.7634898942388383 0.6950944705196981 0.11811416887620867 1.0511816088276238 -0.9810198974504742 -0.597689499851235 0.9691426097714547 0.34838345609442195 0.9839218345935922 -0.49097242931208407 2.0888657140752183
3055 0.16157419015405167 0.02912662370394737 -0.42566802964647216 -0.6493876484476971 -0.9199115062433101 0.35663145032545984 -0.6817803880623864 -0.3107181750028348 1.267605994505955 1.7761285497860624 -1.1595176978903683 0.3467391059440733 -0.2841923976592509 -0.4569361005031921 0.9808089552353219 1.4143203117417922 -0.5422741711833236 -0.6045433999298642 0.22033818192724947 0.16447552341037916 1.7649280593462962 -0.9323505610846933 -0.45753558700909847 -1.3323408059489596 1.5363682213631653 0.3125116297578475 0.3073339023493277 0.388401129474042 -1.0765176124709315 0.05716216420854102 -1.3746246536345956 -0.444680672311679
3114 0.248721682275955 0.5374291584810653 0.4191047501284527 0.6011132370161308 -1.1814542204934677 -0.873064204824386 -0.09051080075716812 -2.056343283949618 -0.8045337461412724 0.9564056886615516 -0.2131948646756709 -1.5472470641824536 0.06262851225141913 0.5124481534049542 0.7570518654697568 -0.436867187597077 -0.372794080985321 0.15656620865084692 0.7091349261778526 -1.5201314558905423 0.47249673910338547 -0.1333577695884856 0.5112256435967798 3.789861947384177 -0.3124551263429315 1.2245398517356598 1.4051684881772672 -0.35056526006752553 0.693439674977452 0.2801717295784228 0.7576810172088275 0.7525145745690908
3118 -1.2231564981699095 0.5728576512061894 0.5683581141797797 -0.3051702379141796 0.2088698091023887 1.3043521721566336 -0.5723563064330176 0.9962470432504901 0.1582481038783177 0.8435678755831635 -0.7084496885223889 0.45551778080484084 0.49608932543834916 1.3335170300832977 -1.1090712661981494 -1.2823330512256632 0.33041779234749413 0.42609251520833935 0.480654785325898 -1.608693846701045 1.2939551249843222 1.0341014572127565 0.4369595309609202 0.0683367732251478 0.21247406001676875 0.4106037388068783 0.32548582192833525 0.738447102450474 0.9397097039734432 1.1923937724396827 -0.9815805476254287 -0.15237010929001066
3244 1.7414824688930635 1.1221121889351604 -0.9150040930837285 0.6438798862908643 -0.5598580580369676 0.6153384234113236 0.19590902555458847 0.961725673438505 -1.569577257712569 0.46455965053346776 -1.7805580967087886 1.7489640027079245 0.4774609069704022 -1.0205213429299673 1.4286824750102733 -0.4167451422537372 0.38315675528723536 -0.28649287277060437 -0.5845121322065336 0.6015263966607081 1.2331748504058504 -0.404927608170549 -1.453652620675683 -0.7515883985321978 -0.07609285982748085 0.5915185305325635 -1.1603470751301435 -0.9148617419715017 0.47754006121763676 1.0988567491955015 1.1125579412036575 -0.309053347755698
3408 0.6729299616171185 -0.6864987135135749 -0.6905874144714428 1.1125899394438183 1.0416635009366135 0.27506280149407064 0.6915394067630417 0.7538466396304296 0.33282072864266093 0.4819314628460976 0.47272349187663243 0.12216098831171127 -1.2036741563186601 1.9652118402405825 -1.6991849021852954 0.3727167402918834 0.6875882554074443 0.6698692272255728 0.30169695379946104 -0.08709295638778791 0.03572763160634752 -1.3667399999032919 0.6401675829549809 1.8254318828678862 -0.6856332665038849 -0.7992883959479749 -0.11346842717232973 0.3738858449584362 -0.8316079785208143 2.1324227756363134 0.69697047738037 1.3248191613946414
3722 1.6883939409238145 -1.4016194396102113 0.49207491877774906 0.03244726372365935 1.8014060847108027 0.19296220780231157 -0.18424199740165728 0.09440435454143632 0.5450003310551652 -0.3690338092430367 0.14339095395117352 -0.5298683364007474 -0.14909004912865728 -0.8194012921711448 0.4120022905592212 -0.19357395039381442 -1.7468075440085675 -0.058419534789319855 0.9942952281265844 0.8690191380218596 -0.07007542440575854 2.022273585790324 -0.5031650984300786 -1.4910554342699567 0.45919189848533093 0.0700399940685797 1.8839974826825652 -0.1361852485534333 -0.9634507317435261 -0.6584650196900166 -0.8173675964923706 0.40284712496384434
3850 0.6617012343664304 1.465229155411859 0.05810407364785068 -0.5128211863650157 -0.15607892285106637 -1.2693670036179567 0.22905146772760662 1.4602260532247897 0.05674987299646462 -0.7800279220021669 -1.960456056434604 0.1935981164736161 0.5646138654141208 -1.4936329096260288 -0.6416229579611762 1.1208334393831267 -1.7712779460572723 -0.7249966176119862 -1.186265890950774 -0.04844226975592828 0.3267657848331513 -0.19567142667222437 0.5576832216177804 -0.8253671135498629 -0.6203802830055007 -0.08441960874073338 -1.1563553382155491 0.16191181358413603 -0.8412743213203918 1.0352422001979011 1.6909186405040284 0.3217872794800497
89 -1.225892111894304 -1.0790399401115096 -0.3077808111868748 -0.4238080978210142 1.0446832320246004 1.4147140714350246 0.9749154339454363 0.8729518874059337 0.6966411098715948 1.2715342880470624 -0.47539657263789814 0.6685439791522539 -0.8261980678207372 0.6176459884825553 -0.36492136087088656 -1.022506547745965 1.0074305910544799 -0.5166961303761282 -0.24858714881567084 -0.7265744405858551 -0.21458785998222338 -0.5340763013536997 1.8678420769145603 -1.5137953254364884 0.844551799669797 0.28879904937368794 -0.3868408788365131 -0.5941170873285043 -0.5903814584802151 0.15106589037706758 -0.2164587200555411 -0.5617460275924628
403 -0.20774192013018006 0.33265217903629796 -0.49941160512993343 -0.7294790497546904 -1.278365124162668 -1.4588773076225268 0.37064902304692954 0.12882230259420532 -1.1099220665684943 -1.3090451400505292 -1.890098451469307 0.6901261311283099 0.3285381331287987 -0.11354179254448443 -0.4143438235359255 0.5658938208217386 0.004296453285241796 -1.1579973039228255 -0.3261891447263081 -0.890392730881788 -1.2925361774813702 -0.9388512324520859 1.7058645250054754 0.17897200992059584 0.04233445504709657 -0.16184255236379444 -0.8406698311402881 0.48579997687489984 -1.4567204741390736 0.3325800440887504 -0.606404554303308 0.018192855023155135
424 -1.0505088553262663 -0.4738138787769011 -1.8447149963797433 0.21179728622702748 1.288197386668414 1.9342969641256695 -1.262793650376943 -1.0137971221807498 -1.6486851350436136 0.5048383316861039 1.0157927422223685 0.8551076013687661 1.1761052706581858 -2.0556973763742654 0.9334756031675964 2.3450496613793828 0.7374189680671903 2.5106040980017887 -1.1340153837920042 0.43348984055477235 -0.4989441669356914 0.038165595822541046 0.9231868388690609 -0.08039723072892288 -0.6132100140385114 0.7163965132704816 0.5425110357163746 1.1949581769994966 -0.46849107576927 -1.362035979278248 0.06708366046727564 -1.146800895549846
584 -0.15828311417679583 1.7033369410433 0.09163761548845946 -0.6352528931743097 0.01403603377135234 -1.2000464512861 -1.8376555227151705 0.13399464619161616 -1.6555446222257935 -1.265511913398123 0.8874309126757491 0.21126080686736579 -0.5080039830682402 -0.18682033342448248 0.10312177521047872 0.2924270663269227 -0.05410999000264918 -0.7217090623150738 0.4245768931412265 -0.7250630813316076 -0.5899952470486182 1.6123498524006115 -0.5558763174477429 -0.9881206438279212 0.5710751169116022 0.651523987436873 -0.02996583690374283 -0.3278983564596792 -0.047024612257495185 0.02119499121428887 0.060774710920847706 0.7210342059037593
806 0.3313990169681001 -0.2203984293041852 0.7708451247889695 -0.9849556343765302 1.0965560763227165 0.8563852680017928 -1.0049589879179586 -0.5296681933886603 0.1832456303622382 -0.41155582577973243 -0.26684559876120656 0.32649464284150975 -2.4422314280010866 -0.905949932921288 2.1304370514092414 0.013852667135255204 0.30088013126899943 1.6804055542551146 -0.3789903618704447 -1.5565462680823579 0.11716927058392734 0.18368821700643181 -2.1473973952315606 -0.31490957662744046 -0.5946073886290026 0.8023901839194583 0.26299584131072656 -0.5114773425045579 -0.2465370168898903 -0.6543331693160009 -1.0454113637033406 -0.1818240615370201
1015 -0.7095947202947365 -1.1692032590401775 -0.24768016165477214 -0.8663190805418537 -0.00018591669265343724 0.48323697531980625 1.5227589225726734 0.603684812415013 -1.2955046389015954 0.5892005040189853 2.463104016306427 -0.2343244528862138 -0.7195279444361432 1.8855207814263097 0.1897892780446959 0.5437076288300324 -0.11887277886216409 0.8108178477502492 0.5535724646615524 -0.551630138993706 -0.4330169011583415 -1.358888305588942 0.262827109828346 -0.3625626518372 0.8459525583783393 0.3000571300789033 -0.307393412274387 -0.25138969405420597 -0.025006256072239684 -0.0003174956702930897 -0.6454296475000122 -0.8028822069204579
1120 1.4909177487562688 0.7142726424390942 -1.1950905377957755 -0.23172082601061775 0.05305624670374417 -0.06334617886487992 0.6302268422609767 0.21186054840159646 0.6540540527107286 0.7125746806547741 0.4598743338605345 0.31835802830199955 -1.5699487290486451 0.5823333736559286 0.7391051444175454 -0.5670840445514362 1.2724031004959657 -0.3977815533617997 -0.07480667484645882 0.6058069265904865 -1.4442193891025044 0.1663542230403752 -0.7226331100902187 -1.331998811789692 -1.2324519473040938 -0.9712299763377902 0.4456390458332457 -1.7411568896866954 0.3088202495716965 1.2986760724583521 -1.1003713099609793 -1.5468507826011928
1206 0.23413057773203505 -1.0399235603600638 0.4616479466617388 -1.4634321480331236 0.03371585701163193 0.6679968585328154 0.5085654031228295 -0.01866443754237931 -0.08891665540968337 -1.607987668416666 -0.273759762975875 -0.7703738531338529 -0.9816926336140015 0.16946313821508316 0.9932553786083249 2.1317685125975623 0.12780558462756986 -1.3050653426824466 0.6688690397103123 1.178237354388338 0.23346804611197658 0.0759512710821963 -1.0818959429837485 -0.18681631727799586 0.4843420232049381 -1.6165855676891878 0.4696627734836131 -2.3983654637683496 1.0203543960186552 -0.12741330314684865 -2.3940948549744845 0.7579345378657673
1367 -1.0867327449219997 0.6891306297962595 -0.8671764912066212 -0.10563213854130903 -1.5575472852220802 -1.0363989302798238 0.922766778964073 -2.37073054002523 -0.6677494164620233 -1.0111022217961563 0.6386532142121867 -1.5797586110494197 -0.24647573019911861 -1.3424869928364955 2.2708975453780766 -0.03476516802838323 0.4257819799553317 0.20846297519724485 1.3017957482896232 -0.03797448525532737 -0.7771703003836069 0.3060871515198161 -0.597570623001491 0.2504576387126256 1.7745205221874103 0.48575486770538767 1.9164956446258403 -0.9339754705523744 1.110458244535483 -0.4230881043173852 0.4144401346274806 -1.473749085131309
1745 0.23888562323983725 1.4329869543474385 -0.21044464835756074 -0.1933572810560159 0.6987431827349934 -0.9327313254291907 0.2043815634573839 -0.8411317651976006 0.8343030565451256 0.07262683232703719 -0.567757867687276 0.46573344480722156 -0.4411907324709934 0.12240582745387549 -0.5456849220072699 0.4456888610093387 -0.9877786562933439 -1.1427955243980867 0.9319362435130607 -0.6057561476363125 0.824722341808838 0.6992813686773731 1.340384269677559 -0.25085805543951134 -0.13907161437798624 -0.7633962532910785 1.1017624027498385 0.1504651436893647 0.3339698400557113 -0.03176949694122119 -0.10850516726374154 -0.16225890070036472
2184 -0.20700862287632515 0.7625982750459354 0.48810538602613096 -0.7936713456785203 -2.062896806781703 1.9861419435521266 -1.1173919911043282 0.6946692786889862 0.30607930160948205 -0.07526039794206325 0.633658756568253 -0.1488863398476387 -0.09685046310956792 1.1352773383045287 -0.8293205225500196 -0.048469761153762246 -0.315224889896109 0.6912288677141978 0.4165100080004368 -1.2839254393623492 0.4073225459155544 -1.2838576688773755 1.3365271921224138 0.5478005261137662 0.5082214942411967 -1.4285551204404938 0.7738410487484354 0.4401626194134733 0.7198849204120942 0.4996376012140779 -0.085699450050049 2.046370925992897
2391 1.3531323007980045 0.08515297095660081 -0.41893715373196755 -1.801229986325104 1.5130920009547393 0.9868305414652603 0.0037020826335374046 0.4972433804348096 0.5626487756886533 -0.7782760450456304 -0.8888572007324272 -0.28769809425299175 0.8116030358597243 0.9975489652364006 -0.5148813483964396 0.6271870031183856 0.8150909843031469 -1.136276055645158 -2.5433323092189113 0.67864347847267 -0.1234257310545557 0.10746159727538049 0.9164263001424968 -0.41118379442906694 1.0900845179102832 0.6547657938741739 0.5804333323914826 0.9417340964784493 -0.38638304564029496 1.297092279776203 0.19311370459109098 0.3739127662105095
2514 -0.05771647694807594 0.6766908100884479 0.2596265347872646 -0.6214366990097351 2.653348386816402 1.2933708522807077 -0.06247815305602386 -0.4579400396968247 -0.9143773959221038 1.3504370162816848 0.3653106915756125 1.01811477605164 0.44186389459189196 -0.04683036819600688 -1.3020945866557143 0.6156861444945939 -0.5331937015733834 0.7529982573591506 -1.2515466657307068 1.252197607381558 -0.13771301718532716 -1.0005919599345474 0.34858299298472895 0.25496798072059207 -0.3649113804663361 -1.4844214983039503 0.17464254367834958 1.888215791832761 -0.33910826349933604 0.2271882462877954 -0.20801173388296323 0.3013494327300689
2706 -1.792010886008744 -1.1796079730598827 -0.29799042886653954 -1.1770123297957422 -0.7090970421766978 2.157022371481116 -1.7671511726242286 0.0064213995031336705 -0.5560428932282033 0.8418874569145909 0.5805228517727361 -0.4465889800379934 1.510076091161593 -1.283448238295193 -0.31583603502983426 -1.8404744157316328 -0.10574823100232929 0.0914863761871071 -1.6308667104614603 -0.49132753406360374 -0.7205894297918265 0.9686596379529429 1.9095691429357775 -0.05551577082449351 -1.344127366463332 -0.6710793722625352 -0.033281731883352546 0.5612199813486336 0.9156953016107869 -0.8743314125794636 0.8759683179940285 -1.0040202134283558
2784 -0.9454465558078607 0.3706661965367565 0.11197070272461924 -0.4332126743408803 -0.5412434277145476 -0.3122422811451486 1.0590853447813864 1.3882216242311773 -0.6073696087459906 0.4376962549584815 -1.2122276964355176 1.7004176582454418 0.3368756263594024 0.3431999876157045 0.24434178472469056 -1.4023932895421405 0.9473006607323121 -0.2826733282635002 0.19876064629767062 -1.1915004586069056 -1.439908982318546 -1.1276373512621496 0.09984345446353547 -0.5513911959540747 1.066992192147687 -0.5862185997480771 -0.6774114816481568 0.2932588055980434 -0.12462186196468104 0.03675609668448098 -0.3044221869293881 0.6498299635417855
3133 0.518440030889335 0.45980016936837603 -0.9997488133620627 0.4659763640301059 -0.24243124861681173 -0.7914030345523754 0.7862382287373932 0.18708138711611624 -1.1415508159613532 -0.9834170996641937 1.231295537635227 0.7038190858864168 -1.6051182471022867 0.1389000727853878 0.26969244504961015 0.6773298715264614 0.6444399528969635 1.46844125235757 0.6221927205417126 -0.27897193311215934 -0.7022942313046612 -0.15508460465877247 0.8014927109722908 -0.3065140149847884 -0.061332115572399815 -0.2543499481041329 -0.8231294133289931 -0.5550541362336702 -0.8397034739741986 0.9390932569669334 0.8820937752984844 1.906475970310325
3401 -1.454734298228527 -0.8504559513691452 0.4127677891242353 0.09903270235305899 1.0901518939428054 0.04875094032936992 -1.1392765004658505 -1.240188175783699 -0.3711953303410808 0.8540545518229905 0.38436970583811664 0.5734362472516703 0.5297622913538712 0.029205525722298283 -0.5284108847923824 0.27984603402820124 0.18910185143535282 -0.4392206846520002 0.35144672133375277 1.5724025456136934 -0.2345196500466377 0.18993611373289446 0.4076592761952154 -0.9703033864392673 0.3072295748936592 3.1177578524902207 -1.233777527890146 -0.699895208842774 -1.4921962436629188 -0.85825547377427 1.264321704754556 -0.3949182679761052
3534 1.3736161649553664 -0.7878576769099699 -0.10062271679198828 -0.8580530238772184 1.0718662257110012 -0.9334762299543429 0.614623924708085 0.10817010389752896 -0.057781813793785504 0.4621009234450963 -0.5585978527311377 -0.8479112077534932 -0.8057106074904061 1.0131932069618332 0.5765846354135419 2.1639622711954454 -0.07354417633979296 -0.6931482815575882 -1.715641531928748 0.4587758355631434 0.07432330507385246 0.6628936723658837 -0.1619730336624005 1.2141461383124643 -0.5143926737776271 -0.15806263097275047 0.07439273412013964 0.48197920156309654 0.5745022213422892 1.9718976736483984 -0.612283981559889 -1.2099311712061183
3565 0.18756233471513345 -0.043509749644566845 0.9708941152052133 1.8818671390764725 -1.1885138749578006 -0.23200461716713733 -1.1016077030968354 -1.8635838125176536 -0.04022289786586906 1.1378261063752306 0.744614670074069 -0.19884348964875778 0.40501115791472475 -0.8051606958021452 0.34703013997344756 0.8597250841337011 0.03343020933898178 1.4064528205490106 -1.1957027067334052 0.5801477881833612 0.019153288612589674 0.42021879545660423 -0.19445922560163986 -0.2396098840488669 1.069254840758215 -1.7798511328143292 -0.8660031414786071 -1.4594501554398323 -0.6166714996110955 0.7071612172622146 -1.885099857135927 -0.82857626338952
3685 0.14490466517677228 -0.9100017019963533 -0.6355031934187514 -0.3418349014107706 0.09031258614460468 0.3587056475656117 1.1507547737453605 -0.02561181996886865 -0.6088274744354358 0.865320898611741 -0.35202222406865413 1.339966395714501 0.1188278537774616 0.4154891732228038 -0.21117022492152973 1.015155367290137 0.8402925183443244 -0.644585438936079 1.1365532379689687 1.2137568706709945 0.14920308636818155 0.43846306998291584 -1.651925744691744 1.7773616510421815 1.2774720287683625 0.7435855585129824 -0.03833722744201227 0.25416049188721745 -0.42599991174146234 0.4207852691976231 -1.7302307188783121 -1.2188781172608516
3727 0.5358020646640584 -0.9214888306666542 0.720605852434845 0.6931188162924431 1.0765423803516685 -0.45280290762653547 -0.4038369447389053 -0.744175268141247 1.407380021711739 0.5062730268671296 -0.3378280965358413 0.21409365014766832 -0.9403902310132016 -1.9753164633294198 0.19191673090962744 -1.0927070986554224 0.7259417704233045 1.3285874502471062 1.174470406220428 -0.8845302726185763 0.5044266715121094 0.9718202102757811 -0.3957571272273721 0.047092056095624626 -1.1143199736879417 -1.5587571101049718 0.5395565198265536 -0.4668042012766855 -0.11461170043996957 1.9065127209016965 -0.6116910244697938 0.1556919552649516
3758 0.5318304407380777 -0.726848366019897 -0.12177997135807035 -0.09752107430829354 0.026025825815295202 -0.2204674872579318 0.43965182665870506 0.9591950754943029 0.566854340428888 -0.679670885507171 -1.7042740293251042 -0.035782258027043184 1.5218691543814085 -0.3345898790365014 -0.2969139486934668 -0.3276715480716148 0.475302493013975 -1.1978815249403048 0.8086408597579905 -0.38409311997121565 1.0067369835159594 1.655572045663817 0.03658137180278864 -0.10574182723159625 -1.304141108343562 -1.738396810324735 -0.2075591791835598 -0.619138347299738 0.33715245774403524 0.3293142037488029 -0.21717421021933045 -0.3471663937891297
1096 0.9728108404379966 -2.2550085727561537 -0.06711810252412427 1.0589554607763063 -1.5288772535607698 0.04176681881044507 -0.3126367384007276 0.15301999012204773 -0.6176521652065493 0.029897124413788948 -0.7598691884589676 0.1309499572016901 -0.8256698467804571 1.6724911290416202 -0.8903759216935764 0.32996091646249115 -0.26426777613352975 -0.767148337212898 -0.5785766308663277 0.76317705622299 0.5307856125719981 -0.03828867466463297 0.05396891811706362 -0.5169969943257358 0.017759108058049478 1.7199868651644288 -0.7510643730287665 0.587390968511439 -1.0550412082695226 0.08286205399707819 0.6517603646552481 1.6473032922223279
2101 0.6793830456989541 -1.0818399414550117 -0.4037716700019372 -1.4512381112393702 0.9907144268682294 0.0606379851033242 0.5708241998234472 -0.8861374739864666 -0.28960945539671 -0.1153134785039286 0.0893877435005213 0.9134153291336017 -0.724466335413316 -0.4544599294302233 -1.3199024163989537 -0.8268120239994048 -2.8524222198698133 -1.8241567131268959 0.7632910389071959 -0.7271539363705409 0.5986205721404404 -0.5371920227403172 0.30948498174515937 0.6522397097557924 -0.9883916284208865 0.14099752807523336 0.23204513718374772 -0.6475203100869608 1.8419843107197913 -0.5718515314594307 0.2881040594688948 -2.16471060619243
79 -1.4946847677100152 0.8947123816142165 0.9295002014091933 -0.8788592854868775 0.3368637032411541 -0.6173652283738648 0.901165763665977 -0.14990873653418116 -0.5901075438091382 -0.2602913923321012 0.7045351296047291 0.12215207763557394 -0.06276116755385462 0.45231772822397925 -0.8535310868520203 0.7642439582143183 -0.752614826391462 0.5979022997344837 -1.4426919187345735 2.0406586085713094 0.779859127404613 0.7864636565919824 -0.619677024203589 -1.2284667281346597 0.31264794137841406 -1.3453966123980226 0.012054135717089569 1.568806631379012 0.8295613295805325 -0.5129287901211746 0.0073778066484358595 -0.894073950790885
3 1.6038593931203087 0.7800722900389158 -0.31739334561063204 0.1945723216077409 0.47141973363195966 0.944181810663379 -0.7168939357544928 1.353457614298792 0.08963063043122467 0.45384679176004467 -1.972779266716669 -0.5436182135401804 -0.3218559808250509 -1.1855263621553287 -2.0193768206398315 0.16296416977819853 1.1259363639524338 -0.7868768060899729 0.8840386046253594 -0.18360506235029442 -0.3834464125972184 0.20175560576834717 -2.1256556671923823 -1.0132377026737298 1.5324184490405994 -1.2440956306743658 0.34613287008595683 -1.1270629675707713 -0.10655225571817856 -0.05147591453949835 0.8013528106620057 -0.07830106804626687
460 0.6286488252734198 -0.2727002477535216 1.5002481638679521 0.012738758697238426 -0.23483108770087385 -0.23134164553886066 -0.6719983086600182 0.5220317423208647 -0.45573323474171223 0.6464324722103315 0.000238413710246506 0.6515361365074934 0.6728697722534542 1.0865854365827017 -1.466553557047407 0.10972606446155123 0.10740579562090868 0.7270605218636553 -0.9226347423825929 -0.60689875824843 -0.29514657781296555 1.3487247201364545 -1.1834694267031587 0.837721431878492 0.7744242175614997 1.3345855775511986 -0.9718187766874249 1.226498065375124 -1.5397538531872388 -1.5578930638448043 1.5201953851841212 -0.9996855940102793
541 0.11330807335872373 -0.7837002166183572 0.9054069384300879 1.0620928908204428 -0.32065131751976 0.21464388464128903 0.42443462061712467 0.08758777688488115 -1.288800437399232 -1.9015990851046731 1.5128388353106077 -1.0874571309467025 0.32659987228209686 1.4138692737688014 0.16855988880523878 -0.8051856809582862 2.4586364583903686 0.1119375659710561 0.13415663501550257 -0.08795455226367623 1.082718284680419 1.0514546563577039 0.2773138587545157 -0.15748483317530335 -1.021619992906708 -2.0436719494566487 1.0147617940220814 -0.6071936055147769 0.8816580430179339 1.2707618115870192 0.6640294114365002 -0.8185542812420885
736 -0.38526938880913675 1.1718272738945406 -0.8995630517227663 -1.5272345811452201 1.2839325530152523 -0.4495472057892489 0.3176554805098593 1.1556220494440899 0.586979654614831 -1.0272653071060036 -1.267217628085944 -1.4014530532443001 0.7487224535180862 -0.1776932512029641 -1.0919029552924913 -1.483806664637942 -0.9621591109481048 -0.24408186956036904 -0.274950034152391 -0.07251389556918972 -0.3979175944534867 -0.4248848387251079 -0.6314265025050884 -0.6979671289030998 1.0317655304142734 0.3240835752254489 0.48867231790034915 0.5535342911037509 0.12094139739286389 0.17543528394811736 0.4222508101330576 0.5342718568233455
1117 1.1686009123371859 -0.765338277521039 1.0501364546371785 0.8810818347151965 0.5445029558290622 -1.4540482202598364 -1.5416579701074593 -0.9688757533924176 2.386755400567574 -0.09776127797967987 -0.671866106009359 -0.01792897996252187 -1.1619715539264441 -0.013544751390268445 -0.5151865983705626 0.43741671230938584 0.4122629375131496 -1.533916444047747 1.5928169375091668 -0.5139124795755172 -0.7822716910740092 -0.7716146884648748 0.25240633999006834 -1.1325356763452001 -0.340219301320623 2.245826236176995 -1.9969031695153308 0.7546298025208684 0.4291911533132551 0.9975973759216925 -2.9737720556800467 1.9647087177735403
1119 -1.9393980097120824 -0.6646698208207291 0.7211114887580995 -0.18602115129824315 -0.26451829065608046 -0.37010741308129524 0.6335519827131946 0.5958483856466131 0.3745218295366879 -0.5007858771104432 1.4911058138930455 -0.018654728825458537 -0.24168856612602665 0.8865845782467279 -0.3461480361923124 -1.7967150714083098 -0.29051620893427127 -1.1914210205229026 0.6280986687236138 1.8818891600471561 -0.20031251329785657 0.5720524490712932 1.1812566925283703 -0.05124204701526336 0.5468721855331532 0.1666680556411735 -1.0811802644142348 1.3552538018020384 -0.937841248601527 1.4377426995485394 1.0231177691225632 -0.5761940966054793
1364 -1.1137860162722364 -0.3573723605307089 -0.5555067412900666 -0.37732974727887997 0.5351272179689978 -0.45860009200552027 1.417168372253524 -0.13492482617874857 -1.1286858290258859 0.628477670468961 -0.9313025248357681 -1.1351407262987858 0.16650371317685497 -1.3561562415541906 -0.7562666472764298 -0.8071633592113727 0.06512296256606621 0.07887256521688474 0.03179443323954599 0.6962934826190496 -1.1335022830302353 -0.6314604988576219 1.3815612753080597 1.61448486557161 -0.7666895465126948 0.7026979452718807 2.045692997058402 -1.7130062855621002 0.5222825228885155 0.4504560015516692 -0.03094261570939272 -0.23480175957336544
2010 -0.9273366692064031 0.023239120729980235 0.8602535802182918 -0.835688266946617 0.37473765262561937 -0.3847070917306358 1.1612060063032148 0.11907308102606344 1.0001120928847427 1.1260545051209152 0.9045380817637145 -2.2016586116226606 0.819033360722317 -0.18341704059630046 1.1294697875732087 3.0808110352882885 0.7097042375759444 -1.022491006545816 0.2126757020466003 -0.11312110871203812 -0.6315405843648932 -1.0015127924866016 -0.2662861714085927 -1.089202714841699 1.5390147172153779 -0.7427456345319611 0.8125842917273622 -1.0210024115221599 0.699502245225068 -1.4022960205027772 0.6921788670533023 0.09948459015245564
2029 -0.03812772252031342 -1.7696387630362218 -0.07091529486991911 -1.5256524752941292 -1.893568387721676 -0.6472988113593884 0.08932672507409507 -0.22325132937179618 0.546483597443822 -0.5957182058384026 0.33901358746791677 2.0178026824468045 -0.3410793800312521 -0.1630346495789174 0.3480304697310656 1.2943740451549262 -0.3178749547613613 -1.7661940124302888 -1.463771571528663 -0.7518120786382723 -0.11270211920505752 -0.04236411874828695 1.3021973227407968 -0.4799640292386684 -1.043226348995447 1.5060862093332357 0.6031934440131267 0.11794727099791023 -0.41802712161397576 0.3165995879413003 -1.0669227708446423 1.141899955652906
2236 0.33076011538727573 -1.0977019100406264 -0.6520882226804897 -0.21047211496215557 3.0137570133271043 -2.041807206997345 1.4931010881589668 0.48366027444954557 -1.285583878261512 2.7992439841842383 -0.8120391354141385 0.4129404818515404 -1.1463368478324243 -1.6268215486997344 1.1017053459601376 -0.7950901111448399 0.07196648707218975 1.2439289848432349 0.41324410691062957 0.20752024188127793 -0.7351851418630744 0.43954446642842154 -1.1525878011816808 0.9005384304190526 1.334911290330977 0.2977408069455206 0.17087518145930491 -1.2761851193092617 1.2508514021186112 -0.9987509725727486 -0.492938015902808 1.2459525029778362
3845 -2.1606472335511175 1.5730900295889654 -0.2575324861362417 -1.171510477144469 1.036944749048475 1.1584498279612407 -0.8343060079070741 0.7604075791931678 -1.0031095459205954 1.151996345888258 1.0591741616382493 -1.025379081492149 0.020047875848063692 0.7759243743222805 -0.8772515317401712 -0.7325922507387371 -1.4258912860718767 0.4757367313069439 -1.5932733080353603 0.4012580862161257 0.8027016361228774 0.9487235407235279 -0.584957363985551 -1.2239373961317623 -1.3473026294470836 0.3971062812537808 0.8479982898678825 1.7875509732513197 -1.2342938966849784 0.7564086577860508 -0.5632467368834405 -0.3252621967664215
326 -1.1125368023021083 -0.26973758832815065 0.1150988482098878 0.389712089279115 -1.0253404947496991 0.955698204694778 0.02968986255581474 0.10420637364121776 -0.5176216278281834 1.5454552257621377 -0.494026412567223 -0.3052430637247582 -0.49885643962579623 -0.787173591804935 -0.7430017178440683 0.12086523877915954 0.7547321432687281 0.3353125365656432 0.4882027189026104 0.8891297198626728 0.24524843854402412 -1.2464965349089043 -0.6978079121795508 -0.3330731795118209 1.2697998337068435 -1.5067084711004832 -1.9053324554220492 0.9592073811384015 0.6031811553709817 -0.24989820437618682 0.9007476709910902 -0.30914806848216364
973 0.383005067293453 -1.095835124612838 -0.5275881185586994 0.7290712481726629 1.2268614605691237 -2.5198242571002054 -1.4246611673255474 -1.1646798450638562 2.0078390378432682 -2.3840104328271816 -0.7498933966049005 -0.7147519825680809 -0.9162581271014336 1.6521867363038245 -0.035029133239766884 -0.19117777564927152 -0.7514215179595961 2.327547337508756 1.2483365971457734 0.8500447069548056 1.1263278016697587 0.4792368470454166 1.8010238709655408 -1.4252002580669048 -0.7687020709776695 -0.5613291010797513 0.03793332296914535 0.505131733199711 -0.6764966305561363 0.608691497384089 0.05500160439371415 0.2975383459139721
2232 -0.5889399960219293 0.7954853809913628 0.15999233254173686 1.7328486401403467 0.03255683763029072 -0.18514364940095923 0.9834573943084994 -1.145368105065286 -0.18355529725269976 -0.7202834943744044 0.540546848673328 -0.021035416632953597 -0.294633404825627 -1.3008811267975502 2.041498747422483 -1.052034717372518 0.010594890860622012 0.562646870448411 -0.2911307097819078 -0.4501245575189056 -1.070858303981893 0.9745613244566576 -0.7834314634292975 0.6359296582395726 -0.2661913721303216 0.8364058723950873 -1.9680600210418626 -1.7935452445034328 -0.36235895321399975 -0.012478456326265422 -0.08781724855282964 -0.23066331828579065
2517 0.5308612378414 -1.9603959357831235 -1.0780839239981104 0.16231538612619342 0.21173407192666766 -2.577272530956743 -0.1480464084700902 0.9548391182162884 -1.1690824334911778 -0.8044652165541475 -0.7522408111744918 2.1018527797836644 0.3574204017423716 0.013431132734119333 -0.34751981886480665 -1.3936973672097879 1.191323981660678 1.1915113515194824 0.1571883168372066 -0.26572676867214984 -0.9047041110965305 -1.722439575083747 -1.9049558398122302 -0.04137632445987616 -1.568574580524289 -1.6924921000016184 0.00971050914814238 0.07746860285337978 -0.41644461960545204 -1.4162646815341358 -0.8263589412588145 0.33852653869926014
2578 0.32834344396616943 0.36168298972806495 0.819101214741009 -0.16894506421962963 0.638408246368967 0.4783099671157198 0.7706668133431621 0.43014898827459436 1.7419226168211681 0.7039532266142428 1.2463489790343019 -0.24957370745852897 1.3891181316297527 -0.7897601353640957 1.797607877256674 0.7644828459357066 -0.28071302659156805 1.3009542626066182 -1.9279921585764173 0.8143220416054949 -1.2563288271341382 1.1093978516952956 0.8562874710061923 -2.109420915097394 -0.27104768173103233 -0.8012986519193367 -1.2769951200071767 0.19811750502141195 2.3700330941157794 1.1468897067604407 -0.6778733889003896 0.034061456501641996
24 -0.687946825096215 -0.21805162579233678 0.672555242584832 0.8817698719357013 0.30391380260837214 0.2265548769063703 1.2626826221612437 1.4651971885018842 -0.7908521724167257 -0.5550298500955704 0.4133818924058863 -1.8275715450939598 0.6071067397263994 -0.7575121635338425 -0.36404384833241044 -0.773375263590293 -1.1912685306156179 -0.3862977845841711 1.7735553342124948 -0.35565614429159187 -0.10162234868596172 -1.6857492463447292 -0.5619618133061723 0.006906861323509969 -0.6141394585124922 -0.3211198392923275 -0.4418871110981609 -1.1226780946049741 -0.7846672214016991 -0.10387918918947835 -0.4613156511198687 0.47139938162936024
228 -0.5624345238705131 -0.9028183503957156 0.37137521014926445 -0.37777113079815416 -0.25560443989189974 -0.1051654123212196 2.173330024868422 0.7165674801331866 -0.6537033366279038 -1.3070780630137375 1.210317152268151 -2.7366620693215453 -0.10163051778489854 -0.5188042191196598 -1.9355391389891343 0.40932078140288 -0.4151559808439466 1.3111166514281443 0.33662597866804606 0.7437740396882037 -1.9559005734552461 -0.5597789006806627 -1.0395866061220684 -1.36332041337849 -0.6917096200086759 0.48350721127380714 0.43480783714663607 1.9827551285300886 0.7206158260040901 -1.894139062430816 -0.47297777918559736 0.9407955110107774
409 1.0279093181944412 -0.08447455067708212 0.4187627739591146 1.2856073333858031 -0.06537574556301282 1.032540899655237 0.40171896724657186 -0.609244138747529 1.134640398863109 0.7703447916604206 -1.535203671544146 0.4144152775416858 0.6720867685612048 -0.3089764363506975 -0.3917480117274387 -0.530782307683337 1.8103538608464655 0.12889221838455472 0.6102561735971501 0.26618419260570964 1.9163715834941752 -0.3304157563096991 1.0881649641230877 -2.0098997900865085 0.9347559588399149 0.9907504616748641 -0.8832752466038404 -0.15042653608039305 0.3879932050576113 0.08586086950858256 -2.066305103885743 -2.672255517554947
558 -2.2245544647191426 -0.9487566078149537 1.1989211691326047 1.74598282040876 0.7372057874544576 -0.8893548867480706 0.40901413222569494 1.5860798774787233 0.016406965418577703 1.6258456451321301 -0.469372548474778 -0.5863694795697707 -0.23348839567827945 0.4821550783995084 1.704600479732596 0.15009267438191684 1.6034323081053405 -1.5138716869272242 -1.5861947107975545 1.4449538363199945 -0.7634173890368289 0.07718124286612951 -0.25443124467453027 0.06424712118011683 0.9325516938777272 0.483289192265315 -0.5740831366512528 0.07848649714898003 -0.7554691005224264 -0.38821670596718183 0.5988945982230975 0.9335190410569603
732 1.5794837244920719 -0.4581408131543426 0.14874447029053164 -1.1155461245911658 -0.7353565760069338 0.4111293714913137 -0.6043593330313461 1.1717189741170118 0.0002807936345217681 0.15670961546250792 0.15247873780780039 0.5622938251458626 -0.35884182604851345 0.07311956450896331 0.599372369249265 1.5758487215519055 -0.9319293542916616 0.982675842210348 0.8504472772370374 1.7541752686432543 0.7999119835422922 0.8311454849686343 1.2777046379586896 0.13782304488493063 -1.3054499924461849 -0.8655118103798592 0.07535387113166131 -1.202297745651822 -0.8112347927474627 -0.6114330559762481 0.4106802540213991 -1.1936140423380386
776 1.4199137270495055 1.3199840474580602 -0.3781797249597084 0.2619702788797655 1.8439037820313995 0.6903706702903303 0.21368102356187324 1.0470704168878713 -1.5678962623594306 -0.2607026182171292 -0.6175022840649076 -0.005301391645676268 -0.6428759994637481 -0.8531422512055314 -1.4445119065017746 0.29081412509910753 -0.08216733041311798 0.6860782074568235 2.499356739238635 -1.706885590183313 0.5075834693611987 -1.3862167571774313 -1.3485420545136553 0.13472431330194273 0.03711721471816516 0.4699890126425867 0.3197171720172455 -2.2048045324538124 -1.572028481304618 1.1287562038249939 0.7763011161525254 0.1418640950960548
864 0.4065967188978889 0.1743213610034736 0.4320990767150598 0.4958029245959821 1.4185095985934615 -0.6205236135426782 0.35669879260209786 1.076846153938257 -1.2607628117930398 1.322230407632766 -1.4174701180194924 0.1456604472751473 0.0630247748074745 1.3282538329966365 -0.4853357134539364 2.206468728635394 -0.9498149135443529 -0.1620575252940741 -1.3036858291778717 0.9365559562101854 1.708140783497464 0.9217808859015406 0.8542089837273787 0.2698681269725976 -0.665981264259064 2.4014264486626047 0.918544158852146 -1.3184555026571632 -1.3811827559650105 1.0192982387132548 -0.8475965815808056 0.2216152518604802
933 -0.9356824844775461 1.3076367136939433 -0.17776848969382308 0.22239088238940524 1.822507834697759 -1.4684069417894996 0.1534742898037196 0.2345039177433522 1.2197141482134277 -0.20227824046479478 -0.8300817734030675 -1.1385809074264674 1.458551858742668 0.10475388554231144 -0.14154669132219197 1.1822874208912237 0.2688153163823021 -0.21919833215840823 -0.11947555948998334 -0.8013639871717922 1.3542484555736833 0.3722603798656538 1.1091019612455024 0.5028111241173586 -1.631128454865728 1.4678948969922212 1.0224863202315795 2.4184036551724652 0.0070753416634778896 0.07504128240274288 0.5561993815248557 0.4097582140092598
939 -0.41581576483667493 0.30614803177343153 0.8868266947139922 0.43703313745958666 -2.005444855420771 -1.068413175673857 -0.1895553683111714 -0.26233112976712564 -1.0167286938677416 -0.4916130368871013 -1.2858889743696205 -0.245994298876481 -0.5808729545361329 0.23231895820104093 2.230020260657485 -0.08879472310969022 0.10343227493691133 0.3042217513496848 1.658249825572209 1.6499685307480862 -0.28285459185708084 -1.467865995207721 -1.166705349976006 -0.9707163682112713 -1.0562521919616417 -2.397866839376178 -0.21572261500584594 0.07074632546473145 -0.9625367269246047 1.3872238645799833 -1.1653756996701916 0.30117503215655006
1037 -0.7503922409470515 -0.12104330798450577 1.2921785093517018 0.9215363915612171 -0.6999634769157979 1.2338668296806203 -0.07786460195115341 0.758282043103478 2.0928420165861814 -0.2873518372919761 0.26561066136350686 0.04607598334830524 1.5389531226183948 0.5602058502364388 -1.0236284318959983 -2.4961973753635522 -1.586763232481094 0.25515814142857646 -1.723930810020962 -1.1373255364042187 -0.8321405900038167 -0.7946033831787631 1.2762432296254687 -1.0904581229939787 -1.1369926292119643 1.3932289867106773 0.8506378917710155 0.002346227220991433 -0.8752379668185152 0.25840503262792625 0.4363137970383105 -0.0980745659250907
1092 -1.9102659045970933 -0.7895928984413527 0.06552632329812554 -1.259304929862568 0.24568284263700493 -1.3774647343904827 1.215720504652513 -0.15849074034669638 -0.8472851191435756 0.5021354471556666 0.0389414834035046 1.141757962001962 -0.07560040485011428 -0.2874316364220252 0.7785888128724437 0.2470013554752895 3.268622247664078 0.18111075335647323 -0.3374870740096359 0.08385519636164998 1.6401695161941066 0.9112455321132383 -0.23706421115775947 -1.0293322626324 1.35674621351465 0.04148894579096568 0.3430408068887055 0.030019325873440438 0.3041205746683226 -0.8078447566673858 0.26299525276053665 -0.7111673739586353
1176 -1.17160450683822 -0.14860671923678995 -1.636466863007222 -1.009587502524554 0.4063340253530349 -0.21324796184219533 -0.2210022439529272 -0.6521528281103234 1.269633161361392 0.42574038437990525 0.2785769430313218 0.5506186698976624 -0.943033248704924 -0.05256342726566301 -0.6260722014248415 0.27902332420828346 0.07548399669047956 1.0106574485451516 -1.430138680602345 0.622484254425732 -0.3768336597400464 1.0219573455823168 -0.3218716225702488 1.2673505855441014 0.02436957600393901 0.16530520551714192 0.8597691381830765 -1.009814124049578 -0.8884755539920516 -0.682151223063876 -0.10507691642554633 -0.06774260976281865
1313 0.6490671922332353 0.3012322797976198 -0.2222360117473313 1.5530762458027323 -0.12510220813940032 2.3787336856272563 -1.4380935248372129 0.9111530673275312 0.253937406043147 -1.7180636014310158 1.2282824478910923 -1.1043250366370123 -0.8136077273345008 -1.6249974014652866 0.019212760813347853 0.42192937874009195 0.560831966159554 -1.7778279550210496 -2.6484696352133406 -1.136582783224215 1.0120074299693562 0.4734654387868823 -0.12074691207880188 -0.6546879881672872 -2.2080985353994156 -0.24178391601076538 -0.35431441484465614 0.40923520928492213 -0.2108801866101625 0.4072767511898134 -1.102765004102208 0.6388348472175309
1478 1.1798347022762259 0.22909142962445797 0.5170283392708179 0.22307231393854968 0.6763008789189119 -0.5866845093563887 0.5283648454278901 0.48273101554260056 -1.1825137133411676 -1.2667003571519018 -0.5376410447001454 -0.895655836981306 0.2080717565234426 0.18035347361796672 -0.6155769225762112 0.6825377179647965 -0.815938295406077 -0.9851409988842538 0.05703502724201541 -1.3057050052701105 -1.8061130101167044 -0.30699313552042434 -0.10080940887660671 -1.249622059765744 -0.9081795321960917 1.2909013637244107 0.7393166885527864 -0.43896207899635964 1.3757297939362192 -0.025557058398770136 -0.27855832931015806 0.7327785656946061
1499 1.8969290997796553 -0.6763564458543859 -0.45481836161538663 -0.8216299017546389 -1.0179417330564682 0.2900127620170882 -1.203307765619955 1.4629832639371996 -0.18776870809533786 1.0201215175398093 0.5363423604771257 1.0944638598290208 -1.2645790447277443 -1.9473829080697853 -1.5395690632827956 0.08266888067409975 -0.45553195327527535 -1.523055722096838 0.3650455290987456 0.18172761938047102 0.675189767315872 0.7469844897500918 0.1107084315909928 -0.7328300762202437 -0.12402914014538538 0.7943647007391968 0.2573240067483519 1.0461162068445613 -0.6125213606749642 -0.846788723589422 -2.3890098160273254 0.39280787153651103
1596 -0.4025841340271076 -0.1347369024397118 0.7809243980844879 1.0302913477639852 1.240653599975918 0.19515704324971098 0.528335707381258 -0.08453160420210734 -1.6273051647268921 -0.09955352046440857 0.3322665007447347 0.19569763422134873 1.7066900154818363 2.520843958981572 1.023084878571151 -1.4906463809093768 -0.38616689091141126 1.9307909286599576 0.036514978846818154 0.8679324836958868 -0.11626117984863481 0.46348151272417 0.11060349621425047 -0.8326401874688422 0.7429003041525286 1.396421923621809 -0.9137452941116095 -1.289358507903887 1.4229620263726186 0.6067423862818919 1.441816382849174 0.013418392802201952
1608 -0.7243635709774331 -0.2223716462290738 2.2614091658974584 0.7678154377287215 -1.4262354170439215 1.5607219451277956 -0.7622934369068026 -0.9781352641602321 1.5563066150312213 1.1417303064807642 0.09581566171615244 1.0842409294578774 -1.118958358048464 -0.9180242676700113 0.1849425426658204 -0.7741956316822209 0.25417113364130783 1.3650076203823518 0.42310780402055764 -0.4180453814744055 1.8896053404123991 -1.2981295153436727 -1.4218458627066841 -1.1097172644938071 0.718120194815489 0.7634697275170199 0.31973993246117 -0.7457073549431149 0.7776936447810914 0.7189396857730418 0.2343462433425221 -0.2636370051540666
1621 0.0014871548858955382 0.5529609325280767 1.494100015120419 -0.31007509293873037 -1.603406837026984 -0.9589122890319287 0.3736842065452819 0.32912243987184264 -0.38486806696406095 -0.580455833190633 0.4754992210859317 -1.0319070371472037 -1.3871632090428319 -0.676502587175496 -0.8477327214069359 -0.5776362076787451 -0.5381666885376959 -0.18630851183521685 -0.38185296402327484 -0.03486678979123657 -0.3557560336049447 0.28662728703936186 -0.6909221221013478 -0.5511845203259832 -0.13914388365308694 1.0304322570420459 -1.2622832098569094 1.1840142131812927 0.24553321149966356 0.2634147193091479 1.5180508831995547 0.5281277425005413
1637 0.6028419680064885 1.7874147123102644 1.7441320423804643 -0.04054750377008604 -0.44543028121058287 -0.8127395797643869 0.4426534468166753 0.051467460209832734 -1.6737935563375326 -0.8867261934377537 -1.572267333802361 1.2219465465001957 0.1965968416246475 1.3001866678569274 -1.108851216369773 0.3923502481740947 0.2683873541819196 0.2643933387707018 -2.788839893666094 1.7410967738083274 -0.02776112620957878 -1.4199844739654555 0.2753384718871629 1.7451341129180444 -0.5066492593214367 0.3729755068232312 -1.2858473055999184 -1.9433252721890775 -1.4536209040078842 1.490804690701629 0.07864821449440329 1.8537794884751004
1717 -0.7825068011233082 -2.1781663692599906 0.2728375642945219 -0.3825431183629079 1.0601494318188964 -0.12384383789342931 0.8881640592260661 -0.44744575486577276 -1.1969290415635512 0.3712447369428754 -2.5553959447535073 -0.3740554742279737 -1.2892336860524365 -1.1138217658012965 0.3688604976554791 -1.6550466571448694 0.099619592584866 -1.6763076736399316 0.7491930659796557 1.2911583516372016 -0.31371990257696886 -0.5773028062569925 -0.07101815870261566 1.02735756679248 -2.4725710815932493 0.07272093535971351 0.080671565533913 -0.28717260005527456 -1.50183055639282 0.6440852395829814 1.6284429956501179 -0.2502199495711483
1788 0.0977292447891096 0.6068840785135542 -0.4896648769309271 -0.3383545060037888 0.4291833782207816 1.3287222375138124 1.0650053922978333 -0.5091127533029152 -0.8336218964575628 0.7641949705010802 -0.8331040383866471 -1.8367228695928748 1.8825861857828607 0.30969343078790945 0.2598215927739124 0.8720936339282477 -0.2461362816999976 0.24170796340917103 0.17074785801697995 -1.2687599437943102 -0.465214792483865 -1.8238692089166573 -0.7720475088813249 -1.3973203733216712 -1.1188034715371622 0.14189959109812875 0.3742841262058637 0.710381179265625 0.023619476905080924 0.3520779300740775 -0.6877046192193809 -2.016681821513733
1919 0.19147749173512169 -1.033689287505408 -1.1711478705982072 0.677968264500429 -1.4963668405484212 1.0558610853963846 0.4642476569411584 -1.2966906799100446 2.5599870054626317 0.45903235312823504 0.24493634361389102 0.08170871542583719 -0.9556109549659927 -1.558815194614203 -0.7394245390996983 -0.7577430644421883 -0.36481285431766947 0.19844228978177786 0.47934105918474457 -0.7538180277773148 -1.1985545780330438 0.3166529702849311 1.8581166239604696 0.4665119043123924 0.6185808313578037 1.57897139625934 1.0070590994210684 0.6045035166062177 -1.435331022828707 -0.28945327203601684 -0.2891676132670609 -0.44898233368647567
2004 0.4373189501074869 0.6502856049795435 0.4373807811755682 -0.0067628971320185605 -0.20314893259796382 0.45296058566684133 -0.8993126988185491 -0.19115669215427464 -0.8477393078545915 0.526942660015803 0.2246036352810719 -0.36078932238283673 -0.14326552041420626 0.7034112510412533 1.0041972550430605 0.14439682430691667 -0.1217220747317346 -0.12175648252480775 0.4598615459620151 -0.09498923816115173 0.19567437613028904 -0.5880206042411441 0.5649370033316956 -1.7604354311246966 0.19737837095983277 -0.5949321471599851 1.3545953070859258 -0.09991459951347216 0.4722919520152927 -0.42554614461487655 -0.24550719546963734 -0.5780047459024761
