3906 32
729 -0.6443011267427896 0.9504780507892137 2.3147715117798655 -0.652184767436876 -0.271071367809735 -0.3595018880752469 0.7920296918806622 0.49895273847570326 0.3059307739262025 1.3207569135953412 -0.7121538630442753 -1.1242658787605528 0.14102480886909527 1.3222041394363553 -0.17048827515002993 2.4088914411589517 0.12952870164585872 1.4979608158005258 0.5017427141132433 0.83452182687035 0.022262011140879483 -0.721689704496919 -1.598147455054313 2.561998269483708 0.03289141072268999 0.41482511717591747 0.9439327433516431 -0.08283623379585917 -0.2835974887503492 -0.2519681034963651 0.10364988253150395 -0.6701223983932831
1 -0.8639855323570774 0.4950837067775837 0.11165845482466467 -0.3043144391201846 1.0311824075033167 0.017860533271443 0.9485588365631734 1.5933347913792348 0.533714068293807 2.6540465486853524 1.0573612346627044 -0.8873639422225756 -0.43901044897014385 -2.255328858857086 -0.475248202745501 0.6524857028410094 0.44738190922336113 -0.8868242601615841 0.5225348945260029 -0.03729293376329622 0.9550232798746402 1.447329656252237 0.15156526715518523 -0.9915148260098245 -1.9607064608955145 -1.1173826873131365 -0.20310311591244928 -0.44775680341786117 1.2375983534367743 -0.1034541755040399 -1.0572070037198906 0.21976304797650115
335 -2.792838367505108 1.3894390088676198 0.3279766441691048 -0.30781653056238756 -1.4502757785149085 -0.16504542948129944 1.1981281999010498 -0.30012556723273026 -0.05638804025432929 0.4419586484090251 -0.18386663517996193 0.5281404484437483 1.0041581492835439 0.3706491564875411 0.7543326549683683 1.1279187705160563 2.534412026099977 -0.6249978472490144 -0.9791781699629996 -0.7167768703504003 0.07838779661573472 0.37349376920849797 -2.479367948168227 -0.26411773056538035 1.257323324694999 0.490871860432246 0.6114137163211201 0.572735846903098 -0.8133444363466944 1.3069479991769586 0.4787779354810804 -0.22082146369230576
585 0.6206760410451823 -0.5202342625702918 -1.2757800565680188 0.6364348516999535 -1.272014636705252 1.5787950188118378 -0.40575686494656343 -0.7458872926748669 0.019526400759988544 0.022683299074633595 0.36503650985828373 1.2770820585024467 -1.84571616638071 -1.2461100022588407 1.4774887146793354 -1.121879370849382 0.8344901953835708 -0.2216987906179165 -0.11142572477272158 0.07188942871515927 -0.7819872878226076 -0.03587986721402836 0.5939516069112053 0.9490846208337878 -0.775612883286684 -0.4639183588448181 -0.9052516844312235 1.4774564898694664 -0.0017960270562807923 -1.6382051126035564 0.5194719032122985 0.6005324057712808
674 -0.47769643838935893 -1.9514294027073076 -0.8356896030189835 0.7448770098817967 -0.3471618783258257 -0.8108561845577753 0.45901727158849426 1.0882609897062012 0.3027664512681594 -0.6582828199787815 0.7792992202300759 1.6858646018554073 1.0006661198400615 0.05457922156589491 -0.289459975448991 0.24184460333321356 -1.443659769787384 -0.35779580128475214 -0.7396685350084186 0.6454811525339664 -0.7717443868938936 0.67658160087316 -0.7801349633396983 -0.816941254171807 -0.04218883431044504 -1.0445681688051371 -0.3998747081031249 0.15028917519550752 1.4614637169481535 -0.7005985870152286 1.9082500380245246 0.22598127887116862
3178 0.027162922318523578 -2.402060380960883 -0.7167935947228103 0.40187775244270146 0.6228487994342674 -0.1756039638293382 1.2273293242620382 1.4446609192486646 1.043999912076359 -1.1294450421553095 -0.02911499173296424 -1.5808885147826444 -0.5435462555757705 -0.4985613942168569 -0.8971973419470847 -0.7941250189268274 0.5492097540941879 -0.8382617289833819 1.6263100746907977 1.1167239124619723 -1.8791475116853606 0.19142706087230268 0.12370985606846982 1.2784288854774652 1.442265108617637 0.9018230767526084 -1.3089092769911588 0.5816385413048198 -0.9527814130490281 1.678278626322755 -1.0681499697365222 0.9596900299584371
3715 -1.1856057353177438 0.908976870674761 0.7706577907897326 -0.45711656731490924 0.687099233190373 0.7864125329489876 0.20248049794766573 0.8630150422927483 0.7608823224948212 -0.30795907891876184 -1.7677450561148125 -0.10502755030591186 0.12510767875360615 -0.33563869443313865 -1.6059509532308671 0.9680056342472341 -0.00887680450727998 -0.3103216916962817 -0.49136767643764606 0.5309028920667985 0.12534268878847576 0.24057339193061436 0.562402356622437 -0.0190033287860752 0.6392921909077982 1.0344612460960148 -0.12563294994438104 1.0122305841348753 -0.19414832572263754 1.1596889082021216 -1.4890224786045814 -1.942787955978102
50 -1.5313039559430541 0.8138020772936962 0.9048736142894523 1.3184176368494593 0.6175412617032788 -0.9506326163805252 0.42200356491410523 -2.620818020445113 0.957766874202965 1.3019088961179777 -1.2625584986780891 0.29998183662660033 -0.1491793717333241 -0.0902137838742869 0.380073296639181 -0.9100849506630426 0.12022936362447098 -0.37728807273401666 -0.24260661006137582 -0.5293437683327341 -0.8989862531544089 -0.6183944476961662 -1.9383397965689002 -1.1104926663534107 0.27744836361015834 0.04834278743561544 -1.2240916947030736 -0.1753781004575018 -0.9658127655444293 0.4350888340885548 -0.7858409360487449 -1.8966993306265092
193 0.005665927787021053 0.016652859771700775 -0.3493275888285269 -0.8084388522896819 0.05627162589044434 -0.9782019363633767 -1.150217726314317 0.6576205084375457 -0.6705339358745068 1.200052786983749 -0.7607205131777914 -0.1630388325453296 -1.0525961180698227 -0.18391854553374168 0.11688679643612065 0.8445815806552062 -1.0249277460589885 0.7280319337290416 0.17346813214037057 1.0310076585598016 0.37746773053417143 0.895599865436823 -1.46384555631942 -0.17001127256406162 1.0385500324479466 0.23758548733607368 -0.6613659270460363 -0.9255745466688118 0.1837230166358436 -0.528636226538118 0.3498280185739133 0.5774938944409361
212 0.019445509021082545 0.01864108506679219 1.0928946525308767 -2.069758374847853 -1.4737506526738506 -0.21701164255474012 0.9258285078242874 0.07121068661874466 0.47825857442421793 -0.13705986229432848 0.1932124900803727 1.5189620408531244 -0.8294535599652298 -0.5089631406000789 -1.056889149258218 -0.5414817999956015 0.40659285115782334 0.0678724102935559 0.7564880286871171 0.3989839031525691 -1.6024521688557605 -2.088889117740479 0.30382559757000055 -0.8720086820388302 1.288110752194563 -0.9869855204049643 0.18615083738807633 -0.13459871943738913 -1.9331443124499061 0.010531651075821618 -1.6655767470277716 -0.45230213258971624
222 -0.24834498651790732 -0.3854104442707318 0.10257662948643936 0.6034097047771547 1.3981111321379514 -1.9440353833769548 0.9500881789572719 0.8956912905372908 -0.5195875601240587 0.5453416640035572 0.4056012308156175 0.05280861887038315 0.8693556085890464 0.00330811226827328 0.41641861203651065 -0.9442312999429616 0.18054326730125886 1.5337510607082638 -0.1448072170152554 -1.413060214785836 -1.0660122864545634 -0.19525623146038465 0.9492507755596804 0.4714975438675473 1.4927934064441744 0.08863427671393438 0.8347214013732739 -0.0973051900947035 -0.3137543404428706 -0.5914094393343506 0.12012647293818648 -1.0893239919674575
847 0.37891776176201847 -0.16052191863037626 -0.22281858961355247 -1.8535270422222927 1.2399345956115864 0.6597340540709097 -0.054603760909907664 -1.6398403342832877 0.6304903844053491 0.6681235834259083 0.2249606029979589 0.24097836535519182 -0.49653228050809156 0.8934854814087885 -1.6679090376886445 -1.2411912316253895 0.2825301452578341 -2.5624059959897036 0.6284819421900154 1.6736729735641898 0.8638289469204731 0.4482271544381624 0.6983605079996026 -0.8841715360391025 -1.5588239722493973 -0.06427768001505187 0.7291192327022709 -1.500599111171683 -0.13264948276658212 -0.46198316987022653 0.401361400774088 0.9964748990620724
924 -1.474277042127492 0.33243598749381753 -0.8551307259954312 -0.24927027531162235 -0.6230065524935257 2.97209499243036 -0.5225303678903542 -1.1074436266949101 -1.0497854483172238 1.3095230062040428 0.17015260648245856 -0.7995330713243095 -0.22681258847591781 1.2089724565848425 -0.3393305186337611 1.6280084881415107 -0.6890944882191262 -1.1638180727164407 0.96628845032953 1.7448933495531016 -0.03670741366453979 -2.025934589817632 0.7079360316605324 0.7145564894824269 1.4063912550456739 1.08661974706155 1.8343991871492231 1.8814442873645874 0.12055516505412131 0.5349874626182765 -0.36908988491112893 0.6657374392267522
961 -1.2580253355100737 1.422343540476886 -0.21014084130969246 0.06647327623860724 -2.5262569274641464 -1.651193907217112 -0.4196100734871135 0.5577836514498535 0.04356913042269617 2.0932641492061514 1.500547683218048 -1.1165302238554407 -0.7833141494667131 -0.8956027156271239 0.22200914581700673 -0.2587851894139736 0.34873488522123386 -0.19370748025825593 -0.8504352093095885 0.3203263528452612 -0.23134234824886862 -0.6980705195956257 0.06853709350066522 -1.1890152116193275 -0.9078361944682339 -1.6808024405405486 0.9079334956233875 -0.2654366240824568 -0.9241462904207197 -1.3503414570875043 -1.1337470221328174 0.02194939550447575
995 -0.2158284771395767 -0.7202234559746862 0.6303231015679608 1.72606482937207 1.1120922862012252 -3.0256692942175487 0.5103582140081491 -0.992806423857292 -0.5446089050439503 -0.9859218052737299 0.6606482637525627 0.9447261634596769 1.5760450017396022 0.7617023011154525 -0.35687196370578533 1.758699398767414 0.015095476745498857 0.4419364634443427 -0.0037243242408625905 -1.6720531781565175 0.0903015265379068 -1.494050552530767 0.6245649421112734 0.6445894341590047 -0.6787383990550662 -0.22695460140957557 0.029690771217411985 -0.05082113531524479 1.6895572828986176 -0.3546962933042482 -0.40121621185492423 -0.7863113182683107
1046 0.14073435654653652 0.6439277042455511 0.8303015388912847 -0.7609532297964496 0.1953145517373045 -2.0436658911276044 -0.4512625876044683 -0.6524478732653505 0.3096240204148406 -1.225471951176517 0.42620999043514096 -0.7885826269611605 -0.5777081056911791 0.8753135665787738 -0.0983593901635909 0.4983796948303199 0.7228157044202743 -0.2745001129746265 -1.5366454400197822 -1.9993670653780036 -0.2308905966794567 -1.5842935690786186 1.320148294936596 1.2190670189423547 1.7570181211528069 0.5968175531686668 0.8124291713077293 -0.13157094216787482 -1.0964239109304308 -1.336047739273013 -0.513358138971177 0.3834493199999224
1142 0.8755319651222047 0.9832406483572547 0.7280022265470605 0.7558799264079648 2.04124651827637 -0.8288232237872205 2.2415273866437055 -0.9170136763401497 1.014740882418828 0.17935305911340532 -0.05057699419209412 0.7964809213084317 0.4805049886195179 0.58062006465293 -0.9226218478824896 0.10387862460513451 1.3933499475719968 0.20634502139409439 -0.07151716213256284 -2.318904354753963 -1.1705244484356185 2.1054628857194237 0.32107740740407936 -0.0815469282151947 1.2506436570227881 0.34494218242697866 -0.45515631541570556 0.9618420908576528 -0.74001260911718 0.16627005143414697 -0.6568511896623871 -1.0156234694179482
1202 -0.0708846357890185 -0.249465716642043 -0.9113267216977428 -0.5033495206517788 0.9430933524758646 0.8685365073970684 1.0913101950414472 -0.2293028032081671 -0.7380807665775153 0.027276093731294145 0.7191517522879493 1.1708233082160373 0.4174752214003318 1.2614279301211615 -0.48956641664016154 -2.446980523502572 -0.257567920537504 0.5874665339192909 -0.4033872712286558 0.642037685902153 0.6152391555471914 -0.579703915264858 0.8658213658618439 -1.295657904265275 -0.0414962430480315 0.540325622283743 -0.29299087481612357 -0.5847696197892434 0.43550112697059407 -1.1390001300044539 -0.1030278018936302 0.5631236049399867
1236 -2.602532720508703 -0.48432713686320256 -1.2497890105327485 0.6424311154000423 -0.3716859274096272 1.4749513345309075 -1.2624259625841225 -0.29278935094757524 -0.762818140072798 -0.04113753746385067 1.210470256308163 -1.1505159937712321 1.1879321993085297 0.6163284965033907 -0.11280651068795032 0.015434905187817234 -0.40527097522312455 -0.06099480364179277 0.8360517747404442 0.1343913557797911 1.4556763473428462 -0.4949737347483428 -0.2621135865570043 2.005995928846795 0.9642402457338168 -0.20130548431724096 -0.8578383688866213 -0.07821035608934308 -0.2697107665992936 0.7137955562836722 -0.231496381463063 0.3884910440555369
1294 -0.05717956146012505 -1.5591230238495475 0.9374871749173753 -1.496998414164883 1.8925364681799994 1.214458806600838 -1.152370929428127 1.0380544555560034 -0.37749480261911006 -0.5286210351788351 0.28884170602761744 -1.367603585522216 -0.03776270637082458 -1.0759846978082626 -0.787962005355566 -1.3901181827743903 -0.10050310814741116 0.3537883894762658 0.7343333057248805 0.689137625627023 1.044392180541962 -2.88176201536119 1.4299213218565137 -0.4385816004831025 -0.032481010387073336 1.0163090728691013 0.1640779841024598 0.8488013663850164 -0.20115202586384617 -0.48663083181252104 -1.337863678199607 -0.7486998413659443
1432 -0.27383414732137323 1.1824753829343626 1.9300608089194635 -0.2840759321153109 -1.4657699879942983 -2.2365361919723683 -0.8247580566173792 -0.2176614107918465 -1.6227989146196553 -0.37476410050164655 -0.15968887739698082 -1.4780646331561105 -1.5734457245960385 -0.05842120266495264 1.1384097630879386 -0.6551536295315598 0.5493222024391607 0.6693722796853842 0.8295104635493629 1.5412497170580595 0.8904764201770895 0.7685702245217153 -0.272568268236079 -0.6114904325984464 -0.19247742564302123 -1.1902001456727083 0.09186634119449605 -1.3745871573078141 -1.361430332234616 -0.16723125849923734 -0.575038029256256 0.062106768174211624
1489 -0.1820183223488856 0.15846032007970284 2.7446946004604853 -1.6762012996003204 -0.44292713492584285 0.054103861866760465 -0.4102927640370345 -0.12027754172907022 -0.3612065324972039 -1.0936476106483206 -0.5612649032397509 -0.32192568108327263 1.4355600300666884 0.585136554018343 0.13168221437508898 -0.1304632300658508 -0.7565248625926234 -0.12461136225873733 1.2511683821731927 2.01533264619601 -0.6099061410256083 0.26799674058561945 0.42554013153233394 1.58312683721361 0.9867771929310261 1.6839215080331198 -0.9667091451832602 -1.2328028159579438 -0.010045677612382035 -1.356592201596348 -0.4295425847891651 1.0556515309245436
1514 -0.25760531084080934 -0.44488434741297106 0.04465315880600186 -0.1049263553291107 1.5711603540131498 -0.32354473367624853 -0.35732371313914424 1.0564057966545917 0.29270253732255613 0.01952755560982421 0.824580957090307 -0.32213007096860274 -0.5786521185900737 -0.8795099697345566 -0.6962870710193215 0.9619349367643534 -0.7257162667418614 -1.3319982049890455 -0.6166482197209824 -0.33224378898460455 -1.1027730188102254 0.1839946433455096 -1.3126644869890376 0.9619580330484727 -0.8161948571426553 -0.8771715660404601 -1.5409113247505888 -0.4908697567434899 -0.42261239832918057 0.7443813320061381 -0.8576135329376998 1.4782942016988516
1552 0.7978425749650788 -0.14062957687308802 1.3258407224754605 -2.597086463625039 0.3831210034195968 -0.3542861926826728 -0.6033287570412817 0.005589818122304521 -1.3850684127376038 -2.604949512540799 0.9862018904118752 -0.45211829110171475 1.810398582164282 0.043013875800695094 -0.1491335991400736 -1.3044151698332769 0.04754557978842488 -0.9941489306062717 -0.5220648953811868 1.100294315907177 0.7425049475035702 -1.3211336377943148 -0.731149916935514 -0.48279165754526504 0.34240031065600446 1.1263836861113115 -0.5494267355489806 1.2086067581156619 -0.4402804984771916 0.4701664529382541 0.013628048355087366 0.42902401531970424
1560 1.03387804250712 -0.8643434568053152 1.145650193517807 0.3876915333396111 0.01047787887544247 1.1393544259462094 0.0033996349917984193 -0.7036965973679434 0.40180107911935603 0.8616091080642101 -0.3742758828801925 -0.9991674587351433 -0.19087025783867093 0.8529156163708941 -0.4930699996520594 -1.0155153496396954 0.13029936627291314 -0.7741032384468369 0.4080830727017071 -1.17501323486617 -0.30237981238534095 0.00488511361527121 -0.16729521401765285 0.48799956821776463 -0.42981222095193883 -1.3637635724203239 -0.8461455722039265 1.1703244449725543 -0.3161475062184569 -1.4717250764775267 0.0759441110603199 -0.4931299444763096
1580 0.009747254001360563 2.7706130300750282 2.729674916484494 -0.2770304670782592 -0.39042876659892967 1.0119989060430825 -0.37231429770412156 3.1254287714038638 0.273992434983614 -0.5039960522330589 1.5546647694477997 -0.5673577019432379 0.12192527575261596 -0.11964982013242584 -0.419731676585211 -0.1093209895962121 1.0612114697016153 -0.5705354344777466 0.08713669723853545 1.0431590577016747 0.38224058596658417 -0.45910622282054936 2.8792364338680505 0.7443576665669974 0.34190861695654884 -1.0016570318994698 0.6244061792433528 0.1636572556596057 0.7809204616483579 -1.2416169255115679 1.2664527001401744 0.023195083228048325
1810 0.13452622640698 2.014760214515206 1.4477703232770807 0.1409624126260912 -0.221848553194342 0.811899388907283 0.35373549488038275 2.1548957468257917 -0.2742754396870581 1.0137876621176363 -1.2765223974448061 0.08880177999764792 0.286564275432022 -1.3556509846709144 -1.161848531333996 -0.5664469749581971 2.1850080074628546 0.22266111658270044 -0.9318264394307931 -0.4483250180882992 -0.4948052403095761 1.8461447653883445 -0.34458646709748453 0.2371491019061895 -1.2452312740913911 0.18850316528281405 -0.43220614465662605 0.8565181661513822 0.5752745091219348 2.7863101668097916 0.11481140349618453 0.17293442242143459
2050 1.8062427614016143 -0.18348520508739868 -1.6443990794274066 -0.7258079929067492 0.5819265386501165 -0.44480382021329906 1.1931573446219597 -0.4043080517163734 0.30539495081410656 0.44488985514227286 -0.7137985076379143 -2.2393721941397735 -0.38435817183609816 0.2210159102479517 0.6717880956142877 0.8967666727887155 0.14290695960137703 1.5614599624637018 1.9190119553371368 -0.5377763422786136 0.7298322457431208 1.2794869870095875 -0.4334335082246032 0.35579650971004767 1.206153175208236 0.3240759685698139 -0.05019651827903177 -0.38338666144729827 1.109459127592221 -0.6747610156285025 -1.4528743150266754 2.042733826656306
2237 2.320517516203013 -1.689084120194341 0.4506098888535443 1.1702624564138404 0.6578021958730559 0.818403718043823 -0.5184076844583525 -1.704158589881895 -1.4148739484566228 -1.0245472518148684 -0.5699738092557483 -1.399114088720075 0.6917515951436666 1.7044027321673907 -0.19554920407796525 -0.654449456277999 -1.4837297849355142 -1.6537012457604425 -0.33934068204060946 -0.13345340362294508 0.5761366364514353 0.26499906331281264 -2.3468814247720267 0.14199579115711844 0.23000244746107287 0.4421322469845828 0.11244076145521542 -1.1600043700512002 0.7602566679997912 -1.719958740243496 -0.4843141020768104 -0.9682253715148181
2295 -1.6490274844759403 -1.1160205498575448 1.5048703495520663 2.0625714593500963 0.578707472621978 -1.3232090954979248 -0.8820221670159848 -0.6227032157255664 -0.8965837851579228 1.271995907325023 -0.6189375453576808 -1.0811441891783553 1.7198703448608987 -0.750729355955656 0.6012728796045432 0.33489914780181407 -0.3272131815559055 0.36885044583280674 -0.5278703196960588 -0.20534148444408096 -1.3678337877987865 1.3354481997667342 1.5298871116797084 0.7838625793090496 -1.5518400900392222 -0.9596935123843784 -0.763133967170048 0.839544237652233 -0.48907500396165515 -0.7841934238611703 -0.7888839832317507 0.45896020918173713
2689 -0.34317936660925047 -1.2943979474519771 -0.5307799455637168 -1.626456734463222 -1.0698368395800377 -0.5519640416953161 -1.8327477009777289 1.2320096413326185 -0.9278080748989935 -0.43045762307810037 0.4665556591852807 -0.43962744989559394 -1.861559903870198 -0.4326664674135105 0.7845449343854008 1.400917670925317 0.5633085400425982 0.604485728279238 0.4704072828270388 0.7189410304880429 -0.28930688179686076 -0.18907730578377296 -1.3550999914465187 0.9688312066078916 -0.3378854547316173 1.3392960479496434 -2.690528552291932 -0.08444928229904912 0.6038076488040246 0.4556028443108467 -0.3376228757042489 -2.0859656010227936
3021 -0.17298902036086453 -0.5486574874011627 -0.4211812266004416 -1.1449248251839168 -0.896047678079915 -2.5480703299906673 -0.0855038419038358 -0.7321275237011385 -0.04247040592613271 1.1485682935697359 0.11679070501856235 0.2833159239425568 -0.5933511763850425 0.789049870909196 -1.4232824769485202 0.5825720293281129 0.15150793381492825 -0.8074365591683443 0.38294503411805325 -0.18161201083904416 0.18388465875249857 0.9466371885582309 -1.439609417274238 -1.0386343508362197 -0.34384558463404963 0.9340948733227403 -0.2556689715439238 -0.7712986051816906 0.9010768547523655 -0.1282773436437729 -0.869939461877009 1.0423817426718867
3038 -1.030970825431123 -2.2337844724516134 -0.2941723159384319 1.0497322011213304 1.667997430504084 -1.460969077110478 -0.8940931218490273 -0.47205092490441336 -0.3493617053099578 -0.8539253789266998 0.7817606899777179 -0.9138080814402245 0.9606872331961832 -0.25647819613926165 -1.0255269122888606 0.1030644595336621 -0.7511837436543256 -0.5236459595856906 0.46797303718562855 1.096186686535071 -1.1475741878982784 1.23274992735817 0.031379744691485766 -1.0374032483590503 -0.4893287938423618 -0.8321267380232082 0.04604586062206609 -0.44167042700647513 1.3348106284291241 -0.27754970894072195 1.3785437589433935 -0.6838366568717876
3283 1.01511264753072 -0.608840729472845 -1.491905053778586 -1.6957114769729011 -0.7306191918549829 -0.008714769339792313 -0.9778034610359716 1.1033807155969402 1.2380794266614483 -0.7837693989795337 -0.11260737652818242 0.07762371421238529 -1.112896442672992 1.4693276193678468 -0.934792936674361 -0.27190234298707683 -0.893074411570059 -0.021390469968119604 0.1320832738675762 -0.3660705714137017 1.5169840809460327 1.2541246902350132 2.0222694889232966 0.6666664722953326 -2.3397845660080723 -0.3490699335560497 -0.012017535630478254 2.2212297811655057 0.4522291764491252 2.3144487803934397 -0.5136456819265696 -0.020920092200758487
3489 0.016240104068643874 0.587808611501361 0.1305950533434746 -0.9707069612673881 -0.17105555296658623 -0.14852419081765703 1.639688259293728 -1.346833489188429 0.644475171283855 1.21530835295181 0.28612490221267994 -0.6258935540460628 -0.2591204730483596 -0.04344466421290768 1.3533492300638243 0.4367552606424719 -1.6440499305031147 -0.15253169088094182 0.4006553910200513 1.31859607584936 -0.4676564628794838 -1.5049531772965186 -2.439204005932896 1.1746129736630817 2.5392906429837554 0.27494260537626697 0.9157600878649962 0.31655654994115323 0.39734687932065077 0.3373730248578904 -0.5724254146109558 -0.4418250959387357
3583 -0.5086319249043705 0.9450714592439056 -0.11628953436768634 -0.3580914368331536 1.4189401509001622 -0.6613890466351993 1.20149691607929 0.7844857239027214 -0.8283824869735277 0.37301578232469756 0.5056957432707816 -1.4688454604078323 0.3241191967068957 -0.9525679191224398 1.1490544874271618 -0.7958956792529976 0.3881966520142177 1.0574825635700331 -0.0904750693241029 -1.3210319565262287 0.5455897929345677 -0.9376972121838277 -0.3759309738298297 0.08707070870599574 -0.1702540263173149 0.5846332575808123 -0.1574867774899088 2.9326878241178984 -0.7373797971598904 1.7296931033085097 1.2561488867645332 -1.6763439624339287
3836 -0.7904424193725568 0.09232338787042714 1.2883223214281676 0.6938695724765545 -0.06029609184057233 1.1368986574428612 -0.736132910935046 -0.5458246370166866 -0.7363866325414816 0.719234422088657 0.7835881895964378 0.7698557274729386 -1.19832359149098 0.06704386329876623 0.938442188102759 1.1138662431597888 -0.6806672135928662 1.4887530458438536 -0.3758747922710577 -0.9245925414481695 -0.33911686093126503 -0.4570457373587184 -1.6760317818951838 -0.3738268615691582 0.7343906435321678 -3.2880305830842746 -0.302408786177445 0.7310722005032315 -0.02584051662637309 0.6917453247154268 -0.9450594263854942 1.4886023864008218
161 -1.5803044832136108 0.6532584224299273 1.165098997067461 3.628027770233034 1.3053448696170789 0.2673517465915926 -1.3821929875249037 -1.8565274530362499 -0.02588078557174124 0.24895110100009388 1.63744052403377 0.4514267247641314 -0.5155185665271216 0.11998959523216629 1.3348336939121441 1.3615769145857435 0.5338035883144834 -2.936585543871239 -0.005752115883160887 0.08275411310221378 0.10172500378540532 2.163272469738392 -0.6440079339253979 1.4559740245392194 -1.3456625980700228 -2.1518150463764574 0.06672198695169336 0.0547000853419114 -1.1753191295902692 -0.5306848658223459 1.449464544180234 -0.9700819815974006
2 -0.30325181939015916 1.4135465477566502 -0.9188016374477727 -0.7978910129226148 -0.6507502700301006 0.1365241370528164 0.4237713042931645 -0.9558712388598062 0.7889077514875543 -1.1858711673628943 -0.20427145126599877 0.18466373813205914 0.32980409782585246 0.4998861249509029 -0.564661632342962 0.6638205304670889 1.8146014098481404 0.9362368030520397 0.8495524490485157 -0.4234466759546161 1.4220560152722241 -0.3460562581965124 -0.9662027670552024 0.12754075510964233 1.8568197591334166 1.3402568957553587 -0.9258945626521526 1.6574551673257496 1.957066346651395 0.7534090013051087 1.5920210907722863 -0.0800854801022241
868 1.111016298510353 0.985298534112449 -0.16076541300571434 0.20981910303340112 1.0911180005171328 -1.8415247811567645 0.26336023618781984 0.49815811376572394 0.9549433475485916 -0.39673260365400054 -1.8341729642748474 0.7852612986341213 2.3788900425997537 1.3518385251475102 -1.0889547582246963 0.22513068014007243 -0.5069823887550382 -1.3022393229836653 0.582783543545917 0.8916936903144503 -2.445071778625819 0.563453486197747 -0.6832186538739751 -1.0363477798090868 -0.40478516000777387 0.8649684752817445 0.6068000374017875 1.342034206230218 0.03426358890301515 0.6169072795214711 -0.39840061690069706 0.19484418592116579
1192 -0.06026080332051211 0.07521313025672464 -0.12663952575988205 -0.2612317504886858 -3.3867472954657925 -0.15452055722234595 -0.19742204469540603 -0.6944271997512955 -1.5414530002080267 0.24740091974322312 -0.8252895941999876 -0.43090930690566254 1.8563080635934626 1.4973724003724238 1.1036377905483035 1.2108465690718875 1.0847264362145796 -0.5499951369350334 -1.4373735379602366 -0.6012861717328207 -2.256340479001462 0.8665952809917612 -0.025160609667561895 -0.6874042824921353 -0.415755175333966 1.327695875929688 -0.4058758450912988 -0.11374164578265042 -0.36072435850535034 0.3881493384591518 1.0374866089774695 0.34692805784434216
1240 -0.5091934173222686 0.6232874101231339 -0.2880192844762456 -1.4049838253665647 -0.8174015056092299 -0.5049255120725012 3.395125156429572 0.6554699148002583 -0.04805932560500119 0.8467286137769579 -0.5159147328926347 1.3727459839156413 0.4280812598999435 -1.8760882165060546 -0.1492734745232818 -0.987105034956882 -1.7284735329323457 -0.41872010858158804 0.1636892482161908 -1.0322292336456687 0.3557657200341209 -0.6242239931515206 -0.11355991250479118 1.1582309731576133 -0.8399509529357144 -0.8712589294845466 0.588606677375639 -1.5393094427228298 -0.4997481801264528 -0.6542140019185497 0.3953126787067174 -1.9141261700799581
1242 -0.03442677849307615 0.26555931278408657 1.2281321114626456 1.6388829278921484 -0.14304848056438235 1.2556773105570818 2.86007751634572 -1.4421135443150375 -0.6788338848322043 0.15981264767550177 0.618908089448453 -0.8533102607044382 0.37239837130847503 -0.13755413999371438 -2.0264618865064947 0.1627351460819138 0.12262031725060694 0.6402223718610709 -0.6490303123430935 -1.0474900653329935 -1.030878203490755 -1.4305690112572267 0.7118760823528653 -0.11849403382803499 -0.6391075417898768 1.7304550661445988 0.9611573857094025 1.2981342298769207 1.771113380890703 -0.21085906769934387 -0.6898586977825937 1.5355965939352336
2437 1.0323475635711206 -0.6765873973311072 1.2852440046563909 -1.3045871069853854 -0.5920485636420223 0.6124067258017456 1.5825866591844648 -0.11588273394710832 -0.7222684168535244 -0.3591979470438121 -0.5163310799213573 -1.7895023531491356 0.5079700726653663 1.5712185420970242 -1.9605933865679697 -0.491717558558167 0.7859863129650497 -0.20684397802419707 -0.45392725166393827 -0.6964714146734378 0.23959374841587833 -0.5452095132376893 -0.8144734719286272 0.5258386370098675 -0.49943119933370045 -0.3896660065027424 -0.7590487162554999 0.23394658106143393 -2.030233841798527 2.0298335058008714 0.049008066896349574 0.5268242506169616
2633 -1.0247581180700904 -0.03614155336454823 0.8715337837981326 -1.3011853050015707 -1.3645404884810308 -0.02566207355978879 0.6498451166770967 0.36900908504453633 1.1597249745629268 -2.0186613765684833 -0.8054654238783618 0.6913172645662643 0.05037979044156571 -0.030940853442598375 -1.1311126081034328 -0.3604980582742528 1.5617057662763965 -0.08849960602722809 0.08605553118030472 -0.975972470448271 -0.8722791679780634 -2.0460031087556407 -0.4998595287823057 -2.3098376332729287 -0.6182888708213006 1.6753401620749535 0.023632499429627956 -0.6935231837035185 -1.616256835130752 -1.6393599859160828 -1.611161687425331 0.683081857653718
56 1.9105803651929463 0.9222030925174748 0.4770408621357334 0.6074152477966703 0.3502844707765071 -0.37157585528847803 0.44774787663702387 -0.3534541943479645 -0.5277659206506297 -0.32149340707374774 -0.5763022102321593 -1.99985800336392 -0.47297383874121685 -0.5696339812274778 -0.816232057442032 -1.1010592614376615 0.8796224549628341 1.5123790273266995 0.07445216837003638 -0.7971521659556318 -0.40165467028920293 -0.15611981134766745 -0.803226786093832 0.9482707544220086 0.33858245668338705 -0.4817516626312512 0.15402769342307596 -0.7959439287155262 1.08463756540468 0.25243885063850097 -0.18353275472199912 0.4223852511495056
154 -0.9345503094677151 -1.4370421200882018 0.16499275125354756 1.2174326010766123 -0.5985527538017992 0.42359645931521533 -1.8617104649387586 -0.22566460116997883 2.544684011807717 -0.29866760065108877 -1.1041654436277495 -0.04898320319543702 0.2794439303682817 0.24914493883049865 1.568522107404259 -0.34421812646993405 0.40816409018702515 -0.008686004683113445 0.9797839468056898 1.1349710001161768 -0.36528698864931974 1.342592946377376 0.48063972335851085 1.2690349188223131 -0.42387371436901733 0.35410397966923557 -0.6169003902785003 0.9079114550098081 2.0139308636128286 -0.340006854181319 0.6458186139361519 -0.570248990990275
209 1.3375896250574246 0.16813488339534327 -2.375152511146011 0.7037703520986205 1.073208361629131 -0.7358337019082075 -1.7512038829703147 0.5039093942979944 -0.18400531164909137 -0.15989864992863784 -0.4584127112582926 1.1532263674235212 -1.4011506382968815 -0.11123133325680548 0.4854245757326272 -1.3189493274261406 2.473498837568772 0.15782390110332886 -0.3023152238718948 1.9173280371507688 0.12376677997736514 1.251095378598426 -1.7249778774251658 0.5610920072942226 2.743940267444061 0.7625911153952991 -0.9973376971598054 -0.19368251750704654 1.139322617333376 0.3984555585982343 -1.5414653747663907 -0.1844861378086297
508 3.1882510695631696 -0.7570488026064837 0.6260905529580926 -1.1384143052206086 -1.236788569371622 1.0190047079692395 1.770086500616971 -0.08533098492805723 -1.0826338246276852 -0.282482797243899 -1.3915740741498903 0.9739664558116458 1.3610622717556375 0.4488599417192201 -0.5484095653579757 -0.3785647647761324 0.024161639617165154 -0.3947109660482317 0.119361715139943 1.8152472396375834 -0.6398117751989728 1.2197712796283569 -0.21996502359143516 0.08666775382576278 -0.3365694291197797 -0.1339518901197447 -0.4179490126280108 3.271669888512263 -0.04626677263947624 -0.36968946438231876 -0.577658651062517 0.6281960683324668
842 -0.7122005721030626 0.030879558245690962 -0.6920845655794962 0.41839321935074675 0.32407025962222286 0.5236852430716524 0.8181357592621806 0.24931216828787336 0.2677345577674908 -0.2204272893981415 0.7547672509873814 1.8076509347136442 -2.672248431596226 -0.49994344934177387 0.18364961416060177 -1.30261060044231 -0.33465307225070406 -1.1287502109756302 0.672390551292757 -0.20791206973454351 0.5593047460941786 1.4307361049298046 -0.7645427478962913 1.6966484094533767 1.401577059701827 0.9917549386004416 0.15315053848802862 0.2232631901239128 0.6162770870678745 2.0328672812957893 -0.39703396038887245 1.2267885583526112
1282 1.2607432551580167 -0.3776292024430133 -0.3839784545297965 -0.9784346206455388 -1.000842431514406 0.24832764103426674 0.555556021877382 -1.0862524477196298 0.02226189773554767 -0.17553906854758594 -0.7246727332203408 -0.7965237912382934 0.18276320690291145 -0.6255764892041289 1.1251967616532281 0.004922958559507974 0.5118928460851021 -1.0473473488863383 -2.19487773550163 0.0068667674563885565 0.9785644671948701 -2.916656388469346 1.0201886782880316 -1.0851418789695515 1.6978272603770905 -0.7055689405125519 -0.737433408456362 0.4979132090360265 0.5207500052169509 0.646336105935968 -0.0780944229618018 -1.0074148097193008
1683 0.644878889700871 1.735212409412076 -0.20585135728346265 0.40594339223948395 -0.43269261351741467 -1.9037658951478578 0.4889847443685961 -0.3463744219134059 -1.680257676004106 -1.1414159203811822 0.6679631238061767 -0.17224233955869414 0.4614552673878655 -0.40499085800345636 -1.4507306215994593 -0.3195976520740332 0.5596132670369933 -0.6829807263514273 0.8994479821685938 -1.4211542754191595 0.16788328253518242 0.3823641791584915 -0.7862391091517577 -0.4957446141080092 1.228519624241518 -0.026591072498828815 0.2452845518238055 -0.7108878155025448 0.22364174515567745 0.4017452626745067 0.7938845711393296 -0.2429933614915303
1847 1.1033704042276649 2.7058859215647812 0.5148647006762971 -1.4512257170165714 -1.5116122931475484 0.17893674705333337 -0.14146424099094124 2.5250639534038317 -0.9573719626096652 0.4420434815300159 0.17220366413647356 -0.18108370185814845 -1.0297386733490066 -0.21346296500746148 0.04892254353624404 -0.5666845678028101 2.3141557280417304 -1.7042771705413398 1.1521732469527508 -0.5655313878720184 -1.1775959509773426 -1.1790699649319343 -0.6969178072794199 -1.4055223072276999 0.4415834616782763 -0.8408032447090187 1.4589598395458834 -0.3386806204166171 1.007250709660596 -0.6075098828737227 -1.2996662496889684 1.9718829399885438
141 -1.4505486154644323 2.0366577165579653 0.6785549432094178 0.6252168354303622 0.11610765846500867 -0.7393576535253595 -2.1146287259715333 -0.62161834094598 0.14455206556382627 -0.6007652983893745 2.117291384447132 -2.1946700069584226 0.44928942659570065 -0.049646933481528044 0.9212286566076227 0.3216865631122183 -0.07747342554917733 1.7496250093633483 0.37166486714311364 -1.6543543126278528 0.36822093539673234 -1.0680887532541714 -1.067577787253593 -0.885598855363229 0.07050622571696268 -1.178178807982356 -0.3751039123169226 0.18221399507324001 -0.3202885895930757 -1.3265890254157378 -0.4356354824719634 -0.7486114601504033
1993 -1.3300739871557081 -1.7126849236888766 0.39385948810580274 -1.0923192939994792 -0.7277184395956862 0.7951872595796855 1.613976097851495 -0.09390636354091333 1.080376338513388 0.3941132421626127 -0.7128186174485664 1.8107074691655827 0.28373801902512635 -0.08963114067079254 0.14943978549003684 0.7745263874818177 0.6849725815039837 -0.43900540862758664 -0.7040252403806841 1.2765376701602609 0.4020185699624478 -1.0084385835775906 -0.9056858523810403 -1.4992867445818738 -2.111084354709406 -0.24407751797820149 0.3568633608300667 0.2266834465184619 1.355603255885794 -0.0754003655266472 0.2909336480878961 -1.1343589689357265
15 0.46791745585439964 -0.03967987292916285 0.0331406629027757 -0.7444582973714147 -1.2558296880528739 -1.5200674278049313 0.8728286909779772 -0.41389044155224336 -1.84361869568003 -0.24693492681243417 -0.9540677754017028 -0.22158475885908466 0.43225430722639835 -0.8632822446683494 -1.0700817026747567 0.7967532666713166 -0.40766625337926 1.5154467560387785 -0.7679968232369376 1.1357924876221248 0.7201031104778105 -0.7798858610470022 -0.04729610247542882 -0.14920387903305496 0.4191983600696631 -1.2895403472491838 0.6160667382858912 0.10141638893406156 -1.942968503444896 1.3712911487326354 -0.5865108610318899 -0.6297420249786366
168 -0.39807125280711403 0.8913766745581999 0.6026512245799553 0.13471451017560787 1.510082940971704 2.4811568261812607 0.5487449519777521 1.2731935840415534 0.6570582132658088 -0.9826856505694598 0.33799621333499114 -0.7375275951264554 2.0612027312417505 -0.03849472879144329 0.3588532634431127 -0.7861402862676269 -1.815511460494158 -0.19427963125823236 -0.34011182784448174 -0.8065356258928508 -0.6077615643521186 -1.7228305739462453 0.23788828845865015 -2.049681538143766 0.9376608869447105 1.3978686842544294 -0.23060005896881383 0.836122223311661 1.0020471335141625 -0.3501228712250361 1.588758620099901 0.9618049479347196
172 -0.5842183622506049 -0.40679725627359725 1.1279030876247103 -1.3586962989613232 0.5812395329893381 -0.3070286528184079 -0.23008095028911002 0.25784486465473155 1.0875908163370065 0.6381989031935503 -2.0339659906118617 0.96144561333252 -0.7573218097645771 0.27551394176796584 1.8647318807607975 2.1595075759856592 1.2989410635400398 0.16977189570792184 -0.2636992247982907 0.9051774710601443 0.6630849154880051 -0.9808087720979669 0.38309872288762736 0.7111170209827024 -0.86185650796281 1.0029327551642317 0.937804919520199 1.3453428997002892 -0.5011258328860806 0.332390143318337 0.8835068681288017 -1.9161970792239842
545 0.3163142776071538 -1.9552310111430633 -1.0587547559468191 -1.9798993604487978 0.12010852509984549 -0.14825144482098934 -0.5760168227379767 -0.19397226888737704 1.6987819265125204 -0.7472570993894074 1.1592492428823677 -0.9900150587407767 -1.3009387806486383 1.0419342892508594 1.193129667410351 -0.7064121741156822 -2.1958940332379475 -0.503698497088704 -1.1087219929548204 1.1423058294290438 0.2915125685228644 -0.5676148042573761 2.3954899305751494 0.17372506959420017 0.13780646667883575 -1.3220471279637915 0.28742999758924836 0.4172415476670565 -0.4482755472346095 2.093447345092417 -0.36715980632247774 -1.6458723924543677
815 0.32054481338605917 -0.2589417278397032 -0.13443909566780252 -1.2753687252717916 -0.38035809708097107 1.3632585475133894 -0.6182539147276057 0.2200374245133307 0.36746544454454466 0.005366279306253763 0.5712302069375023 -0.3316983758766771 0.5254089664532714 -1.6031314683433564 1.0863896018723602 0.02233869193738888 -1.4422173261081517 0.37985279598207494 -0.8702614811979656 2.483694308245355 -0.11489351913801878 0.8243742687286365 -0.5489068332182245 0.10314511420519236 0.7359617258472791 -1.2383065279593892 2.176401479027839 -1.460927231464639 -0.23385358282981694 -0.2725388856244085 -1.2197996099945398 -0.19663635534532448
879 -1.5473045858460568 -0.1856735149485127 1.0341584968342863 0.1083297800695916 0.0894659165925991 0.6916302893072196 -2.9950784661719174 0.505143172309036 0.6603230333543265 -0.7942211847820837 -1.4680311714681111 0.3402472762690571 0.22032375838548612 0.9734431546374986 0.07851367805010546 0.6582676028411186 -0.9779819595663429 0.8990129390984719 0.9721157097618519 0.35498104830012084 0.7348912302527343 -2.858035947131307 0.13286710408685048 -1.4481420341925488 1.5346271759472907 0.28897964540260035 -1.1288770270690798 0.04775137092862827 2.035199666345547 1.7262125491970959 0.7632941637369142 -0.3394356104693765
1009 -1.6123463440302044 1.1347228753443654 -0.6374715214568631 0.7036231280155095 0.7893806825574248 -0.5351350289704607 0.6570549952405015 -0.3275256175736144 -0.8200604964083171 1.8622826491537228 0.9962254470494292 -1.5022063990427668 -0.8194876758550464 0.016507326002538816 -0.2952531411394799 0.8845704140832553 0.46246002432182864 2.558562307799346 -0.0059282070969620656 1.3423499188831227 0.510722277363168 -0.1935997663316769 -0.7417271518005512 0.8459513226677556 -1.716600971765467 1.1628876600153981 1.249316540677029 0.8378856635444342 0.09539843548026472 1.0900717622784613 -1.357873224734052 0.2998261875297893
1048 -0.35878449960781245 0.11484633440739461 -1.073202171059402 0.3584488941277102 0.2040126547954631 0.4295756878511177 1.290348646358408 0.6557630867081414 -0.6048301136526288 -0.6964211582770394 0.5593474777639773 -1.229257668668973 -0.707137016952343 -0.5279234842114369 0.7297323815779005 0.9486672079445656 1.200932024861542 0.5102637186340111 -1.3704576941393567 1.320884582379036 -0.30602876063897555 -0.6146573224248735 -0.5078619107469196 1.9888141074980783 -1.1717467040975098 -0.7878377685521117 -0.08664324302533472 -1.77849061827986 -1.0025189651017883 0.08166454656938348 -0.6524102198887952 -0.8351035184321145
1065 0.12176474845347594 0.9131041215160485 -1.604550320267073 1.5439066079924617 -1.849880703237471 1.142095221547013 1.1464682039362188 1.3325133617586438 -1.366101005778298 2.085707581013853 1.2261295880780247 1.5628285838507567 -0.45546420133071114 0.1915960845731552 -0.883277133746673 -0.3052637576860148 0.6304407468668122 0.36639014823284016 0.20288249337862005 -2.138215465871634 -0.4292948730548174 0.2855013248369062 0.6907288883010442 1.520935141721801 -0.587597478682884 0.035097831572633055 -0.622419636076733 0.7717402682277215 1.4483838286188502 -0.5949250139720863 0.7200961896366709 0.6419163414897551
1139 2.440166454663872 1.1905419477073678 0.23579274105810258 -0.3552243741513416 0.7273873375401885 -1.205646290666456 -1.1107371094815812 -0.05883372910742351 2.0887386767934615 0.36642718198403496 1.7034960799483387 1.0826147915205704 -1.188913703970075 -0.743641484846359 1.8231794411798479 -0.4583755944750104 1.266503581194564 1.421637321571292 -2.908712483438002 0.0014283611929067728 3.0057073995125223 -1.100019144089284 1.2264773388211543 0.05613922189185142 0.15653737839426662 -0.9224784560055806 -0.18983727681327767 0.6377622506726115 0.13146168933300684 -0.49706279076779036 0.8144133203807707 0.18346030306000916
1167 -1.243011602082959 0.11019591752087973 -2.037790795327079 1.3218581060840857 1.4874801168797898 -0.8551966182573506 -1.276856119648545 -0.37578513440270755 -0.6640300895495891 -1.0284231488988622 -0.9197216499412816 -0.6950962439394074 -0.6434830795188635 1.08598971827882 -0.5121558229531274 -0.139900232964871 -0.9836977833652372 -0.7121580981229336 -0.1134024392922346 0.48728657877632797 -0.7177655854516234 1.9044074557179669 1.2732838505577861 -0.6037571049399506 -0.24134348861459853 0.570125579774493 1.4891880721542392 0.6661808330629176 -0.9587716543690978 -0.7529575071774067 0.44961862503976197 0.5011555949860201
1179 -0.44885749201238934 -1.4739276326985644 -0.2843068820029459 -1.8257664984113176 0.8938302006743833 -0.1311429684169253 0.6185802885872116 -1.2514627481317548 -0.2530808173862606 0.2228166368445562 -0.21165929390627758 1.5501036175920806 -1.7202175356226534 -0.4844738707768781 -0.30472096265159315 -1.3005310605586673 0.3990063447543685 -0.9304944012323975 -1.610852996432117 1.160396260220665 1.332261535039844 0.1733342659648275 -0.8674056305857678 -0.1995392711264098 -0.18300022229966173 -0.31619742378003135 -0.17881999519453465 1.0320448657906243 1.4291523582259482 -0.26168812570114053 -0.17165126870738598 -0.9257770713250717
1223 0.31641352368920417 -1.2078762430405585 -0.9304233663965438 1.1648528547540027 0.27917211246883755 0.740077859823272 -1.4011537703550971 0.47741803364999763 -2.148711861129354 0.25780893651287856 2.117544093759657 -1.002099512178297 -0.7406270637881366 -0.27384677676322994 -1.2465216522546172 -1.775298216889749 -0.20802697854199662 -0.6734513618591286 0.5037657275245077 -0.40392237763526667 -0.7971516458368142 1.0931068412264342 0.6356024723395748 2.207529618482471 -0.7539441498398652 -0.7983400495550745 0.9497192554401513 0.2970623547469551 -1.9079730730397664 -0.9037760904680784 -0.722347700624914 0.8245650561973538
1368 -1.0765490811846117 -1.8175532902585987 -2.229660465035113 -2.8492677075850557 0.5619693975136257 -0.47372130100241383 -0.7114354788746048 -0.42567293611694124 0.13595049328882297 -0.26006304693712345 0.4890878748585405 -0.35402779530052064 -0.9977294544151548 1.8661191362498903 0.553527440669275 -0.36261631440464565 0.6146859374346301 2.9724580447128446 1.3517007122602507 1.871368449205265 -0.18777510601420971 1.9374447461686382 -0.02629351084785009 -0.8555464202461682 0.2183892662899829 -0.6490423480224077 0.31999170313982583 -0.8019808177540025 0.6882511672647921 -1.6148620395994435 -0.5838348988649126 1.4675159393428057
1416 1.238568753934167 -0.09721165115329955 1.88862308544047 -0.014346127802048126 -0.9024185079794571 -2.2238787807552294 0.4007568429955125 -0.2975866555707276 0.45976712854683044 0.6554978336564996 -0.3747429562726859 -0.060105031214397676 -1.8269339197018566 2.8411724116625567 0.20007855430392293 1.9656086542448072 0.6671767579318599 0.5147661456715433 -1.9141613595143858 -0.1375810608212562 -1.8265355723169523 -1.2208997045699332 -0.5986637060842491 -0.17893548142866186 1.7354932120336897 1.3002576075729324 0.587015479961867 -0.3869324495810532 -1.7967051950827886 0.4252517214322756 0.799423194146468 0.2706949769072677
1454 0.2114358601143919 0.6548923268811593 0.4488922343396035 -0.7042291564956832 -0.11701986868660226 -0.43653955083665613 0.06316238746792138 -0.47780983181886594 -1.6136461081258642 1.271436599474394 0.4397098602123434 0.3632063697833176 -2.1028824329609552 -2.148907004491465 1.622640870812868 -1.3207615974472267 -0.8792488195560181 -0.8718644471608001 0.34605057467755945 0.19999514267730686 -1.5062888876521088 -0.36611617818057884 0.4109935568040022 -0.44277413920713626 -1.7337938300759044 1.3881848751438317 -0.26180890015107267 -0.9655575546922206 0.47693794632276765 0.9349410068496857 0.2797660841989205 -0.1731748115588134
1611 0.14564904269078746 -0.8389987315206306 -1.2964240067838413 0.9150091593360263 -0.18322806786749818 -0.9343976556920469 -1.1795601560556446 -1.5917953353922119 1.2707131206545192 -0.1864352235511422 1.0157946715705237 0.8292191181300883 -0.08110581646667664 -2.4501321058076893 0.08528455270218452 0.8319861098623663 -0.6515097487878063 -1.6689546732456977 0.6561656734803392 -1.8882308060916873 -0.7572922408994704 -1.6866692424732928 0.6352815156136352 0.41371736641277945 -0.7234975287169474 -0.2668223774944907 -0.08173806575389934 0.6610738388051913 0.30426794440068056 -0.18552714850698815 0.15270255655472548 0.3917688732996443
1664 1.3088685428558342 -0.3604599806047537 1.5001473573421986 -0.21165834524441793 0.2490414645600965 0.690544561859574 0.38809115142480016 1.0129930590509157 -0.23005097144399833 -0.5168224289129788 1.2470666846614564 1.818229413486692 2.411547316829471 -0.657106339015754 0.2472748528523619 -0.636639574647779 -0.49031566351675027 1.4076663686787414 0.24591417448004993 0.7169711637792404 0.2971606689381495 -0.44297885047820823 -0.7746260041013747 0.28144440354936273 0.3656544896354168 -0.9001056392546036 0.16270471036417156 -0.8792669520234856 0.15622450241443184 0.2581037908006975 -0.6882017276094183 0.14812613969046795
1686 -0.06670365252030898 -0.7784906090612544 -0.19493054031720197 -0.11026809574100933 0.0031823682797907523 -0.03628421871025135 0.9315029078771001 -1.4839897878391168 -0.6654142773478213 0.20717289646619919 1.004648634077464 0.9706923271073407 1.0644583516675046 -0.1791425881119206 -0.7785281882933038 2.0956457239288024 0.41656542892916343 -0.17998450396546087 -1.2696697884628951 -0.587637908316122 -1.5594797049651048 -1.5955159974379767 -0.0340474187608883 0.20718930800191498 -0.5739972252037427 0.5746121351925443 -0.16198481118147096 -1.4978328124730371 -0.2214349677524582 0.1656996606491355 0.9703774495882947 -1.5299264213381176
1703 0.9463618724379109 0.22226709836483005 0.1753356274427986 0.31023020605309015 -0.2437145009598363 -1.0704233207001739 1.5679012578006413 -0.4807664202798858 -0.6063215845716882 0.2283733389288037 -0.14677261928123975 0.8929290775120038 -0.7983563691607937 -0.7217957989962698 -1.3961611944575776 0.3706513379040734 1.2577568719699792 0.9714142697910266 0.4632036721351772 0.4463248916893771 0.059644696785845275 -1.3348728799801248 -0.7943813543814746 -1.4809217769790428 0.5410153378952324 -1.283650730928698 -0.14174153946622406 1.3205420748831407 0.3807067719445961 -1.4538861338796212 0.8338072033013657 0.453789418086095
1710 -0.8649368025783177 -0.3236208739982516 0.8911601375951687 0.05896043124980977 -1.1079952285437926 0.374785442417704 -0.2867820079484016 2.5415758122032024 2.1766624541203026 -1.6413738617162785 1.3330581386083333 0.4139963170874885 0.7270520755999543 0.3549690834723247 1.1464062672036854 1.131615091607059 1.5167485927892 -0.6092998358946187 0.4270550492277356 -0.09966599730034786 -0.30892024046414934 0.7930451816828565 0.22616391987322562 -0.5990009031960624 -1.1145085935293721 0.6425008950618815 -0.2363486361755967 -0.5452558846937958 -0.4456411418482809 -0.39837679095110096 -0.6695583329245807 -1.4295976671781783
1714 -0.35267996941443724 -0.06787684689280218 0.14296078164905188 0.42327112606831324 0.35892191247997124 0.2640014224103182 0.16165435115556864 -1.016591463231519 -0.23017938181407194 -1.1083761242558878 -1.6186278442557578 -2.425908501225005 -2.320585423322235 0.4411677109868444 0.5929080486613875 1.8945607444579788 -1.1667196721764366 -0.34048268131635556 1.686051406759148 0.5995457437558046 0.023855057596162584 -1.0140506648337189 0.17346327278736856 -1.1461624359593183 1.045884813516961 -0.6955582956603726 0.7257893475326812 0.17954431856436737 0.0017623783001629576 -1.7649453120435097 -0.5714563793210936 -0.8294174079183464
1737 -0.8256951956284957 0.6421927813119613 -0.08654787743956817 -0.7008995340700652 -0.05413285287307955 2.3242963215616306 -0.7106075253288313 0.35338276976171545 1.741332599838913 0.7698824302354539 0.8540331569308832 0.5444188187129476 0.7776604038488029 -0.36142250222105343 0.5314273091507556 0.4385351136606334 0.4880692918446427 -0.2965122501058066 -0.5803526472987859 -0.303648174648139 2.109658118965491 -0.555028464031656 -1.3478194488847246 1.9476419465046877 1.004475752326643 0.7677130273548614 -0.5369504315121091 -1.8263424869084077 0.6455544725626199 0.7548589504501065 0.9944893472446253 -0.07996168631081459
1898 -0.40450503494060047 0.5193685537064617 -1.0722456316264855 -0.32717503612889337 -0.4950773948119005 -1.0218626191677107 1.3294995742317084 1.1067855295073068 0.37473076262630467 0.6193768428767072 0.8630613159550207 2.4010016280614987 -0.09214066911486331 0.48933373564857063 2.538462533020757 0.48627304069533417 -0.42771751549448456 -0.6027949459074203 -1.3550737897815386 -0.9877571801314959 -0.619704899933351 1.2942741846463839 -1.1439958212571717 1.2560809365843784 0.19687024230942884 0.018581898348911413 0.24491348742975277 -0.5544573969376552 0.7044169155217331 -1.3289522529057285 0.7662236521397494 -0.015369523195797841
1966 -0.8599529594185008 -0.39880396956418357 -1.0154594664095302 0.5740471634521312 2.6567358242008394 -0.40067151160190057 0.19201139474530352 -2.224959213003537 -1.1196408408522265 0.6168820244887254 1.4059099068992813 1.426023671740837 0.23861811576616043 1.333130789220119 0.5138595991899602 0.2132673624582154 0.9381772852942307 -1.1460482542040953 1.8628282395699285 -0.3096004827585582 -0.5059847967886866 1.0429869229922364 -1.3908083271417615 0.5105300371289982 -0.019934882960814214 -1.9416562673395663 1.6372298495379252 0.13013251822697153 0.4859927433142897 0.4582829012563792 0.025319341213000522 0.27472991277449893
2044 0.8844852397187728 0.2005284962254202 0.7182413198788976 -0.792589278990839 -1.560431353906104 0.5452036150384686 0.4468121551303904 0.4243800185132994 0.20076940424370887 0.2092760908763497 0.24370194051214025 1.2040074926760267 0.0387562040237497 -1.442247732642399 -0.5569748756800534 -0.34701591783808183 -0.16219109550137728 0.9755226861738118 0.6088273761601563 -0.4440005857112582 0.8239787942779658 -1.5577271840071611 -0.8445799926622335 -1.3997258059448945 0.6107157416487701 0.792794378987964 -2.4004675720137323 1.262246735187155 -0.8737622524803575 -0.5322754267201616 1.0112400900727918 -1.600293795465295
2045 -1.2127095114948927 1.1145689300713426 -0.8863617288345395 -0.4383670029699842 -0.4843922353037457 0.4400546106374514 -0.6413964481240356 -1.051390039426091 1.243563500478564 0.22887103512503376 0.21739365110647912 1.0409590239952948 -0.798973024073224 0.16733980648902116 -0.6147242057003934 2.2655889356725534 -0.560334859526071 1.333464198849137 1.958968005605858 0.4109586719447574 0.9953636468362483 0.23346763075599974 -2.4533405208388177 -0.605266020074271 1.6021404772982046 0.2822391160238052 -0.5631383800025037 1.4614486384985441 -0.1562765884142061 -0.4854124236533648 1.8993331944163199 0.19170843944148191
2096 0.5636302991174187 0.8389351356765852 -1.4795501262534818 1.3208469516313075 0.21989339720379242 0.30989352228136297 -0.8444841441468897 -1.2081619958350516 -0.27710366297890165 2.7649826488131857 -1.5099436499939196 1.0883112314320589 -0.1345902495340458 0.045246940383439495 -1.6385757494308208 1.0311740916826384 -0.4730067301474821 -0.521824783562045 -0.6300025600468068 0.028091702439658677 -0.42205466329802244 1.8220278450432943 0.36668270356105487 1.048215407605591 -2.113306103658547 -0.36664528678007574 0.20382238826930094 -1.9449515873843926 0.9090468917238134 0.28353178594204737 -0.5216434138686138 0.9058786950904364
2182 0.7427869927223695 0.4209952140348537 0.08176741733719815 -0.16103586815980406 -0.20397504758160898 0.5681249480733673 -1.245088843518764 -1.1156813148543565 -0.2108761443180625 1.2648556884844118 -0.6808504400856219 0.1476960074699635 -0.4170054941931208 -0.6010179943482545 0.5435904592740421 -0.39265352880393356 -0.35926886757172527 0.5408395095293187 1.0449437128742707 -1.773115436891961 -0.07736337732740538 0.3396850713554737 0.8699938857348184 -0.28054169409714746 1.280064094010234 -1.0216692732353014 -0.7643573580773703 -0.45771729023699714 0.5142626115876198 1.009132470596832 -0.6604507222363956 0.02101738780088837
2596 -0.2942565995904137 0.023638728289845243 0.11245669918984277 0.9406079151304985 -0.3530429116771195 1.3071128373611405 -0.11770434586153264 -0.9615011278327096 0.7162044404341902 -1.9531816391573484 -1.0371668403239154 -0.94771101204192 1.5428116446554128 1.756309636411464 -0.48654992159090066 0.014295657575249367 0.1869926391905475 1.5141226140950892 0.5949630837042155 0.4447665390311736 -1.3551846741556155 -1.019425638059699 -0.8166905863156451 -0.7976026156669689 -0.9314109986769807 -0.14669347383490366 -1.4566563513299278 0.1312323843250862 0.0524611018791668 0.24882448269988477 1.6640157384724128 -0.547354834933487
2611 -0.2513829945298347 0.8751369028528945 1.047420057599129 0.3636444177138193 -0.6376498318382334 1.4135049993578899 -0.19663724902748395 1.2798089814734097 1.101057902822037 0.6913021749339043 0.23824268398162435 1.4471668729652605 -0.2562406926474748 0.33465457228932477 0.30571657100173855 0.6538003682440839 -0.5180324827277318 0.3278481078888028 1.1619930555160367 1.9355258083495324 0.24086919960609032 1.0385507287128102 -0.038252572753446755 -0.5054032310048604 -0.19860033082233824 0.5965581929929129 -2.0484984441644687 -0.031088979086875638 -0.5661597594407671 1.6232548002462321 0.9128006564917122 1.7158182753810076
2745 0.11181476448343106 0.07007720027450526 1.4050372520796124 -0.31673638198328313 -0.04935921467777451 0.8103097847504883 -0.5631013210399898 -0.4320512621844126 1.255246401197692 -0.15736928305481254 0.9384103363558256 -1.4403069025546322 -0.48928896533079974 0.460206352405451 1.5840897793723427 -0.29172916284163725 -0.48464772822167357 3.009465967608538 -0.660186973288019 0.1444848941458463 0.5188993967493656 0.7875426298579324 0.7168083897020278 0.14222221715585495 1.0613883655883325 -1.0115668053744173 -0.6081156564865144 0.9959059067804407 0.3493256045747376 0.9902526990159222 -0.5006163298664313 2.1242242156859823
3055 0.18207680131003298 0.022632993878917818 -0.4362658498434878 -0.6685299075812867 -0.9409305191978025 0.366652718601686 -0.675760136999707 -0.31276983811863185 1.2877326022059163 1.7857158929931423 -1.1607099209487357 0.3647105390463413 -0.2816778777752518 -0.45081528864948966 0.990926568961447 1.4460206027846698 -0.5455381578552139 -0.5988633223236066 0.21346616547576375 0.1794834496714738 1.7929666923103444 -0.953551616987385 -0.4580574877592726 -1.3423295924733503 1.548304165588386 0.33352165605464096 0.3165735266264569 0.4003663099423544 -1.0964509474997077 0.0541720292495827 -1.384149643393542 -0.45245949657983964
3114 0.2566703564665986 0.5434845957447707 0.41134452989425874 0.5973436141656766 -1.1728270520142114 -0.8826236952035522 -0.0955554144539844 -2.0556380328493056 -0.8074481955221507 0.9624925152333084 -0.2259081191724299 -1.5583497858571682 0.06818005117027864 0.5142765698671466 0.7600513911159112 -0.44210842255638233 -0.37614135188662357 0.1598561791970897 0.7023209219504072 -1.5347306801999276 0.47524381421437045 -0.14111450776087878 0.5244199171713696 3.8122019457718532 -0.2993873845061898 1.2284682203505732 1.3983790802063731 -0.34385280521359324 0.6919811066007737 0.2783381692247027 0.757078649864257 0.7539867931058158
3118 -1.2299354738054158 0.5680612314487342 0.5862066302465992 -0.29873294422098384 0.20704239343848874 1.3303255859532137 -0.5694153683778362 1.0109609658171093 0.16689783297513566 0.8425503771044487 -0.7142316807397324 0.46840502865989614 0.4848451212538358 1.3693381870616574 -1.151641556638237 -1.33713539401473 0.3245924061967604 0.43241201674625274 0.5043873871682996 -1.6371198547775996 1.3335274348193988 1.0660726184896858 0.4176509123072259 0.08890148247277077 0.21793693885749324 0.4344842550162554 0.31909402710515183 0.7629491536807931 0.9624582281428886 1.2295387565199551 -1.0335658578223939 -0.16370096069381132
3244 1.7694611569121632 1.129079977593245 -0.9215226334436931 0.6496692203872992 -0.5558088574292147 0.6242671000632072 0.20181828889137932 0.9835362770680792 -1.5778815590620086 0.457632545137388 -1.8108951466126733 1.7597445131034932 0.4753900703206862 -1.0241104147593283 1.4390926249106584 -0.4127935027339391 0.3852362823669916 -0.28218011441474444 -0.5830981404890072 0.6002088574415173 1.2355754846072085 -0.42148901538800604 -1.4448041821615816 -0.7601516022531083 -0.0773135273681945 0.6095390423214412 -1.159850491092906 -0.9168082192483632 0.48258960907931764 1.1017493911621747 1.1275357163576576 -0.30478645372686936
3408 0.6906931745659418 -0.6763487783981634 -0.7014311473214714 1.1102128902930228 1.0355078981261536 0.27707897864317654 0.6835008837765116 0.7629833563313274 0.33762316940622816 0.4896190636376847 0.472105723793534 0.1275227564111704 -1.2184446347742828 1.9703080453363968 -1.7201602830165776 0.39018418172920655 0.6956518479501157 0.67668764883924 0.2771947439028117 -0.08918796156516713 0.031025006577018902 -1.3801891891969291 0.6465288586796129 1.851482991378853 -0.7133448299660569 -0.8225493614508543 -0.09774786675421264 0.39447355922450866 -0.8429605688265683 2.1540909436992233 0.6956370315342076 1.3513958898333538
3722 1.7326143598870054 -1.442464256138251 0.4918990605177182 0.04393314444359769 1.8499256730334361 0.20237684374282122 -0.208151121504991 0.09925717027262775 0.5433345735252725 -0.3926024463493525 0.14835636860084894 -0.552534442478492 -0.15553160309028746 -0.8417172076143488 0.40913904343913804 -0.18042216788404716 -1.7793256919324238 -0.04100398996289021 1.0324336698585244 0.9077849145618381 -0.0660222249617759 2.081156613558011 -0.5207070641259495 -1.5165421715354905 0.44407514500678347 0.057229074432420965 1.9446249263742568 -0.13660585646214524 -1.0087589388288307 -0.6765440333991238 -0.8519418579491952 0.40999113764326
3850 0.673466378387344 1.4953972198092476 0.04655071009073256 -0.5452606513678041 -0.16432003358172326 -1.29241457875161 0.2105831337321922 1.4864019961660662 0.06821675104271561 -0.7979852500765118 -1.9835704505704417 0.19747489292451575 0.5700356141423096 -1.5128418082929527 -0.6429952342028136 1.1622363487131961 -1.8022458431793358 -0.7253398543463104 -1.1997992575194054 -0.04553799984222731 0.329905753974648 -0.23244640458809626 0.5751204443660972 -0.8241595677345911 -0.6376133665485791 -0.07973751272784256 -1.1745548926518283 0.1632902702378991 -0.8700014725392166 1.0605352602114104 1.7331715684900346 0.33539907887214615
89 -1.2562741689506205 -1.0973869262604692 -0.3200723793765676 -0.42888778648136283 1.054492408589837 1.4438053637774795 1.0042701140308221 0.8950301143196004 0.7097944694747489 1.298714108362043 -0.4568777481010676 0.6987267757696274 -0.8549022356216983 0.6107595161866732 -0.37688705912441095 -1.0212289421395133 1.0538042796335219 -0.5268726147224024 -0.25541801558210053 -0.7132379980301883 -0.2251283560639512 -0.5560556867589054 1.8879285890578819 -1.5378561848878125 0.8522082697922236 0.28346301304725824 -0.4063908550760809 -0.6133213600950023 -0.5906314104372826 0.1578923558238234 -0.20766351666005584 -0.5743532074356187
403 -0.20518299603007173 0.34543480059311915 -0.5063425710921695 -0.7452554152450521 -1.3071842879240931 -1.4769398200432058 0.3721116379735627 0.12430481817457135 -1.125003924039203 -1.3106469517077872 -1.9038705962522136 0.7101242346377503 0.3412616716495974 -0.1250225598205047 -0.41119225212647453 0.568643243883823 0.0015046001373079923 -1.176072908798941 -0.3172642294556973 -0.8807805812949226 -1.2686692223129084 -0.9534409132887796 1.7408197111014303 0.16744708101110556 0.04900284240457981 -0.1569385929284742 -0.8543383724733249 0.4748290551917595 -1.4568273239533542 0.3490633313494589 -0.609271196044875 0.02761224533758384
424 -1.0441184953291016 -0.4961359093913517 -1.8545985681448194 0.2047714624924828 1.2903910270338157 1.9623280764582438 -1.2751400179307495 -1.0290294802707396 -1.66722103761095 0.5071252701140947 1.0241792361351354 0.8634431166635148 1.1840770404973286 -2.0757434390177885 0.9299345595833293 2.362944705644626 0.731291884044787 2.526825582163157 -1.1335035131169173 0.43987909346972653 -0.5117280745484659 0.032792690815084034 0.9389287135628744 -0.08692154049988 -0.6186399585310033 0.7175504348297603 0.5475499119678848 1.1876544522822652 -0.4754523049446215 -1.3629094622752376 0.059114976636141285 -1.1744779086558064
584 -0.15017971472425748 1.7095272550241323 0.11072597643513031 -0.6356890477929815 0.013527372760524303 -1.2205759623390928 -1.8591586545746284 0.142054921978954 -1.6696153638828395 -1.2921686843554485 0.9162310407639302 0.1971949094640495 -0.5040671883260907 -0.17762174290640137 0.07631612188660275 0.30926730890331966 -0.052169008393856464 -0.7226687506677977 0.4165962778301133 -0.7387450264767851 -0.5892531606532398 1.635754875088213 -0.5513403089386768 -1.0001883707420576 0.576826773333259 0.6734494842107837 -0.03884567179150818 -0.3333506498877626 -0.04791699461539357 -0.0021134371922763647 0.06063611694181804 0.7256044161355105
806 0.32937613254973164 -0.2249185799539192 0.7787686491465915 -0.993585608538884 1.099579737597072 0.870076808651852 -1.0144771134601704 -0.5360293979617844 0.18008369999955104 -0.4236328123531355 -0.265108097554055 0.3329538875115807 -2.4632193391765886 -0.9131188154527283 2.149977797777647 -0.002741073153057984 0.2963087186222856 1.692583273372109 -0.3770892166978416 -1.559560624035246 0.1138961849862643 0.1735557206746748 -2.1709148735327064 -0.32268281633340373 -0.5927539690784265 0.8067262429041917 0.25961353548397764 -0.5229822298966061 -0.2454089901485364 -0.6686972457671814 -1.0474577159675278 -0.1904274058033185
1015 -0.7069060464277175 -1.1664330336589184 -0.2360229398613343 -0.860632642338179 0.0019764125471177893 0.47923531040270734 1.5305052642294907 0.6174124293435255 -1.3046957614909545 0.5973658774849491 2.476722036671098 -0.22563284298321767 -0.70374663498707 1.8882101346074913 0.19570820938081052 0.5463483471261196 -0.11169087987523618 0.8106458544270445 0.5579848112936288 -0.5549532183497065 -0.4396839621983283 -1.3667373786528358 0.261285159617207 -0.35704200039402667 0.8640992868811036 0.30559929783755463 -0.30716550273494725 -0.25494380845279274 -0.02991791100138899 -0.0036947910936032894 -0.6533353650311854 -0.8099092882577369
1120 1.4958205290922537 0.7160726922498144 -1.2010139369851174 -0.23889077987848473 0.05688730741697501 -0.05194960965615137 0.6260007857273516 0.22324466530777565 0.6626738482624351 0.7115292500807433 0.47343791262192114 0.31221726198750016 -1.576448427421679 0.572552298648227 0.7508864779209466 -0.5559841408789381 1.2763737809282645 -0.3913718129669065 -0.0803108060463623 0.63091492279132 -1.4476302718581922 0.16638928488946253 -0.7331649074670049 -1.3345502044812572 -1.2469301282532315 -0.9659265383029036 0.4518729563382063 -1.7512173389813777 0.3092210548062589 1.3064030220833418 -1.1040548468087406 -1.5545960784371633
1206 0.21812615308025038 -1.0576568073825732 0.4556876564725045 -1.476918703246259 0.04191676567117075 0.6769415753102507 0.5078718513356922 -0.005940971796765133 -0.10386400529534627 -1.6317410658693017 -0.26222153129079556 -0.7689624916074259 -1.0067495059859386 0.17528682590838893 1.0058508146951548 2.1542444258603397 0.10221466976352159 -1.3133571504947916 0.6978304160339448 1.1840758339287132 0.24517476650669393 0.06338334404647336 -1.0939065680561721 -0.21365162859396933 0.4888328859092266 -1.6240708366152838 0.47176547868197255 -2.4118646042678504 1.0273039065576328 -0.1464762046724001 -2.410624794834591 0.7629189522326296
1367 -1.0936182928007425 0.7105839314343988 -0.8541475888686553 -0.09289218296459047 -1.5781076385948838 -1.0466655109200305 0.9374238444418295 -2.3754237954432287 -0.6832072771802047 -1.023537963035553 0.641305442373658 -1.590712158338569 -0.246959588019548 -1.365839659873459 2.2829247981938656 -0.02741536263472413 0.4246502764747115 0.20346613867199326 1.3009252854806657 -0.05230140138391786 -0.7873401396913766 0.29198416264365834 -0.5907874853603916 0.2796305118402959 1.8050273809758521 0.479059519173833 1.9158203966015512 -0.9353262011125353 1.1241942751167155 -0.4278222262111787 0.407920730367861 -1.478407548329475
1745 0.2613824111581351 1.4473077236002265 -0.20454385423151067 -0.20325681775569615 0.6994294353364373 -0.9492238480261731 0.21887035005835356 -0.8654970957586987 0.864427677078024 0.08387568153841869 -0.583023267975331 0.484183616491242 -0.43442386981914777 0.1237311935441971 -0.5426992601781032 0.4533056361936666 -1.0142662568711418 -1.1367596651768304 0.9581958728004649 -0.5972993602161499 0.842286447061289 0.7050149052509167 1.3632588358439874 -0.25199891010349873 -0.13613161376887728 -0.7756988517555818 1.1282233276792972 0.1602416053769258 0.3295684533891089 -0.04011682570409146 -0.09699355995786248 -0.1711783003747356
2184 -0.20273952027060593 0.7633890520060361 0.4987069148992179 -0.7937994618942175 -2.072453794554698 1.9933866763215011 -1.1178708220934168 0.7099669575090561 0.29622172712135836 -0.08373068804764101 0.6419096853116173 -0.15287901498036024 -0.0834739368173098 1.1360642792252724 -0.8266692379830679 -0.06190519331328134 -0.31948074076048344 0.7136589469310872 0.4124199958468084 -1.2917805577823005 0.4343350744771469 -1.3044763618026998 1.3544787760524928 0.5618532622883599 0.5147696435830863 -1.433018756554892 0.7759757737286286 0.4443242892335763 0.7373812984305815 0.48197421138972385 -0.08968094481758815 2.0536258974959867
2391 1.3643637472223724 0.07825616323602785 -0.43183312515612393 -1.784950759781695 1.5199498832368086 1.0004562610368226 0.0007652002962404629 0.5041624716701089 0.5555941408856317 -0.7799044157052653 -0.8947081690921268 -0.30952353223525836 0.8128324534880345 1.0063887106567067 -0.5311724346335065 0.620488231160389 0.8378274253634274 -1.1323285543800676 -2.5660521439937933 0.6957808984217767 -0.11506651900841097 0.11465891129429646 0.9244670223722983 -0.41765045147986063 1.0785975355704283 0.6557035393659338 0.5773266740193904 0.9697076839078805 -0.38322652032654436 1.3127588241786938 0.1876947916030764 0.37705057915289547
2514 -0.04608313777127387 0.6757846692575521 0.254423905568366 -0.6300710678663546 2.658808452521906 1.2934860069761556 -0.06851509438881641 -0.4698998481109574 -0.9235618140658969 1.3440481351412692 0.3658400894486931 1.0219107825212612 0.45397347551011213 -0.047895170704193996 -1.2982015206059463 0.6226247530442884 -0.5350788508826642 0.7742524330254326 -1.2576093849187768 1.2525813920978885 -0.13706662965025165 -0.9950031372247519 0.33819134625192443 0.2706857201333871 -0.3640449892985507 -1.4999462393452714 0.16931058721764636 1.895705390731291 -0.34823048001682005 0.23124243024351226 -0.2094621640957833 0.30431555943892274
2706 -1.7973526272365699 -1.1866634890271692 -0.295681310631146 -1.1810945935000035 -0.7123946750376506 2.1540755526418023 -1.7710744149345872 0.0011195052849328996 -0.5669191044518526 0.8508008717907309 0.5767701042583284 -0.455887834832789 1.5219590128444849 -1.2894539849714997 -0.3157896861587798 -1.8337827638004334 -0.10616631707008589 0.09477276047940314 -1.6358846284641158 -0.4977787588396812 -0.7248214279569363 0.9617586045605389 1.9113092100463471 -0.0485720803245864 -1.3390385987172093 -0.6770724147383331 -0.03508616069595287 0.5568690497778204 0.9185141224108788 -0.8786512489716073 0.8843979079603079 -0.9990610416521335
2784 -0.9360398830358319 0.3863740315786777 0.12618833734424506 -0.415280098883268 -0.5462554260085114 -0.31919980928602615 1.0726703546242555 1.4246474611781796 -0.6293306572068671 0.42626994416534625 -1.238163271734093 1.708483088858641 0.3534851434203683 0.33754153866758596 0.24984203487529005 -1.4121504781024856 0.9634545478199731 -0.28219888551444633 0.20200061687842388 -1.2007283145150958 -1.4380839833104995 -1.1492506816637509 0.08534661679347329 -0.5496622079150832 1.0979132056711023 -0.5850874171675504 -0.6773824803270886 0.30852875618167463 -0.11810867306080546 0.0415437119125977 -0.31413693189804065 0.6472969919597403
3133 0.529688406559204 0.4561999044997826 -1.0079485290391135 0.47613040268161905 -0.24465609014614506 -0.7938150004974845 0.8081677100230392 0.20282574060183947 -1.1627689785895654 -0.9951370359543027 1.2471935137789205 0.7212902854319544 -1.6179345269570955 0.14519061492683352 0.3014040755648373 0.6884936231961116 0.6527262822399543 1.4816724456530044 0.6403303580296809 -0.2709160610746988 -0.7229239675395916 -0.1569544996303749 0.828709646450704 -0.29124651386865974 -0.08736670634275678 -0.2546748202642429 -0.8353676711837058 -0.5671924892541006 -0.866427612663855 0.9369900651197239 0.890504684782666 1.9250241383857152
3401 -1.4498814460143372 -0.8670666431770753 0.4137399535596008 0.09222088837837379 1.0787535769195695 0.0517024829975861 -1.1539987580812803 -1.2628467991825172 -0.36980210351122816 0.8736027489724127 0.3901941958070146 0.5900902739591285 0.5334631505742405 0.03521442605259767 -0.5382067837127784 0.27052448470470386 0.19544674532541978 -0.44966926077219327 0.33604362534326176 1.5895915600693165 -0.22559465451469776 0.18793758656136947 0.4046882853138284 -0.9788953906686703 0.297762338089713 3.1210692937644566 -1.2157964265182561 -0.6912687276490942 -1.4947142595865857 -0.8707713424834213 1.275230839601368 -0.4118099043947388
3534 1.3795901854241437 -0.7862937462707702 -0.10109821388121969 -0.8583690205558598 1.0705046118829296 -0.9459660814069399 0.6231290959073142 0.11070438558661595 -0.061499719143389225 0.4471704646606344 -0.5590360393534369 -0.8681270158884608 -0.818799297110108 1.0280422069432855 0.5822727894108478 2.1912264464738644 -0.08233292509859601 -0.6877751060415719 -1.7325987900302255 0.4713612801739477 0.08551136324366039 0.6847076064895471 -0.17836071513936935 1.2115867270258343 -0.5390990706919138 -0.14834856582661146 0.07161065166099596 0.4872731255119774 0.5652544094050527 1.9963697328006251 -0.6073352614301945 -1.225697207628659
3565 0.195994267191732 -0.028697872382098123 0.9628339252849988 1.9156567560428728 -1.1914134942719334 -0.23691887818978907 -1.1014688121269336 -1.8835176906085707 -0.03843375827045996 1.129556911520048 0.7498462007027795 -0.20457998955024426 0.41367913940799306 -0.8197447116930566 0.34317261615565275 0.8447026009663886 0.026261649206192048 1.4351834151075118 -1.2173134167542823 0.5903633662760582 0.025158676016616567 0.4073131997317098 -0.18557908094746536 -0.23302788346786613 1.0668052641227463 -1.8050089202272679 -0.8806285115817337 -1.4735010756344384 -0.630489804214738 0.7068027022716022 -1.9080147010160065 -0.8422075715997063
3685 0.12892778766074547 -0.9091680107234794 -0.636365020996244 -0.323578041792964 0.07189709675629251 0.3532716296137782 1.1672016690630613 -0.015273733493292165 -0.6189899118499704 0.8758485334405773 -0.33915953909522395 1.351408323906652 0.13019511139312762 0.4262619040473437 -0.20672715477459733 1.0151046100909276 0.8533158856971339 -0.6496926754092008 1.1487920058834395 1.2103061515688802 0.14120602400159232 0.4386222701519835 -1.659248888971748 1.787827989152348 1.2807181712868743 0.7622632274275146 -0.036446353010074685 0.245272066807658 -0.42850943436686717 0.4265397211745688 -1.7286995094721265 -1.2273667556999657
3727 0.55431374594737 -0.9185155147952181 0.7294769613291268 0.6815154627697918 1.0781579535046228 -0.46684839123829897 -0.4056525778294853 -0.754011018424953 1.4136922354564823 0.5031159755154847 -0.32749272207533614 0.20524182309595954 -0.9446934550145165 -1.9926048115621007 0.1976939284178123 -1.0955636717343282 0.7322467458090336 1.3337478690717193 1.1801388632069243 -0.8821988581402647 0.5069378362191446 0.9636849826957222 -0.39746551497255683 0.04994655174546144 -1.1110191583487914 -1.5711593005702482 0.5519044058354206 -0.47027967311086116 -0.12191566564282215 1.9135200600544369 -0.6084911551997918 0.16050560555421753
3758 0.5716875044836716 -0.7331207278753905 -0.1272573858540826 -0.0803429474908499 0.03503261281484894 -0.19896586904698393 0.4472985188507078 0.9547722788131853 0.5684975837591979 -0.6907705963686941 -1.7242955673293545 -0.039305546113132285 1.532887313680107 -0.3357342107748199 -0.31633615479606125 -0.3270927614453399 0.47282003311851045 -1.1956228115273968 0.8178450823875792 -0.39337023844934815 1.0312006397131814 1.6811279801275878 0.03263696402350727 -0.09787031701282649 -1.3185606450762528 -1.7641274889695482 -0.23446448171582035 -0.6318480030001458 0.33968433364243805 0.3328711665178769 -0.22048086750253162 -0.34518544451328603
1096 0.9778809953221934 -2.2765232071690953 -0.08407115759655935 1.0790955626951098 -1.5227409007984298 0.058767423724319603 -0.3001611943293946 0.1493842579360227 -0.603292431105476 0.04093560906244206 -0.7675710364783327 0.1375859810381215 -0.8231794917527187 1.688824273731164 -0.9040993071657188 0.33362291465884497 -0.2656641537342312 -0.7500943533105305 -0.5663057160985626 0.7779811627500913 0.527758665596729 -0.02320454776457826 0.05056625300772159 -0.5253585808252718 0.018201705507355097 1.7178746827244296 -0.7280913559415072 0.5846629873084139 -1.0768195394459146 0.08934832526440221 0.6572216851215805 1.6625824829587803
2101 0.6670098391898978 -1.112609789576759 -0.42308279295823376 -1.4773194360381565 1.0267346415558884 0.03947481093016282 0.5788100484319606 -0.916719099129217 -0.29020995969104135 -0.12044066167954079 0.10765383681344974 0.9349497695296317 -0.7449928171901038 -0.4630308018338824 -1.3519748966709426 -0.8366614097105255 -2.908266902317228 -1.8476632425241368 0.7770189434006222 -0.748201540433277 0.6117140626902744 -0.5361042548902417 0.309069686332902 0.6602311864878523 -1.0152084262869308 0.12884955513844965 0.23673920952490668 -0.6638721544908466 1.8687047508529329 -0.5723457121425718 0.31270204234681487 -2.2101634304748417
79 -1.5175781965108028 0.9165526988855397 0.9700678172626037 -0.9062053555566989 0.3275887686480153 -0.6309728325116344 0.9241759492416844 -0.15527953003634104 -0.5955126300291229 -0.2568329193116259 0.7207724757642953 0.12178768949530176 -0.08651824484532884 0.454622275234661 -0.8584178729865817 0.7726669227474408 -0.7570322582799242 0.597659946839715 -1.4581774336294264 2.093691511604931 0.7982469004139934 0.8188892564661492 -0.6385811362965319 -1.2615520232119934 0.30018335153360715 -1.356411205049948 -0.0016834172636169536 1.5862894050315488 0.8253328292830941 -0.49356266039772856 0.009244394336645978 -0.883487959145092
3 1.6263401144761107 0.7817101376000433 -0.3191972140034923 0.18596297825632757 0.4845320877133103 0.9549636906648563 -0.7303898988852346 1.3625949271051976 0.07911525550267527 0.48403087744953355 -1.9820034582415569 -0.5606598427437294 -0.33773797940090056 -1.2057621733816253 -2.026719344898939 0.16035402331381415 1.1408415931257465 -0.777507822000595 0.8996384890312673 -0.17688052674839813 -0.3428723457466668 0.20451456394163156 -2.1576950635800825 -1.023481861538567 1.5526907780598587 -1.2680512224604705 0.3383062709857897 -1.1574440173111817 -0.08424503530100554 -0.0351258191209361 0.8129742750688348 -0.07781144794935564
460 0.6245133259487342 -0.26966600279001357 1.5123913657087213 0.019943334381541562 -0.22956740128137793 -0.22427488820037028 -0.666567833903538 0.5206171940392701 -0.46624454452618747 0.6613452790792552 0.0060171419206380495 0.6531938927350183 0.6770388400179204 1.1135092421609531 -1.4827345266929237 0.125216712966043 0.10213226551305088 0.7108757357027067 -0.9352596216558541 -0.6109461718792356 -0.2778410558653462 1.3568508912150232 -1.2081637774615883 0.8491608671052983 0.761790226396432 1.3407843576303908 -0.9841368729228984 1.2509686525070054 -1.5408592584292717 -1.5609566197287479 1.5171464506255703 -1.0150256389356451
541 0.11525624482715136 -0.8197974974589761 0.9137390535058011 1.067212275305985 -0.322450650316925 0.20370757686914798 0.4424294749608848 0.07785258882687295 -1.3061131178781953 -1.91831800789717 1.5211379195249957 -1.1012936531940847 0.3284171678928376 1.445806587001619 0.1768666207833925 -0.8023701361099489 2.486156489539853 0.10575532393605377 0.1557124545656045 -0.0823400148893984 1.1108274440464518 1.030677523000829 0.29265581560461207 -0.18612126428255285 -1.0395898319188854 -2.0603476848358073 1.044187261868259 -0.596651681259389 0.8907805797505888 1.2866631532547668 0.6857309032857043 -0.8444154244868517
736 -0.3903782211470657 1.1776860551802817 -0.9135648814415946 -1.5508984764082736 1.2899436372626127 -0.44593915715266463 0.320150025588102 1.1477526971643868 0.5907608292867486 -1.0482305562827272 -1.2674347696353254 -1.42896805126174 0.7515681363189254 -0.16668164439660374 -1.096203581445742 -1.5097856549967528 -0.9736665100194879 -0.2619082988887353 -0.2668656457520045 -0.06844958498365249 -0.3965085491892992 -0.4258425066498395 -0.6393339404701748 -0.7019386558914841 1.0488389534946274 0.3348110863981567 0.5063327806874258 0.5600641886447103 0.12672672553260145 0.18616556984642998 0.43280353092008594 0.5546721631575184
1117 1.1857008241274005 -0.7665279626173404 1.059541314140417 0.8845830619196274 0.5242926437541998 -1.4691236960104066 -1.5608836099987617 -0.9739067106757879 2.4083707703325756 -0.11269421515146637 -0.6741988155905649 -0.007887987304754028 -1.1679236402017066 -0.0013097214713098985 -0.539389433507865 0.42868135030181037 0.4385337108445701 -1.5079839723441628 1.5982299053081443 -0.5097115442049525 -0.7853290422191178 -0.7790884497426674 0.27091371992249696 -1.1282949529225939 -0.31826318933544334 2.280360898553652 -1.9957142892117494 0.7484454732444317 0.4218680343340878 1.0118941204073533 -3.0018971189715855 1.962496281952309
1119 -1.9669538024147348 -0.6614151588733154 0.7139081928147174 -0.20416977860533816 -0.2709998454664863 -0.3781804343971581 0.6377225352417136 0.6132757286201014 0.3882376417173958 -0.5097028513965047 1.4902197318442316 -0.012071652876842573 -0.24224892798627926 0.9143696682241815 -0.33379149972071287 -1.8052793257280062 -0.28534568826319784 -1.2096195962271035 0.6545776583673547 1.9022163726466976 -0.19596019495698447 0.5864159947564422 1.1951133415832798 -0.038083775627265226 0.5649465580810142 0.17626240306154986 -1.0932603750627086 1.3598526458764713 -0.9323839914526396 1.446556204774357 1.0087958798820502 -0.5827619844616686
1364 -1.1182974503620748 -0.33788965536295296 -0.5385850808340987 -0.38672699564857277 0.5498128579369496 -0.4557779328146093 1.4154261302418691 -0.12317601635923346 -1.1376826615209366 0.6276092427592836 -0.9245131527953877 -1.1279218375066675 0.15308729550336286 -1.343652901878333 -0.7657985918989043 -0.8255233591198381 0.07143178663377443 0.0799202159652406 0.04443518521533653 0.6844536083736542 -1.1318697087582292 -0.6334922152906346 1.3991952543373194 1.6337535614760852 -0.7684047471723713 0.7014760172287838 2.064116771824492 -1.7359603418676848 0.511184076287202 0.4510504305838889 -0.02582370033618724 -0.23355748296201176
2010 -0.9516212289397763 0.030259476179341695 0.8684999385638548 -0.8392380743947684 0.37006349652325354 -0.3894776351745795 1.1627519521358465 0.11452063124439889 1.0087935052646575 1.1384894913493204 0.917031792205052 -2.2100021995880197 0.8264557805139173 -0.19388306996369797 1.1403515210598392 3.1103554411507073 0.701967881780181 -1.0380833884197789 0.22666046873971785 -0.11459282649893625 -0.6209043648519471 -1.0076284255261563 -0.2727989913821307 -1.085835917492873 1.5321547449034199 -0.739173203782195 0.8338155546531775 -1.0289003163108135 0.7017822245562753 -1.4246124912955622 0.7053497472863973 0.09917482063652001
2029 -0.036178921470351406 -1.7935605868891904 -0.06816249160126574 -1.5290281859898456 -1.893282542589902 -0.6519471801269413 0.08011890616830351 -0.2183203338527937 0.5630586871179852 -0.6034203657666635 0.3216678778262637 2.0216686055904374 -0.3312435804157012 -0.17722699053673097 0.34693041541431074 1.3141660479928843 -0.31347837845659904 -1.771295201654675 -1.4664512123749818 -0.7423050484395842 -0.11166698386763145 -0.05215199597501853 1.3293375938826102 -0.48470205091655455 -1.0426381015900104 1.5094332269530017 0.5966823308608371 0.12534358537315268 -0.42342267468510436 0.330638124550528 -1.0541021954778864 1.1315614921611106
2236 0.33718763453259837 -1.1084290346239556 -0.6578357297388276 -0.2136913034377243 3.0236584152362966 -2.050918338349574 1.4963874945523068 0.4942875686140973 -1.3013522088310028 2.796057194037646 -0.8216888615583768 0.4136960172188164 -1.1682659062133378 -1.6260002181179487 1.107277394643871 -0.8128187200339719 0.08364826182274544 1.2640569616100545 0.400420031782851 0.2206436880113215 -0.7302935981622475 0.45182174330087166 -1.1486909217171104 0.9053428665218834 1.350196518877687 0.3002450216101287 0.1727884407197119 -1.290728375447062 1.2554514001460817 -0.9910917449757214 -0.48724805705879054 1.2338725282857539
3845 -2.1876900349084965 1.5888321066277202 -0.2507450253758919 -1.196896515658836 1.0489598451166715 1.1928558952338437 -0.8523282342987291 0.7706621876218053 -0.9946966396550972 1.1923786035634627 1.0922534460403122 -1.0576614672037512 0.016676658756997597 0.8051732995612941 -0.8929011794609044 -0.7499136202384378 -1.45115689630666 0.474892804259889 -1.60032873799084 0.43213866543252666 0.8234718239177024 0.9631797747944276 -0.6079040416889016 -1.2357695891186067 -1.3573869872608366 0.3865820558889729 0.8628507596697008 1.804860223970916 -1.256219018802718 0.7463528406898461 -0.5597215314614442 -0.33872878938924933
326 -1.1653252812441381 -0.30506909355152445 0.10383744780306114 0.38739296304431975 -1.0425410918992866 0.9875804988025252 0.023909765788503397 0.11248895438878827 -0.5387423093688347 1.5600224606255777 -0.5115013681577563 -0.3051413542466864 -0.47982788113362085 -0.7991306439554386 -0.735102186858033 0.1347800691397031 0.7907036864202276 0.33556724730333387 0.4902128286798685 0.9209615791123962 0.2629441467061849 -1.273820246276829 -0.7049332719094659 -0.3489994574484416 1.3054702392464732 -1.5533686126884305 -1.9779878540219986 0.9614948679256958 0.6062238503324411 -0.25391135293423545 0.9326888246569183 -0.29096011657529824
973 0.38926193201806136 -1.084002600916093 -0.5367826473597898 0.7297615876943035 1.2394887212621866 -2.5572187813317355 -1.4445507333266114 -1.1778672556564143 2.0390230559707 -2.4058680054070396 -0.7681957071234583 -0.7361925733132111 -0.943120221253251 1.6680464243573818 -0.04385696899259892 -0.19727471250213635 -0.7727405063521539 2.37191218428505 1.2911368992650518 0.8576077206890359 1.1442518470432255 0.5023298463790952 1.826990357852234 -1.441056069755906 -0.7849712864854163 -0.5551075768193736 0.029467042450246218 0.49968119281960155 -0.7066270773048985 0.6120112485043182 0.05024650706452739 0.32470096162928497
2232 -0.5860783989668277 0.7866005834914676 0.15847489427915187 1.7429746604849559 0.02255070524533622 -0.19388489791820349 1.0129398003174208 -1.1554482874640861 -0.18041869599037907 -0.730533832929622 0.5274917708284114 -0.02770902764110713 -0.2947377926273322 -1.2994573244324203 2.0575246459492007 -1.0851900330265156 0.0067586226225792275 0.5636140194782747 -0.2877437530910686 -0.4382848079788646 -1.066285450710311 0.973024561785546 -0.7925054038861726 0.6316673668686228 -0.25936030038178715 0.8454420423232278 -1.9909555220498352 -1.8099701912545125 -0.36132501126864613 -0.013543085252543365 -0.11380775673985272 -0.24186716467098646
2517 0.5240815102314182 -1.9606096135756306 -1.0863571884981924 0.17632640542322994 0.18603240766622306 -2.6054187840594167 -0.1533496698211007 0.958995143509628 -1.179123892054691 -0.8276718577912864 -0.7625724392602068 2.1313743672332834 0.3550666775815854 -0.012299050748264038 -0.35726699006898355 -1.4271681409789698 1.1981895933620479 1.20487638539267 0.16827023874795588 -0.264128767684454 -0.9106442753881531 -1.754253504976377 -1.9204829032499737 -0.051282774845930676 -1.5707369052177722 -1.6983448189093588 0.016075770038265512 0.051271881380702405 -0.4172607873433727 -1.4034774066369091 -0.8452795160471318 0.3517465961258408
2578 0.3263369832658885 0.37172371267608506 0.8384013121888252 -0.1693832023513943 0.6395743833854645 0.5048576571125644 0.7930438928787639 0.44461208646792 1.7809638062114623 0.6961996871720816 1.2641835502583534 -0.2595918480714133 1.4093301979062298 -0.8060036740311987 1.8245552667212548 0.7984164650670523 -0.2892340541398241 1.32347327372581 -1.9669380769271405 0.8395988955582852 -1.2802376007618632 1.1134879550114225 0.8375417362266 -2.1417850021345375 -0.27624139337008796 -0.8217277881020835 -1.293363165743389 0.20899803501198014 2.3891798504248905 1.1414662355010023 -0.6873853581231387 0.037031569295399094
24 -0.683483273144803 -0.22263930504405285 0.6775984877980945 0.8791993815028446 0.2823507032739283 0.20707727330403333 1.2671377571534503 1.4858584390323282 -0.7915612711737694 -0.5577471810439203 0.4279775864915938 -1.8454233272459388 0.605425788467619 -0.7649555618635815 -0.35995413018656586 -0.7906018894326852 -1.2115730750391658 -0.38503002581802487 1.8017692883313878 -0.3574557574554223 -0.1128770405915139 -1.6966306601697352 -0.5534777994466414 1.398116285745792e-05 -0.6249231556825564 -0.3396734335318372 -0.44857667606171947 -1.1209888826688907 -0.8080788496220939 -0.13227331255337507 -0.47037201205693524 0.4901239232022317
228 -0.5895074412897244 -0.9090082680823957 0.3687845869890606 -0.39349862047392464 -0.24100582985527486 -0.09361445270186118 2.163287940544196 0.7191203183146866 -0.6594717705793078 -1.3184760735733778 1.2285641586211595 -2.7677410313436246 -0.09673680319431402 -0.5226650581848388 -1.926521874001718 0.3970280520240895 -0.43886633099080485 1.3227437022458208 0.3672693740697092 0.7536998212576254 -1.97594563882703 -0.5709460832949069 -1.0603753524385315 -1.3771619931221755 -0.673724469644017 0.4865601929744147 0.4418586317736912 1.996214842756849 0.7396992305470226 -1.9216740072340717 -0.47361480209312024 0.9682176882039044
409 1.0456052223444605 -0.083819638519634 0.4067869693021721 1.2925956154220761 -0.08022485303704349 1.0398497205567978 0.40740724053414684 -0.6265441120252196 1.1483679538068097 0.7716715329725059 -1.5450956375579092 0.40715409545130343 0.6668242521590272 -0.31811565164268124 -0.4026733245943767 -0.5476504403499468 1.8288880231292792 0.13615605973676825 0.6122192071478105 0.2907834869894305 1.9227977649203354 -0.33934474964676975 1.096589958641009 -2.02243495267186 0.9361280373996228 0.9941449532920545 -0.8916037745622165 -0.15710634267166507 0.39971247113936703 0.0879618021957853 -2.079909186895135 -2.66743045833417
558 -2.245655053398193 -0.9415318667267604 1.2031374053847408 1.7576398251321939 0.7392207119321736 -0.9009727392053781 0.42108909470286937 1.6001970878415532 0.027984421468457078 1.6240633576077246 -0.47637808693970934 -0.6011916848421807 -0.23950848493640273 0.472270816827172 1.7164464367415027 0.16673699389107113 1.6019306703607248 -1.5189812190210705 -1.5909616669801894 1.4693791475489348 -0.7605130721509407 0.07671097153430974 -0.2700284090914264 0.05457417675279198 0.914024614169573 0.47722364226953184 -0.5862019488665842 0.09587172138603046 -0.7537365424961681 -0.40733792111504047 0.5937194141851356 0.945479517250592
732 1.601364117821823 -0.469426903564625 0.1539429127790109 -1.1385072663411373 -0.7225370866157629 0.425032104691792 -0.608562362594249 1.2029170838097034 -0.006343439392184787 0.15345454727434515 0.1549797663008323 0.5568957973872889 -0.36716904133358264 0.060629288605495095 0.6349254309096011 1.6047934515555975 -0.9419422821922154 1.0025340611331746 0.877329301073595 1.7702668848969667 0.8057204600878612 0.8489063348906107 1.3116512107268277 0.1433179885525947 -1.317243011838961 -0.8729393632241707 0.07237701242792675 -1.2142953941225494 -0.8272967286664299 -0.6354541891552015 0.4089902945292966 -1.2101472208896547
776 1.4445797852285223 1.3370483174555525 -0.3951811464718912 0.2715561061091624 1.8648984047886934 0.686064223361231 0.2047169466221225 1.053583137190808 -1.590915254668082 -0.2797716883599841 -0.6203691825368096 0.004249522001866448 -0.6689480674233399 -0.8738338474787815 -1.4702989393505137 0.29222351986080897 -0.07847907261928792 0.7128962259799296 2.5386744321605144 -1.7236147326057605 0.5211458187787801 -1.410602912628824 -1.3676001391733252 0.12345227039510569 0.04519606134170123 0.45967041965243033 0.3385701094163548 -2.218412730153719 -1.6045177618880606 1.1264123637524592 0.7750930929527184 0.14063422846584966
864 0.41881943146212874 0.15538396300166357 0.4362757034165055 0.49368615146863576 1.4176280175410403 -0.6348316728093473 0.366979271457232 1.1023556458343395 -1.2798257374310418 1.3512317473068531 -1.4330013484199686 0.12574955082788578 0.06804745499409237 1.3334859253315454 -0.5041111622879318 2.2333985604612416 -0.9712708788421995 -0.1550473004207049 -1.333719674309798 0.9389059878510638 1.706772803851364 0.9306764837677921 0.8606574946084464 0.2767174030619637 -0.6879453749479466 2.4165889544926236 0.9241366745033706 -1.3218775322700411 -1.3832186057233822 1.0347610600127073 -0.8694352072250111 0.20329759546066622
933 -0.9592841017173735 1.29699915076632 -0.15853398909894204 0.21264686385918144 1.8419627182972358 -1.4909899627252559 0.14510295267962278 0.23603282928061503 1.2406327222635172 -0.1845945880654398 -0.8504977786117704 -1.1754092499605024 1.4748477334227257 0.11080386412264878 -0.1502137117531018 1.1875038492439367 0.2713293137998505 -0.23656369357576243 -0.10703344946728219 -0.7882188986713228 1.369968374512016 0.3929866968107191 1.105840544870468 0.5208289036488275 -1.6770612539486187 1.4815765833208745 1.0470255122033614 2.4407028529219623 -0.0030237779627828375 0.07635982774236776 0.5578349223490584 0.43762679965382373
939 -0.4163126250237264 0.3117382625668451 0.8869653681846937 0.4355918365520332 -2.03539710881231 -1.082369008562981 -0.19139063304073106 -0.25469830876756533 -1.013946580733103 -0.4988480880799362 -1.2992405647012064 -0.23297471578985993 -0.5751218001601794 0.21561817374005637 2.2295292055184204 -0.1021806276501224 0.08380242832161199 0.3076780639206248 1.67750783023259 1.6598921030831268 -0.29105868426886766 -1.4758288641631714 -1.1598078611328362 -0.9620550487757035 -1.0626421950241423 -2.4082203861472675 -0.22346880058409974 0.07372809436704326 -0.9738080604290935 1.3900626325702272 -1.1777056009029485 0.3144938572254814
1037 -0.772065015831819 -0.09708954099031183 1.3139822296941537 0.9259754937267074 -0.7237553074110858 1.2581478094400136 -0.08088035000361064 0.7684876875595598 2.125302389284739 -0.3020945713942062 0.2898099271955242 0.03596314045521357 1.5418967930667749 0.5855588007949729 -1.0444927952599883 -2.5154298777018407 -1.6050719024381837 0.2470490566403814 -1.737703249307631 -1.135922903864405 -0.8613487480411384 -0.8038363629579635 1.2955498558358587 -1.0957379251557362 -1.1742205642278611 1.395956386936479 0.8641635655429727 -0.002931055042102198 -0.8723839228165475 0.2817288305568301 0.45777886500560555 -0.08720092382985045
1092 -1.9231175782090428 -0.8176135055444396 0.07485867158772144 -1.2755997287403995 0.2669087778445484 -1.391583803484619 1.2220967538761833 -0.13413867005507624 -0.8596876551584391 0.5033824388014868 0.04667048204056501 1.1780698288599927 -0.0732389742821269 -0.2766126292780892 0.7919865985077928 0.26675504412648454 3.296129781431665 0.1702331679150021 -0.33589354705392094 0.09786502880944252 1.6696044439664275 0.9118399965235968 -0.23440651569954668 -1.0516577688478466 1.3842401132844115 0.039019921953216165 0.3509082751755968 0.007327939301273661 0.31119388741251447 -0.82966498342595 0.26043452819342056 -0.7229006096949933
1176 -1.1810434145466688 -0.15493570350062086 -1.6589705259032728 -1.028091084034315 0.40888005471334826 -0.22946642684168397 -0.2326279132826394 -0.6609588702393052 1.279963266935165 0.4243591256210705 0.2767187544903033 0.5360774550288074 -0.9610196729696041 -0.05222046744535507 -0.6135996343555636 0.2705931045240631 0.08833576785011461 1.0147430981822305 -1.446242292802919 0.6226916640030602 -0.37150287389715086 1.0223462964494041 -0.34349885169291916 1.279448637320913 0.011980174014699653 0.16408984734320178 0.8481446968990374 -1.0139021252292464 -0.8978972529076246 -0.6924414608804645 -0.10167152942470517 -0.07853809650909371
1313 0.6713161344704449 0.3161587529101941 -0.24715142789261646 1.5794186626896212 -0.12684534386701882 2.40088217995678 -1.4585490102409011 0.9262568654320747 0.25842160584697493 -1.7556315869850767 1.2485748181121938 -1.1338799590157977 -0.8151248323320419 -1.6486923520735492 0.00982159925329065 0.44020740612149273 0.5728665371315671 -1.8181061030681638 -2.6795493611205985 -1.1339954269729493 1.0490296534630552 0.49814088694674374 -0.12543468668751118 -0.6311212282769689 -2.247975415778437 -0.2253349765691869 -0.37709723077990653 0.4187841871794356 -0.22473675236050297 0.4176146102449524 -1.1266447947802536 0.6443115222960175
1478 1.1984315339685896 0.22883495986990074 0.527664380446121 0.22871155008612346 0.6742430304003993 -0.6064117930020823 0.5339998007254348 0.48326685777150236 -1.2031193626225747 -1.2938728456125357 -0.5439288969197995 -0.9362008849752183 0.22349846747290408 0.1941901018309165 -0.624316004275484 0.7044889685495104 -0.83447203184491 -0.9786176610323333 0.06302622429633928 -1.315480369263882 -1.8069374964640472 -0.3159404992287435 -0.10578420435390413 -1.2559442301471024 -0.929866714020745 1.3292440415180578 0.7479705809159634 -0.4535626565738842 1.4099785420807065 -0.03933401955684842 -0.28178507195549074 0.7558071801172986
1499 1.9100108140224632 -0.669633502407647 -0.46327581647879007 -0.8131453157308037 -1.0250754493270617 0.30146349005262896 -1.2184552446730283 1.4788898873127097 -0.190720343563831 1.0245384189633173 0.5449573702290753 1.0974373125863517 -1.2771204197956123 -1.958951927030236 -1.553250749007661 0.08432682048554019 -0.4618192397766222 -1.520808329169886 0.37817736983188216 0.17792664104892777 0.6626423317161894 0.7405685122993769 0.11265564131972619 -0.7390179033927072 -0.10880059227926538 0.7893634291507283 0.27107161995129614 1.0487811290261622 -0.6038167331333342 -0.8429051999846424 -2.3994119787648835 0.40817604397455504
1596 -0.39966534116634245 -0.134477298018056 0.7850027672241351 1.0261370979052977 1.262935452206752 0.18619856823768421 0.5205219930070518 -0.07935432269417242 -1.6332869555862695 -0.10820514897774745 0.33821911132856475 0.18824360876752763 1.7224054907753061 2.543493602594783 1.046940675518871 -1.4857310432769684 -0.3996611845497945 1.9474558565391629 0.0499923720692041 0.8721952049093674 -0.09690709413102652 0.47294048585705284 0.09650037336218996 -0.8361816546409832 0.7635328578165872 1.385134028625585 -0.93256568118734 -1.3000664373058268 1.4300662847600083 0.5971842622039044 1.4478733701554405 0.026763108582702533
1608 -0.7442801739949052 -0.23963908581121834 2.2779659853989944 0.7792308443839758 -1.4400895738037847 1.586376550166984 -0.7890696912192473 -0.9996240004476292 1.5814361714524166 1.1803450050866977 0.1349308649627471 1.113296472670838 -1.1280148424810739 -0.9409759994376367 0.19226624251588562 -0.7948345871187642 0.2499039724214177 1.3756124518511323 0.43009717394885805 -0.41735008564596304 1.908942433802701 -1.3226518860465202 -1.4499418903916892 -1.1015303244186463 0.7124095851890948 0.7819854686517624 0.3154191090515417 -0.7725146744618878 0.7825496676795618 0.7278884326555901 0.24179798010670459 -0.258479450092697
1621 -0.016065747710267843 0.564610696854644 1.5268046736403607 -0.3298106014525385 -1.615076130368809 -0.9669726169099789 0.37723163126761344 0.3315045938333154 -0.40194549595284645 -0.5787024567955118 0.49883455368823787 -1.0674709342775894 -1.4018459699174644 -0.6619995947237387 -0.8296938179769956 -0.5745294897156991 -0.5571228037299513 -0.1976901215381872 -0.38969795329380463 -0.016630822405591227 -0.3623418900091967 0.29147790876272955 -0.7076843205846639 -0.5680287006152562 -0.1355241934215657 1.0486822304628776 -1.2801305845326938 1.1763422735028388 0.24444934525943776 0.26388066463646925 1.5403063583202699 0.5536857276814473
1637 0.6138129600805642 1.7967664959807144 1.7452291439659195 -0.0435231504131112 -0.4523791811651901 -0.824006728424524 0.4221784307299188 0.052211533756737746 -1.6899220023521293 -0.8931131867092346 -1.5690007690970784 1.2313662293095016 0.20361531286259726 1.3061851784485534 -1.1204620902830753 0.3750618523784934 0.26618527912616846 0.282031254874327 -2.8042925923306234 1.749326516105093 -0.017205293128346708 -1.4424449526075858 0.2776482441857117 1.768886440406804 -0.5254263174304635 0.3767209574241708 -1.3007139301133324 -1.9591264107410904 -1.4707916666104384 1.506752811750878 0.08297463383750757 1.8794252256588129
1717 -0.8090187919549503 -2.2162639561074324 0.26495058962326246 -0.3830621468975867 1.0584584433893403 -0.12016469042808571 0.8955572792630097 -0.42156137622907314 -1.2195947694662257 0.388581763280972 -2.5840340777431465 -0.38932222018845875 -1.3115262567036978 -1.1469195864395743 0.3624899159858227 -1.683106979177452 0.09398652066391186 -1.7053607422764 0.7586547202996995 1.3184346256017705 -0.3231417560366961 -0.5758888568753591 -0.07957343222447825 1.0259805916521856 -2.5016641882878328 0.06589614057399196 0.08340175349340544 -0.30674619742117226 -1.5351726740533942 0.6408709673175828 1.654140132491397 -0.26763310454975114
1788 0.10733373155566842 0.5912095706226856 -0.5028695263036925 -0.3249755600597868 0.4523297020252903 1.3667277686701151 1.090733724228796 -0.5197597906049579 -0.8533474183562461 0.7679103126835142 -0.8417244291161262 -1.8728066568763633 1.9248524442428907 0.31454549420651157 0.2611919206379899 0.8771704913245324 -0.23722338071786916 0.23493959857433955 0.16973733198420088 -1.285920658092028 -0.4743764231551147 -1.8352162008002584 -0.7907442888595739 -1.4013652782996682 -1.1337730929575265 0.13017847398410906 0.3877998863423055 0.709595056742534 0.01834665329607073 0.3738343527354471 -0.7025633093340886 -2.046809176473195
1919 0.17930410998169066 -1.0428098322333699 -1.1995483492545762 0.6899183079656358 -1.5053407667111465 1.0540950449195712 0.45164133131572387 -1.3161166446935446 2.57930059224612 0.4441914923639104 0.2425502773059625 0.10384736794858061 -0.9676348927275963 -1.5676576646669593 -0.7269344262961202 -0.7548336614458933 -0.35933644574935375 0.18608411073049552 0.4575964051554624 -0.7670785372702456 -1.2133140897075143 0.30832169969889295 1.8672776335695482 0.4815823763689142 0.6338016378308827 1.6033563138615077 1.0071589723181302 0.6298211979755914 -1.4483879708735745 -0.3111719100267984 -0.2837300519196266 -0.45160332069130643
2004 0.4492482177857149 0.6815735222934922 0.42796667112680276 0.007919470317188714 -0.19604244306278235 0.45669441299104574 -0.9507422994376894 -0.20428812711270458 -0.8634272157893775 0.5382098930620146 0.23557194758301567 -0.3936467602666602 -0.13688726137701374 0.7306856295500354 1.0542412514206811 0.15494637284273452 -0.11880739850864061 -0.10829640467647375 0.48578680105322664 -0.07527850079868668 0.2045733975496277 -0.6010950110180052 0.6050266699064412 -1.813412421733538 0.1930833781204432 -0.6408346741262365 1.3984517257447249 -0.10141830381074997 0.47292421473790297 -0.4488277093188285 -0.24920780667984513 -0.6056760124387651
