3906 32
729 -1.401948948775795 1.111469548009182 0.6157263636990521 1.2510043094501329 -0.07734396933254888 -1.1526413689179853 1.2463552134128844 0.7301779151463151 -1.997980654300102 -0.16278318265597375 0.8391554947734599 1.2070074840663425 1.7301744416871976 0.6569275431243586 -0.4358714296423488 1.99669003758178 1.3027954727082744 -0.547101685286243 1.5646538215545314 -1.3065311218128492 1.553020435892667 1.3885669581606679 -0.22484793584771762 0.10057120760116202 -0.8910509626842037 2.2403306569938843 -1.7029976089596284 -0.3055270811714389 0.5774504885901474 -1.1403194304547468 -0.2228543652405134 -0.08850137240325318
1 1.5077236017003013 0.04887047637163937 0.9663287563210865 -2.104321710102548 0.6542162809117583 -0.16474552200204318 -1.9718652258019609 0.5282684809917855 -0.961215628151724 0.15600902655006402 0.8885981347125699 -0.2641482832336622 1.0578664915517066 1.4741963950619938 1.1272801197168174 0.4915917344722435 3.0022486061721567 0.7539213320507692 0.9328641908887938 -1.7340499004276615 0.6562659924155514 -3.4161569240916094 0.13426091121884282 0.30935131854723724 0.7221524245876213 0.029159043291902827 0.4126692915697067 0.6092389518862349 -0.02671523594043936 -0.6140060060633729 1.171378317434244 -0.146736270036437
335 -1.6514771701092514 -0.15397358525863616 0.15381350274207672 -0.682346336711621 0.6700357740239082 -0.12548367151326192 0.6126806467805009 1.108896223372786 0.7731003817768882 1.0806019689434863 0.12123196099219403 1.0027289767168919 -1.1892525553001112 -1.5768963504228124 -0.3230241704954148 0.7051902727688076 2.559105569030971 0.8720890190399802 -0.07047899474254608 0.7031781553281637 -0.3193569775066391 1.0562877209051444 0.8629768397484896 -0.9925239605270524 1.4463935026017114 -0.13290122447909286 0.6067225875186174 2.7438957202211682 0.7910729781263371 0.28079227186914457 1.1724878050124463 1.1901446532143765
585 0.3018876373605526 0.8746871557526422 -0.5271446222622961 0.09692872012960008 0.7781501544050179 -1.3979730317765464 -0.057930083207711494 0.14647602450921 0.21757467726011911 1.1958774540753843 -1.8337764418348346 1.2202278863567313 -1.553033501502606 -0.6782309396973758 0.9366522138756885 0.3900559115763758 -0.09057670192863497 -0.013593920823747807 1.5419616900208717 0.6046122442212273 0.988034265660541 0.9170009504673916 -0.510565699989185 -1.251639630654614 1.4429091059312835 -0.4550757511242013 -0.4098196000396871 0.31037063012914684 0.4970394445043982 -0.24215752580116046 2.7802597321955203 -0.3153613875951469
674 0.4110951610537016 -0.3395528591132543 -0.48669242166209836 -0.9484361692667093 -1.201310370878516 -0.022614781437615094 -0.23786433329385953 -1.223670887416249 1.0468859091473686 0.04541444741758383 -0.29305982688469434 -0.8093733575315271 0.4852347867538012 1.178882377567154 0.8640159492200115 0.1374549585320809 -0.9831428845549138 -0.03420065105962815 1.469352623974518 0.010281985844849201 0.0807781617563123 -0.033682548509170324 1.5502816455055206 1.2634788679789268 1.444283651764215 -1.505522323332106 0.5487004671263161 1.018196644198858 0.9355437623604412 0.09259968195719977 -1.1917149390918405 -1.1242511775112658
3178 -1.4364654741513978 1.137783679847385 0.8988409966109815 -0.5143893055599668 0.7994418708808407 -1.172023188328099 0.985590381982913 -2.06706489173444 0.3135269892422062 0.6673634510536137 2.719163768770019 -1.7220168784442584 0.33969530141510085 -1.6184528459233851 -0.26145951116536975 -0.181213993173357 0.9178643799700251 0.3737793271610707 1.1557922822210236 -0.8126133876652343 -0.6202788581327171 -0.17214914777689905 0.3020127815400155 -0.2728100745274127 -0.3546067432891462 -2.119888552509591 -1.0315233371949932 -0.4069308731692954 -0.32012828317624625 1.9427630175922945 -0.35555845067774094 -0.14139800523096865
3715 1.6072834652569972 -0.017171327270044858 -0.3382197215771449 1.2248386511048712 0.5266958342380458 2.151578294898579 -1.4775744305427625 0.03744727270576558 -0.4788044201461361 0.5858010308928298 0.6785224506478869 -0.6429519910460402 1.0562955226247475 -0.6178866271421716 0.06669754840803489 -0.0934014516972761 0.3051929687205764 0.7991223032451853 0.868334974606454 0.7428084848201628 -0.563167309059861 1.0447539534461032 1.006499863625179 0.16974982791695578 0.7686965198242558 1.3919239979742637 1.8128742703842313 1.6269547947593244 1.1279041457012116 0.26525727114099634 2.7671082771011273 -0.601790042756165
50 -0.736666818966996 0.6031188058233174 0.819592704538253 0.28868810686534635 1.1757296825017203 -0.3741430526532208 0.04576542332283405 -0.8331951299268376 2.2338950334058936 -0.4030062121216008 -1.3237768659699558 -0.5965401651771894 -1.0384822959876736 1.7273030129659304 -1.6737576487673633 -2.6598619234319303 -0.12088609776388186 0.6105762532990056 -0.3384686729048223 1.3412550329003634 1.514079500618769 1.222177820064189 -1.316375869208103 -1.042003490207225 0.5515955134212109 1.0787202949300296 1.2242897923697404 -0.9757071273039436 0.32630416837507437 -0.9202024310587876 -0.3418286244004019 0.4776903822089985
193 1.0715819063028735 0.7082730118883804 0.5160981170476506 0.21021013781920825 0.5793771304076316 1.0609052413529998 0.2691471692653203 -1.117842357311817 2.6959760883364914 1.0269764543598743 0.8493830007300432 1.373249057174265 -0.6042811632968655 -0.01980585650166928 0.6362341191807156 -0.43981536946496724 1.7330216426577614 -1.0937132041878763 0.2604923999070542 -0.4245661792096684 -1.3577333123061428 1.4555845319320107 -0.1421234805389069 -0.5006241979481131 0.3655477228177241 0.5191050015361746 -1.0272132790585304 1.2222789358123698 -0.49168491323860947 -0.322153929478503 -0.16729778422926045 -0.09938768751755786
212 -0.2610180812741519 -1.9096558501327618 0.4853811326214207 0.8619736186184175 1.2085845208348491 -0.047655788819221695 -1.3892078725404182 -0.61807719026322 0.849437484852584 -0.6031169185217058 -0.10439540117066892 -0.5687841738835516 -0.3941884836077987 0.1353571121232004 -0.11986151143981323 0.8882826584935647 -0.4152942278785994 1.7040927464579363 1.0867948525655962 0.187474308520847 1.4880735036548745 -1.2041354080848163 -1.8231656018103337 0.8225513785300134 1.2989324381766654 0.14427269287339692 -0.8204871283625801 1.1059292773249636 0.6837194044912845 1.3554881181732308 -0.05456996084979114 -0.764224488692478
222 -1.0004834509837275 -0.5507140787343396 -0.16688823646352238 0.6592851426550262 -2.3694756723735497 -0.6388198388080744 -1.6457430553713115 -0.12406540881037659 -0.07021086993851129 -0.2647356391327129 -0.9850771492540098 1.046993377663759 -0.35353313323782554 -0.6010229687883379 -0.13273345268313008 0.7626261353260776 0.457578014946335 -0.900427367073787 0.8308660347722039 -0.6086623790005752 -1.2415933325509756 -0.0121224659817634 1.3561764088806414 1.1749286182974215 0.34632639839463164 0.9336556448697357 -0.9630426934954054 1.0027374804452003 1.3117982058507491 0.9144649297979042 0.6832139794849859 0.09638522788913705
847 0.13341444979702521 -0.5239899351463878 -0.09622683151095761 1.4315251039617864 0.5694030469153789 1.9881011180800778 -0.9505043712799326 -1.1973626318738153 0.38399372813588506 0.5738947555493767 1.532278908590443 0.8062114625954326 -0.3810655749720646 1.304894024106245 -1.6452076773804047 -1.0656754949234393 0.8411293475052268 -0.449729530888423 -0.3294991611727736 -0.3593145446447117 -0.8170166111388159 0.894048805249014 -1.0884137152051732 1.4374114646740357 -1.6690146154987704 0.42672025544021647 0.9312525845383482 0.8849192035444763 0.0011988861236060184 0.31799730631534884 0.23665030407109197 -0.05433685183924106
924 0.7195309766813255 0.06741719671814958 -1.5961999427358924 -1.0660921730238333 0.15601831389622897 -0.20574507764012503 0.3416331188719587 -1.2933708640286747 -0.012182786270826269 0.23004325532980427 -1.065368744195945 -0.5224825825210488 0.30474739804991113 -0.2975332159247378 -0.014551516623111535 -2.558523017394381 -0.9418560147454366 -0.026134871957276866 -0.10773175094188933 0.41502381065035115 -0.293517617827455 -0.17664862845592214 -0.29976611309673185 -1.7931617352519649 -1.0146239444032357 0.22376807237813137 -1.3022109435142641 -0.9535413807471141 1.076950037290751 -0.3799258298740454 -0.27695569424838484 -1.7795181552629438
961 -1.5560016520793543 -1.8584624395318334 0.1049579130626772 0.273259408065707 -0.8108021715590178 -0.7352598954035979 0.5146781857089315 0.29077020775800855 0.26344800165899035 0.82855594300533 -0.35513058903271655 0.5104411328854725 0.7616821171744892 -0.14028834342605256 1.0136124506931685 0.0038929433606864996 -0.8754298494936334 -1.7196165783072657 0.38911943697427714 0.2704845037824266 0.48919444835224124 -0.2633429632287944 -0.829616790456312 0.9834236949997246 1.8945715458988601 -0.5382325347091946 -0.9756371710102364 -0.1841199159430152 0.3396287465809346 0.8230994965010033 -1.6577946926840472 -0.07870371833440676
995 -0.25682854384401566 -1.697396290092252 0.32916225058847337 -0.6427166039144201 0.7681672834878708 0.38957785174714404 1.3477649720591764 1.2387540912298225 -1.76170244989402 0.6954324058017144 0.08012004772330297 0.21583513890789913 -0.6643643054328898 1.477793645538535 -1.2497088285158577 -1.0516116485347438 0.3731841956600953 1.3180880255669494 2.9503573083366694 1.477870913246588 1.1138809318952887 -1.2646523918326331 -0.3954735158637883 -0.42324671343067816 -1.7237542571185704 -0.2289321219106412 -0.27409670068491787 -0.48865890476086843 0.4722038258599243 0.14042185879063446 -0.697591612124668 -0.49670135772457036
1046 -0.6095778260731458 0.4648197045880469 1.6235349362768643 0.3781561899168094 -0.002147762540119732 0.021246172991096615 0.7040439485969645 0.0653804355020552 -0.1387979480900652 0.0687139962116964 1.5752264727916896 0.06375421079772195 -0.13005835175489325 0.1319030684781003 0.29165481961975837 0.2080631619279615 0.5381234028612362 -0.9814309594293695 -0.6310732316930575 0.9911150707974724 1.6934015286191189 -0.1265985089681363 -0.18501509050105258 0.573724226893584 0.5835414729265448 -0.7718757704080418 -0.4363518328299664 1.859164946777826 -0.4251715456423439 -0.4643531574725033 0.6120251535731891 0.016461063315196894
1142 0.30031334117554914 0.3220847186905817 -0.06001066748257643 -0.646558648898048 -2.2508841440188148 1.0039780942878096 -1.0585859595521006 -0.1458598404859424 -1.1031856735744359 -0.2843288750764627 0.7065039335047644 1.1108373542123642 -1.0565102227739172 -0.03404758234406792 0.27864514216698527 -1.0874782331417001 1.293211219363748 0.5538349670598838 -1.0121848777269646 -1.1827852219904966 0.567354275707046 0.3973641149972185 -0.28294156596838504 2.164558896167222 -1.4442082731989931 -0.20657781364179664 0.5192364822998424 0.9576028100498569 -1.516404671245234 -0.0324305876907729 0.5006970109983967 0.5637857439353938
1202 0.5671080345510625 0.19246720619840693 -1.0944525857660157 -0.534936987038839 -0.14276868063570403 0.15786178319271182 0.7695253610604569 1.188722799211374 0.9754074457713843 -0.16667837532099636 1.1774188005287174 2.1267041301353706 1.0794857839234482 0.3828209650734072 -0.18929037926240264 -0.012594499087791217 -0.0630984289420413 0.7515588069291053 -0.3523523766407546 -0.2815846571548492 0.8782893963022274 -2.1367700246553114 -1.5394182938031613 0.10812849835281928 -0.9186404843942704 0.4032630740465486 0.0452550652826261 0.316521578410751 -1.9426886888012955 -1.4559510063057641 -0.5298886229800407 1.1202131252644822
1236 0.11561126614188456 0.805868716021613 0.37490146215869996 -0.8162961028723307 -0.3389404944504561 2.429500288147916 -0.18300120351921867 1.4330414897239012 -0.36287827721144306 0.17079209340957313 0.05593587880736268 -0.14290885534260114 0.7753793081992616 0.4632613964241768 -0.2595486066075871 -2.222082122775764 0.7970551081305793 0.4767091878642527 -0.8727056711354537 -2.0123045291822543 0.011770396185193144 -1.880954535176601 -0.23182051846983076 -0.19355028668938817 -0.9613630217240259 -0.034944090925122184 3.492641779886812 -0.001063667618640735 -0.1076013160617357 0.3951070146081779 -1.4051584962594954 -0.2889666094191234
1294 -0.7654963779181857 0.13028863492776774 1.4264210888647648 -0.015699147554478803 -1.1756955666468893 -0.024993464025659336 -0.17927863636197766 0.22900192009237347 0.6511759853495686 -0.3634808319797587 -1.0724355583017522 1.014924007367426 -1.5132686546738523 1.0336033514073941 0.21659517969746414 1.4936090494388943 -0.35837559502709443 0.0866616281730794 0.3826203562351795 1.7598867401586593 0.6688766123294487 1.022297895627772 0.34257144798937644 0.9263845817202124 -0.37208256957757146 1.4339574976774585 0.45373085410352804 -0.28369143104837663 -0.05391473693772353 -0.04479992208612798 0.9260836107323184 -0.7867987773084207
1432 -0.08137588506852865 -1.354521939966684 -2.8213803062295417 -0.5837145754048219 -2.463879138354058 0.6517802936177332 0.3098837394347214 0.9105542914374963 1.1942727497313248 -0.9911945539054973 -0.5545753847339204 2.2531858139627534 0.38482215281642757 1.0875914098927653 0.21257899603511593 -1.4943364323437653 -0.09266328951281659 0.16872236170154012 0.2133107826163137 1.618545721665359 0.6810755168365046 -0.8836850092788308 -0.09266535728706844 -0.9516356978397436 -0.797588764290784 -0.900140442500519 -0.045450811205566176 -0.9711289542346878 0.3854414805444649 0.2811953327310288 0.8482936524446247 -1.0764379414606993
1489 0.3048951800969691 -1.0994845549760877 -0.9619371983816839 0.8409484518656593 0.44958679618219627 0.4497498660713684 2.1982202301811045 -0.34004997678112436 0.4536796133866957 0.05235523138075462 0.2706395545933492 0.8383481253369982 -0.10740950834271865 0.9978034617755832 1.8516289599952076 -0.10253668133823969 -0.40998486490919794 0.08839932635185327 1.7669017032381382 -0.184480732255544 -0.4853872733682854 -0.8831829862105198 0.6413792489663293 -0.8000465051817994 0.13564599019915696 0.528193608708505 -0.984034701223133 -1.8468801463182012 -0.4939164274281554 0.6385958648211277 -1.1336439613781837 0.6360155795616264
1514 0.14774870111954003 -0.9726854361995466 2.050097331977739 0.4669792097774536 -1.2899862013725323 -0.3461255775875803 -0.12860866276865598 -1.2676976755978686 -1.1098267059081246 0.3828552847325417 0.5298024424524067 1.6506472609054177 -0.2025553211221125 0.3617605602677724 -1.5299112170084075 -1.5883206829319616 0.5023771577534384 -1.6692034315543711 0.08698330080445567 1.1107974472293185 0.9868393166841726 1.331581811980091 -0.557252560672188 0.6308554965450212 0.0504570447619899 -2.440290684404019 -0.2279674270385899 -0.25353379755913 -0.717506780940688 -1.0369842125728816 0.9402043648776801 0.10286339219292287
1552 0.12929160688795943 -1.7379021446978484 -0.38658696273125215 -1.909872415135748 0.6347248114311277 -0.5190799127105609 0.1340186426848025 -1.296303142583971 -1.1311914966171306 0.5100827753583187 0.062022039975627774 0.10407093103253919 0.14560116766689785 -1.4326264268255848 0.0010793542651910356 0.24962751056432955 -1.14851997826948 -0.79532038878192 0.6935217560451796 -1.307567697865227 1.2816622668294773 1.3283497064035588 0.4054446747066139 0.7491473262309946 0.24434919745436776 0.3424788663205891 -0.8489248833087777 2.3183864179436138 0.6483872340190139 -0.2619330268720324 -3.313955361031595 -1.6641595388957873
1560 -0.5110434949420969 0.5997206138451734 1.2488476656196994 -0.7702512872385375 2.1986740598360885 0.7972424271811276 -0.8114434236564686 1.6492160718136093 -0.6202893428810919 -0.4807946417549656 0.11641413790889779 -0.030504559760390095 0.10347534207384435 -0.23796420693709971 -0.2618270461403972 -1.780496820181282 -0.5207319479379904 1.240123334274547 -1.6112093058939156 -0.9702525366108292 -2.0116584961035207 -0.379340287301702 0.6688526999032809 -1.24880879673193 -0.0977031884036495 0.6181533286959275 0.5169049043892321 -0.0876489097530718 0.6753442357471273 0.14922517922937525 -0.3255433763693737 -0.1392090636629163
1580 0.31831768362877816 -0.6834066241560657 0.19819591997712566 0.014460286009541983 1.0937862326667942 -0.7396546662437752 -0.4185415622227778 0.4135348167683189 -0.3519030779400411 0.424908978494388 0.540620475630386 0.6539417036550779 1.0917554719621094 -1.6020607656880883 -0.6351365907010967 0.4655269378477546 -0.6539853072297047 -0.04049212342499958 -0.3337598243119803 -0.26866416263192805 -0.9279503720735939 -0.6774754031730298 1.3103812787671472 -1.6422781050234905 -0.4118347026707105 -1.4275078628990672 -1.0368206398851973 0.11246581069099834 0.05698104386163571 -0.2526704367067487 0.046368584893745395 -0.489358994665487
1810 -0.8937561877240252 0.6159391219982069 -0.2735150722775405 0.5700663022915959 0.8837971427288758 -1.0742975876651644 -0.26636744778004096 -1.3084051620987298 0.6256124330667276 0.47928258941706625 0.9694092361256186 -0.34318075836207784 0.451486528724466 -0.3480288443508834 1.1263780123031621 -1.414339473674003 0.2174248241224592 0.4483498210459943 -0.3614106682386013 -0.7984498360911835 0.5207621534576791 0.6084638787565799 1.10941037855585 0.566715727966971 -0.7427271619193053 0.4458218506498779 -1.0446144749686688 1.5611377197784908 0.5036516061359718 -0.008184643419113867 0.9948571236983106 -0.3974935654922069
2050 0.22616178207260762 -1.7381782022960803 -0.3517991330009333 -0.8164057368123946 -1.210849687164937 -0.1749401668204294 0.5138846293952866 -0.16578906218045206 -0.38637063155213175 0.8070378043552539 -1.1806270356540427 0.7965379680169277 0.3401845561908546 -1.3356431156007973 1.0079375922587253 -1.02222169751874 0.2564078114979199 1.120885305574747 0.022116605535394053 -0.02425208430484307 -1.2420298962595813 0.05778255321920322 1.044943603267234 0.2503805633343626 1.725775698182336 -1.9227116702774982 1.2753939072017964 -0.04599794386267205 -1.1901774201161501 -0.9376930522702169 -0.5691565783998379 0.09760209727314571
2237 -2.7434309373741153 -0.15351943569538068 -1.2741394015148784 0.46393094696078985 1.3549866614060633 -0.09696107257376256 0.9289261889908694 -0.8864904788475149 -0.5689812054395769 -0.26437288984752744 -0.02691610575584318 -0.34191337277072825 1.95297301053711 -1.5166501092841234 -0.01795116791413163 -0.8858844881284478 -0.6735123290132848 -0.2075783444851903 0.5948279466680417 0.6937996622530335 -1.0961734097344615 -0.9102093958251395 -0.9894054785857924 1.2301984739158545 0.002947292605410674 -0.1935445348327889 0.8552298702243066 0.34851551562221067 -0.792150178792694 -0.8526296845255954 3.2487914397555926 -1.1450569663873027
2295 0.037602937771791335 -0.052350939116695284 -1.5256497238685407 -1.6548617395852967 -0.08341170980885051 -1.2325244492563807 -1.2019261215668517 2.2256024177858915 0.5979981650386331 1.7730160012614258 0.8334237690965046 -0.09469263964660347 -0.14171356549685232 0.16237623968476403 -1.0639845061723154 0.5211457442384757 0.9593545441209637 0.2778208312091454 -1.1262030473288016 -0.6268832962738702 1.6335930636222913 0.0567185635556332 -0.8452605971566352 0.3678870642322809 0.022100804866020587 0.09608974990877643 -0.7216081136744336 1.64491765029728 -0.08958220561445741 -0.6409844706990819 0.6850320292515915 0.9531369610528087
2689 -0.4612801038652082 -2.1533954767395023 -1.422843549363983 0.5120951984388082 -0.03877513137177797 0.3891729559920199 -1.3258191119769924 1.0510389661287183 -2.183861217046512 -0.3754724253628836 -0.08582223522156457 0.6786611819985603 1.967495587283142 -0.1918215522242943 -1.3576488996784586 0.5309368155554194 0.8372922845186819 1.5604954642407955 0.37711363255485164 0.07195739655207031 -0.4638327437684112 -0.8729788813239517 -0.6675626983626903 -0.4288910937676512 0.2209332844157838 1.2441705924295794 -0.43672172388317765 -1.7407030353270532 -0.5597105313233383 -0.8754249048461313 0.521544253000003 -0.2352567469136749
3021 0.04481120501354406 1.6164647788084563 1.8392837833931508 -2.460173221979698 -0.4375655455763119 -0.4903072488144215 -0.7450818340401429 1.5186093094440676 -0.2633593540840046 -0.5067432250322915 -0.06100601411652985 1.1399040655596584 0.3413231707623445 -1.2762090289843278 1.4445216013502375 0.052050488592813075 -0.007548768013399885 -0.0173256193915673 0.830714565377278 0.6976041549326956 -2.0506221696347433 0.2551356385887434 0.5328836933541973 -0.708729339740037 0.6837742771145752 -0.09625097370504317 0.1278589184395189 1.117466746992744 -0.8578554544246687 -2.1944796773771555 0.5325485730772092 2.127505979286434
3038 0.3954926694966941 -0.6586872671265852 0.6449632646954935 1.7528879179668082 0.9162507120041686 0.49392580528760477 1.4021332324151978 1.0562584122198995 1.7499659630376867 -0.9451512381331449 1.9906586468030232 0.48407829489238163 -0.06575306778918781 0.3275827268015497 -0.5674986365863124 0.9836827322889368 0.047736399018465166 0.9798277356027836 1.3881538411662506 -0.38820935482220437 1.5428677953456136 0.5903581461152079 1.3986011648794952 1.1189783847354084 -0.028464510956552898 -1.0694751280682082 -0.7464841610231701 -0.4412263206953277 -0.25156077127143894 0.03806223802937988 -0.1431962926079705 0.7575952520531062
3283 0.5145917143593445 -1.1004635471837014 0.7037477018125363 1.2299071485157125 -0.6014317189358 0.0025627134728948434 1.0551629838587246 -0.9600383628770287 0.550899433203581 1.4827721989904912 0.05706002196735242 -0.2090154516360083 -1.015669639790618 0.26857100664211214 -0.6778279370692818 0.26121635073857186 0.8469842471817974 -0.3929717900280641 0.34419583108104845 0.7612932664180853 1.0860237553756253 1.532991269492987 -0.7682695559531096 -1.2675235406420233 0.14039346409766854 -0.8771152957503364 -0.4576939107549873 1.5379574933028253 0.9550250100567332 1.402591377675563 0.5197011910308021 -1.6926025280087704
3489 -1.6084586091724158 -0.2976635964172233 -2.260665232294064 -0.4166569329084838 -0.5503037772576719 0.24547927340521597 -1.6694864662225828 -0.3213186186787829 -0.6393892707753115 1.3302042139616685 0.5430156341194262 0.7925788231921891 0.7600215186677938 1.5465988473962242 0.41651338221594125 0.6094841762675969 0.98507147127427 0.9586483354902725 -0.40865086432550946 0.6104040203256343 0.21533061378583532 -0.4970738012883569 0.3287819814871954 1.3673793261837353 -1.3736252751698057 -0.6183159436911483 1.1915783306284216 -0.991423843394032 -1.2113064834054097 -0.31296962181089255 0.6548746895220685 -0.5067504473675742
3583 1.5794147067145372 -0.6873305742140365 -0.9434674373790726 0.5137479345076612 1.09249164355965 0.1617229996844854 -0.8217183877305317 -1.0386333612914287 0.7158080015365342 -2.9451565111252167 -0.6411038804818188 0.721413429681761 -0.3217016868854705 -0.5699499055335046 -1.1104872430410018 -2.370092201084566 0.08277498043552069 0.4553177311283132 -1.4645568777669185 -0.7592244468780702 0.19079807398879978 -0.13903703048944835 0.012568809221501241 2.0589648151140008 0.26702990835319873 -1.1471018137717344 -1.2874636795189833 -0.29668019980571364 0.4638897556955429 0.601898096188461 -0.06398975842873457 0.43096485803147794
3836 1.3262282381336843 0.8620740383919343 -0.5088755375934719 0.9418655457098776 1.713393297215762 0.8610924845615453 -0.6257157908573558 -0.337206155523535 0.11617249493787514 0.8490414202991616 -0.5780369610976153 0.7569729432661525 1.328131337777719 1.0391196798419078 -0.40517492302861424 0.8792595459290812 0.1135280195281086 -0.1736170861304496 0.06808117307113587 0.37729778738065306 0.39356211642908795 1.4756929319167644 -0.24067197212568042 -0.09966772763415212 -0.17514594854683072 -0.3218483888175654 1.3416570717042136 0.08317534496438694 -2.9882311231980547 -0.5016392661455181 -0.5960899316086733 -1.8057868958648318
161 -0.24877226560587198 -0.4777314669467989 0.0671064849705498 -1.3924587306329572 -0.6605271690356749 -1.8599809827958125 -1.1949969347673421 0.0904985761689671 0.08950565402314288 1.2191591880971981 -0.6925457191636273 -0.43127106450310543 -1.1793252896850792 0.5529724709854544 -2.286698437168242 0.19869109421300332 1.76210522462605 0.07281327777422808 -1.8326067146322347 -0.3930772265984471 1.029626874326184 -0.1919069239138845 0.14344529525113228 0.6094860374283376 1.6174375589631975 0.5528722446773243 1.0367913575168979 -0.41625567655302587 0.220451046151237 -1.1300681902316567 2.0304670574696475 -0.12494886125571548
2 -1.3448980987632213 0.5804743622973184 0.4956492305607276 1.498328865524161 -0.2916421987361533 -0.2912585598833123 -1.3583098985291677 2.007209291852836 -0.1472866092091746 -0.6469530265308142 -0.7357847274771039 -0.3066032777498872 -0.6480883250895227 -1.362379793899458 0.35396873659648675 -0.8247293002931514 -0.5448145609607264 -1.8264329762495306 0.47882116598130653 0.13818186273596578 -0.8046966405416267 0.2994465532657486 -0.13491755975715394 -0.14211672226071773 -0.16427328474686376 0.8949433826889039 1.2982549221459645 0.7399033885578816 -1.0391869201296124 -0.8134845524490525 1.3565137596239123 1.1335900005587056
868 1.468423514208504 1.219390524169592 -1.2107619855275003 0.6426058959869995 -0.016103073150357975 1.6264361632231576 -0.5943058992874143 -1.558028487645544 0.8550588353466633 0.21405999451656177 0.34748526243721384 1.4074123175121283 -1.6378324647057598 -0.6755200277263267 -0.22270877452826343 1.281292421579169 0.2495887021024644 0.5901078305767561 -0.7894829729185141 -1.2759893813961691 -0.3837790445356485 1.0398460529040365 0.329668279475862 0.1783845620288198 0.6704495731926017 1.0220561915012034 0.8642304145297081 1.203896952377795 0.9256789983909733 0.3801304799459686 0.8345697564219924 -1.439733286158826
1192 -0.18614805186027425 -1.897106733583441 -1.2819013112051867 -1.323786185358148 -1.8915111591995515 -1.597051927742835 0.5790483077402306 -0.9243495072774172 0.9619526658079425 0.6511181253554176 -1.9074982433255268 1.8775578331071465 -0.34158308003933024 1.5903592246417821 -1.6364176391806071 -0.6627003833310413 -0.7026765809051849 2.442418436431162 -0.18670026002209242 -0.8012293121475648 -0.33302107697700006 -1.3870270688891184 0.3616303189241021 0.657534928033581 -0.13467877671543368 1.4734743085783994 -0.05793997255628324 -1.5383358586328968 0.8436840263776002 1.1895933784940236 -0.6718586813010469 -0.12201054032171395
1240 -1.1977600723450113 -0.26437872160604886 0.478558427567688 0.7816819206565915 1.797569528775379 -0.026137514021091962 -0.1304611446998086 -0.5584836509525078 -0.03858323446085313 -0.3281401377418348 -0.17668065003556252 1.155827605611381 0.6276771312830708 0.26340233380708783 1.3510849151847675 -0.8561775804022984 0.08921589071749686 0.27996781156498135 0.6718763539819012 0.33349062702967275 1.7194099680615729 0.32115457950122567 -1.0446801830774786 -1.2730247801061536 -0.2634664594443379 0.48395671773497334 -0.5072801556450144 -0.7434716665877961 -0.7710587680181131 -1.0312812608391797 -1.0933408289917792 -0.09072734719923371
1242 -2.1219780859206256 0.9169146568802958 0.6407353201924626 1.9645301089455278 0.8988273484117034 -0.2915450825370217 0.17485714133509275 -0.47537721747398104 -0.1936607775827258 1.1951667899147989 0.14834352389111266 -0.9223726772463982 -0.512980179977098 -0.41607055402081655 -0.7359294424480982 -1.3644484719075298 -0.743689764104929 0.15698051619673337 0.019665649186827224 -0.5403581076872792 0.5425275195595817 1.0841746965911847 -1.4060177484531753 -0.5667746033825809 0.046960524039601374 -0.7852602973840697 -0.380704232778917 -1.7797319956248523 1.0884657705377685 -0.23065214896302794 0.4363859504537204 -0.19329520989794136
2437 -0.8552467965336077 -1.1211562354421862 -1.5886903425673333 -0.6139784294804792 1.4875759053727227 2.257900682105408 0.1297803618459085 -1.095274761333538 0.6643902875030814 0.5004570422816325 -0.3587514310968915 -1.7080927012428517 -1.143086039554732 0.49153126604061714 -0.5608517094053844 0.708683630188717 0.6684441055161068 -1.012428705000723 0.34664433211410456 0.5837890800852958 -0.9526667706087345 1.8543605630856264 -1.2869173698010097 -1.9476570199207028 -1.495060844189364 0.8038470455490033 0.5562133673729731 0.08464379434381111 0.34309952700144175 1.7184138900284072 0.4646803618385861 1.23587822520162
2633 0.8946156080576179 0.37349012342629634 0.31092570312857504 -1.0613029581646776 -2.8772770860066696 0.5333262861517019 1.9735962364040915 -0.6280443032325507 -0.09002296246489278 -0.8813855856832563 0.7852236529799187 -0.994018315515648 -1.8976536214197024 -0.9467577948108566 0.7662311750768103 1.050594514312786 -0.9911905363577815 1.6991685658079299 0.13418470613900108 0.6127458513698997 1.2971545249006176 -1.3156473149403731 -0.5379843127269903 0.5836288713206307 -0.4586916159965446 0.7840346091337868 -1.3160636701327548 -0.1298608000242556 -0.8060142716592336 1.985531743528228 -0.9336678653672817 3.0043879123958828
56 -0.4721831145340313 -1.5484534275917547 0.7136893359340981 0.1916171504440106 0.4891395907687668 -1.3470758119743367 -1.290870333258262 -0.7895539154799666 0.793005479036685 0.47782227103939445 1.2840803650135841 0.6987909528032793 0.8645886135094648 1.3607197801988773 -0.03204060902385273 1.2906519471028146 -0.991550685419501 1.0232508290876667 1.6696683195519046 -0.6304915417281498 -1.1414965874947047 -0.5677859694031667 1.8473593007015667 1.5366116458886019 -0.34249976651299513 -0.8743472186582529 1.575041301505082 0.9324247620710973 0.1601112196888459 -0.6287954534131768 -0.10692103088858534 -1.3310828189334272
154 0.12668548827990825 -0.139375780905999 1.0543194495591053 0.299130200018784 1.2701219822925873 -0.41486365179123447 -0.8723021798833035 -0.6505342587250375 0.35935419736932045 0.9511183662627473 -0.8576583557053338 -1.6719800008625387 -0.5122266751571569 0.27049354552363947 0.9628074056196779 0.5898088334655643 -1.9534721908732766 -0.04051194983931345 0.40356196732616617 -0.6123017762105439 0.09066462816465586 1.7858467005879304 -1.5042052098372969 1.3653955689412227 1.5048633598095211 -0.10687497225209001 -1.8761569298268093 -0.09835735431990918 -0.1673146252287156 0.1771994196504589 0.48235087399363274 -0.6467416828838171
209 0.5523268602241075 0.5559646056415645 -0.9279583255651638 1.2929294639096003 1.5363395430291626 0.7345699809415062 1.1573807087921446 -1.2830056212776222 1.1521570814044046 -1.4442213069013654 -0.42342468656537174 0.4071956698674602 -0.027139777725306364 -1.2284474080935819 -0.24538677426462707 1.518830888035245 -0.15785633807865612 -0.7454869291312914 -0.026072297102826388 1.712078136193298 -0.7483373898052944 1.869957849154538 0.3505622562859765 0.6656694907208865 0.34696078038911954 0.3571034911840122 -0.27392696945981293 -0.6705063762624013 -0.13240034259815744 1.2457587870057816 0.495636994219694 -0.6692943262349479
508 -0.2738150021717793 -0.3776462938380072 -1.7469111218855986 1.4534182273457266 -0.7929068417198384 0.4587894284458431 -1.304896960480903 -1.159004596359307 -1.7330995496843045 0.9346361485514386 -1.8986738774236716 1.6924673458346702 1.0664640616788765 0.3208570841104388 -0.17725829650938033 0.9777735514867791 -0.26298197676309215 -1.3266257976678268 -0.6025483649248675 -1.8480358215990424 -0.6919447836918335 -0.06435445039862078 0.15728352636071397 0.3869803403698288 0.44955765381348817 -0.6471650310452005 -0.5459347159311133 0.030725344048086082 -0.35737617521093645 0.1997361744127107 0.4330361476653039 0.9668174484513385
842 0.3971236480393899 -1.0710685376765121 -0.6028978480690468 0.8451833113999588 -1.6924406521255504 -0.33182353023849914 1.9995167172399324 1.378173173401728 0.3899919462760618 1.0784376695099365 0.39168377721726344 0.5244406376511075 -0.24508991360996366 -0.4707369283987994 -1.3614918949700623 1.1945581010539617 1.0547909259582182 -1.265429052756585 -0.23362859434867297 -0.3704998293709609 1.1460310466620407 0.6094973952201478 -1.2053524711091566 -1.0547869601536377 -1.3402701158657722 -0.3549575781401883 0.7101353648030357 -0.6543966103626878 -0.086478198534482 -0.09641565927003067 0.4268316403633435 1.636934336012934
1282 1.333621112047988 -1.248979883503401 -0.7987465363994493 1.5638783657442588 0.2078002823436588 0.08101524392444052 -0.24119635586509827 0.6072633794902401 -1.5542950279187973 -0.7230759834323617 1.6243200713712467 0.029146912142760273 1.1050742335144075 -0.5290630664805982 -0.4798375864229514 1.2658707272188705 -1.3173986361567722 -0.5973344486815317 -0.4201572973933882 -1.817367126562048 -1.231000233137537 -0.7977859412205903 -0.2335628768155484 0.7110803261805174 1.1764429633835372 -1.1457892185664644 -0.5556269059588906 -2.0805884008753264 -0.29945311344406844 -1.5156875836952752 1.6086561418426941 -0.6485485091459259
1683 1.529260235988313 -1.4171437541121776 0.23098945332352352 -1.5289843382078758 0.9171929515744088 0.8272866202058161 0.8608143398907226 -0.8642491491099827 -0.7623728039199982 -0.35639879062223795 0.511870694674902 -1.1315879665981772 0.06501646679089532 -0.04032450464359867 1.5587514363149357 -0.4109081627759188 -0.6891390429946838 -0.6011767058451064 -0.20266110169944093 0.6124030404508336 0.4294656740865863 0.05128601747217175 0.33764595384482604 -2.3235091538267243 0.7644917224718137 -1.7780475296482452 0.6870269557511769 0.38037101693023884 -0.5589333853060287 0.4971411689827088 1.5680748313389345 0.1364592703016636
1847 1.1206811170672248 0.8005154668955697 1.0164118172684344 -0.7396020851841713 1.0376327249631578 -1.762441206071996 -0.9809122193798663 0.29926636578690524 0.34525853217817365 -0.03885779886008932 1.656521613761477 -1.207668038908631 -1.5997512716142033 -0.32730983292072463 2.233455178579788 0.08063601562054504 1.555942411578845 -0.24792346071195331 -0.736319008829535 0.5323549642091826 0.006267528170254141 -0.29162481431455967 0.3740955650527937 -1.7789162473938318 -0.6727615584253619 -1.5495644035859617 0.5555032088989479 1.2434714449041384 -1.8097137459873296 -0.43521600581531017 -0.6961653268300289 0.599066372235527
141 1.7264845477838142 -0.23425238311136887 -0.20757113609283667 -1.0371179550965737 -1.1051542635064686 0.4906145770402353 0.2655189418596556 0.35692371128614686 0.2129184834602112 -1.5287281755077164 -0.2655606003361549 -1.2215069180903961 -0.3048478634061757 -0.24072168193597215 -0.18315630633834198 1.8290924850220223 -0.03962962666092602 -0.6123384762920682 -2.0590977740071383 0.30857454824134084 -0.6277757371214133 0.04207299041788519 -1.9091034552822075 -1.0393254882327616 -0.6141199561713848 0.8569711769805861 0.23705255285293703 0.6135727842258554 -1.970503187857162 -0.4693576246059101 1.2425908570634125 0.575769597854369
1993 -2.19286056162379 -0.050906993246677974 -0.6002241094217898 -2.0290348459834737 0.10032477676583548 -1.0122378497699034 1.152195431305188 0.7562342525074862 -0.48411937882471223 0.29843285238657213 -1.0097980170946277 -0.36186216363632323 -1.1407133664583922 1.855307479934148 -0.01638508462987322 0.07306704361462903 0.2111981553390143 -0.36860922409466984 1.7096883970668586 0.7909710344061528 0.4759938752386465 -1.1106426905680675 1.801978667054699 0.9863197833189026 0.514606955078354 -0.5798845407869662 -1.6788653384912837 -2.0073677686348055 0.14459379894682456 1.0967910704652202 -0.9414754063453555 -1.5146337469210898
15 0.19513090538954952 -0.5204396155605415 -0.33963897833127454 1.1030998725110988 -1.206123545158749 1.0897863981745783 -1.6580721093763793 1.0528442863423144 1.7093036850918912 -1.1566993933829197 2.217245103978084 0.10426854617093867 0.187604784583121 -0.3301478669393353 0.7513428512080574 1.4910343177199805 -0.44017450786588047 -1.0588905346380593 0.8017697671157512 0.605628002637017 0.5213067593093109 -0.26138266606301336 1.3465741805332292 0.4860974096309703 -1.0409384205433896 -0.5012347500471752 2.5677266818636864 -0.7706825333736241 -0.2965523679541215 0.5139616468345377 -1.2218927589278992 0.8577930801811868
168 -1.9719951841941834 0.9586228145967539 0.23976696112671247 0.7126620019266799 -0.35719807713548696 -1.284422545405977 -1.683250021195286 0.24333094577716588 1.4606677618383874 0.42277778303547836 0.04654178266310207 0.13395762222742708 0.6323834684927588 -2.471301794386125 -1.2703580237775247 1.3750194889707383 1.2898168514456685 -0.36372142204052565 1.843712661614167 -0.48906255094108336 0.9539296959762235 -0.19049913723572667 -0.3071737888274523 -0.2742566714725263 -0.030070691040918977 0.1267722900468919 -0.25093318314063184 2.3652653802994315 -0.34597453081983 0.15321679780063724 -1.2840846068102914 0.338159056778166
172 0.2083060664767033 0.9422273118319462 0.4648577254886034 -0.46480189764327234 0.16125065872651023 0.4510201049045366 -1.306225782131427 1.1124057422277263 -0.946362460152936 -1.175823534482427 -0.715517285335362 -0.01290884395522391 -2.254602316451386 0.6410586576474777 -0.9842813385360876 -0.17027314449543485 -1.161662315380603 -0.13609690142169784 -0.16781152407290773 -0.8938408383770222 1.7701905130344584 2.2190739010992333 -1.1341951858441188 -0.4756467479379094 -0.7251776322291994 -1.3736694422827649 0.65785782819342 -0.25449318938946325 -1.1240606633007693 -0.33769255314263447 2.3438659520848444 0.3834513241151455
545 0.36772441119985694 -1.1506776101516503 0.6839426991296691 0.12939031276162902 1.3506072620135219 -0.7431718861055482 -0.7560258470958235 0.5225811025882018 -1.118580224605145 -0.796899465214985 1.477625930910653 0.22696270805737087 2.4048152551286432 -0.5857529569034978 0.30703409603697207 0.21390187481059988 -0.48829322830601934 -0.2539338233604661 0.25466985127408925 0.12041885215823799 0.01253470413265955 0.8640746680148215 0.1375123980452852 0.24151215208497176 -0.08059899308360863 1.1076913834550604 0.3402821479147256 -0.6025086124460151 -0.23639758279520953 1.7247823806444829 1.3654273281344627 -0.8061019961913245
815 0.2831435680825985 -1.4127115884361188 0.348230341531091 0.5819125917279918 -0.7344221535297375 0.38997899857694207 1.689755721030672 -0.9159211697534761 0.1865691138339119 -1.1515961938650112 0.4980094652100468 -0.30690498191695537 0.9643068974715711 0.8167958049628395 0.739680995413315 2.873956033815598 -0.6941623434922024 -0.263129471798839 0.553762963435353 -0.5055905653011756 0.7694086572461715 -0.5804172949604343 1.6561025873440018 1.26032354236205 -1.0038313828698937 2.3886477430537414 0.7065401704582448 0.26385873889534617 -2.57916107283268 0.5071546972999391 1.1602395532574703 0.2647725553556864
879 -0.5341083233107715 1.122545838621402 1.1312971455959633 -0.5619942294060458 -1.0115459154985462 -0.8861897831967639 -0.4879516840126815 0.5561329817111705 2.1681523787406065 -1.7152191257528062 -0.41156212943264137 -0.10002434593588344 0.23182995860576483 -0.1092251485189356 -1.5892933392026076 -0.6812788272527237 -1.2719508476926022 0.5420845566105528 -0.005323934568558196 0.2023113713561339 -1.4685092402621984 -0.5409869492064776 0.18425114455811753 -1.1063763065717287 -1.123376040782823 -0.11758238781261537 -0.605963399933518 0.2699508332706106 -1.6551280590987663 -1.0425024601118524 0.6175142974687253 0.3492367446162422
1009 0.47514771035631215 0.9121871706443204 -2.035050685098583 -1.1504153549527123 -1.5095346707734434 -1.6908248419798224 0.7800065112201944 1.6390914181380125 1.1485405475705717 -1.1646091929140159 0.34081848024894806 1.3091844972662088 1.2910354833431494 -1.5493589639376846 1.7842550771280346 0.7798683886238689 -0.6157923357127594 -0.6292939494671521 0.5120760997651896 -0.5363967020053951 -0.08458218970984657 -0.5700745159040971 1.2995898817731875 -0.8978120489948237 0.5485937933476426 -0.7911786798010982 -1.538543500497508 -0.01869272611222001 -0.8401262718379588 -0.5146594653461788 -0.23558976808271903 0.4330369314140215
1048 -0.7240118567873712 -0.24255573570340402 0.0015432074318846676 -0.32006375455935776 -1.253801589917481 -0.4142882812956261 -1.0813259114091878 0.43271483273676137 0.43157103439154304 -0.5204367317910679 1.8706227305651884 0.6548446455369712 -0.13882137278025067 -0.6446906604831013 0.09375762812796495 1.6819622220020436 0.5975603844667553 0.49935851809506515 -0.11751429781685198 -0.2587917035066518 -0.27303080656636425 -1.2782017101353533 1.134124092526366 0.19224238390288068 0.9813106273347331 -0.6534214089458931 0.8608180611489127 1.1673203794231104 1.3323095761981876 1.2926000996976275 -0.9679861355162566 -1.3816660324584276
1065 -1.590679010898935 -1.8974509435864944 0.9650840057991835 -0.5142498419128849 -1.0654613825549233 -1.3322764940155478 -0.3889078775381424 0.36516309065599284 -0.6783730397566762 1.2209245098561097 -2.124252589248961 -1.2072259076983132 0.1578026640898177 -1.1278337926372188 0.2680781938530151 0.4274287898686006 -0.3257935714217884 0.2514282409256275 -1.4276319923930194 -0.08052882743266812 0.6609680498398272 -0.5223782064663959 2.9880011749818767 3.721374045378207 -1.0171257103581437 -0.10863350461815785 -1.1386588706722731 0.22979699228141623 1.010440171326699 -0.3445516955482578 0.9665546605010521 1.2198438284592428
1139 -0.1636931841618291 -0.11091362256449498 -0.458701053523574 -0.570621644753969 2.1860734384692737 1.732067335238642 0.5375158511686892 0.017492677932884185 0.2617136660178529 -0.12358764105874778 -0.15914163838310902 -1.209821746978137 2.549503603961906 -0.36453153332636423 -0.3596850257094259 -0.9590980206315403 -0.3863331736151465 0.8021419887758833 0.04861820382423289 -0.6869493578875808 0.8910421947232718 1.6843011678588462 0.1454218679812135 -0.7170552719653394 -0.3377640442355868 -1.22682387648775 0.03212059619010049 -1.018101618183764 1.8031969563327352 -0.20109147952329823 0.15746723076515956 -1.531746157172222
1167 -1.854283909559932 -0.5504500665019998 -0.2501893426890356 1.018807091949174 -1.376204872885228 -0.318404655597907 -0.9640577341221495 0.9314627699698771 0.38590292002765936 -0.46432276865088495 1.202046590066983 1.7108882947313475 -0.8972880297304366 0.5427698875257735 0.6823574157532045 2.239148567985975 -0.2757471364386748 -0.8452248096571114 -1.1805449813789806 0.08316913537509632 -0.5426196456864874 0.09887560108381004 -1.304897980573281 -0.7997280760924776 0.1473593586703461 1.6846938673711584 -0.4914683590704806 0.1836785513132938 1.024936180205875 -0.16026306037703691 0.9858618232421671 -1.215270615715527
1179 -0.34132336619237863 -1.1458233560972957 0.9247399067227747 0.11437630777466988 -0.4363225815567347 -0.9938352872487881 0.5295788811698486 -0.6202496993509944 -0.4457252308641366 0.3575557888431984 -0.011021521857634631 0.32383654664314077 0.6298523420454656 0.544329040902833 -0.3207444188723277 0.9465731166881485 -0.8508204425835262 -0.08746778851552944 0.32685495676306064 -1.1277386060340668 0.2809544924649614 0.5767619764505794 -1.0953062823374076 -1.0194711944042996 -0.35580371828073215 -0.21173574383841218 0.47637844465951085 0.21901346017290305 -1.1591911604977203 0.19147951651735715 1.8297876051757807 0.08587509194494258
1223 -0.5635100804947007 -1.2836412073114098 -1.1299039438585676 0.4547740479575053 1.2847806008314393 0.10565375198933473 -0.326145952129283 0.7822763375978873 -0.013814335552915117 1.3798475208904692 0.7762560619877532 0.5568052818063798 -1.5190984290964336 1.6779166884387235 -0.013334025832490892 2.1562630153280016 0.535000980356517 -0.02077893930882879 -1.6456970266063393 -0.2386186203546637 0.23037939691535766 0.5966112384483327 0.43647307609750763 0.4822642086141986 2.4599853387443016 0.35669113865223606 -0.5201899087586407 -0.05123650955572568 0.26864694187090576 0.879185838873407 -0.1053647220122894 0.21946368849909995
1368 -0.23652659749284713 -1.3668276185685093 -0.0982153786357885 0.2854328295648677 -1.7273123486389153 0.2739793075450639 -0.39651732212859303 0.49563127444874416 -0.8116666386186833 0.30995124745856834 0.38538369437961273 -0.4842348963880705 0.23423918956054174 0.16556886542231197 -1.2879555550803667 -1.0867960778878378 -0.13824163462419087 -0.7431926216026973 0.5651324800408503 -1.1413456665967643 -0.9991855428855083 0.7378216880807119 -0.4241840170645373 1.2748581864590633 -1.3578051198783323 0.6709027824705858 0.15162305240719137 0.14010655233631739 0.887879256367954 2.901359850830175 -1.3645227836388705 -0.2785286124480929
1416 0.7683307278320435 1.2492973424363456 0.9480300188098162 -0.08139894219109571 0.30505796023600174 0.27645440322234827 -0.15057942607596653 -0.14312524774152033 0.15647238096027657 0.8897931418087371 -1.5515720359310292 -0.1767528866456911 -0.374307674826908 -0.321527894149832 0.5171018963033535 0.2423853888932477 0.4925655739694987 0.49176857499687926 0.9665082105969506 1.0873630783380825 -1.106045410028518 -0.3820354442523977 2.5730756740679137 -0.1793704592282529 0.5687628008199235 0.09985173020355032 -0.5521865001305242 0.10648762269249447 -0.13344944560071872 0.4126196689905749 0.4802629870457927 1.4510851489380094
1454 -0.2825983741198616 -0.06079249547359812 1.5495255877064638 -0.9343327324732598 0.5646591898759639 0.9359618375696318 1.2415502297695031 -0.017801174067637173 0.030073133962699686 -0.16734020275077152 1.3479787046401999 2.4620414568195006 -1.6807652367021595 -0.14291171358300261 -1.0275505972240064 0.49188641153558865 -0.726906284953631 -1.373578430236084 -0.157701525918179 1.0494883156513881 0.05548824401189392 -1.1215763035672335 -0.4456299998876272 0.6875935934148483 0.9041478658106982 -0.6846037911254123 -0.6627305896083686 0.10880282999672612 1.642435957270204 -0.09458562351442922 0.16141458426760372 -0.7034740690623925
1611 -0.40575605167282147 -1.1531230276075664 0.697819495641926 0.6678771075207798 -2.561456643673635 0.37169888510628596 -0.5569526681241086 1.1394066961124076 -1.066288118766754 -0.1857611299236962 0.038666246069955744 -0.31117270408735354 0.5545952394952354 0.6360064837732143 -0.69394553550794 1.4269426875906166 2.065405041450168 1.2658908828126056 -0.08653063631277945 0.26567768124134317 -1.5916546627067545 -1.2440380341591057 0.6391516664524013 -0.4441728662239856 1.6473485376297357 -0.23648003195267733 0.5149754435244134 0.11586418992009767 -0.2721588489762834 -0.017455292859759712 0.22560357660650585 0.1442964303577115
1664 -0.3009948878873311 -1.35322815239839 -0.6294191676255813 -0.6802248624848486 -0.018388267718753595 0.6856423327459867 -0.6915415086028552 0.9449681726212927 -0.004507223835423696 -1.2623060121233634 -0.5728891329890639 0.8777677889791611 -1.4539716805576222 -0.778999711487257 1.1716780785389087 1.1933708138617434 0.29938872172335346 -0.40401564749513336 0.5508524185816691 0.8199027841629585 0.012162007343666513 0.025133386976528168 0.9344733583574516 -1.0798312535805215 0.21394597079221406 0.17277633192088962 -0.80113269101831 -0.2493702504105108 0.5992460606397472 0.5752992769835366 0.37712003418393436 0.34986858459103154
1686 -0.9305639806505344 1.5220826774825427 0.5138022645773236 -1.0303231569857578 -2.0208101435575387 2.4811541722482278 -0.41766833525209857 0.15587643560010164 1.470155096647775 0.9030021607453531 1.9539611317243168 -0.23070721652909107 1.1270572741467457 -0.07964304323611027 -0.5566010993865399 -1.7422852611687032 -1.5493824249635577 0.28742733112723345 -0.115278054690264 -1.0149326517362254 -0.03481749796164644 -0.18689562194064813 -0.9667763466060288 0.910061300068873 0.3802209059761341 -0.4738313294454386 -0.6065092433849948 0.1256618340414267 -3.0813058260581276 0.494558633238435 1.8183765401539544 0.664131491584226
1703 -1.328437926324189 -0.6835481904655463 0.24649055622613975 0.1622459302763548 -1.8862031694177863 1.5070593574714632 0.38858682964998176 0.6356922644289608 -0.28040146650604403 -0.24104482806136718 1.0668219930353686 0.2831893336847609 -1.7253730971037518 -1.6911712035260436 -0.35042500204696775 -1.521095498755114 -0.8730781303045254 -0.43415851198054695 0.09084634367898055 0.08182564443021632 -0.9727470807859245 0.848433930616837 0.06429364835318356 1.1404568559411228 2.216247024426823 0.014754902490873696 -0.4543034622808824 0.812534804924891 0.7951910389763729 -0.6031813452399439 -0.9438266120989224 -1.3101793242822621
1710 1.7358649309641403 2.0445193279924267 -1.1234005048967286 -1.3754164269062836 0.24290572210614142 -0.010234691670915633 0.0032882049478275633 -0.29555513846007575 0.5123251691703051 1.1627612220767232 -0.6257602129464863 -0.7829970054226735 -1.1745822790099627 0.907331076201821 0.356662478038024 0.3337048917011547 -1.6694997140071763 -0.43288461173343873 1.6128281513055442 0.8236921645767429 0.2889592955796738 0.5201208782970312 -1.5216662268016015 -0.22966877825369228 -1.0153184258610828 1.201912390641015 -1.0155512566100207 -1.3678748348808545 -0.2965442245270699 -0.727699498840749 -0.8069980723503964 0.18319366250499652
1714 -0.5002983794784278 -0.45216513263106417 0.5579885963073923 0.8425413147633858 -1.517749471475863 -1.1092400607239383 0.40286103764345266 -1.1052134546940935 1.6204123279219111 1.9913694176660715 -0.41047120628730205 -0.1423454012878722 0.7240223249441093 0.2845864845947065 -0.3463120651272404 1.2236443280553362 -0.45510026980837226 -1.4217306532347025 -1.5625713144642321 -0.03832467218269937 0.5250827939960948 -0.20391056618748746 1.6061307459579575 0.007161409669617799 -0.45395674026500976 -1.3893256508209544 -0.18611822293915575 1.5538726892654557 -0.21224164958628536 -2.0250487873413485 -0.055418809828189634 1.904588058749371
1737 -0.4612772092240703 -1.4605427867955574 0.2366232261284758 -1.1205150574065552 -0.4731369513081772 0.8889857869397906 -0.9675292393074466 2.9866531700044874 0.01743179832142738 0.161181573692092 -2.0968908468872445 0.013409437196109517 -0.7627952157980294 0.9521809421076055 1.1532674609009272 0.5034757383635458 -0.2556351414254384 1.316348344035288 -1.5971484471586574 1.0675230556320887 -0.6084079646963102 -0.21881264900516906 -0.6940277056393532 0.7524744877739692 -0.5168387851001383 -0.025721535866544437 -0.9253051197441015 0.8956488919629284 -0.07677900994158476 -0.14033124653394508 -0.33167536283765015 1.4868514886491537
1898 0.022414138007237294 1.8896392771909052 -0.1616531651818147 -1.2085957310881417 0.43361897693276125 0.9630711463107086 -0.4010855511765093 1.0310501722723653 -0.32554484052493854 -0.412937653833424 0.19200499691880907 -1.116681100959732 -0.6957712746162884 0.20155150938472935 0.6352090835278328 -1.2248033134757288 -0.33880029989192845 0.6720611016980219 0.45478693073023324 -1.4810688471177738 -0.1697625222810843 0.007685152144795434 0.8354831375034908 1.176862090061257 0.19734084247344433 0.7361434089331704 -0.2786140029098662 -0.8660828647389133 -0.6950580687585608 0.9048287381142276 -2.136155071219064 0.42631524010704736
1966 0.01623977104957267 -0.7956851953403883 -0.5044376880948438 1.0271611742466153 0.19756948300486363 -0.5044844113285072 -0.7654992535159985 0.028129965098691437 0.6092537278950201 0.30232545396058524 -0.45966982462923106 -0.10767627943379604 0.324663787695314 0.6767712587516077 -0.16939685116216355 1.1304883093532343 -0.027988666609293972 0.2962789236133155 -0.870945660614237 -0.8458069121382313 -0.5725545453142042 -1.1988088737785398 -0.7496100559844331 -0.6549905556880687 -0.6704621108924741 -0.7727606568850195 1.7970729905426717 -0.7684999690276602 0.4353522927361095 -1.3027603960736613 1.318241813676858 -1.4077823175421345
2044 0.7527925035564687 0.016993899586267992 -0.6550794709603747 0.8293897720996752 1.9843326814133504 -0.5474947129035626 -0.3357162672132059 1.6271998968227657 -0.6836058293231706 0.7591364380350317 0.11874915259803448 -1.3695424563275571 -1.3460606402772262 0.5095080654143036 -1.865196132386613 -0.20885406808536966 1.078876176759083 -1.017617209153991 -0.02397152058994832 0.5016414180885095 -2.22306877360225 0.21401465524797203 -0.37428374278873694 -0.15745283673953028 0.40258258651455653 0.8118764211593391 0.8871135226105971 0.558459964142693 -0.4223503848624588 -0.06055680802225735 -1.5643684107893012 -0.17883302880192684
2045 -1.1831954074991151 -0.44595814086843166 -0.19203474062932283 0.8833009651144483 -0.7362901365016006 0.8990103505173245 0.2956932779295265 -0.695485856768056 0.3614799073414486 -1.0430606966071199 -0.5026912638067692 -0.7447506874564427 -0.21469025097349256 -0.38935560582998374 -0.19535697419152134 0.23661180800831466 0.15252154311240596 0.052863861183887736 0.942042197513272 0.44874442776361295 -0.7505328652382377 -0.23618354821132298 0.7958837979125722 0.4703371776466494 -1.3620217981800806 -0.4087084594707569 1.4632033807730738 -0.7109843510462569 -1.1273535934474919 1.0385122155798037 -1.372278164355997 -0.5751248171056931
2096 1.0521690798931809 1.4177141503900994 -0.1950672243650111 -1.991397407463665 -0.8928380562435394 0.9689370640195878 0.32605387677295244 -1.2289235588046783 1.2561704195473244 0.2317770401257374 1.6730089412469529 0.9323540974279715 -0.29299335124650705 -0.5570374025884328 -1.3447530739622167 0.8346592229767428 -0.43148252023047107 0.14010642402158957 -0.25489145191022133 0.9330047438626055 0.2563594639954702 -0.27436422882047146 0.23131264899366982 0.4726074107100192 1.546039106496337 -0.822654186739903 0.7836701361361329 1.334897688553087 0.055373459555222715 0.7558540929541828 0.10769086094727742 -0.22574930578348712
2182 1.3163360622054752 -0.4506924685309159 0.2766628667483441 -0.20542046475572037 1.334057676654586 0.3024333403735433 0.08912176956656889 2.1594354689399116 -1.953000842416558 -0.23380751402613856 -0.5514758983916033 -0.8568900763901358 -0.3052493481047727 0.3423160186037153 -0.6364130431355149 -1.4475119176437679 -0.09469280780870697 0.38311147728789535 0.34966875867740854 0.04932152090287748 -0.8468157634660088 -0.8855044429823143 0.18903734328639737 0.10361480564931362 -0.7519893472923092 0.028583201225531422 -0.45562975274493406 -0.9204893399853794 0.18681024662751924 -1.7030350297397394 1.3705583226853002 -0.23003980194031698
2596 0.8975073854675616 1.2938254872699049 1.1871940559785588 -0.12739418186111726 0.21863448798993027 0.8716256348403981 0.3085759857706035 -0.3496409253768035 -0.20022019571062524 -0.5076889845540947 1.396877549667139 -0.6555543966252331 0.08555978029725747 -1.1581372678084016 -2.690361080117384 0.6010269874168063 -0.9533783737476857 -0.12796726694654934 0.3199268510464469 0.8094848491077102 -2.391271435301049 -1.098630264030304 -1.0039134581089895 -0.9467418943249886 -1.529808330334686 -0.6034904458788928 -1.3144733438392149 0.13028538675316798 -0.21853570038997816 2.1245358080504033 0.6108170363772838 -0.18544424369826576
2611 1.1886564922896903 0.4856126251201953 -0.7042077243871668 -0.9064703356527161 -0.6398967073502637 -1.2323634955632201 -0.7713672553433364 2.3206354123305855 0.7642535899168172 -0.04795691473307537 0.404079315646755 -0.14413358897593112 -0.8609732312526512 -1.6242519683763212 -0.59622669985519 -1.1006383186202704 0.03470861139758628 -0.11489333430605961 0.6469250133747421 -0.5100049933963582 0.27699021302870097 0.04462494420688788 2.0469900894600146 -0.3327308681990016 0.6655207973969443 1.0340017364935568 -1.0054620255154527 -0.5050551963088775 -0.231104123175699 0.027993737843639985 0.5567197189020022 -0.5940577421025436
2745 -1.7130539025809122 -0.4603279436250273 0.8935458290618097 0.8056961341572081 -0.5204841502453705 0.7565864562838889 -0.06872053272914584 0.685625642071997 -1.0421887325625598 -0.24503646807327079 0.5174807137182905 0.014242047310709709 1.1697751625092938 0.6558893254823634 -1.174311780228349 0.13432958027885436 0.042305692319869456 -0.970918832471908 0.6851238724365186 0.6023043199954622 0.0017065611875181495 0.532710476598448 0.6906338891758603 0.1093554155036008 1.1220597386168591 0.3586325768878585 0.6801294209316733 -0.6784303868866007 -0.5009728999017923 -0.09150654836347868 -0.46280647035413786 -0.0390425374292675
3055 0.6884976820745607 0.9652330942776486 0.7974477893352887 0.32326845410995414 -1.1504203592576248 -0.44258093632168544 -0.019452195198756465 0.49224343747445504 0.5482922622301157 -0.1771819464956194 0.3627740951517818 0.24937302520906682 -0.009594529349052815 -0.7337047467474653 -0.2529191561353443 -0.037150510609809624 -1.3291987096308777 0.8439925531069847 0.8232352379393011 -0.3303509856173939 0.07892015325105979 -0.5231734905876616 -1.407164645913681 -0.891168068039827 1.1232294791884345 0.8287597336564163 -1.707558558831885 0.38207977779989255 -0.3656811171350781 0.2582814931927614 -2.1389711090465697 1.3723998244464668
3114 1.2784913149462478 -0.8686446041812692 -0.7258764937639137 -1.2297523281970757 0.024052745099063442 -0.6464074298465676 0.5783585443798971 -0.39565160122054666 0.6785030547837378 -0.5843876701095818 -0.3574080787004262 -0.4370317964722115 -1.0294879680569586 0.8598541484298895 -1.6541667153834363 -1.0805013534758972 -1.071938564639637 1.6929451816649748 -1.437922847035324 0.14914866813932995 -0.644712247500203 -0.8325742926181828 -1.228904254124275 1.6510405432474338 0.670139550023549 -0.6754016961503257 0.36652176098930395 0.6110216368463194 -1.1110642151313812 -0.38200402066743805 -0.3355618190568694 -1.2743192977522813
3118 -1.0857283605802281 -0.9134330944453065 -0.22458993121662343 0.07734101841880968 -1.199594607021848 0.9322911718464157 0.046734508454196286 -0.8189017188509709 -0.8710697214531415 1.1889677279579702 -2.1907230551898125 -0.10531240932119124 -0.5901329273253358 -1.683145753833548 0.26857578885235633 -1.0141051872153244 0.9134626241041779 0.7570960124626184 0.588000338133265 0.25105530074761717 -1.7330151266082765 0.12212111121216633 0.2617771057588907 0.1876793089670765 -0.45229891852924153 -1.198211240412859 0.9702108968473135 -1.1992988354238918 0.30267189625994595 -1.1759348891347083 -0.2796683965419295 0.43322976866145096
3244 0.5732518497043947 -0.2347268065753203 1.9595970626530963 2.7517488046243703 -1.1465265175854549 -1.0190551646388268 -0.36354514253110864 -0.46709857065500576 0.5124289332563925 0.9334260837348921 0.04755243990644226 -2.2329163940976833 1.390435665954352 0.11516270916197476 1.1867028895542007 -0.23502310286904518 -0.19216025091946382 0.12215513743173351 0.9283462311832208 -0.5485263913223315 -0.901361862656601 -0.3163721490675784 -0.6138721017228972 -1.3529435718102019 -0.19971944046462403 -0.4027395717501454 -0.20442732752318857 -1.017556275103088 -0.3622425964753936 -1.0802366967575836 0.8108598235518325 -1.1280864691335863
3408 0.06910932877982412 1.7820247983856887 0.3251281068573925 -0.3271736894385779 1.0406711349653819 -0.40774270266755724 -0.5764651684631815 0.6830221458824437 -0.2879691743678205 -0.11094825655597307 -1.5483722551156656 1.4266569741156923 0.31474654246303196 1.7904764946655283 -1.7590217579697711 -1.2956480554754284 -0.7534394516096989 1.2158817163288713 0.6454963825081302 -1.0367714144374391 -2.713337788780528 0.40016989109999196 0.15730876804224275 0.5841125956058894 -0.5208646567563007 -0.6301587699933692 0.19953840126099268 -0.6943472152486856 -2.5414270665517815 -0.43313288519384946 -0.660526336163941 -1.7782933330025572
3722 -1.4748241658770698 -2.0708313517854116 -0.40332101769382434 -0.6470115957263376 0.08507449617751497 -1.7284308998050735 -1.2249945572530139 0.9909536705630559 -0.8444719994904497 0.7820502444234495 -1.1248637032693454 0.4234352370239775 -0.9914314082918232 0.2616314506747889 -0.07937354750826849 1.4076146259581341 0.230727144421818 0.32246103515094665 0.18549713912339874 0.8331379305204023 1.329236982317856 1.054606129869811 0.5554092970298612 -1.4979568729592334 -1.2540068896667973 -0.16493005828128937 0.25106963809249677 -1.0477358824649752 -1.1525051144377445 0.8301730669469259 0.25924437753868457 -0.3941730232258573
3850 0.7514862330680236 0.7464546320531579 0.40892517520244664 -1.7200297692242856 0.14950292242249727 1.0984829930292952 -2.2139831360545728 0.092157484117296 -0.47417027073669976 -2.036964239343127 0.12562098146914652 1.0166202659521386 3.062136187371812 -0.8204427248486703 0.8955841913175706 2.823794526182441 0.18418191762533903 -0.4915187027353994 -0.7511433464123406 0.12157254447309754 0.24524675825741335 0.9856860106254794 -1.185377464551247 1.0432693856370763 0.009529730278501352 -0.04138855808915776 -1.6600990210298074 0.357131137471144 0.23196488932657394 0.8168676557507227 1.019834129852075 -0.46858935230892884
89 0.025489568251476604 0.5455645290887845 -0.22620572315777662 1.6542587344319937 -0.6306114116508373 -1.1239387497695879 -0.8753001577173181 -0.7521422135130102 1.1645070221822842 0.16495385236209106 0.7008879773531749 0.05032055018546127 0.2189392729169984 -0.03704607029323149 -0.8291749477230853 -1.509114417120194 -0.06382905468609293 -0.20985427009035326 0.33019250486288826 -1.7710759348155607 0.7571955628377633 -1.6101426982797993 0.03942213236287893 0.8922131745581208 -0.5093661876788367 -0.30822070702990767 0.28476366480341264 0.9259377684973158 1.9838146415931943 -0.1623445213017525 -3.3075240444420904 0.3424910527696541
403 0.7150025711574658 0.2500565766185627 1.10296884835136 -1.4503775373202517 -0.04464065979193576 -1.2817290185284087 -0.1295468115052721 -1.561651220200666 1.2560946865231477 -0.7747773230438556 -0.3917355548152768 0.28590654853597475 -0.6706547134619399 0.230989167405012 0.9964576333853907 1.1260847810811823 0.2855019477985164 1.4817228657902042 0.3405932509457541 -0.28350454625695 0.3895297144005573 1.878595129151043 -1.2841000496326502 -0.7524764115309313 -1.2170863356509554 -1.2308031620169309 -1.0972424498613358 0.4129848808151528 -0.9804261399199562 -0.162802371230148 0.0899639236292767 -0.19516519646763536
424 1.8373768109580129 0.20087228506482718 -0.6244221840013632 0.9684910997545275 1.168080630189462 0.3234436905990383 -1.288527932222974 0.0045406894868534 1.2670054285944845 -0.32484036084908746 0.05910794127031446 0.6209107654078186 -0.07415431758080193 0.9151541291852087 -0.6405963598525748 -1.2261563453378672 0.7514405352161907 -1.3994722548874456 -0.2699892781959439 0.355677563468875 -0.30678765458063956 -0.623443452278586 -1.2774190057100148 1.159772620760449 0.5979431180619277 -0.6650019061845848 -0.0735077899903187 -0.35867550753388383 1.0874448278444682 -1.2140791714652457 0.46849227030755036 0.17344110123731848
584 1.4671130658638463 -1.7861516267652604 -0.26931335104716353 -0.59456443156242 0.36689458771157724 -0.46477891566957796 -0.8173727861199673 0.708037697333934 0.6483011492965545 1.2307364835845571 1.0930713256670523 -0.710554971132567 -1.2750578612997194 -0.9700281847467023 -0.362268483976925 0.2882203543771314 0.29544510303861016 0.7614293127113492 -1.6546001314214909 0.9625511097773229 1.1450083575063024 0.4237686072703056 1.7885326332466522 0.36544005428217036 -0.09236292298805548 -1.0456745453026792 -0.13909994849436708 -0.20738572758437215 0.23806865594312507 -1.8672029500154388 -0.5610783320412318 -1.7493775876186541
806 0.522321120948837 0.3177888569527721 -1.1383954984393299 -1.10094902627908 0.03911615523025121 -1.6385298648803819 -1.3951759115496323 -1.577014712349321 -0.5711654210417367 -0.04336065906636047 0.8937755365065582 1.0311231130446836 1.2209600313570386 -0.9333542258205042 -0.09561689898836118 -0.07167593090044845 0.5345107024526824 0.19026126612570293 -0.41447055973613683 1.6455677381835494 1.4449027983619265 0.37251104104827465 -0.28801012653496005 0.15732930804617443 0.15967510586508543 0.4346967467109041 0.42128727136048666 -0.59868338671922 -0.43534954368007184 -0.9197212291447013 -0.969122934228339 -1.6426202608061782
1015 -1.1610268063280338 -1.0338491912708236 2.3028029254735958 0.35118724049886635 -1.3182311800869693 -0.06140685913818995 1.2172736849661452 -1.3982573049473572 0.41076926967085536 -0.17088566833543534 -1.1780151197284137 0.09383435414742035 -0.739937334661946 1.1170053163172686 0.7038163697626065 0.7311385611943605 -1.5301293143587602 -0.60751105402011 0.6461772261388514 -1.2574586577510247 -1.1145404523826774 -0.1408300696734909 -0.9060401657187899 0.2106493477532311 -0.4667774128722882 -0.9432970664520711 -1.428608242340868 -0.7975363376146885 0.12900879781100666 0.2430557283731367 -0.7642850109644562 0.7364953882104935
1120 -1.1850753664590832 0.9446608841014605 0.278071554484043 1.979701118418015 -0.1168777516779606 -1.5246957704124195 -1.6432794742450867 1.0764574450555133 -1.5500025830160429 -0.6560862597394977 0.599245137343256 0.2629164970827249 -1.6159924796565763 0.18945757502530297 0.4040524748842958 1.155319123040583 1.2599431171867865 -1.5416608043995117 0.9451463188482278 0.2398312989924169 0.6408531924018804 0.19789518110796342 0.9590101126762488 1.7228834083103575 -0.20430021027598663 1.229646218408434 0.2595783381043827 -0.4885612638158615 -0.9592940870653016 0.5305844885149783 -0.8911187459331882 -1.5227900787352175
1206 0.3202856150157743 1.2173641077383612 -0.5467525405679594 0.6605590771698606 -0.3780193109494897 0.3414515450466293 -0.6614499882328722 0.4290303067517693 0.7230932948207628 0.3438434163209615 -1.1248846511194994 -1.2390038417212148 -1.0722628243290648 0.6458895309834578 1.0473051134462807 0.5788902667305648 -1.4578919417904956 -1.499303082048434 -0.3400821629251709 -1.284268033752913 0.17858991980434735 0.8136705388180842 -1.6806293263626528 0.24736645681699027 -1.5505786975340266 -0.5602569617027019 1.3225291084496151 -1.1040990405063271 2.6641512599660526 0.8352588771705252 0.0334585084394294 0.9304715721186804
1367 0.5274936173316821 -1.6189049435784229 -1.2110255766918945 -0.7376474365185682 -0.01512826196640726 -1.08577011327118 -0.03125926206762727 1.0917201654043485 -0.6037316733217833 1.717236887081129 0.8036278096050601 0.2095351329113568 0.8073031292913265 0.1796312777048147 -0.001790190179520458 1.2038121176296468 -1.3955200737983493 -1.449624021184063 -1.1114109536015933 0.8043440204389921 0.06491055189416516 0.38954067057564357 -0.28823086139515786 -1.321119721106139 0.49275200457049845 -0.1463340156191285 0.855366437511976 0.4943287019849133 0.0808859605502716 0.2744832210953412 1.7548339298971072 1.7687473165921996
1745 1.7285739514678058 -0.7904656930497382 -0.5937872244258813 0.34189928122646973 -0.2741585526405982 -0.2225895675809937 0.3416592574992291 -0.30854208821012125 -0.5579996938190858 0.29965018318242975 -0.7927678616382253 1.3029174712809994 -0.5470937425798551 -1.0888952917193824 1.240119862594416 -0.940778227478826 1.0124665575965814 0.14107724107011668 -1.2333495711601985 1.288310025327732 -1.1096534221710164 1.2260340641073915 0.2914775580187582 -0.5253070122007998 1.236506914322701 -0.699639883052447 -0.8439578648451691 0.2611828525800019 -0.4213655152100959 1.3542879132405645 -1.3385834817137727 -1.751774333924101
2184 0.45054785753150584 0.000228851351639819 1.2296803184003298 0.21147022476034505 -0.5540108809692608 -0.24083017507401128 -0.36157203249475006 0.5215202995930642 0.14010131419574248 -0.0008391369443855046 0.025582292011563926 1.3091717934561837 -1.0512657983011964 -0.07585776689827853 0.8709115987630908 1.3223922205680254 -1.3920026751903756 -0.6230666764153767 -0.9420067003329954 -0.2545766621742084 -0.8718553930335485 0.8527125194945795 -0.8007075318709154 2.084916178624135 -0.12425736930036138 1.6047241935104322 -0.6396966726354346 -0.35767301411953717 0.4173245887500237 -1.322279621707333 0.5113672799250526 -0.5594801249608018
2391 0.0322017291241143 -0.12921202948116237 -0.002410737277607873 0.27568043163123446 -0.820222650219489 0.6443953906293912 -1.8445689149783995 0.9440669546301622 0.21594849792870008 -0.23659615818102672 1.7199907243974735 -1.6712223037304574 0.884457249861601 0.6937215207477339 -0.5449528667382071 0.7667371345600674 -0.8599626140629436 -0.006444860421269802 -0.04825304533776944 0.6914919456412272 -0.08847394718117302 0.7157792003959209 -0.27978979536979975 1.4314337405108528 0.4083266478424983 1.1975030914884168 -0.3709503634658185 -0.2764925081064993 -1.0480259658188957 -0.23412620767619793 -0.6913548983225964 1.1490816775911228
2514 1.1462671421863406 -0.6765967430347499 0.11723459234584088 2.0611344210573805 -1.1592477535662162 -1.295553931839356 -0.6338813767634295 1.4331778239477126 0.8621861059765276 0.09931015230964306 1.4249519281604497 -1.0398092062194584 -0.001889767502083195 -0.8547191260098971 1.319013891740558 0.6756777112900383 0.9680784180422295 -0.4113441586303526 0.9920870348359889 -0.3267645223921218 1.7212907021129602 -1.4111271308363995 -0.8965552621807453 1.59413664027271 0.12101931330418246 0.5240104498547556 -0.9269835288147736 -0.017092451711019592 -0.7928607204280627 -0.33025808814470264 0.7412117017492021 0.2703542601638069
2706 0.9108936912512776 -0.10831977832993701 -0.3344645249360123 0.7603961690918916 -0.8113920499582395 -1.9322335106405721 -0.5870774248708915 0.3896095857653202 1.0872859251219256 0.2838612359409932 -0.38765722289639665 1.3242842903517051 1.7952665273252977 -1.5898915133212665 -1.5804027595992594 1.654033325718123 -2.0105564531629105 -0.4692927435309876 0.7044536170995657 -0.6068612951076042 0.139188862326183 -0.7577856688127161 -0.49142424072348706 0.4235593427958518 1.4919960224963138 0.4650266272082979 -0.045044743731599286 -0.46192615653847624 -1.1933249350536175 2.2795592231442527 -1.3189475165782147 -1.2792320465480718
2784 -0.22458023820347586 -0.96941966492345 0.5479511185447059 1.297444843509232 0.5062561811977041 -0.8206757687410902 0.5969453480750091 1.6206652287727066 0.07198079571535755 1.0680739344978833 0.3539598012106753 -0.2563938482644993 0.8538414906959226 1.0272241821095078 -0.2303153148925295 1.624742406734329 1.3586244900514082 -1.2277733909459119 -0.10549222160360053 0.9528680272639316 -2.3137240226714324 0.27371808153104965 0.7200121007320531 -0.5892899502950896 1.5909154763203421 0.7629100746246169 -0.7931878604833764 -1.9355474998507924 -0.09995542643737494 -1.5197560519404627 -0.5080412629225409 -0.7408406619028697
3133 0.7642572650026089 0.5998349132443042 -0.611691012404749 -0.08199596703531244 -0.23691003862874496 -0.7904727115446681 -1.2990932026966089 1.5342126862907215 0.7376669886355339 -0.1283433661336142 0.7764371876984213 -0.4003325778661772 -0.4642367945832779 -1.3903022132175524 2.9174578062013024 -0.5251698993647574 -2.4209475054711134 -0.10573817735732575 -0.7071818866531231 0.37885959106835204 0.3375995637471177 0.2973766879102622 -0.3295885574521256 -0.46310708844859616 -1.4941765822902653 -0.1318701380497798 1.2217816294482995 -0.5149174721341604 -0.15576220226882498 1.4176486882095751 0.10628715909188564 -1.5021590831428067
3401 -1.4577970398601696 -0.584427930495128 -0.05883945524171441 -0.5482995846350301 1.9064476335849028 0.3997588074059577 -0.41039697813538956 0.10588989699605751 -1.4787302023237852 -0.6374557057786269 -0.7467202767242033 -0.5490942231390754 -1.0229843292192686 -1.250964798289129 0.5678344195457212 0.20424544403640787 -0.592766062527599 -0.6319540246565976 -2.3080195068708034 1.0176487280853816 0.2150560163801264 0.2884787025732861 -0.07052837695991881 1.4846819377788367 0.5086059626200725 0.324797351935811 0.07734670426457865 0.10030631644618393 -0.539921503415118 -0.9704059571969798 1.6456867242730686 1.571943160965178
3534 1.4167361221551633 1.0330522794290575 -1.0008121510858126 0.43298557629957307 0.6882276059451995 -0.7687141119728406 0.5663614407441102 -0.01821417697282933 0.4573664961033729 0.7525553920828708 0.8196304320485277 0.07176473788252641 0.13680237980966364 1.1602065212435506 -1.1509579022974121 1.820060173150458 0.752947742136639 -1.0522566799772426 -0.5796922121412946 1.6557809580308531 -0.8911983338202959 1.7945604556457697 -0.8580262311505714 -1.2538430483336038 -0.9467496112033189 0.6303969256466005 -1.2242804642379654 0.9196893539001479 -1.089384635484726 0.5617211286657805 2.3237786392860893 -1.1130405401690644
3565 0.035081746108522646 0.7325092564339674 0.5180758158345138 0.33139952616318874 0.4877114569915039 0.5138817713622361 1.8928094557619113 1.396160833129434 1.0793580901456696 0.566856031872897 -1.4735161558907608 -0.2460445464567669 -1.0646004955766948 0.8011354688456361 1.832494793221312 0.469062689180856 1.2437805962597546 0.49294356226983904 0.3050643843211435 -1.2630197761105435 0.1857627127156358 0.6090769343698056 -0.4507632785590577 -0.9645006828717809 0.7174830090443696 0.3701027636958316 -2.0418395184524547 0.5838192927525994 0.18910483379862206 0.24770067244671579 -0.6953145929955444 0.905790386225106
3685 -0.027087288275163327 0.545244697977652 0.8613283334676098 0.7621606443887037 0.08680569380854701 0.7035535857683667 -1.3808948791705007 0.681310350400853 0.7344552141524846 -1.1726219509562243 0.14549308436510702 -1.8893991633841607 0.214240877347985 0.6201387177710707 -1.528593382550985 0.30834914121303336 2.4631464121043027 0.8898953226986864 0.5838964373795676 -1.501617633975756 0.02846744449535386 -0.5709452388509686 -0.04596508089485624 -1.5860363075399844 -1.6292119704300447 -0.30916832473963896 -1.6639505021826815 1.0023883057345293 0.3575735253895201 0.3594782799340581 -0.19362772483765125 -0.2323010211592695
3727 -0.004366571611772629 -0.0002203026795472141 0.37897438764994884 1.5859097529928807 -1.5238376884262745 0.8977947269406537 0.6090377357345685 -0.5327530053708166 -0.4192553026110165 0.68693109614584 -0.20015250330497142 -0.5691653631015365 0.47105094093162664 0.39404016451489904 1.5281498166523695 -1.2349433856943752 -1.7006527328636345 -1.428915977799046 0.8104133211902778 0.7406164658844548 -0.71608655166918 0.7463727453755701 -1.0710775490740614 0.6843530381636891 0.16124978952868055 0.6712072821950397 1.4245263678857019 1.346111962467569 -0.46780331393395075 -0.24799512237200486 0.4519867132308661 -1.974886494637604
3758 -0.27889315400358317 0.9380815722469587 -1.3209177792033764 -1.620194134659342 0.6336556397533404 1.9917725253963126 -0.011751389165166748 -0.08690867846617009 0.2955548198308162 -0.2425545787717904 1.007331442747582 0.19635584033410733 1.9533121719329514 0.08466235299318679 -0.3589962261860125 -0.5588530465846959 0.4318850173756203 -1.1663612651026636 -1.7310723528229228 -0.08940928823608545 -0.25762851868091113 -1.3354001134555433 -1.5520561640756512 -1.5289080968869202 1.3191402852749186 -1.2535439798655694 -0.14436127947342503 0.6181109800432929 -0.280469623586208 -0.7358815097461513 0.6056160962403621 0.41576893949701443
1096 0.8441971756322951 1.2518465061735253 0.9567315636020187 0.15516917771564753 1.4903192482606047 0.8021613693236728 0.27479116131166337 -1.0357238893491576 0.7916452677640006 0.35248307242508 -0.1516998348949467 1.0076821945336127 0.05734757669100221 -0.09335668427725392 0.6136679745192999 -0.6626213468346389 -1.0196737262668238 0.10166897515368875 -0.8551677113442095 -1.8505818077468548 0.5522225009530285 1.1231631411610967 0.020865394417244967 -0.4575753077253629 -0.18206762609452182 1.2386598239810682 0.5652207840785604 -0.3110060240410852 0.12884959686320274 0.03995484886712093 -1.8158187215638268 0.8439027432585561
2101 -0.12382389949528864 0.6296299182684859 -0.6786675437348546 0.7806086140650683 -1.187458216752424 0.4773126645902476 1.1992571153059917 -0.6344917385806218 -0.3645044661151857 0.31894967706238575 -1.530241001639445 0.8667944586176196 -0.8159172182367277 -0.1465774948852973 0.9506570682163781 0.5216954380350005 -0.5497466117901777 0.31598740524567664 -0.43140977578381945 1.5243508037607585 0.19651696817445283 0.4613414423323808 -1.611978521563107 1.6205013570931934 -2.1501731338829098 1.9941811428195686 1.3149191934383935 -0.6322087320033404 -1.4968263740578716 1.7067674536557205 -0.17868477765694296 1.0376033426856757
79 -0.3176077344206908 -0.4574842086542136 -1.7271037048064015 2.550995970265728 -0.2174380455175404 -0.1154952496332512 0.10225651103566229 -1.0510174170635407 -0.8178088851130988 0.5802601933098684 0.30221161287950626 0.7432346489149129 1.4715107392768372 -1.1923003602787208 -0.41670115462337737 0.9131182011926419 -0.47936947517462136 -0.056709057735221606 -1.1762122882070563 -1.0128639259013166 -0.9809652951874684 0.4512255483912192 -2.7813077565669984 -1.8276994883515725 -0.8058589919131703 -1.14793850885304 -0.08875207233579167 1.1263398790585546 -0.424444919829732 -1.0513324713583259 0.49394296734972587 0.9956925924423861
3 0.23543340977372051 0.23468661496844126 0.4041142522932161 0.8208229003410064 1.232756983683474 0.2798901028997931 -0.07230133856522114 -0.5654873204815067 0.7197207375414387 2.185620688984833 0.6534931215376976 -1.3695076084114512 0.23650361508078477 0.25700895965239834 -0.7524070305947509 0.996655065384428 0.15181355692448312 0.6496861874187946 -0.5913040204663795 -0.5629629600677462 -0.8114195209087108 0.6784468751181116 1.0070316705131996 1.465718147808245 -1.7008023578231135 0.6682218071151319 1.4393771719170911 1.7297237045544278 -0.5536543705972585 -1.6722504680733012 0.698404647056694 -0.7333560532586353
460 -1.3892007533672595 -2.097217120126897 -0.3277825708966537 1.1687811034794076 -0.43078859612814624 0.13180677893437828 -0.8241526321923773 0.4938555693761217 -0.4321483751960509 -0.20786503334409767 -0.2943267833779592 0.05697000896581832 -0.8663293628057177 -0.20777651085741683 -1.675720283186621 -0.21465697220280613 -0.022322595124832683 -1.57009201178335 -0.4293751581564118 0.6120694971476308 0.49586079787863463 1.301110502682953 0.7199712204374099 0.3020810522500151 -0.27628177707903745 -0.7727421750537545 0.7968962285798035 0.18298908572259245 0.376678761436705 0.7878060212548865 1.421112967844479 -0.8391315497593448
541 -0.22083209151371241 -0.871908136684456 0.2072769977904414 1.1569810216303025 0.42416347516272485 0.943338591624997 -1.3588194757498693 -0.015254857144959168 -1.1409556071921487 -0.3097056360798221 0.09902486249437806 -0.14126007888174924 -0.33708641844353765 -0.7376098226435234 -0.09807682848229986 -0.2646125681918544 -1.0925184503920937 0.40750396679707196 -1.3223068584578503 -0.6231762779347964 0.8609649042248336 0.46050126368563854 0.4064676313084312 0.7265484198305752 -0.33907815992319995 -0.5467180762821008 -0.1336358367069983 0.4069478597783 -0.03384521921643737 -0.8140708427985563 0.02735985040934376 1.9489499726822024
736 0.04980863684640295 1.0272576566586828 -1.4322370194269192 -1.3321421099772819 -0.7837858274475151 -0.12361822204421014 1.7440364170772071 0.6807408151230914 1.6695188171967428 0.8708109823185726 1.1133295863257224 0.06950268446209132 0.5175976500904604 -0.4519885039902725 -1.0936172431038171 -0.006530775750390388 -0.6110569157660743 -0.6970523140580982 0.001944818824273057 -0.4177470579866139 -0.5185298855856377 2.1289484055673893 0.03257637331079834 -0.7899836997742345 0.6466672248107034 -0.6317310763119227 0.049821959570722205 0.35818430972215376 2.1617301009684504 1.9992510005126132 -0.2911152955909533 -0.26384348617278786
1117 0.2071211080651415 -0.25625148464578584 -0.14202924113934956 -1.5841280454808702 2.765829915767359 1.140602394835377 -1.8357633375457065 -1.973548162998191 0.10385108562629534 -0.9794484347894304 -0.8249420413426121 -0.8112954399619337 1.5960802602226012 -0.5340623573319442 -0.19762243115822825 -0.8373596576979037 -0.19144755146081419 0.5937948943657703 1.6279376400392014 0.2843074496585044 -0.2123550487582265 0.5166704127143629 -0.7739956022686788 -0.054534611052210906 0.5008191798473501 0.33127111883258625 1.5752990395526039 -0.5921427771629996 -0.5161604947664727 -2.8129838628054604 -1.490868840988834 -1.183007771425155
1119 -0.9845501213673653 -0.6948791682015408 -1.1370115453706657 -0.7307723822749665 0.5531843467127295 0.07278460551756191 0.15645934052265248 -0.16275433941967804 1.4514418271286078 1.1507830282557028 0.7636319988958326 -0.440956686297639 -1.4918520536866047 -0.6652986414421981 -0.3915537876077836 0.5981580760527108 0.002608384700334892 0.25483982340376815 0.685909131180338 -0.3347087099567417 0.9305739636547922 0.28655170212501696 0.16268923512634625 1.0317179331515747 -0.5329817347453333 1.425923719396331 0.5968930608802134 2.199255872972049 -0.8129055874869333 -0.1441150976819364 1.6087454766248104 0.5566894390689248
1364 -0.5833073939916317 1.27862991835572 -1.051490928217309 -0.6233356281655907 -0.20053042576876667 -0.12103255005241981 -1.1281441751110426 1.7838951731816934 0.3876195699184415 -1.729746891684404 -1.955790743253605 0.6960549975727973 0.14347722532743534 1.1358989601359253 -0.001342387731014849 0.2937289027553507 -0.1744295805012647 0.6086920386419477 0.36812362171801366 -1.0231441847950657 -0.18598728236629278 -0.38228518536273903 1.6913637412302593 -0.25753360184762725 1.2002572358075598 0.3310770662640056 -0.6200888403709017 0.2165966996417214 -0.1428747520446759 -1.1739753338857515 1.3342914251160214 -1.393240269481461
2010 -0.39323818010620093 0.5262272566190634 -0.3338898939577187 -0.18912527618049227 -0.659900764043459 0.9342295151905028 -0.09799665538554783 -0.21365160321212137 -0.2562229445553067 -1.1653661383854668 -0.8137737219479272 -0.29707373683801225 0.04892896824818662 -1.5899247550411355 0.8656774986961182 1.142669808231261 0.22234964654766898 0.042727568820827844 0.9348781506870801 0.8464018693270714 -0.5438485078307694 0.5542614709518806 1.4670140920557095 -0.9013533796297665 -0.05659212833382937 -0.7280025373637286 0.3948926911793442 1.683262716130383 0.5719609603926931 -1.0556523297590958 -0.7671783709166762 -1.1518309728788383
2029 -0.37090440984306766 -1.4995489591038518 -1.1158088597333893 1.4441454541575822 -1.3004150119110813 -1.5819370774419494 -0.9502622967621502 -0.8490952299391864 0.553532548165933 -1.546554696193296 1.2181822967179 -0.4891848664430015 -2.2005112243240394 0.3701908683081078 -1.1000363268815532 -1.216855627803639 -0.5048354793369848 1.2465738189071953 -0.25090186312268814 -0.18769197685668088 1.0227284620825987 0.09626938578750914 -0.304403216914933 1.7075748905162893 -1.1603457453409887 0.3986872560027594 0.0007995905281246743 0.5290027747047632 1.0704080843095527 -0.42085367348893793 0.07431074848824329 -1.421400703797428
2236 0.28808749026417313 -0.6962752481985549 -1.339131732173826 -1.6285697232151937 2.0081602648277395 0.46694527183385176 -0.42737969421238164 1.2344282212034 -0.28863776195745106 0.9165713870084146 0.21303116656259172 0.46387304543489355 0.747509697550516 1.6246299376635718 0.10605492662339933 -0.04869026499357519 1.1779566313939465 1.110063790595071 1.7762493658005227 0.4685233695178195 0.435334469213963 0.47150239954197526 1.1227432608686363 1.0837625934663804 1.1474230687849194 0.8783622469990613 -0.6542018948800764 -0.5015849814843263 0.42748913747515027 -0.4107623813234057 0.10634386812572326 -2.625777986122353
3845 -1.1555843282977363 -1.4743129237064234 0.25606460444999546 -0.3565210479140276 -0.4570600933042423 -0.493037347134674 -0.04428071122195904 0.15412961089461363 1.6824882934567607 1.0205099386301248 -0.9656293750351707 -0.3715877662474867 -0.27977934779302605 -2.0017141853613216 -0.5134912431554528 0.2836628147607364 0.22444792736099503 1.937236155487019 -0.443175932233988 0.38594524074949194 -1.109233050225001 -0.7194896380734359 -0.13471704945827714 -0.27814838038880646 -0.7723348643836438 0.8603530618682762 0.336172272760166 0.40027415632531227 0.6877391390866924 -0.19962225001445938 -0.10411634679653065 0.005831856981010843
326 0.32636362678237674 -0.3141257456941777 0.6463553290470804 0.8850597768751484 0.7888213736718521 -0.37074112170118456 0.9118050239710499 -0.4383716675739277 2.161366816473236 0.3211190928843873 -1.8189864443048624 1.4997747745972623 -0.6210360859459854 -0.41247037926250885 -0.22797104771390445 1.7460135628633597 1.852495315915345 0.9897006396844468 -1.6679893991571701 0.9556279479112989 0.5469399738038655 -0.16480259675607142 -0.12881801526455158 0.45193168534352157 -1.521641387459949 0.5221264542159265 0.7248024017169893 -1.0176243756389656 -0.4862789790699166 0.9141082852784308 0.8391235352144067 -2.38272771364953
973 -1.2394564551709988 1.195659158961341 -0.7010934640280558 1.3839917024577835 -0.47985777365453797 -0.7074614415995524 1.2911337573491746 -0.16346010705230793 0.8782742734922693 -0.06512691011078524 -0.12642308073266156 -1.0137213784491774 0.28709036548185296 0.32241580622876376 1.9279480940384652 0.33736879802301317 -1.080314475283787 -0.6718895671461611 -0.793130396188569 1.1425662124259603 -0.9217533099249148 1.0916431110916704 0.5306772336446958 -0.3223451707675515 -1.4733600302879943 0.6793783747189481 0.5942991678590146 -0.05479626125436985 -0.20812636348942393 -2.582088132703764 1.1255972898256503 -0.07978402800322158
2232 0.799915746379703 -0.8266001157161452 -0.29417504543505246 -1.0396582982447262 0.6636916874995776 -0.8121208557576269 0.41194727070791237 -0.6051915014782858 0.5375745018422761 -1.110204455748869 1.7007949983409818 -2.11964708836429 -1.6219051243396216 1.5732005184235458 -0.19427251532423664 0.1943533388070387 0.8749968260642387 -1.9192382698034407 0.5523481786543489 -0.007279561527984803 1.550108500250989 0.20915525572719926 -1.1334689731825 0.4120690432415835 -0.007400568591890291 -1.6526010457368696 1.002207418460221 -1.869261927952704 0.42362266552035854 -0.6959706112426346 -0.08212979523907173 1.3235507901412702
2517 -0.07726609690775317 -0.9228131831673902 -0.37994263040405585 1.3082944700403725 -1.112600603122096 1.2193314893130354 -0.5474267794627111 -0.6368146142630502 0.15589549128864572 -1.4936152563176146 -1.5984859133719627 -1.1891352289178878 0.6010085650663025 -1.7043252028201172 1.6051984521453815 2.5147920285062946 -0.44879019585479746 0.3911085707441692 -0.8616963209702067 -0.0876577925721892 -0.905774483836693 -1.4053260930958464 2.0383602933628797 -1.1044407342403941 0.3572445524996398 1.484283560200136 0.9524015664912144 -1.148102814314738 -0.24228456689784897 -1.4320005421756996 0.11302027250886071 0.596629366680194
2578 -0.9845611085590762 1.7544591676924743 -0.05021553473844023 -0.1560949871117361 -0.45027223094985674 -1.6994515476360674 -0.5249836841955153 0.20701421143500678 1.3705484902302796 -0.44873452549548287 -0.48657334170524474 1.633477361248498 2.4086165629894944 1.5132820872724655 -1.2701697749283696 0.9598992964437076 -0.8522222953350566 0.2841990762003997 0.11915559993816857 -0.06611817216510328 -0.37422629706123073 -0.6924482146341684 1.887969501432929 0.8931579008626835 -0.19940364229951055 -0.08396275030771508 -0.19077091613402522 -0.24733793601668272 -0.7639787500896618 2.220349275833882 1.9882813587162687 -0.6202123040577294
24 0.3608439501442162 1.0260360645932294 0.18392756162640617 2.031704353889902 -1.0465554652890108 -1.173963443015409 -2.196355603492801 1.0258928229658917 -0.8955112156416786 0.8497804608136117 -0.7697855693699549 -0.5904527855183387 0.19311633979359139 -0.4840834485345408 0.2601124030864035 0.727292359458661 -1.069955122783457 -0.5171431763863038 0.8108648908428545 -0.16565047521934403 -0.17376595195976333 -1.4480191638103639 -1.346132732317874 -0.11786385674093941 1.059288735398184 1.3132276023168739 0.9665987842935223 -0.666135044331678 -1.1265412068277871 -0.7091074801409165 -0.49000656903456 -0.11998819108228133
228 1.1541823155284499 -0.860872953879899 0.027744941599008827 -0.3634056116326687 -1.900215145835708 -0.9985277464517148 -0.7112885019699042 0.8634382719079018 0.3956666053183677 -0.13247407556191537 0.05210299172654037 -0.7436939029080941 0.2763273755849019 0.30407707780996496 -1.6217167361406601 -1.211335779164676 0.09131437883001371 -1.3924259688608136 0.8274622966030583 -0.987179774963124 0.008158564600298644 -0.6040015035993671 -1.1816029025833847 1.4086268636834394 0.34545715794295734 -0.021259783937294306 0.5726351613033513 -0.13561314651764145 1.1861161057892335 -0.043233737901649825 0.38736881521335137 -0.32087572621230986
409 2.5961649102333904 -0.04186143320850609 -1.8710561532605905 0.6681640653093885 0.9018387934756441 0.24837335993144574 -0.27991035073767634 1.1067250682557683 0.35040000915801156 -0.1149025224125667 -1.2802896083961042 -0.6142462264303141 0.19849005257405714 -0.020225363947334377 -0.49127364432993004 -2.116438683868138 -0.8514452319043442 0.7837700854521336 -1.389187760288308 0.38139336289591774 0.908296570060837 -1.566351132272439 -1.3927274352362151 -0.20964850233035903 -1.162542070735712 0.08518388206958555 0.21234730632195384 -0.10660719537918925 -0.6420624373975499 -0.14457298592643542 0.4590488925308685 1.3758597260676144
558 0.7278741535489587 0.2071535286443212 0.3969696694713211 0.6567556720657923 -0.23766346772702512 -1.3254874564939991 0.8659962020499999 2.360223467643554 -1.2374068266007927 -2.95846386298334 -0.13141431632320405 0.7957711471795433 -1.4911347649380495 1.104649259197144 -0.05425378805522701 -0.8285377940279857 -1.0686594377043965 1.1827118047339191 0.2519479688339418 0.9625274116776731 1.329835270641159 0.3224825308771585 0.07927050986960689 0.6550166230641183 1.2954577453433287 0.546966024854351 1.6907088977878209 0.5853872392846616 1.0504851943448188 -0.7330353869990638 -1.0976153171309784 0.0025734443218486374
732 -0.16666875172461376 0.37034787078547077 1.2633238553301696 -0.5508006022824933 -1.032100558032299 -0.5770601908717614 1.4679232595278247 0.32304363702891536 0.4110511164538814 -1.231841458062318 1.6268872048522065 -0.3133412449121326 0.9893974669560512 -0.050359583916200185 -2.176529711315282 0.3398996418376653 -0.8181559940665406 -1.5890649790231028 0.7428665913818128 -2.1989426936400447 0.9610091517058377 1.38566259106588 -0.8064970478041718 -1.776152326417104 0.32063776306040725 0.3363149072111625 -0.21239595447413073 -0.7040913225340985 -0.07807788298966893 -1.3132991956730573 0.4669472388234456 3.144987454527233
776 -0.26737424958225575 -0.8389041259535718 1.5024939684245326 0.7350089582748202 0.3260067096955125 1.915327068246663 0.4937521026579896 0.20631833572024189 0.7028498055948871 0.6208288813604128 -0.9568168832672165 -0.7493229369738313 -0.4415202090898018 -0.3586186834963474 0.8135121052629294 1.566660655069813 0.19344020610305937 -0.4031753395563565 0.4083116189814718 0.15634652635966786 0.7958150879932125 1.0209925881622992 -0.04760500575960637 -0.5472503161500393 0.760201984855786 -0.12159662760530203 -1.4907228793389302 0.9541977618121114 0.1167728806539777 0.8224821390433428 -0.6977436084937976 0.5265254250946733
864 -0.3552121323795421 -0.8986495356233206 1.2822580251218192 -0.13046997708032704 -0.4292427743197559 -0.03883311905700333 0.33358347518774645 -0.8997483742948651 0.3196237357411983 -0.3205555111810842 -1.3639834164443512 -0.36022722631750914 1.2698638408129734 0.3343421701632746 -0.5786980460412534 -0.9499691944219298 0.8374585781563821 0.11241241219420695 0.7608419123065018 -0.6126097241510606 1.025878457231349 -0.5986349103260193 0.6412108099089121 -0.33408964669199825 0.569008281959999 -2.514880025112288 0.5670844296399247 0.31247494562575573 0.05219187089127688 -0.56202815591775 -1.1559322565512204 0.25401427374062846
933 0.6273596565399642 0.9978158653052079 -0.909671215062808 0.513944486706761 -1.0196724399388881 -1.7992159060452348 0.1776882258567642 0.8687016661604087 -0.7954658380178175 1.5366389154904592 -0.7891486857450737 0.3316392436448836 -0.8667845584221725 -0.15356720830516907 -0.043469703102640596 -0.6378316903345767 -0.3052461254422257 0.8955680979593151 1.642206342066567 1.4442678718019502 0.05509856047701481 -0.21485665351912556 1.4842725560564518 -1.0059125272837435 -0.4417970061582081 -1.0897458621181746 -0.36406635943898275 0.6033896749627896 0.3269949288369443 0.36710046707359406 -1.1371970073536868 0.6246741310961879
939 -0.14420517630692242 1.1482978248506317 1.0490048516242156 0.9632012338709158 -1.2363323056194375 0.67232845106491 2.550008372405033 -0.5173942873481319 0.4258102265614184 -1.047308697449258 -0.39718700927737166 0.2965442676147842 0.800030769190572 0.6470076149062243 -0.6005878675329974 -0.8154432817504621 0.6265449078355592 -1.3845896996133151 1.1752723592658252 -0.9054807843218602 0.38370115225621615 -0.47592221364227305 -0.8361883907486534 1.0846630723767081 -1.3436590831680015 0.3490195113904683 0.9763831568392727 -0.2658813067243883 -0.08044248706334019 0.2683658810403538 -2.0310629733693015 -1.1279854871428083
1037 -1.1217196701958592 0.7544819617672103 0.7445024989936946 0.043142253120151255 0.9095493063476545 -1.1865253480009474 0.7980441735751342 -1.0244683748064707 0.2933440724436223 0.28998874563184857 1.063504941615208 0.5117378183974043 -0.356031807207787 -0.43994746393034423 -0.8864192191206601 1.1827831680386383 0.4526936380572462 1.8445410867817744 -0.8653654534124121 -0.15478315546583615 0.28954312618280814 1.1924290392280519 2.269848868851007 0.22752516532162526 -0.10756053547766194 -0.6519599629761621 0.9913930843875114 -0.5739685184080975 -0.0013287146370842152 0.39431301287533466 1.52808846072423 0.7326441758690924
1092 -0.5119272093085985 1.7503371733871242 0.12179738745745942 -0.8669949824923833 -2.0350933236336113 -3.255849346246776 -2.1277588309657407 0.21191001095179754 -0.6303297325831314 0.5977002161178597 0.9946157389440474 -0.22991046987682734 -0.6098631714533372 0.17612972884814376 0.6092002587386205 -0.9573566569953688 -1.7386128404186736 -0.7835494951927443 0.27665206081846605 -1.6339549863913485 1.3542939377665786 -2.7580247207130077 0.03025743775185165 0.08502077737699233 0.8502255466620837 0.7821125640030794 -0.8326043666287591 0.09217989387242233 -0.6354010918954821 1.4549209382892454 0.04740894666153232 -1.3811685722156462
1176 1.6664205836020574 0.20177960584039878 0.23443051950912425 0.2824266705451424 -0.0899291087380151 0.7478020270779469 0.6124872644086446 -1.3289244491064418 0.23084541529059507 -1.470368366611584 0.42471931053747153 -1.2985477119721773 0.47478424766239863 0.5644833635928205 -1.2343314056686383 0.1294597148237332 -1.060794104167614 -1.1244001265014816 0.03254733836656303 -0.24396463937651258 -0.8762338987152511 0.6380853989904225 0.17334469411036707 -0.25114665779827267 0.028350511286182777 0.5846389527806346 0.3883328348538923 0.7993370293810641 1.596186321745073 0.8919833759304006 -0.8269911671751341 -2.8781135955940744
1313 -0.551648695939962 -1.5884982326199097 0.675126505234105 1.9324216342215512 1.7568127232993722 -1.5756695503566107 -0.2683564444462634 0.9504181752373807 -1.151230097397497 -0.24980765457639784 1.0144892559796463 -1.0446447662442735 -0.16761493873572111 -0.06288425250995028 0.8735936324052826 -1.2028313290347332 1.7244307537044308 -0.08454565371057113 0.46240678274464175 0.15757772217649388 1.0266615154372214 0.045305633365212046 -1.3410590922876104 0.3055414746385709 -0.08041735056041002 0.056870488138095227 -0.276098895127435 -0.40710147561321613 -1.4960382631076468 -1.0443348431225894 0.04232302831335173 1.0404898064683403
1478 1.1662482622281967 1.0608991649278232 0.9249563069037973 0.365171280648513 1.3814379127331384 1.789257980248107 1.0983415535191128 -0.8736182880011695 0.8291151002670495 2.719487534652329 -0.49811323287216364 0.27620359539272593 0.12583087575426977 -0.427729467103738 -2.300124863091132 1.2897488964782906 -1.1910278185289154 -0.3595789734509677 -0.855788766835731 -0.15285428311963858 0.17995362390677175 0.14500659879604177 -0.03367526323952665 0.3584545340986148 -1.6452949375374368 -0.700375805307955 -0.4138954700171631 0.9775399161907927 -1.0321083278241021 0.6741188271314964 -0.24427553548730657 -0.6186232451005826
1499 0.8780716544980817 -1.348445107456011 -0.0028176073293515475 -0.37577344775007326 -0.36202915672111186 -0.2488703386823153 -0.708340255354809 -0.49421725793085447 0.12488418942787723 -0.2053951317252513 0.13198528561368897 -0.42533764716293077 -0.508807674059748 -0.3431123111532317 -0.6721892169857315 -0.38900717216230174 -1.1882897275534026 0.3706780418106309 1.6945417056666385 -3.018431305260595 1.557605908016551 -0.3183605378529525 0.4829070757674843 0.7244014428554386 -2.4229488643221773 -0.13583548781004062 0.15945887979669426 3.0754459591846017 0.5954158906435815 -1.5011873152137711 -0.1691067072810889 -1.1739358906678294
1596 -0.9870326603537801 -1.4656428565277055 0.44065654978055024 1.7015946727691762 -0.3054264770568404 0.9286821194435176 -1.7474311907471054 -1.3159535908597446 -2.6498024770191533 0.16906824291658737 0.1548097089859896 0.16499548335635392 0.033599271679828874 -1.1520829140318194 -0.3667689142954836 -0.06721025635029787 -0.6274441381958767 0.803878792073317 -0.9472541895618071 0.3079052630882493 0.01473238460475979 0.20845898825140335 -0.24721584993918472 -0.04578340170169648 -0.4735451401928967 0.44381102858708077 1.2947600446202987 1.8156531153064708 -0.3476105220781554 -0.6680566391652938 -1.1743767253625348 -0.2203278808307019
1608 0.39462419458730974 0.45978283818443744 0.48937456413233515 0.5720002740873215 -1.1446903482499808 -0.7947851598736215 -1.0852652565820482 1.5023343393489357 0.841767018830413 1.3698344802072453 -0.44960489198386117 0.28970109318542964 1.7443579405822105 2.291938612719018 -0.9681448080651178 0.23560310592615866 -1.1200901707222697 0.6289755215449421 0.20244834405945844 -1.153095377248192 0.47718001082035216 -1.170079531846726 -0.9335384241495842 0.3622308752236795 -2.60022904591886 0.6725373745217825 -0.2619133427064076 1.1307033080739415 1.3003787770177648 -0.6534382672100902 0.5351317514056869 -0.7143761146237727
1621 -3.1063737778038547 -2.037241724276017 0.7325784737399176 1.8495599071413973 -0.4241762817708504 0.5055949528385423 0.10152901749230582 1.2851667799628208 0.0058871860925915715 0.7139447070016347 1.3973196787364563 -0.17282297499359628 0.9300444906527695 -0.6147132588262288 -1.0476127660351358 -0.11408740932671256 -1.220284257426732 -1.322726016556947 -0.6431431982571508 0.36654803960723603 0.9712926975694521 0.9858511085441666 0.8571453132561212 -1.2974505072745903 -1.2332913731337662 0.16940614279903563 -0.8722270322242252 1.7369243151687497 1.4981162074974503 1.4507970483979875 0.6092354520698453 -1.7455408709505127
1637 0.06935855523815512 1.1427601563201957 0.6251452986789579 -1.3071040767166584 0.3099257022734794 -0.6117868172791753 -0.2546415266034438 -1.9559323290982022 -1.4819647744181386 0.7106558877329663 0.3360676193562132 -0.7203876277153097 -0.637378023864305 -0.8137868987375914 -0.1475358941079975 -0.23107372408290797 0.3456847615203125 1.576759645055242 1.0192171014408578 -0.4543040138496323 -0.6572701574009051 0.2715420477908502 1.3068832362758243 0.18921743829151333 1.707004516176818 0.5598538535343794 -0.7284664908607567 -0.8284811487262348 1.6887291270712999 -0.09930535511298877 -0.09395183501809957 0.7128174010024477
1717 -0.44187489535444646 -0.804953307774837 0.19952946368127136 0.009913565038691653 0.6873168386661032 0.8249263954729635 0.7996865862265055 -1.4900841209311098 -0.599059790592623 1.4969946245565575 1.6297044163743746 -0.02270746258363329 -0.20398441806996495 -1.8442341040771175 -2.1930609598937143 -0.10234072645742319 -2.4434292367087274 -0.9489529868810979 -1.580569047771205 -2.457807244776129 -0.04934823003597709 0.4003857230690219 -0.864772420679783 0.4681981321092782 -1.0235810076746157 0.462096048690742 0.02107772179039002 -0.26441455173914047 -0.05862037267797834 -0.9520488571592083 0.795827143101891 -0.30067236432823186
1788 0.9919465361156173 0.6026591408830522 -0.4710804365245911 0.8298972386555212 1.0402220015483639 1.2945288082071653 -1.3112823533854394 -2.292609428954147 0.49468024151321804 -0.7252199263834508 -0.06586453433933134 -1.5358250626262016 -0.08193736041191102 -2.005667499551064 -0.3935370794488696 -0.14806727549842993 0.5648732461744268 -0.5247621455390141 -1.0493941603351173 0.6597871179893239 0.11824743297651231 -1.134111633996004 -0.6751346644762464 -0.41867226350055275 0.6965316152390904 0.3153651526809741 -0.150760214893258 0.5561047588876549 1.0404174154328518 0.8182019287178783 -0.768239108178012 -0.8374100970628807
1919 -0.02580073390856829 0.2614279853129065 0.8091026484068095 -0.37390556571571726 -0.7280114787770178 -0.6329499367446051 -0.3376363545094076 0.6834309077507719 -0.6960411979516695 -1.6219910852755992 1.2903315433210283 1.1907278348074184 -0.6271883145912138 -0.451591797668537 -0.8822081292111018 -0.44075113711723796 -0.24604135717782938 0.2889529086324469 0.7811517576063892 -1.1082859371256335 -1.2391480699675963 0.08457418880925964 0.41368801024976504 -0.1769899000325922 1.1242088758235222 0.9142151273115183 1.2671923640062512 1.5213159742681441 -1.1295804236255325 -0.4311238021582086 1.3755781740332336 1.2083970824695434
