3906 32
729 -1.395013789772093 1.1044002223569844 0.608498534651124 1.2514587155905743 -0.07249082622369873 -1.1467537233044423 1.2403752825180914 0.726539031534648 -1.9903943890348346 -0.1573989003498424 0.8330273181570002 1.1995265896213854 1.7256534306835203 0.6516414258215584 -0.4367938566945768 1.9920670074418207 1.2989684987338015 -0.5441248423800458 1.564729240233735 -1.2990102528399785 1.5493210054494975 1.3888796024276646 -0.2255294996567045 0.09890839663072022 -0.8895063902117752 2.236266564712582 -1.701914104719152 -0.29999305615570904 0.5693555939382707 -1.1401142853280901 -0.23023582758065472 -0.08592986074483173
1 1.5087550441679773 0.0501673720162051 0.965909529040359 -2.10402555500678 0.6555014135148877 -0.1658196888028143 -1.9679214495977564 0.5311922082181036 -0.9594509804948438 0.152905318168538 0.8851001962472467 -0.26151997239593106 1.0562022502326132 1.471565605846417 1.127202606975546 0.4890511614069333 2.9992850577207033 0.7563473673594363 0.9334081500262942 -1.7317101203809184 0.6578377929226945 -3.412548222756877 0.1331936154875386 0.31083076559742934 0.7202249814953022 0.031439342824158716 0.41071360969451404 0.6073594811261964 -0.023673975148695032 -0.6135564172106065 1.1704731750920945 -0.14906027101341368
335 -1.6515221317447002 -0.15224472755601098 0.15721878921810006 -0.6778484564916761 0.6716364632563727 -0.12551270277377832 0.6169484975567086 1.1007310349537704 0.7818345611327346 1.0765801034532023 0.11868564039089782 0.9954311078364634 -1.1810746459927934 -1.568470600129743 -0.3178243511110013 0.7057833526155793 2.5522617578698834 0.8755178007720518 -0.07516227470620582 0.7001726641377065 -0.3221034123990223 1.0505911903777636 0.8546298163800892 -0.9879207136467114 1.442144057325287 -0.12510589415547355 0.6074997078724126 2.7365410691010505 0.7868830716037547 0.2804694919490769 1.1760056162475396 1.1866878937849297
585 0.3008685048488192 0.86843311431166 -0.5206245257658721 0.09974457717336957 0.7699463262921549 -1.4011771773628734 -0.05160652892633033 0.14399193319367928 0.21926870608312918 1.195244637532054 -1.8315158763794552 1.2185895231162986 -1.5487117158989974 -0.6729362078647932 0.9328417078672725 0.39052202066863134 -0.0895022721984843 -0.016287619016270096 1.537185716818574 0.6039477686893532 0.9841795221280275 0.9198070177385146 -0.5117657917414418 -1.2438884325891228 1.4378106264332913 -0.45431716650528486 -0.41674279233241196 0.31671970954553463 0.49217487033547913 -0.24192972332331455 2.770532771579195 -0.3108434467939154
674 0.4096571029989894 -0.34038617103151825 -0.485395338107205 -0.9492368546396288 -1.1989748419262412 -0.02351920464941212 -0.2351533665596459 -1.2228502843641713 1.046355555163623 0.04612830984987511 -0.29241974209948624 -0.8126194048504113 0.4827686487500956 1.1756756576329828 0.8664647088863933 0.13508565324879176 -0.9813247866300154 -0.03753836720946127 1.4668367584686477 0.009758630301414105 0.08311419568924026 -0.03331995629707524 1.5477434677395114 1.2600345379542446 1.4411157591156467 -1.5046251495173912 0.5484923580918348 1.0168161553651716 0.9338299707054065 0.09404890998582191 -1.190113571318107 -1.1238351176328405
3178 -1.4287157582670316 1.1376235811600144 0.8961979766402355 -0.5147804187400353 0.791572813790981 -1.1650889753794311 0.9835026714341626 -2.064675398224617 0.3168945418102916 0.6612858961805538 2.708571389334789 -1.7128636908515908 0.33363006833431 -1.6117278889679523 -0.26248216008397796 -0.18348893701276328 0.9096214113383421 0.37342818773978254 1.1511397579315896 -0.8146824528643374 -0.6266405107405875 -0.16709744723693845 0.30131600152369725 -0.2689990022446301 -0.35289753221804804 -2.1146809831216 -1.0233766959129165 -0.40686917442283216 -0.3154389486378537 1.9348855418470419 -0.35633283016833184 -0.13916788728574517
3715 1.5888165575433948 -0.01439184485860823 -0.32585310781076465 1.2090135492384992 0.5306087843905299 2.1304248611208756 -1.4730298212598338 0.038672038205609216 -0.4763884734771372 0.5940126732331303 0.6884615640090979 -0.6446750920361072 1.040273673455566 -0.6145412811215061 0.06827069178877314 -0.08462659079746938 0.30039885919392983 0.776613152217639 0.8527875806352855 0.7386520758611806 -0.5616055582478945 1.0365004132969875 0.9982701633734211 0.16695534102235854 0.7642778904751346 1.377574721440588 1.799494179094362 1.6174692763158351 1.1163249100070034 0.26139983789306737 2.7419306738688816 -0.593618773391244
50 -0.7352039851857771 0.5978425432847542 0.8150328739926543 0.2896396794217884 1.1720328273027718 -0.38062379899277 0.04627334721080865 -0.8348947749593414 2.2270346719672185 -0.40130519625067146 -1.3211112399619644 -0.5950060547547654 -1.0294910946025873 1.726493337294735 -1.667709464650297 -2.6544404243308164 -0.12522589981347065 0.606543682150457 -0.3327098972741228 1.332343337177078 1.507769588099435 1.2210082481688844 -1.310739575639925 -1.040540249065522 0.5484971034654065 1.0811325651170443 1.220214372797751 -0.9743959330650404 0.3280555573709549 -0.9248100978603678 -0.3442454028265178 0.4698729750933671
193 1.064178076683136 0.7074342409578616 0.5034939121840549 0.20030045296275414 0.5661387425330444 1.0469184162730472 0.2616936369696415 -1.113309193902905 2.671852850565299 1.0210527242924843 0.8478588466435855 1.366635675720303 -0.6024231187593836 -0.015008102261081187 0.6295763159425749 -0.4318556389186436 1.7262262636528674 -1.078208629223214 0.2655683228546245 -0.41816560842218753 -1.3542849553095848 1.436977241261278 -0.13302610933166273 -0.5146729846757692 0.36461255720259894 0.5202627161691697 -1.0159118735583201 1.2168978865918543 -0.4863093944050583 -0.3089197833763568 -0.16078442748908991 -0.09878059301905147
212 -0.2614108137210906 -1.9068113300438274 0.48258889285404505 0.8664356502257701 1.2067082147290682 -0.03957251990182887 -1.3871022777342863 -0.614415434319554 0.8481268728841892 -0.6028312163341728 -0.10637679028552516 -0.5643354340864677 -0.3967949054079276 0.13658326432363493 -0.11463741715587715 0.887106754027298 -0.41636375516275365 1.700224691522698 1.0835013653188006 0.19172714120992881 1.4809187027688473 -1.2043690431506602 -1.8198248008696132 0.817584887799672 1.2938651813624376 0.14673329925891354 -0.8214431775110893 1.104840161110993 0.6777661718481149 1.3497601977176263 -0.05963656893414479 -0.759647361601584
222 -0.9976112393659251 -0.5469235404509454 -0.16997368765646498 0.6513663301948265 -2.35843980950582 -0.6314589942564965 -1.6335329219354642 -0.1200694846337888 -0.06412075726723983 -0.25733543797157415 -0.9878573931041421 1.0414037399537426 -0.35144498903308563 -0.5936947393883993 -0.12449649315224916 0.7586794287823795 0.45439328729358736 -0.9078785090223188 0.8163889436127896 -0.5960431136302046 -1.2375172056880257 -0.017706935360830272 1.3468367362370814 1.167823516287242 0.34504127512603977 0.9261604625844532 -0.9552005696144988 0.9986567360818456 1.3000172920775204 0.9152777698506556 0.676445301213342 0.09376562718682903
847 0.13748756501706824 -0.5187875973706021 -0.09367275931507044 1.4284701024641617 0.5711740088925588 1.9824745344161017 -0.9491740827931763 -1.1945001737883434 0.3855027415809667 0.5668994185367361 1.5289309464345617 0.8006552986055523 -0.3818143590859426 1.3017710184990958 -1.6372258990748256 -1.0578410323568104 0.8443260284011977 -0.44889363004912425 -0.33083786891272304 -0.358708421477828 -0.8155783250726681 0.8914254174303964 -1.0821930486350915 1.432395034323608 -1.6660670587863884 0.42693318351102144 0.9251745822820269 0.8858372105777974 -0.0010399951349563548 0.3194150298507429 0.2327624747343943 -0.05674516326635784
924 0.7090625530256933 0.06585411681218105 -1.5890865415375015 -1.060879287295105 0.15578368790121946 -0.21431084482107515 0.33462977999851484 -1.279140254163167 -0.0053041273854251975 0.23009133313095642 -1.0539448453828617 -0.5174359919812711 0.30602689767938446 -0.28669893173009103 -0.009586797060192187 -2.533805854929674 -0.9401208030735037 -0.024103154145019564 -0.11765211587117157 0.41190646278462795 -0.30095808752917874 -0.17719729981113883 -0.2942319188590708 -1.7827460690904584 -1.0068155392269253 0.22792353452503916 -1.2959339628117281 -0.9533149890842478 1.0677565919101695 -0.37909825520485224 -0.2794138789768828 -1.7689386990305342
961 -1.54080328913303 -1.844998687684922 0.10188617402686906 0.27574613170889056 -0.7979196771858799 -0.7339390659715169 0.5117001216327908 0.2832291233929708 0.24783659886721868 0.8227014439455794 -0.33677820480826554 0.5024918199086462 0.7509912697132448 -0.13339476231497782 0.9958734404382137 0.01250508772695114 -0.8686880326759413 -1.7066967116965663 0.384086040017215 0.2660377503190181 0.4825175367336165 -0.2501461639222112 -0.8370291884539378 0.9785845408356977 1.878630014111634 -0.5438254869084133 -0.9595797786592385 -0.18607489468986751 0.3324458847160067 0.8145897708289153 -1.6381871918805222 -0.07267304654260419
995 -0.26009539500369466 -1.694036848898426 0.332385633405113 -0.6411298492269114 0.7702597185028836 0.38693734193556834 1.3483745575110195 1.236289831422737 -1.7584092070213886 0.6945928748632805 0.07651446826862224 0.21956935401042016 -0.6670721546251608 1.4753472826186553 -1.2500627150502264 -1.053148187352105 0.37496174828188905 1.316854660690459 2.9475069715843296 1.4760650530491426 1.1113398363101783 -1.261012992693502 -0.39645857942304297 -0.42383442351434714 -1.7207310246217653 -0.22805204373962729 -0.27410254184166194 -0.48882948780470104 0.4685281518388046 0.1389876358316138 -0.6998691902601765 -0.5009984431091331
1046 -0.5874162350571285 0.45118685833803435 1.5965530409925746 0.37006907230263 -0.0010509102169736467 0.024969903513969688 0.6849329091164972 0.06752253568782225 -0.13495195979611768 0.0756818408240274 1.5473419060552858 0.07263142291798966 -0.12972022999954513 0.12772853842862422 0.28424138955560974 0.20957258502976464 0.5270977129231622 -0.9691706383698478 -0.6270902771519996 0.9692200426078165 1.666431201445642 -0.11585271481290632 -0.17829171613596165 0.5707688622271243 0.5683376693744029 -0.7694672053924938 -0.42974063015576414 1.8248194347331796 -0.41248275356315883 -0.4569568959182325 0.6052721060424733 0.0230917361845515
1142 0.2969071110389325 0.3228324329266405 -0.0655414158684249 -0.6458424549174558 -2.242505997465122 0.9954483616439755 -1.0534618334545962 -0.14729553450543034 -1.1075473227949812 -0.2794688587776294 0.6995359267134988 1.1090594764639932 -1.0503410060480238 -0.022692760395297672 0.26921305540990736 -1.0771668439057203 1.2810923745669247 0.5503519066710998 -1.0011050861409745 -1.1778601726091096 0.5644208171633707 0.4001858634486183 -0.2855864834710828 2.152772026846719 -1.4348997127910998 -0.1972457877646949 0.5197400691633522 0.9591887400148824 -1.509339355363067 -0.02574680976569895 0.5024463293841731 0.5648041101030992
1202 0.5617955498755969 0.1931714035998292 -1.0918401766260732 -0.5314186800126957 -0.1445690608141431 0.15865597794537795 0.7680905439883374 1.1890190504130227 0.9727596289906211 -0.1618013145887733 1.1711929880247502 2.1270726888771407 1.0747066736801039 0.3772898303824223 -0.19261115760645017 -0.008098330269205768 -0.061969030162501625 0.7498741670218229 -0.3523007146976697 -0.28303048555348487 0.8756165636166955 -2.131112745390314 -1.5337589270788534 0.10921406949726913 -0.9154674187336631 0.4065118222025623 0.04527341673034752 0.3165071052010072 -1.941620007164896 -1.4533148432454261 -0.5303521280531241 1.1178235869649038
1236 0.12614104053259453 0.8076260101995272 0.37370475804347436 -0.8131353101480201 -0.345015349769233 2.4271041177207264 -0.1903769122900082 1.4205214898376741 -0.3592839965063094 0.16563203183432337 0.05424978677465552 -0.14750107767856493 0.7775970256443645 0.46776795069105503 -0.26435199781527297 -2.2042905446010996 0.7856556269894901 0.46780195592201806 -0.8649986113589174 -2.0003003559085415 0.01669540395615496 -1.8662992069104447 -0.23395771600577178 -0.19933292427115612 -0.9630571253561764 -0.028537434313551595 3.4734008741729365 -0.005545373208814552 -0.10614231428926062 0.38874240551673733 -1.395618755749657 -0.2872949503028574
1294 -0.7635857827984233 0.1301809342020489 1.4214424579077292 -0.013023577593116106 -1.1776428810431607 -0.021227121361873148 -0.17791469103942625 0.2278551796321244 0.6500076814392706 -0.36234601552613815 -1.0686313123385904 1.0202078918929753 -1.5089089559389042 1.0311986921966358 0.21984588189587095 1.4890014579332926 -0.3601069906588908 0.08463280435170946 0.37833821463581385 1.7542790807831457 0.6680062560852091 1.0215731847407625 0.3398537829140742 0.9247522425169451 -0.3711770679841166 1.4323770721932525 0.4506640667714825 -0.2834851632760277 -0.05452464045842282 -0.04801653940384469 0.9229977245428383 -0.7881712525982298
1432 -0.07428444897813362 -1.3490466779483334 -2.7886662969409994 -0.588746034453681 -2.43966665270942 0.6523131686146086 0.3012880601907562 0.9074120026894393 1.1842113966337877 -0.9751988591977486 -0.5399394963613156 2.233226178245622 0.38180616856861976 1.0803128113838323 0.2136297203518706 -1.466491994802088 -0.08487708060581187 0.1679141106637489 0.214672107312665 1.6054024224542354 0.6691428366278591 -0.8733138009585016 -0.09376637280682949 -0.9419887090030324 -0.7840819556555255 -0.885844669565604 -0.03554335115441502 -0.9603234235236934 0.3851502276477356 0.2808076271304824 0.8351176246949061 -1.0574554856940737
1489 0.3016939627344651 -1.0923850663642845 -0.9551110735444929 0.8379549592432609 0.44167773323788523 0.44755894246557465 2.1919338628851195 -0.3352156606455696 0.46061403594226896 0.06079134393530303 0.2721401332840926 0.8372929073808788 -0.1067469687031529 0.9923052456764645 1.8468206937193854 -0.10120262842813152 -0.4043444124059384 0.08467368018382641 1.7604690858613232 -0.18311389569455905 -0.48598830302896745 -0.8785960339581168 0.6372810158485619 -0.7980516634438994 0.14215834716535847 0.5284795522190567 -0.9784763151686109 -1.8382958674342815 -0.4946581800402184 0.6383440887821766 -1.1328537365330367 0.6298185266319041
1514 0.14543628618407076 -0.9675164878297648 2.0468753815582743 0.4638740596871659 -1.2850387588712453 -0.34529643587654735 -0.12878589750908584 -1.2629866165103343 -1.107086454968405 0.3803195310620438 0.5287000506567693 1.6519487146131417 -0.19832043942637229 0.3587687133326776 -1.5273323946820692 -1.5839682455110455 0.5056498363862743 -1.6675228894643557 0.08457237781289365 1.1048298636305762 0.9855767028557645 1.324132493392427 -0.5549666722592144 0.634157406298087 0.05124325123872502 -2.4335586383717986 -0.23110666237040098 -0.2548494321081152 -0.7149305761033816 -1.0333786092632533 0.9393605471085016 0.09877393396815279
1552 0.12413765564910793 -1.7254229519329267 -0.38996459015978274 -1.8958292662300316 0.6220477066602452 -0.5125231657253547 0.12601936683981607 -1.2868009075053204 -1.1181100241199806 0.5034818716004646 0.0654810313601814 0.10504437478680598 0.13689195780684277 -1.428827555325327 -0.003402396915737353 0.24482061238898442 -1.1413873028891375 -0.7956777966248132 0.6943869427890513 -1.298295713638708 1.2715786444722699 1.3208651111664316 0.3951906531286516 0.7364356218724818 0.24372080977878335 0.330962862397313 -0.8443467108090538 2.3026990400174654 0.6418606259633848 -0.2562683851883959 -3.2969238734969037 -1.6556777742235835
1560 -0.516542829605813 0.5993948769482204 1.2489760917686494 -0.7677065179027173 2.1935608118472794 0.7977536889831008 -0.803725167685888 1.6417763749740313 -0.623641942058592 -0.48431775604958954 0.1104215588552344 -0.03645267504608529 0.10621914716398438 -0.22828838316832473 -0.2600922980815438 -1.7700232704322618 -0.522652778915814 1.2303116971528305 -1.6112159778838993 -0.9630687330413785 -2.000166625061793 -0.3717145160910456 0.6605850348226133 -1.2376531620169442 -0.09990156580792804 0.6111395800424616 0.5086351747782846 -0.08527423871252714 0.6685450526827618 0.15009053869196537 -0.3270190377398351 -0.13639733060614426
1580 0.31358159246642076 -0.6752965550289523 0.19705399925684652 0.016362128241469917 1.0886910591175587 -0.7225059659972528 -0.41956707068127264 0.4034843106603045 -0.34870508816896184 0.419497220594292 0.538689542627911 0.6513162533762564 1.0855011316940695 -1.5846168219163133 -0.636959947495127 0.44917064649295596 -0.6566574010981041 -0.03475367078301486 -0.3400305078939624 -0.2755036036158231 -0.9166027355741252 -0.6668783753560684 1.3051856059933944 -1.6276890779342958 -0.3997917068023219 -1.413688491563009 -1.0242484751733443 0.11672059872950774 0.06354625360081988 -0.24340908142566417 0.04310685460652558 -0.49375196165516655
1810 -0.8937196741736474 0.6167540394287531 -0.27383320795481825 0.5684627914114809 0.884099660864329 -1.0728532638427892 -0.2669453820859071 -1.3072273894805952 0.6271623724700874 0.48037285002466606 0.9685622285639395 -0.3447152438967734 0.4529578801783904 -0.3492039546945775 1.1248262531826996 -1.4131362272974135 0.21832144332052816 0.4468201164720801 -0.3611118845209639 -0.7984723682324052 0.5199598716228937 0.6074535745415686 1.1081877620002003 0.5670343090803848 -0.741372964054988 0.4464424513096679 -1.04567851446762 1.5602102963787738 0.505159164083044 -0.006570499760718516 0.9932034089544364 -0.3983153105844988
2050 0.22214706689944205 -1.7322422681374754 -0.34893549529404644 -0.8226732030035104 -1.206444956951589 -0.16457393534990045 0.5139622545713242 -0.1654486750990298 -0.3777801209674507 0.7984678945222794 -1.1760231012146902 0.7977599359392608 0.3367618850970837 -1.3321552117665239 1.0071360473433644 -1.0153708287045138 0.25409826769864874 1.1152776766883783 0.024520554699721968 -0.03182804272472109 -1.2329994264495197 0.05964483308491129 1.0495586560183714 0.25497505337693793 1.7186169173654273 -1.9118703211008166 1.27280956436751 -0.03869016762318782 -1.188284495768723 -0.9331679203076362 -0.5697961797158121 0.09705462983391874
2237 -2.7424706113475064 -0.15290723866860637 -1.2754431825182608 0.46263960042868146 1.3519089013175098 -0.09560906546343811 0.9257650919959834 -0.8833632047839303 -0.5647698330917386 -0.2678340329807778 -0.029117288569600348 -0.3407185372053913 1.9507347812315863 -1.5184589043388792 -0.021332732040927463 -0.8824794017505154 -0.6716644361444445 -0.20756252555456103 0.5927726749537089 0.6920057681339141 -1.0930797831146548 -0.9088154642319144 -0.9856258266074251 1.2304280459323091 0.004518435022547563 -0.19143656131517672 0.8523922578437734 0.3496682647230517 -0.7917903413387231 -0.8505756636654868 3.244665515619585 -1.146494689304158
2295 0.03496677961296032 -0.05036582453693328 -1.5228664266588483 -1.6530666090901922 -0.08472913986679038 -1.2287047785576486 -1.201472123467939 2.2249058280639615 0.6010893740851532 1.7706836597921234 0.8325780117845885 -0.09426264620730854 -0.14396749115140958 0.15811064114637646 -1.0656240952207638 0.5209955660310154 0.9582028392258576 0.27622630868215914 -1.1270328098881761 -0.6261910799100463 1.6305038847131448 0.058462961383777316 -0.846043837117028 0.3703289557114132 0.023048240292270483 0.09423011972758329 -0.7216465420198426 1.644002946002872 -0.09072096596263271 -0.642636270901424 0.6834123209012047 0.9523437846103203
2689 -0.4607524157091107 -2.1432880306363655 -1.4228826738084102 0.5119479726187913 -0.039896123585914295 0.38676804259916764 -1.3228303936154995 1.0431435485006353 -2.1739492908639075 -0.37813639941962673 -0.08498684226719623 0.6727708500525336 1.9594121946273324 -0.18509781650350993 -1.3507890331776307 0.5336298435321192 0.830520114493204 1.5499235273193008 0.3771933016452998 0.06910054892871884 -0.46183830758192657 -0.8642347808381186 -0.6602299010238654 -0.4310704659241641 0.21913434107082178 1.2408044586526503 -0.43842798484205225 -1.7379029650561517 -0.5524714758289037 -0.8846766439123788 0.5112934112534884 -0.2333333107845299
3021 0.04357352386778607 1.6184103720494456 1.8365230083277342 -2.460272995656665 -0.43383035290485306 -0.49153971412965997 -0.7432275234819471 1.515869329253719 -0.26103059785153593 -0.5086683064380111 -0.06478699008885315 1.1431386271574073 0.34228150369079985 -1.2748774116036994 1.4422676072991112 0.055611791571270844 -0.004260704237998881 -0.01816639086845777 0.8287029488483995 0.7001922459111587 -2.0481418966436937 0.25668790851989187 0.532173862308549 -0.7103280685842147 0.6859741017684229 -0.09250181263341839 0.12493954267241872 1.1173878613192691 -0.8593693797522397 -2.191741760968124 0.5294544127371386 2.1245755013808294
3038 0.3970061907808689 -0.6508130145948102 0.6458600690809516 1.7421949922685924 0.9187678667457209 0.4901770180689679 1.3974533796017692 1.0532543702146455 1.7406133663595242 -0.9431227107724994 1.97921378489544 0.47824564902006156 -0.06638991834900483 0.3257671070729511 -0.5648814910091403 0.9804423142787931 0.055855511659171374 0.9689693390252544 1.3816842542716612 -0.38564643040019625 1.5429056788379552 0.5857293802210031 1.395700000813723 1.1119706762006212 -0.02812306250371355 -1.067465254030967 -0.7523579342156729 -0.4333334294618353 -0.2540209096447173 0.04024053098558255 -0.15013552644357508 0.7513741898610518
3283 0.5183518720754341 -1.1027258488558613 0.6984885678083994 1.2219601151217954 -0.6045773183894414 -0.0022160281811398194 1.0517084034551163 -0.9582806835697489 0.5457234690216194 1.4805968147700892 0.054120788953214136 -0.20676919356079243 -1.013792331717459 0.26738775673281895 -0.6684527601852613 0.26240067962077224 0.8511382557963403 -0.38734343905153423 0.3411727614539077 0.7564885848374558 1.080949209536005 1.5289901473004166 -0.766618450173552 -1.2646363283452473 0.13587082083847501 -0.8748220644435823 -0.4558635212466999 1.5312858127540623 0.9502289366226709 1.3972924026634068 0.516513545238594 -1.6859781607475268
3489 -1.597330845349637 -0.2936808577647082 -2.2518032377699972 -0.4077771244815733 -0.5485445230610237 0.24963130981787937 -1.6634079622789006 -0.32217648669890214 -0.6347583971685835 1.3258133157934553 0.5373387294655961 0.7887481052656736 0.7488284914673091 1.5349204358435038 0.4186711063834782 0.6091917555432793 0.9727831402490383 0.950033159115579 -0.40732372158591457 0.607565534681881 0.21442060249845496 -0.5058984846230368 0.33467708088162956 1.3616056229013411 -1.3636711523695189 -0.6118318868099273 1.1803855278619184 -0.9826469251952074 -1.1993287794204008 -0.3011149841111996 0.6487387404351906 -0.5123375530530061
3583 1.5589862638898904 -0.6819472331937858 -0.940669259584604 0.5027970688438993 1.083924354429928 0.16793081372776153 -0.8142348210094099 -1.0237664385460508 0.6974968676223475 -2.902022512862602 -0.6145390050744296 0.7048577578037001 -0.319566516240564 -0.5516565333488963 -1.079970338707936 -2.3302810871680424 0.07028110859679912 0.45307705664377634 -1.436466582346122 -0.758491835380435 0.20539238097680038 -0.1404577704194598 0.010893982103720746 2.0230348902672053 0.26134537576071604 -1.1347544373485334 -1.2621671967766486 -0.29358438402045706 0.44924447549108454 0.5971079464961596 -0.06189350814239359 0.40473303976857344
3836 1.3186895356036488 0.8569547778535317 -0.513797440785322 0.9447610083728115 1.7112276363444516 0.8584937626368868 -0.6223306067399277 -0.3387646026038758 0.12276076774891434 0.8521261923062692 -0.574051824788985 0.7479642679385399 1.3269490326069016 1.040111902400578 -0.40962999916538756 0.8815676154855488 0.11675679523988887 -0.1729160374682088 0.07273109388537445 0.37781783579308675 0.3876502944064352 1.4712000672787091 -0.2353460890377303 -0.10036625232419906 -0.17125107615564647 -0.32116809129527346 1.3343798318806277 0.08174777262922718 -2.9844428568690087 -0.5066257073838203 -0.5933924292137026 -1.8003383587537458
161 -0.2467338116258212 -0.47552912054352336 0.06426888633828018 -1.3924725450784006 -0.6604250674208959 -1.8630225095158708 -1.192023432033735 0.0875901476938717 0.09064974473087162 1.2160677949794187 -0.695182461047969 -0.4305004976108344 -1.1765273422625193 0.5540519142527291 -2.285125032965112 0.20059422469306154 1.7601383078939685 0.07026055501888255 -1.8297163485698644 -0.3909810907793833 1.0275999600069143 -0.1909064824081453 0.1436832857510641 0.6093422867612722 1.616185711284605 0.5568147272785858 1.033261816757667 -0.41345868321116197 0.21880124320804772 -1.129549997874019 2.0321677870943224 -0.12356538864688746
2 -1.3377714540718242 0.5714535377678196 0.49901083237662924 1.4927668783578705 -0.2907364945534974 -0.2858720869605606 -1.3474871794998537 2.0002872923926756 -0.15386066937309917 -0.6392717471509012 -0.7405103646072008 -0.3070253426892723 -0.6409947606492384 -1.356412399907429 0.3546377602107907 -0.821026598858269 -0.545185675652556 -1.8202831219620361 0.474658478385978 0.13650333565905082 -0.8018015292777578 0.2912526942871874 -0.13113049952962622 -0.14210198294347154 -0.17209270635378274 0.8913083720464982 1.2965151385540614 0.7349130680180213 -1.0347563678594682 -0.8126040904212833 1.3571131226647772 1.1327257136350626
868 1.4553709078047683 1.2073080596548291 -1.2059971917208805 0.634330150885479 -0.010368825627606458 1.6096051532902038 -0.5876562655016097 -1.5414599866633776 0.846650579587828 0.2051422722247635 0.34073680931926636 1.396931781905729 -1.6299597844363447 -0.6652066183130079 -0.21562381932272343 1.2705613140473038 0.25346643225188764 0.5789142403804403 -0.7895849637089986 -1.2609869260376652 -0.3811629293504352 1.0373173964364975 0.3316842953500731 0.1741964086036589 0.670208607800365 1.0147919060135921 0.8603783857123296 1.217018410393879 0.9171979755946721 0.376898588507032 0.8252298287112207 -1.428118278378868
1192 -0.1767816139978366 -1.8876227358718762 -1.2834096093695764 -1.3183206039843367 -1.8895529397634563 -1.5916624483399773 0.5840230430373353 -0.9219989726188511 0.9539413125663421 0.6488006766862309 -1.9053731001670589 1.8721244494472529 -0.33681586951544407 1.586801459794764 -1.6264819595021067 -0.6675643373711474 -0.6917483391837072 2.432220350527409 -0.19171741242262744 -0.7980231051527084 -0.3353938981548804 -1.3778490243837045 0.36078833490110146 0.6498350616119599 -0.1277607414800017 1.4675618764606446 -0.057250981126977435 -1.5350666723031732 0.8418457637042643 1.1900310333308226 -0.6685125233657554 -0.12144576032921661
1240 -1.1941815391143755 -0.2591742709034362 0.4748849692618471 0.7787740629372454 1.7921706288442256 -0.02452288874584784 -0.12600566347509226 -0.5555090856959415 -0.041875492271963195 -0.3319495002822877 -0.17755418178789048 1.1523018948606325 0.6272585663359036 0.26536277608375974 1.3464520015792365 -0.8534905544248196 0.08831232905834548 0.2830789541604525 0.6743412667318994 0.32898498840198775 1.7196191708485595 0.32049060716393746 -1.0409032693945366 -1.2741436261833532 -0.25973359011672675 0.4832977329783862 -0.5063404550732702 -0.739323630182512 -0.7686429719009512 -1.0273179016022143 -1.0900624439386728 -0.09038370643880785
1242 -2.093681614763253 0.906603159183572 0.6349799340269136 1.941209377470889 0.89213273187526 -0.2894856890461625 0.1714833468890551 -0.4652045985042548 -0.18685388474602507 1.181571646422883 0.14672978335051576 -0.9095552022050761 -0.5132762823187161 -0.4094281670016045 -0.7287532422516253 -1.3422711432155927 -0.7404004866249488 0.16396393679622503 0.026369521534536904 -0.5261971531254008 0.552022027973995 1.0589233514683078 -1.387737961740627 -0.5688667333795113 0.05291866987876996 -0.7732733635708039 -0.37872249139956926 -1.755890093926045 1.0703311312630686 -0.22571847462336667 0.44183385124923885 -0.18534299648886157
2437 -0.8478375707565493 -1.1005986431688493 -1.568566093837324 -0.6201484865861024 1.4634279204000038 2.2479645732945173 0.1390796535604573 -1.0910390915033503 0.6528624906587168 0.4930968585110383 -0.3487657440550556 -1.699890657011389 -1.1398867763567448 0.4838332742291805 -0.5483742075221657 0.7108520583615207 0.6626033086770118 -1.0011735074616592 0.33759034742233174 0.5651395281129871 -0.9435029836853361 1.839248486063 -1.269355570976666 -1.9324449515595796 -1.4849288622025185 0.8016669296756592 0.542710816532074 0.07241127007903513 0.33324530129038016 1.7063916805348724 0.45976257667553794 1.229536928747224
2633 0.8993686406835603 0.36981014131867657 0.3072365124099949 -1.0644756154225194 -2.8716420818310877 0.5300097163167632 1.9684862898232502 -0.6281583999717396 -0.09044595072609955 -0.8770705371272838 0.7878922539904302 -0.9870031034574934 -1.9004105304044188 -0.9485674570885245 0.7595291301789446 1.0441720356993487 -0.9911780647074151 1.6972027090140533 0.13785744150237078 0.609505001153087 1.2984282316269473 -1.3109372342064196 -0.5367119481275969 0.5899913069335202 -0.45886284196098165 0.7856351517710507 -1.3112390455328269 -0.12859104447407405 -0.8037833915881818 1.9818742030061816 -0.9378839090525726 2.9983382928392084
56 -0.4730268427093349 -1.5477794434412908 0.7148647311204447 0.19475794342684244 0.4849818639840362 -1.3457141477103298 -1.288601495724759 -0.7900077740966323 0.7943062574664482 0.4775278175151173 1.2829854435223358 0.7012523944214716 0.8647501746122813 1.3598002803516982 -0.03456827150803495 1.2893838080377944 -0.9885412813375953 1.0231909895738227 1.6674141029546519 -0.6309676458606948 -1.1419569924865056 -0.5661828484728677 1.8487181720967454 1.533127655103829 -0.34010557831057076 -0.8723304189478681 1.5731432182143792 0.9302069821639568 0.1567548017959353 -0.6255792671750633 -0.1075387201206039 -1.3301124701351807
154 0.12883482022768078 -0.1394316202167613 1.0476191280302816 0.29384220745026707 1.26517516529198 -0.41039300164171066 -0.8760342004227293 -0.6484057059460512 0.3553766850976588 0.9430682683568516 -0.8563571489542595 -1.6673367442185878 -0.5098877272550695 0.2757481988268177 0.9626685212867855 0.5931672599574019 -1.944890311741128 -0.03379005620724056 0.40049820342138326 -0.6164778940435295 0.09544877973785558 1.778292539254045 -1.4956692000516374 1.3597856151559515 1.4959466507061736 -0.10523650105128336 -1.868982282400585 -0.10064460198419274 -0.16961245422833512 0.17326426899980651 0.47832673609056153 -0.6495147726409296
209 0.5535653743946908 0.5582130545186771 -0.9208787418636905 1.2893729393442797 1.5285953134177483 0.7300561569706793 1.150609190809443 -1.2825271572241899 1.1440902139370563 -1.433092346266973 -0.4192468839217111 0.40152306681575267 -0.027495137999997074 -1.2176057460982497 -0.24228380951000403 1.5087464925421623 -0.15712201500051215 -0.748538439559161 -0.02435038189617806 1.7032497588819728 -0.7469004066805254 1.8613720187638751 0.3483854894506405 0.6602630052916734 0.34585256209407667 0.35229720704574036 -0.274020918212778 -0.6668993077027885 -0.1305328053630358 1.2426237020743718 0.49417262402725226 -0.6705002992558629
508 -0.27539505766994865 -0.3726143873568349 -1.7409962944993065 1.4469454928403758 -0.795953068047284 0.4589352955468634 -1.2995834499714691 -1.1517519815053021 -1.723640714139182 0.9225659746777607 -1.8907428237566313 1.6810842400310881 1.0590394100040246 0.3242588701837047 -0.17715103341037186 0.9891183645117197 -0.26796877381193784 -1.3194342415944387 -0.5982170444871071 -1.8418304655191413 -0.6904046256218523 -0.07288744070352787 0.1542340384564084 0.37707470391206327 0.44465749452311015 -0.6400601876003186 -0.5407032762201998 0.03283669242866953 -0.3502122563049499 0.20348866510824057 0.42919055365186626 0.9585586742849268
842 0.3935119508971983 -1.0715616810017732 -0.6008622960978128 0.848817614043363 -1.692591253163036 -0.329428209244138 1.9945195979802235 1.372652181732984 0.3890881229563176 1.0762496962962964 0.39031381447111746 0.5222298036431967 -0.24945109508353144 -0.4630101122474185 -1.3580080334103213 1.1912519963860881 1.049118982387414 -1.2641877501077758 -0.23263345438538863 -0.37203772523819617 1.1421986272276279 0.6038157356505107 -1.2066003045789322 -1.051901224946851 -1.3375765372783512 -0.35697128098260666 0.7130743363518179 -0.6497417826439892 -0.08855543391714366 -0.09363650509637761 0.42322817396571455 1.633166577674839
1282 1.32182524473955 -1.2263635783475206 -0.7893615176921628 1.5561715788717136 0.2033764619776366 0.07878008808247906 -0.2420775777880967 0.5970948624782565 -1.5351006255659199 -0.7164963512458836 1.6129635834457052 0.014194903413030844 1.089435922295543 -0.5242394367319586 -0.4711028461579545 1.250174343760989 -1.3109273187836834 -0.586023267831257 -0.42039860102029714 -1.802752570427085 -1.2241447907116132 -0.7991357328838727 -0.24293808865411787 0.6940140510640792 1.1707736497673902 -1.1313019354357348 -0.5474440953410193 -2.0620076729304255 -0.30435600971880894 -1.5074505901939357 1.5950801866016147 -0.6339293662913904
1683 1.5236886583047757 -1.4159172592352094 0.22488675057797308 -1.5216338160544127 0.9088147481306864 0.8224597202859742 0.8536942710113192 -0.8570807224195219 -0.760018341143256 -0.3522393328422066 0.5088359413511174 -1.1255506831176687 0.05933791172220642 -0.0446238350656765 1.5592370860637108 -0.4099264616245435 -0.6849085096532395 -0.6004174749176424 -0.20095844560964884 0.6150299471627859 0.4236604427113789 0.05916038713098733 0.3431125767839717 -2.313833558434959 0.7682202471349375 -1.7698163342637419 0.6833051743097527 0.38413424980036565 -0.5513109538384321 0.49274350526399513 1.5606143929538705 0.13485064183657902
1847 1.1069394851555068 0.7911885000800204 1.0054153149286178 -0.7426889641317079 1.035255087895664 -1.7476188578437293 -0.9929864836645899 0.3015101104480744 0.34573406099370524 -0.03446235066991587 1.6481634970051262 -1.1955561950969988 -1.5845400888416403 -0.3268021719014913 2.220645688008699 0.07546799568327708 1.5400924543669179 -0.2501460138679397 -0.7237696935498582 0.5292328254796523 -0.0031434868417512495 -0.28457334490578035 0.3744945054596235 -1.760145160643894 -0.6712030709966027 -1.5364224085568141 0.553328551473195 1.2291161578043446 -1.8005415110102836 -0.43081640496029644 -0.684806892909089 0.5885704093878849
141 1.7233182438035306 -0.23218805446625168 -0.20627103740974825 -1.0367177966771028 -1.1037366894358724 0.4943475169873233 0.2676317831402481 0.3566476333809217 0.21321727118623937 -1.5262294890276327 -0.2676763992727478 -1.2173797699820468 -0.3021096967745637 -0.2440335207253305 -0.18630739487129808 1.8289235862188546 -0.040720367896413395 -0.6123666386573223 -2.0569510111755682 0.3074868418215136 -0.6250462207971107 0.03894971888498141 -1.908000255163861 -1.0357346180816644 -0.6168317248643009 0.8538932475661937 0.23923540820210584 0.609730376138308 -1.9685828405287757 -0.47150962453325 1.2438274510950964 0.5720016966334416
1993 -2.1894910574149953 -0.04760051367731413 -0.5966901527342143 -2.027091159172648 0.09817681923058215 -1.0099456563527065 1.1490350004737195 0.7578362904724952 -0.47957945815781267 0.29857782090023177 -1.0044779157330574 -0.36446788935545754 -1.1421293543037208 1.8518214741243098 -0.0097366080083446 0.07884714716905875 0.2089602620202402 -0.36456340511035373 1.7068206349866237 0.7879079337256929 0.4746931443809005 -1.1089946305377116 1.799925209866029 0.9869146230543508 0.5158886055032456 -0.5745395546205743 -1.6749163218080398 -2.008029379988208 0.14019647331512006 1.0947814812629304 -0.9415651694340875 -1.512027095227079
15 0.1897932937041473 -0.5221282111746309 -0.34380139466522297 1.1049093730358308 -1.2008523161853777 1.0895582048076193 -1.646086700020086 1.0449770583776539 1.7078261911792225 -1.151315442095893 2.2076260012918723 0.10560922942174905 0.19973631667160435 -0.33188438357617267 0.7464815615542061 1.4847527364380966 -0.43629813983229976 -1.0590870680344358 0.8092027431021019 0.5937966762643516 0.5206812300596305 -0.26804581286915086 1.3385432471428715 0.48080962635850083 -1.035485912546466 -0.5058560941952286 2.5510679987262 -0.7580445028238496 -0.2979140121338045 0.5063760153233449 -1.2108504855403983 0.8544276735733287
168 -1.9646704663434083 0.9582490212975161 0.2420418454105289 0.7097876382310998 -0.3561938989102887 -1.2852007884734924 -1.6815907389659446 0.24129047346073978 1.4573150297101654 0.4253084621826137 0.044169636754195926 0.12958070042199468 0.6259010946389116 -2.4641547241041177 -1.2696757379529247 1.3735987254627846 1.2889742992703412 -0.36315882609236677 1.836095897487805 -0.4878247551835806 0.9530428203251521 -0.19184155155757746 -0.3034544266845604 -0.2721873925908579 -0.036573833104650934 0.13279768380738294 -0.24948629420996987 2.3583522832113735 -0.3410768663847975 0.1539935538796374 -1.2821938124822039 0.3363096180870493
172 0.20991766953676916 0.9390984011594917 0.4631660529547216 -0.4649428651069748 0.1633609979391659 0.44569713800010835 -1.3021245339915233 1.1071454780011363 -0.9459772267088838 -1.1778211148384083 -0.7101079231360444 -0.01475039508320825 -2.2526062233521764 0.6449222423587055 -0.9872505821880677 -0.16761326879255742 -1.1576070847754751 -0.1362763428196849 -0.17521390857919075 -0.8880771096777285 1.7645485656219932 2.213790681636606 -1.1327399691739573 -0.4766188044591924 -0.7204468575188963 -1.3683435070126277 0.6625886506852658 -0.25066098740558607 -1.120039206611184 -0.3380294961193478 2.3382028712202363 0.38184618109617013
545 0.36768270438385237 -1.1425995649556644 0.6918826348447401 0.13212402830286926 1.3475740309806399 -0.7367548135391089 -0.7521296440750254 0.5192301365575018 -1.108705995272206 -0.7946935726121095 1.4765204610879612 0.22308445993386258 2.3956998500341875 -0.582662236645823 0.30509500183932925 0.21115774765463471 -0.48991654619124253 -0.24825980828050648 0.24800202293830131 0.11895147764737592 0.014656881706992309 0.8608320845966441 0.13579197008629726 0.2411903814454687 -0.08148900071770217 1.1063221264196799 0.3344300298066062 -0.5944483406838262 -0.23047007610054718 1.7208534839056457 1.3593682971383965 -0.79870473484144
815 0.28084688915235545 -1.4108297769247415 0.34585080338753776 0.5804218740285135 -0.7308682732525937 0.392591516922194 1.686132995217342 -0.9167236370150048 0.1826787364852424 -1.1476283384108796 0.492573948114223 -0.3068301599898221 0.966979683400802 0.8185595730096661 0.7420245903403848 2.872419407763028 -0.6953620583371695 -0.26060458685296156 0.5504266179776438 -0.5006701919623376 0.7657925245907813 -0.578795928793054 1.651040088480049 1.25546518627604 -1.004667533885016 2.3865300878017006 0.7021811171520197 0.2612379281144209 -2.5766266863807776 0.5077053063066269 1.1550861206495926 0.2626777159349152
879 -0.5354727281540964 1.124189801459446 1.1235697439560226 -0.5561211032521027 -1.0146433909192678 -0.8841164435329731 -0.4887459989418429 0.5513197134531668 2.1612287131619876 -1.714511376561128 -0.41316248907966047 -0.10046991740246429 0.23006968077098708 -0.1098850206096816 -1.5821444184597804 -0.6761109506417285 -1.2643746014002555 0.5391888842197451 -0.0076458065958258945 0.2063674583043141 -1.4706435151781585 -0.5422820739994526 0.18394390844450179 -1.099562233758468 -1.117972985270975 -0.11926545959331682 -0.6045139661406401 0.2640273669168899 -1.6487939306158321 -1.038089606972739 0.6180658571387073 0.3539804077651308
1009 0.4815423079291075 0.9088442694117174 -2.027901350312385 -1.1470449660973263 -1.5050110232216083 -1.6827245518270586 0.7802542981047023 1.634024197842761 1.1465869504423547 -1.1690416401862693 0.33553879981866475 1.3033693682335208 1.2892313172019647 -1.5471122225691842 1.7781120971065028 0.7789128453279928 -0.6200122941193694 -0.6246530181701708 0.5152053065760599 -0.537227400523131 -0.08182239793805365 -0.5712131402162419 1.2970633643509952 -0.8974743437172139 0.5479119400525541 -0.784476223809342 -1.5315289040061995 -0.016634339107752555 -0.8347653577766527 -0.5127156941108371 -0.23816040556180684 0.43717591423439117
1048 -0.7225223641507149 -0.24298603024751225 -0.004800021586276653 -0.326928932446243 -1.2405407842165 -0.4136828974477717 -1.0736177683496744 0.42776229035496605 0.428820178703271 -0.5219164190575147 1.8629307799116699 0.6502086397943343 -0.13734496835435991 -0.639666863551538 0.09843694342740249 1.6664932831984027 0.5849700664084554 0.49865295475693916 -0.11676816559421932 -0.2585150249568723 -0.26308312672601813 -1.2702398211579935 1.1304402749699412 0.18312570207457624 0.975939496340146 -0.646890064521053 0.8483883282282768 1.1656828128719212 1.3209472489649863 1.2883298042318285 -0.963472394668198 -1.382383064282489
1065 -1.5765332474034768 -1.887749994017476 0.9474744563048583 -0.5013939477891571 -1.0567373975329415 -1.322618809111266 -0.39344194244975766 0.3677457244077963 -0.6742953055346292 1.2107479340920744 -2.1173868533867637 -1.1968716948818454 0.1640379234071234 -1.120535677696184 0.27444509288779484 0.4261230838623365 -0.3364746058426685 0.24304951753223913 -1.4251876739736369 -0.09231350503430832 0.655207539446305 -0.5343203427097352 2.9769190394909106 3.7022554031213017 -1.0166505445380198 -0.10768206112130971 -1.131305610757903 0.22374274025448718 1.0010888477812616 -0.3390483286755793 0.9568910753389588 1.2048293409589015
1139 -0.1634558925679072 -0.10875374491233872 -0.4592221043189118 -0.5661971212034861 2.170324934849006 1.7290931848145925 0.5363811511521822 0.010639934429804166 0.260755245178712 -0.11440084765478159 -0.1588220417574826 -1.2065912216473171 2.5413827575724524 -0.3540987768391408 -0.3666926429212527 -0.9526283953312493 -0.37325653505978895 0.7966268204307924 0.04021632423102221 -0.6817282026896804 0.8873138425006 1.674420455067737 0.15003748972104392 -0.7057206259227394 -0.32443532853184176 -1.2127428026648666 0.02245813300898204 -1.013932152014086 1.7964546980341847 -0.2018256556682961 0.15619443751521425 -1.5209009896573509
1167 -1.8482676719264943 -0.5430617010845816 -0.24552380948939584 1.0148420870626207 -1.374216327164765 -0.30812339634015523 -0.9597172785142545 0.930174185046646 0.38302890445675775 -0.4574789986119859 1.205258084819062 1.6993731349692416 -0.8966552191862103 0.5358238295504753 0.6720324643301201 2.2293096330763738 -0.27254324674357366 -0.8419507913930493 -1.176820937534527 0.07409864864949603 -0.5437490192776926 0.09691292764125568 -1.2950891182309994 -0.7979641611065854 0.14690414654451803 1.6789642287847362 -0.4891653983184988 0.18102040248613838 1.019696939432093 -0.15411160744394928 0.9843493740404398 -1.2149039997499058
1179 -0.3325355430273897 -1.1352457502435884 0.9284841212069926 0.1106639010633269 -0.4325357672594225 -0.9863614590563247 0.5262810713502123 -0.6236464506065452 -0.44186779188743774 0.3506511243648172 -0.009749382311318574 0.3241104548664201 0.6264494632821143 0.547560792535625 -0.3170087253565809 0.9391764636093706 -0.8430802629081368 -0.0852021434944509 0.31969324666992305 -1.1252573943363593 0.2851086082693485 0.5687929520543582 -1.0867621190397254 -1.0105843342667926 -0.36063653163985593 -0.20796715073486075 0.47745065713605833 0.22100065261940716 -1.149765939226809 0.18826848437709784 1.8204363692129868 0.09323304729974613
1223 -0.5613018785978104 -1.2817799931380491 -1.1249241943588402 0.4543858664248162 1.2866236147552765 0.10594195787536803 -0.32020503722312366 0.7811770721942554 -0.012145800846213134 1.3769810804302416 0.7776358705848511 0.555064133719052 -1.5139915140517148 1.6765696706178679 -0.015271218775430265 2.150459075433174 0.5301770891502019 -0.0158341230898231 -1.6416422852527477 -0.23718098892257142 0.22612681408591093 0.5917521833598932 0.4377797004185127 0.4832243551949295 2.454112832252001 0.35345922128918117 -0.5177709177490714 -0.05075040431465034 0.273335190826832 0.8824251452771712 -0.10432025313657953 0.22264832248257657
1368 -0.229969894843314 -1.3622189025614464 -0.09863968687386748 0.2842014214246647 -1.7231197614593319 0.270947549833689 -0.393417466374084 0.49096399853161155 -0.814083270041953 0.30744000351620865 0.3822544366421565 -0.4867070989926905 0.23463231038275284 0.1609058697692634 -1.283534495777223 -1.079528405385498 -0.13867714233786502 -0.7436418338860223 0.559026798675448 -1.1367307576842982 -0.9993319138920693 0.7308058502174454 -0.4248554328944366 1.2727120688834492 -1.359086433990649 0.6730162239304868 0.14811726317098292 0.14309686455940474 0.8816914855333331 2.893163504404211 -1.361510202917315 -0.27638436024040447
1416 0.7596117510740418 1.2431083313667846 0.9386592465112873 -0.09124655889826919 0.3044680324221788 0.2824206674657053 -0.1458296820878184 -0.13555914112096565 0.1506475917969302 0.8840160484177914 -1.5381425211327242 -0.17526986809814468 -0.3606888765162963 -0.3134875089212387 0.505449457744655 0.2466045584499654 0.492162931908383 0.4893824242990461 0.9554402882881553 1.0750599543936161 -1.0964427821781093 -0.37228678802137516 2.5529782739383338 -0.17556565748910705 0.5629887122181958 0.08999419138419404 -0.5442716774020201 0.1143495652312758 -0.14236467654387017 0.4113101199013041 0.47357215750629167 1.4369067278227108
1454 -0.27548842884053015 -0.06362284152272206 1.5400834626632347 -0.9251823296622242 0.5588005184496375 0.9186037768945448 1.222378867967334 -0.01989335983861726 0.032336035005652686 -0.15646976885789088 1.3383440628932655 2.4514265471091816 -1.6678426231588226 -0.13991997257062486 -1.0134797048311788 0.48636569961750015 -0.7338932764955302 -1.3617198595672981 -0.1529414730620439 1.037958910075269 0.05151268218963762 -1.1153979043950957 -0.44189852686719294 0.6756379008753709 0.9055382697203093 -0.6769195269145107 -0.6615851017247101 0.10391388531432137 1.6298602005043392 -0.0902392456624309 0.16287696024127304 -0.706175635622976
1611 -0.4087534900463673 -1.157423576542238 0.6943591768407448 0.6660446647909797 -2.558179254950936 0.3727272030661601 -0.5552662278494884 1.1410975649076933 -1.0663099670726965 -0.18331598157356294 0.03521395086511913 -0.30838111796276396 0.5499602872653914 0.6361612569370216 -0.6966370130205704 1.4248016164664823 2.0649001785350802 1.2631366295763617 -0.0867518276602388 0.26547532887893927 -1.589233875413903 -1.2404297170332403 0.6391036112633304 -0.4450518742545642 1.6432888355916433 -0.23663654243146812 0.5142713172657508 0.11964425410397854 -0.2714670312930484 -0.0216985473111045 0.2234651313331691 0.1459605296288493
1664 -0.2943976252354508 -1.3344610122182459 -0.627409727787762 -0.6732332917429709 -0.016250761784637465 0.6807956586948812 -0.6703686874045869 0.9273089400288614 -0.0021517211790742655 -1.2432953379571803 -0.5607665019123077 0.8698525934938611 -1.4383826440049954 -0.7645374129951521 1.1451494708338326 1.1601002099197473 0.2891435731872385 -0.3957779820860798 0.5376059587497429 0.7933537328055638 0.01672510925926581 0.034380341529010865 0.922689584859025 -1.0706243083990914 0.21592509716817745 0.17614222430371054 -0.7930256790781353 -0.24844031274001485 0.5891045351527439 0.5663731703916339 0.3640504567831557 0.3494183026135495
1686 -0.9265615854187772 1.519896785122672 0.5167483609353035 -1.0262685229907698 -2.0145797978487767 2.4764355739492285 -0.4117101585100906 0.1506260004549194 1.4693199297154387 0.8979339097858966 1.9500746541275034 -0.2320563843613937 1.1285064937176004 -0.0798362638954994 -0.5546101763092744 -1.7442227097572858 -1.5437296846684223 0.2913313034997615 -0.11538681625616001 -1.0155504043288501 -0.03412942582328724 -0.19138935266241852 -0.9586709534948279 0.9055197464234822 0.3792837028349546 -0.46756441433546875 -0.6061897838187993 0.1258128481576304 -3.0764189390858228 0.4869275123115309 1.8163981170485086 0.6662015441305913
1703 -1.3247693233617823 -0.682171153125634 0.2480253849196512 0.16168973685758126 -1.886461413435219 1.5045784438013496 0.3857544955609484 0.636315752856085 -0.28172413172567823 -0.24282080270620118 1.0653098354770867 0.28452290270887126 -1.7239255187439642 -1.6883959528024783 -0.3513127500362216 -1.5228782478106249 -0.8712490188490799 -0.4321010323321702 0.0893124367079899 0.08190947481510132 -0.9723093055712181 0.8447983019210517 0.06786606619644338 1.139517788560419 2.214758425083972 0.013587365796882021 -0.4518319313352684 0.8111535637732777 0.7944949958209537 -0.6025304187824013 -0.9432595352356522 -1.3105734965913691
1710 1.7239731364281452 2.0375770919943395 -1.1269375167882987 -1.363599348647377 0.245477331238324 -0.001121920979559697 0.009568400155630832 -0.29686596740674315 0.5069807172406761 1.1536739139511458 -0.621330168934998 -0.7807083102865685 -1.1721394642612215 0.8998188162522013 0.35470837281473855 0.3357042389616944 -1.6597210671544562 -0.4298193382643797 1.6075129183724197 0.819555407800995 0.2875411840774583 0.5174363359274419 -1.51121659074633 -0.2248510380400474 -1.0050343802492427 1.1996785356119208 -1.0176599845494274 -1.3631676047164791 -0.2955974574111036 -0.7255008961196769 -0.8014838142012035 0.18620443279393184
1714 -0.4996254779970929 -0.44397049977690395 0.5602738740993075 0.8449079641950575 -1.5135535008155594 -1.1091183435424812 0.40171650052420094 -1.0993780015086356 1.6182266537784706 1.9889087639739704 -0.41184577322213384 -0.13938344553369839 0.7213645298653958 0.28920978055669944 -0.3489799132345807 1.220867833570892 -0.45800025926807114 -1.4158626113520925 -1.5587001250743069 -0.038473235744634196 0.5266302383340405 -0.20207911794861205 1.6023132526156696 0.012866849219295214 -0.4528924947481029 -1.3807731041464228 -0.1905808166852559 1.5569085181021265 -0.21048898944494168 -2.019154832471796 -0.05624534945902841 1.9020780937215855
1737 -0.46472278849880444 -1.4642159382463158 0.2374935355864221 -1.1104324941504138 -0.46853519020060685 0.8899261940965278 -0.9664170702301655 2.976088005769604 0.01383999040564987 0.1696533498962026 -2.088738639355812 0.015382385687098734 -0.7599543565654279 0.9454947011375381 1.1561042172780907 0.5006749700051899 -0.2525823436617584 1.3124264576853408 -1.5944961295575446 1.0663211488176945 -0.6113012135483986 -0.21958386295796092 -0.6910053249327395 0.750190211354309 -0.5224934597931155 -0.019245209071764302 -0.9186298019126238 0.8969026619083588 -0.07805016220031104 -0.14178065594626707 -0.3280889015006921 1.4807702664099425
1898 0.026217698206563573 1.8797894939330695 -0.15930472760992823 -1.2001849873273984 0.4374482202020197 0.96210910286482 -0.39079535379119346 1.026118152503629 -0.3248022904371407 -0.42009551795504807 0.1969884723502781 -1.116096705103453 -0.686765983212126 0.1965992026966654 0.6332719244115531 -1.2214475127682758 -0.3368466329768175 0.6771207682089785 0.4594730301402918 -1.4771152250653763 -0.16397016676048323 0.013861680264981933 0.8358138751536764 1.1659751060430432 0.18853660460414526 0.7403321860856446 -0.2770914625742926 -0.8590260112455032 -0.6851876642275819 0.90494611347083 -2.1196582465398315 0.42320215365272496
1966 0.019191453288770203 -0.7897954680469299 -0.49791767673487725 1.0316185405490435 0.19724080916405373 -0.5036914991968763 -0.7600275501702357 0.027144176932718193 0.605252755410507 0.3020697200500764 -0.4557322325092828 -0.1049777254681788 0.3228718112112017 0.6833894260931507 -0.1735461254589173 1.1258128070559907 -0.021989404953381694 0.29256392052674624 -0.864391005179482 -0.8401734831126048 -0.569439132824844 -1.2032969358100982 -0.7479336301053426 -0.6519872891152129 -0.6750285049595915 -0.7669359555910384 1.7933239980555533 -0.7676465056811269 0.4409104819235827 -1.296033305634199 1.3124864448413476 -1.4007138774948216
2044 0.7450301904522705 0.019216238329593873 -0.6523872042433928 0.8185387222463945 1.9735392357001271 -0.5429464042412884 -0.3319212381358564 1.613975301567431 -0.6738628857957818 0.7493253792827114 0.11914624933929667 -1.3580402139998973 -1.3356400592992885 0.5047473641182183 -1.8534996564547666 -0.199145867150309 1.0833361193994473 -1.0157010005817129 -0.023656627855419086 0.505424305520835 -2.21184619546789 0.21806070258745247 -0.37965585478392283 -0.1614474265168127 0.40537630858911544 0.8036235159977086 0.8813925493024559 0.5527104099659058 -0.4198237940290259 -0.0533039274068054 -1.5579279541696707 -0.18023724243249162
2045 -1.1831590607463947 -0.4471646750893515 -0.19059845411992113 0.8820082920587149 -0.7371757957648903 0.9007398020045805 0.2948822473886833 -0.696037302598881 0.35993149425536597 -1.0443929471611595 -0.5014183139357187 -0.7432248961923377 -0.21472712934946753 -0.39120167100895664 -0.19394109959938982 0.2376919031182304 0.15252717271067673 0.051733738240386726 0.9432353930444125 0.4499124107712303 -0.7504726348140365 -0.23509574410934453 0.7948379327516125 0.4694077174486532 -1.3623528661869633 -0.4075580766012862 1.461854961867174 -0.7107419622206893 -1.126073661887179 1.0367784966573723 -1.3740119916840587 -0.5744820817901004
2096 1.053249294241188 1.4137221896561984 -0.19106728200757087 -1.986283770603816 -0.8901234348431092 0.9697009568686339 0.32382768893648683 -1.2269733559835374 1.2551804060326903 0.2269338235183466 1.6670734036073311 0.9258182030438622 -0.2917615262753068 -0.5558257684188168 -1.3440649339589081 0.83709465094271 -0.42517894786529287 0.14280533734128248 -0.2539453205813139 0.9322577061360005 0.25591262343129123 -0.27673284548919025 0.2292332665530386 0.47016898316127775 1.5412398042655386 -0.8210705983551448 0.7803066298439267 1.3313654382646798 0.04801428919785422 0.7535251267927873 0.10545020236618204 -0.22622720257926449
2182 1.305899481122278 -0.4485773479023294 0.27442736221312536 -0.20390062618204752 1.3272094410346504 0.29564827466981186 0.09373642056823553 2.1481510215735233 -1.9476474921491091 -0.23284587925804381 -0.5404773097902129 -0.8512177084499281 -0.2987774734091476 0.34534191800010966 -0.638608615009958 -1.4321167384817421 -0.0872348336645462 0.3766736656172158 0.3426918996512091 0.05087503790144844 -0.8416776545091655 -0.8733054757032562 0.18874455912271682 0.10369726314055834 -0.7482503012811734 0.0277877803820689 -0.45894672458547514 -0.9160287023330265 0.18371316954769568 -1.6967431034519895 1.3584533570456012 -0.22116331404293227
2596 0.8962326181698501 1.2907082435735477 1.1833276052076271 -0.12521976899576304 0.21790888739301867 0.8727740188186637 0.30559668176024096 -0.34966547894728117 -0.2033723923150069 -0.506186656836635 1.39798306801809 -0.654068477544286 0.08372426512491397 -1.1566446213216122 -2.6869355428489157 0.6016004718584665 -0.9547821611600958 -0.13295325724604198 0.3204229917958794 0.80904539080818 -2.3888480523132407 -1.1003353155358566 -1.000796592920862 -0.9423369000297779 -1.5265363643882168 -0.603995349777847 -1.3178356808698113 0.12974447402461545 -0.2204362960914144 2.1200477759283753 0.610730681256224 -0.18339359669445712
2611 1.185059687768724 0.4886975364402914 -0.6996177815274222 -0.9010186321058492 -0.6399349976750183 -1.2263652461458783 -0.7692178413603591 2.311442621867799 0.7611746760900284 -0.04259826508703571 0.40207254414499577 -0.14059835502647614 -0.8581546050634097 -1.6191621025411387 -0.6005758704648055 -1.0943572029713693 0.040641397220622405 -0.11321391449349838 0.6442049649349079 -0.5077173718837894 0.28298871789313895 0.039560647289259204 2.0446805549564377 -0.3299913350475864 0.6618006446285702 1.0312215917849075 -0.9996914244947778 -0.5008292118111888 -0.22649618773088215 0.029112735528599776 0.5580880037648733 -0.590506656337202
2745 -1.7013874474336819 -0.46751110979063887 0.8877943292107099 0.8007229303898821 -0.513051813803285 0.7503310970177584 -0.06865178425586543 0.6847839373948971 -1.0362657399421884 -0.244349748689183 0.523214319905447 0.010579083593187514 1.155681761967688 0.6518622874211225 -1.1611755910115547 0.1320939659103958 0.032190001000984625 -0.9658195074410761 0.6785314065577884 0.60400105777583 0.0061927151605078706 0.5201260146362044 0.6866714348838406 0.10597038259674038 1.1157098159716168 0.35162644248156666 0.6742200494612822 -0.6755690138913849 -0.4913470665561595 -0.08703433586334265 -0.46048445265609794 -0.03608590789019208
3055 0.6825103354351524 0.968196355315625 0.7968946905271521 0.3222744052825163 -1.143433464815622 -0.4363762347653621 -0.011217528391839381 0.49095649865004326 0.5378956984722644 -0.17734414257303147 0.3536745744369575 0.24827819316295022 -0.012762081055537843 -0.7340183035526143 -0.2513883147371814 -0.03373882995612484 -1.3194394069925863 0.8385781166797533 0.8207698257954594 -0.33181482352171826 0.07576009205703764 -0.517256676180594 -1.3995479060661185 -0.8842666799562668 1.1128381055467746 0.828008821936035 -1.6964777777597275 0.3750385705587358 -0.3563212355346061 0.25094122840324135 -2.1251851901713934 1.3630387844953897
3114 1.2800371771621548 -0.8665415182174177 -0.7224499720115396 -1.2280161026086613 0.021430319481438982 -0.6438961581729395 0.5781097890755474 -0.39413818548084417 0.6758098503344653 -0.5826270161006266 -0.3560733127871485 -0.4368136380626255 -1.027876234136532 0.8602987313053714 -1.6556827014619964 -1.0810121724981872 -1.0707967781096752 1.690260038809695 -1.4354490309888253 0.14852234802968922 -0.6438641291079156 -0.8351927922041787 -1.2256603112494517 1.6521323122756082 0.6679472113324327 -0.6724239299049769 0.36475950437360777 0.61375671044507 -1.1084490407114262 -0.3813450266765357 -0.33643962809601874 -1.2728362529862882
3118 -1.0748653246572963 -0.8983243372772798 -0.21830427910928996 0.07167266646660372 -1.1818884883403822 0.920545821147953 0.04611327404893006 -0.8203736331472917 -0.8531168031248086 1.172631146753389 -2.1624029478702465 -0.10834100528280298 -0.5908592735028712 -1.664534048642892 0.2732128352639045 -0.9936340351831171 0.897992417921548 0.7536895416499788 0.5728996252321629 0.24943419079071658 -1.7126070479487612 0.1222302385355565 0.25794222939410144 0.18759899426779683 -0.4388514781716505 -1.186377260965888 0.9678286358724827 -1.1858667353379935 0.2894337901980223 -1.1615068062960185 -0.2867332833753625 0.4308071762158092
3244 0.5741046717318352 -0.23337380735341104 1.9556524189418494 2.74401317646506 -1.1442696767243472 -1.0157604360708883 -0.35842101486904404 -0.46653744884953924 0.515863729703931 0.9376321655748979 0.048102459966000405 -2.226525499085159 1.3849323581909898 0.11685309287750592 1.1819104593591971 -0.22751042203653477 -0.18669854678766132 0.1258817986158083 0.9224414160664709 -0.5498956996675772 -0.8968496592222464 -0.3127634401235877 -0.6058843168245104 -1.347453966840978 -0.1938300613940414 -0.40225543309182893 -0.20460201229351052 -1.0112427684070986 -0.3586553913138763 -1.0811663140287715 0.8071670493912219 -1.1194547223431266
3408 0.07536845803643306 1.7803250603071714 0.325516287498004 -0.3214224784162192 1.0305151175042297 -0.4100398143931088 -0.5741661217504603 0.6730398185544131 -0.2834777803777964 -0.1053703489302716 -1.537279293284582 1.4178920952521974 0.31018861179369644 1.7797457739913198 -1.7570901694904173 -1.2936490342220688 -0.7544494391720105 1.21243172315635 0.6439219361155195 -1.03608548180837 -2.7014748715895744 0.40077181876581053 0.16347541810850877 0.5801298579978158 -0.5285064736828654 -0.6262882711219195 0.20097944753445246 -0.6968430546842517 -2.5355245733011675 -0.42993877325655994 -0.6611866924710595 -1.770525338077099
3722 -1.4547923317148177 -2.051202410230515 -0.39426098749941 -0.6415510582379269 0.09265730428836218 -1.702819301832183 -1.2034593466000323 0.9733465355403236 -0.8344215761585327 0.7810614383114726 -1.114262200959063 0.422231993945114 -0.9758814701109697 0.2608875566257802 -0.07159532773285311 1.387676770198705 0.22976266328386302 0.3205794799673582 0.16659820396856886 0.8249541352650762 1.3193174695698262 1.0456008724670491 0.5361296867017769 -1.475491021331974 -1.2322079144608522 -0.15335469066042973 0.2627167223860703 -1.0353821330655928 -1.1300778285895756 0.8198029632164446 0.2638370493306767 -0.3935771523943501
3850 0.759144930177091 0.7361012601556057 0.3971727118841832 -1.7139987249292774 0.14442206008540495 1.0972788761711354 -2.204698622447164 0.09469930743402276 -0.47377128317530115 -2.021011099694493 0.13299434066769406 1.0046864687386916 3.036032992765836 -0.7976539753951374 0.8915436768622736 2.804364430287151 0.18149386221762812 -0.48766447309649125 -0.746316817031467 0.11055872849009386 0.23585109397626233 0.9776499985809267 -1.1819548329872593 1.027108656693441 0.013743810968064839 -0.03905515635914865 -1.6454588385634608 0.3546999644123546 0.22828066330055316 0.8029383565523768 1.0068193691740697 -0.46313884716743237
89 0.025675815300840323 0.5426324657818196 -0.21487127043923698 1.6447698953572412 -0.6240154760767568 -1.1110771928773184 -0.8646349041186269 -0.7439119010106089 1.15610391787028 0.16627592669842722 0.7032855417078457 0.037873480537348715 0.20508659469961715 -0.03188285294929675 -0.8163272551996777 -1.4996799707664812 -0.059172866964014734 -0.20924687307675938 0.33177456104702174 -1.7554251655470499 0.7441663996727764 -1.5987907861278996 0.04406627930862571 0.8891033929849035 -0.5021612345867951 -0.30741992675213015 0.27824223590894304 0.9176526870528955 1.980279300351459 -0.16823715015162913 -3.28631217826399 0.3480875989529249
403 0.708663067725416 0.25076662998220073 1.0998169518685088 -1.4385920845799423 -0.05056118190197025 -1.2768703938279695 -0.13504609435653914 -1.5561065773947373 1.2485322673801407 -0.7666509152423996 -0.3967587885003343 0.28214224154767387 -0.6709260498930203 0.23169916560222478 0.9982102504301554 1.127383148226921 0.2903928152019547 1.476518688530889 0.3331956425486353 -0.2777602111006895 0.3844878558244491 1.8696329519932597 -1.279168076609715 -0.7477619134773115 -1.2130018930025324 -1.2292411969706243 -1.0938921037577956 0.41636968663178536 -0.9740730543369494 -0.16454336850559217 0.08483544505299943 -0.1871034733845525
424 1.8260154762172902 0.20191754450683994 -0.6188101101604252 0.9552091355031884 1.156639532180006 0.3201779561912604 -1.2793851435249257 0.0007790251820435686 1.2553602792889331 -0.3257425595748593 0.067633560036909 0.6106091248029987 -0.07160314262117878 0.9082278097559353 -0.6453603344789093 -1.21390238380349 0.7551044413477822 -1.3859475115212572 -0.2671787474101976 0.34578472455829684 -0.3124031993457748 -0.6245701094112918 -1.270425871880102 1.154287472483824 0.5937571383264513 -0.6580309154140281 -0.07460434323020428 -0.35862208968530174 1.0829479674982772 -1.2094069765810882 0.4706592872783485 0.18274248310722466
584 1.4619557555604035 -1.7776628887723471 -0.2643878414085001 -0.5902181369391879 0.3581760474688306 -0.4480594691508995 -0.8078198815310532 0.7007229990043462 0.6465095302542306 1.2195495753082448 1.0946356923445484 -0.7081518483205266 -1.2602575821988957 -0.9667999530098427 -0.35874249755795706 0.2852809284711543 0.2956227917092157 0.7527383844937994 -1.6502503009393084 0.9566241706963916 1.1449157608321747 0.42245527871789784 1.7737466008055802 0.36321403273893293 -0.08656126464531588 -1.0336784496815927 -0.13549457436579251 -0.19969515382341213 0.23322156508041997 -1.8650749658997563 -0.5562410647044903 -1.7346129924890539
806 0.5218177985233181 0.3158888395713943 -1.1345739363585898 -1.1026440260932244 0.03809925400579337 -1.6345893934327373 -1.3947516951395396 -1.5750859904401155 -0.5708764344274202 -0.0469870936515833 0.891229024985952 1.0252423231756491 1.2190919684727115 -0.9269778840631585 -0.10016113503743368 -0.06964680862623507 0.5374638807161626 0.19263253427731752 -0.4130156072337758 1.6389378579863594 1.4495831139222277 0.367284721053646 -0.28527097208485686 0.15561723212940512 0.15968318796695913 0.4293518473007996 0.42022511803650986 -0.5979181432882761 -0.43829847342729983 -0.9131557191181897 -0.9653844360531707 -1.6388715356920731
1015 -1.1614804859685606 -1.032528419251092 2.3015396540364974 0.349957375753705 -1.317203084937031 -0.0627015562764609 1.2165497458141348 -1.3973841366908333 0.4116818027574161 -0.16999128711811642 -1.177341953586787 0.0938630169377588 -0.7392862938213403 1.1188345781489737 0.7050795278536599 0.730488591493412 -1.5298711033445496 -0.6061484215915627 0.6456419502258353 -1.2566748404286159 -1.1161925411103566 -0.1390820731250766 -0.9064503935786998 0.2092463071304389 -0.46515758303720794 -0.9431744615571973 -1.4293267873727629 -0.7964396396072074 0.13088872254631925 0.24379561392050617 -0.765867326456582 0.7377197601227008
1120 -1.1813550221376397 0.9406997370127435 0.27589310671899697 1.9734066243982649 -0.11783542870317122 -1.5240318136425746 -1.6391303130443433 1.073724294648987 -1.5495352637080253 -0.6601224906546647 0.5982665120489341 0.26085001608122416 -1.6133273963901011 0.19342208076303394 0.40228310850212906 1.1539177960880795 1.2548708541279163 -1.5363657877184034 0.9464067108982147 0.24260834640776907 0.6380270562160146 0.20243874904575238 0.9536264139276788 1.7178716244968044 -0.2037489394523716 1.2257728530761145 0.2546684537963871 -0.4882076582876267 -0.9575765683510333 0.5340372065963653 -0.8892352343884331 -1.5250576639829674
1206 0.3149817773211107 1.2144484616677942 -0.5453176257629593 0.6597655443448811 -0.375831755342508 0.34963310190028996 -0.6565615428679309 0.42477197372904635 0.7259691812506426 0.34864189100911835 -1.1177525123209522 -1.2457808091390334 -1.0645252390316364 0.6444637882036264 1.041257299422428 0.5858060141021009 -1.4481783145789422 -1.4938603104998904 -0.34269442428722996 -1.278049298125921 0.18329619552216378 0.8071204287809659 -1.6776361459854277 0.24822471097833537 -1.5451802064832334 -0.5643302471065522 1.31459576542222 -1.097728745425278 2.6541909476204357 0.8370006170081628 0.0321163005718805 0.9223298653702676
1367 0.5292488575646198 -1.6098648837821408 -1.2080872889591296 -0.7350748079984142 -0.012773797489590165 -1.0772037929579554 -0.02823057801289978 1.0911453637466375 -0.6020315302692558 1.7134561654638254 0.7983629993355043 0.20604338294029523 0.8049716580623628 0.1818130963626395 -0.004353783925772211 1.1983907354858732 -1.38990521263169 -1.4495030159884281 -1.1041851049884424 0.7999712561460346 0.06816359539646039 0.38626980770199 -0.28715654370417526 -1.3156558595542862 0.4962711569440961 -0.147022449993416 0.8535437351212054 0.4925651979983745 0.0822807486461607 0.2807509886517088 1.7480277925462628 1.7649871036552063
1745 1.7194925067478146 -0.7873149891279125 -0.595749165291736 0.3441364808572089 -0.27357436939888896 -0.22387174648465527 0.3379091399102083 -0.3076635309389399 -0.5544461144239358 0.30120811025415334 -0.7883575725942068 1.2930824274148276 -0.5479120059209163 -1.0836471547757665 1.2324815776826579 -0.9359022787048522 1.0026073161266953 0.14259261726257133 -1.228651595915534 1.2779699182943036 -1.1069134053182221 1.2209227310497657 0.29593388835811346 -0.5263680286649641 1.2345563297992281 -0.6922217863171298 -0.8431740918750874 0.2579310551851492 -0.4237702996539665 1.3598328400315889 -1.3348431931647096 -1.7448014372022436
2184 0.4562321639502541 -0.001973575209830286 1.2304881787747606 0.21211247801728125 -0.5522077616701316 -0.23676380761397728 -0.3553616423556615 0.519585816286715 0.13497877488038135 -0.0014037630272572378 0.026007526040672673 1.3039027042860363 -1.050237595761952 -0.07759716219541181 0.8659137299600678 1.3181664128612907 -1.383410693219548 -0.6255082783430526 -0.9395812784806733 -0.25274428893093986 -0.8757522770187028 0.8499349950874848 -0.8008373074080946 2.076396490083291 -0.1216525454167935 1.604127056610168 -0.6384710503634538 -0.3553865246291333 0.4180281300711432 -1.313346112542546 0.5146861698587811 -0.5576586762557156
2391 0.03457382257715063 -0.12829201949934788 0.001014736674981153 0.2743246567550688 -0.8141797487093752 0.6431919166542526 -1.8383533549176547 0.9414148804159784 0.21507702400662973 -0.23929347252841465 1.7182690092011659 -1.6687532454929364 0.8844238883157478 0.6928711716775877 -0.5440378180974005 0.7658057647427419 -0.8608319937950648 -0.01109560571027492 -0.043433646623652365 0.6879352745013387 -0.09067578476766783 0.7121489789391352 -0.28159065136610284 1.4296895891788703 0.4065852286207282 1.1968056209538043 -0.37109556731743415 -0.2756513323873095 -1.046435213869633 -0.2343734547607708 -0.6893335740940191 1.145476227500135
2514 1.146132754362421 -0.6758868110398732 0.11906549927748489 2.059255077477656 -1.1575000940512365 -1.2969719383957792 -0.6320539984754521 1.4313653404582014 0.8634083647604661 0.09860119152301815 1.4231592733545921 -1.0417367631749384 -0.0022367646889135456 -0.8528466397377389 1.3174354057573074 0.6751521210894103 0.9696068859884279 -0.4112675005694002 0.991335735579972 -0.3267284845957919 1.722630999696512 -1.4102795850537697 -0.8961706362451521 1.5929854842734676 0.1199697981732289 0.5227954511144813 -0.9253994064344626 -0.018963911576760313 -0.7939464068337908 -0.3284104470776484 0.7418910322162738 0.2714162197725102
2706 0.9097483542772071 -0.10770999099756429 -0.3349049499266752 0.7604600203717844 -0.8121091485878695 -1.9304651656070344 -0.5861551302166838 0.3879644241148755 1.0875332642554276 0.2855863629371355 -0.38814607134011403 1.3229361587432922 1.7938053930542355 -1.588163713023968 -1.5821736485859947 1.6542383858871303 -2.010877998889575 -0.4678483751941223 0.7031300216434392 -0.6069001726337424 0.1388517753564329 -0.7593785110290409 -0.492553642506357 0.425214465637273 1.4926928924866305 0.4642252396266318 -0.04682802109246953 -0.46298090576217626 -1.1925775279850899 2.279234569692855 -1.3206821990585944 -1.27789131144816
2784 -0.22222619719117975 -0.972037779857599 0.5517169244207165 1.2923933365824352 0.49759223599271074 -0.8139893049405831 0.5936766566039616 1.614956014747003 0.07342100252751736 1.0704578624411396 0.3483948486844454 -0.2531098087040129 0.855254250065529 1.0266156378338076 -0.23621026623294436 1.624531723649683 1.3514391054345682 -1.2231456988315395 -0.10708386216783737 0.946348069219459 -2.3046058919788455 0.27037627119783797 0.7152593121554005 -0.5822594048254495 1.5822605595019896 0.7561518969057638 -0.7890993385659028 -1.9270672035493588 -0.10436573611490811 -1.5117729144889793 -0.5116280189088731 -0.7387984722449742
3133 0.7545719190830853 0.5893124972925389 -0.6069860091263936 -0.07602932908458415 -0.23658362495616234 -0.7834737757774781 -1.2885995957609309 1.5270659350967966 0.7261724959076421 -0.141577928973069 0.7765702535968904 -0.40671526966046107 -0.45615447412707827 -1.382191138223019 2.8993247861032176 -0.5186279267895406 -2.4074359200315056 -0.11161006542405767 -0.6971488594895419 0.3839888349534503 0.3249620477775541 0.28983156303564833 -0.3220084206457013 -0.4553907281891796 -1.4853189520697725 -0.13214297256938823 1.2112391067330073 -0.5107502091522812 -0.1501526446111778 1.4064545356242861 0.11202126769942325 -1.493608462548383
3401 -1.4588390734677705 -0.5804140729651321 -0.05353970798305868 -0.5494323900410503 1.9042836965349221 0.399746940245512 -0.40889726014535643 0.10987008445896805 -1.4780982660911226 -0.638385373039853 -0.7443361897379519 -0.5512438646414941 -1.0176815138215358 -1.2445759309679516 0.5626015703347637 0.19871663150318378 -0.5918404407505968 -0.6313391812328212 -2.3033286070789942 1.0125480334047412 0.2145838076135457 0.2884578441880307 -0.06939475506712484 1.4811066729999958 0.5162185325979392 0.3175281164654432 0.07509552202694789 0.10166972756686007 -0.543634749538853 -0.9674650609032784 1.6392698899071307 1.5673624338068661
3534 1.4117819205959168 1.0329984618734154 -0.9941862289579871 0.42911600822134804 0.678498168333963 -0.7686027048939937 0.5647725657149909 -0.021536693538693415 0.4591258651191361 0.7455734846831884 0.8136065852606004 0.06827923385754632 0.13604817456737986 1.1556414255299747 -1.152822171412809 1.8125838458666799 0.753477707090426 -1.0437396220678747 -0.5758199271356068 1.64647877688561 -0.8892689990589551 1.792042665556232 -0.8551932751805711 -1.2452370624020936 -0.9401321350540308 0.6242993797090349 -1.2218075144672496 0.91398445435831 -1.0803959894087558 0.5540536883317061 2.32056204010223 -1.1085586864477843
3565 0.03661861940933444 0.7290423430349986 0.5185006087134485 0.33010681418522936 0.4870676805000842 0.5152995561766825 1.8869987023705228 1.3961378922051053 1.0767755218667194 0.5634057373601417 -1.4694339482528032 -0.24383310358995458 -1.061626458169627 0.795446889334241 1.8279336820570558 0.4716649647554154 1.244043072391414 0.48937813810087116 0.30185308439371394 -1.258774702635198 0.18372030167072104 0.6073264137449041 -0.4464346476006515 -0.9681518433723125 0.7169686253109319 0.36859379649319884 -2.0417220244196215 0.5822668794814058 0.18623307261980646 0.24853404036360427 -0.6928489409194913 0.9047300163822728
3685 -0.025443778630865027 0.5462756203280148 0.8558071756828642 0.7597510496224088 0.08409045113053042 0.7018286320503895 -1.3786428333805372 0.6796076741568573 0.7313974756027373 -1.1710236467097475 0.14967078487156635 -1.885636139933803 0.2157026445324493 0.6185436858811888 -1.5257093348283026 0.3047998619300119 2.463100871664744 0.8873525227853576 0.5879512421201595 -1.4961678148511066 0.03094215177916198 -0.5663760759657537 -0.04466626465824465 -1.5809470915446424 -1.6242387495487731 -0.31086449383597375 -1.6582873999221739 0.997634325580696 0.3597343989361117 0.35965440863356346 -0.18813580686756387 -0.22991557026547402
3727 -0.004414484205790792 -0.0018906749104703508 0.37838408702217474 1.582185462043095 -1.5212870939089465 0.8976916391009623 0.6079131698905368 -0.5303452842792895 -0.42026761056858886 0.6856633256186895 -0.201755832291855 -0.5702797686866339 0.4734623438072618 0.39685655651678553 1.5256804467192897 -1.2351238760189318 -1.6985272320317666 -1.4280014168380435 0.8118052659972178 0.7414758642882714 -0.7123912305479612 0.7472455428618187 -1.07313526569761 0.6819203300479548 0.15936413131100907 0.6697505952663041 1.421671318531691 1.3440821311205333 -0.46839640228013973 -0.2443570079878734 0.4518089752768598 -1.9712164010388307
3758 -0.2764932433905027 0.9427238754485288 -1.313930430266818 -1.6117188042424144 0.6325506614760442 1.9806401922772148 -0.011804470895857249 -0.07992071972311844 0.29313889679366795 -0.24511066288027356 0.9998469065986442 0.19401343712425068 1.9430935834586451 0.09109566770233424 -0.3557536591520072 -0.5550628182330669 0.4319509489231691 -1.1596334092924783 -1.7284062452011366 -0.09031926149975321 -0.25319292663114235 -1.3342856130729557 -1.5423678412060864 -1.5252135742344115 1.3218104576785084 -1.2516396341130196 -0.1495040721656926 0.6090659706176607 -0.2696772536774869 -0.7244361597499512 0.6025979919839644 0.4211176398895712
1096 0.8424290849216904 1.252637591800323 0.9543075680965148 0.15342328415677464 1.4860475806449862 0.7994618674839531 0.2713231579762925 -1.0350669877973537 0.7878779934157696 0.35317048307566457 -0.15152273075031894 1.0060920901329702 0.057191719010704016 -0.09441087378998057 0.6139545995043691 -0.6629596875195473 -1.0216767036336512 0.1009671721816589 -0.854615599122113 -1.8539981030134491 0.5503796440293898 1.1192747146334272 0.021914103468614565 -0.45857206109471493 -0.18320067503302162 1.2356019533848046 0.5627361674735334 -0.3113728307984827 0.12818504273921588 0.04028731948855132 -1.81445856277807 0.8448317851766703
2101 -0.11489904453544086 0.6152350063755659 -0.6606081217840503 0.7717850294622339 -1.1743064962939105 0.4660545215531533 1.1914233975062452 -0.6319738738586002 -0.3463279471798009 0.30955548421396584 -1.5031166486490184 0.8541218594077202 -0.8074096422242717 -0.15724188004839876 0.943081617439662 0.5142553448099638 -0.5338094871483906 0.31331104983671404 -0.4154379459341986 1.507565353198597 0.19241566393246579 0.4514525238551658 -1.5995857263650628 1.599437914537694 -2.133623272030329 1.9740024063348083 1.2911898142833322 -0.6268374565232412 -1.478931400767744 1.6903030634693956 -0.182093660178739 1.0253111405998176
79 -0.3254103796559414 -0.460323129362726 -1.7225574036537443 2.5399995920572205 -0.22026413369001996 -0.11178437982439655 0.10915793759751312 -1.0544794639760597 -0.8107216590780962 0.5788847290478784 0.3111222730477611 0.7292834656598602 1.465652979370547 -1.1861653983805869 -0.4140286519231836 0.9035670860702677 -0.4775132750434732 -0.06236903637660964 -1.1648990611909875 -1.007308371245827 -0.978867056594977 0.4457492027523862 -2.7651664121484165 -1.81611916151104 -0.8008471387793297 -1.1447582243561831 -0.09163852380809706 1.1136594796720223 -0.4174713654576925 -1.0372412573068859 0.4868603410757307 0.9954329431214587
3 0.23403693907056264 0.23532115692133238 0.40582885038091815 0.8225771893275642 1.2295553172158573 0.2764633733960932 -0.0715167346490783 -0.5696090859846953 0.7151660006039113 2.17748451791922 0.6568180764793008 -1.3635091028495832 0.23676560367603583 0.2549923251075873 -0.7469065800612886 0.9912323051519004 0.15426304752634204 0.6555974964752054 -0.5876170017341052 -0.5564932915966164 -0.8091123552230715 0.6784350654846668 1.0024961263534595 1.4562173416674915 -1.6988362622241397 0.6600698577404586 1.4303712260491481 1.727000640221978 -0.5549588340990382 -1.6639778689361644 0.7003306187433702 -0.7349829733758716
460 -1.385315859722466 -2.092153901478286 -0.32432316779423614 1.1641797343734799 -0.4306914188668378 0.12777265765269671 -0.8306134419088371 0.49401443848989823 -0.4345886665435677 -0.20736136626797624 -0.29350480976230076 0.05719407809381328 -0.8723529181083303 -0.21076108281656336 -1.6711529278671609 -0.2126162745590842 -0.022968392771878513 -1.5661918362883573 -0.43136700367690045 0.6103486527560836 0.49742357846359425 1.3041193458539655 0.7202967550351598 0.30311564538224994 -0.27810127961415687 -0.773580913881348 0.7942152926416245 0.18234840867918675 0.3740067977091749 0.7831106320329392 1.4165975632735264 -0.8347155590885902
541 -0.2270595408654529 -0.8678456358529564 0.20658693814666745 1.1438831401197955 0.43148202775652433 0.9283088836698654 -1.3466973844219285 -0.015206482056223908 -1.1330943535180873 -0.2962541091881311 0.09976299166603582 -0.14747159759975595 -0.3376221507796142 -0.7330679839149199 -0.10093835382992239 -0.2585481024168502 -1.0807211125759197 0.4016162109115648 -1.3100716568565305 -0.6200518904184654 0.8511953902974505 0.45758266338794434 0.40662140906696687 0.7270246273983701 -0.344648170700302 -0.5453688422034685 -0.13969452503023333 0.4050454304853543 -0.03500305905424563 -0.8104434309797294 0.023922184698092028 1.930485237873313
736 0.052277323452828484 1.0377352517979568 -1.423163707547155 -1.3229253731336068 -0.7764798220066349 -0.11657873189166931 1.7323046766337464 0.6795901703090926 1.6625586000430899 0.8614458292824378 1.1020371873770187 0.059140106085336 0.51558265845491 -0.4521110318280983 -1.088790510884079 2.235160889266772e-05 -0.6080117227361685 -0.6927540587674057 0.011797460063709762 -0.4193004810483056 -0.5091684423826153 2.113574945464739 0.029585442478943735 -0.7911205813790358 0.6516389727224058 -0.6237426345244621 0.04877788989767013 0.35500663530107557 2.1497988177269645 1.9905886241841604 -0.2905448547166047 -0.2739256162936536
1117 0.205456322157058 -0.25278874686908653 -0.13479272354711772 -1.5856367477504156 2.756577830905862 1.1364748497092327 -1.8286749123853534 -1.9744593220725306 0.1067918667278949 -0.9757295024463942 -0.8208153668474719 -0.8063848627945359 1.5906312983497772 -0.535691005633062 -0.19304331940345965 -0.8373480649001424 -0.1926290729713199 0.5939535804226215 1.620073495690342 0.2859193164032276 -0.2103151863936353 0.5156572280791745 -0.766436971762111 -0.05572389127626872 0.4994174110788695 0.3292230507635698 1.5701611657779282 -0.5895757551315618 -0.50921320498838 -2.809603202365855 -1.489383815362649 -1.1760207383184471
1119 -0.9848490190953353 -0.6880375563565208 -1.1330816208494052 -0.7295274272647096 0.5562886943844538 0.06968983400073632 0.15765668573609604 -0.16676477135030374 1.4491437270277876 1.1465240422406717 0.7686034951377307 -0.4396045045164413 -1.49020254825899 -0.6654700736328754 -0.38976685352316115 0.5976653852163177 -0.0007398164309544972 0.25161703052414813 0.6840715057121319 -0.3273950984376486 0.9352902113378588 0.2903058209396902 0.16228920908771513 1.0257528553528408 -0.5290574440339776 1.418611268661941 0.5958677966502924 2.1930454361003524 -0.8104760353538233 -0.1480417915212027 1.601829893280817 0.5530787338014861
1364 -0.5827447976621435 1.2804105644457404 -1.0531362731985217 -0.6231977053676605 -0.19969188600394233 -0.12249650135327267 -1.1266062724916794 1.7824823649636743 0.3883789618029278 -1.72864810506593 -1.9542004075371662 0.6958985005556417 0.14451631499747578 1.1348145766120887 -0.0022087615586792353 0.2920056670532908 -0.17562507189514648 0.6092520874035547 0.36649195340262747 -1.0216288945609326 -0.18505201369004326 -0.38086581522117985 1.6896344612154093 -0.2583553948705961 1.2006049557579999 0.3302923686780918 -0.6191634080300344 0.21726243174495627 -0.14171663450284966 -1.174306168855762 1.3336974971266473 -1.39389920958588
2010 -0.3911488181688556 0.5275347701972282 -0.3340035756521398 -0.1917125270720651 -0.6613745211516396 0.932942452490761 -0.10238320182937036 -0.2137820316190232 -0.2562156375715014 -1.1603158571961556 -0.810056618089856 -0.29381663715447903 0.052487298352113014 -1.5881945921762584 0.866431155099502 1.1369401497450398 0.22069788916845773 0.038897388655900436 0.9311283764766246 0.8428438776594961 -0.5377141345611588 0.5564418824399169 1.4613165733280151 -0.8979813181220303 -0.05017497846121291 -0.7274849579756942 0.396103860837137 1.6782752644817498 0.5725595763177511 -1.0514592906622415 -0.7617566217818388 -1.1489227550304206
2029 -0.3731961625510146 -1.50037242683002 -1.1143136787525734 1.4411811316031797 -1.2993791903381626 -1.5799114988269336 -0.9452168639313537 -0.8475655526672768 0.5573060052084906 -1.5420238212718569 1.2206110177886036 -0.4874185583745263 -2.1981208014913287 0.3686439997570321 -1.1024884716478436 -1.2156935138828238 -0.500449953170304 1.2444901083116782 -0.2551435507131205 -0.18437811149980154 1.0221417088720242 0.09613892561641496 -0.30080090804116566 1.7032429274898184 -1.1583433061790658 0.402772111160733 -0.0008765288168520925 0.5307061739242807 1.0744114030550136 -0.42335977001038133 0.07444862211631546 -1.4165644810588907
2236 0.28614958711364097 -0.6952846805086629 -1.3375323361102591 -1.6308486917005887 2.008804676173963 0.4642468504318927 -0.4278512120077565 1.2333046453938863 -0.28943475961044496 0.9145850152564781 0.21163816812090208 0.46459369243839327 0.7441584158100308 1.6220584355439585 0.10393371623094398 -0.04905839889246328 1.1757155203597487 1.10720052231336 1.7735673486591184 0.4717516400339545 0.43522875586376325 0.47031390828230907 1.1208573020516153 1.0809402320575168 1.145937999687686 0.8748375666002972 -0.6515907377399421 -0.4987295030585602 0.4252899648759536 -0.41151402699358436 0.10840765543224246 -2.625552758916404
3845 -1.152791059000282 -1.4645689012676284 0.25083638018793014 -0.35768058184135826 -0.4597098554257266 -0.49305069571139115 -0.03720916256558597 0.15076636075970182 1.6745834871435659 1.0133720537805433 -0.9585063003085971 -0.3773847372173191 -0.28225810214556146 -1.9927719048041095 -0.511019614291299 0.2926835560718387 0.22695467559555008 1.9239338067651688 -0.4403145720091793 0.3799572737948842 -1.1003926315300128 -0.7065908458532493 -0.13735176855625358 -0.27839907227021693 -0.7662129656028478 0.85477165492891 0.3274029049000116 0.39272077742738903 0.6796487780178397 -0.2039362578266448 -0.112502678617788 0.011359462115426877
326 0.32313182135658086 -0.30609956863714904 0.6361004551508336 0.8805067482313031 0.7712560407784388 -0.35834458125843754 0.9125063387034644 -0.42935690383762387 2.1360993609030055 0.30873201696868247 -1.7945058959827929 1.4803095977447813 -0.6193735319869588 -0.41212390932258697 -0.2266218186525929 1.7275574774817972 1.829817705081387 0.978957101105377 -1.650712152865675 0.9362973650564811 0.5265658986237525 -0.16853274135008922 -0.13533832986319835 0.4443202250752642 -1.500515141939936 0.5065282695522006 0.721898247708741 -1.0116129132701117 -0.4771979062326599 0.9102458551136706 0.8263717888997373 -2.3458684361148956
973 -1.2288721817662536 1.180956175423358 -0.6888817265784348 1.3756240984306722 -0.4652169032265853 -0.6925365434569115 1.2849429644992247 -0.1642868334465494 0.874526250352603 -0.06854561040292889 -0.12897093517141797 -1.004222191165016 0.2861816014559722 0.32935062818446464 1.9145149799124972 0.32885771294745675 -1.0643543429983946 -0.6576877056575962 -0.7870856256143614 1.1348476595315633 -0.8989210090752761 1.0931295247698747 0.5235390057536149 -0.31596393500441533 -1.4658163768901535 0.6728778912473399 0.5978095721919778 -0.0562499957459206 -0.20900079808201 -2.5517569130805025 1.125677685317288 -0.07939037296396267
2232 0.7934616180667592 -0.8289950542298072 -0.293948277312756 -1.03756816755801 0.6656298741862647 -0.8119694422022734 0.4089566090611504 -0.5962521907807301 0.5427308484506852 -1.1034598928911665 1.6995301832672574 -2.1087854934820385 -1.6197479149659142 1.568755388095746 -0.19533042091857855 0.1939474451145224 0.8764730361721883 -1.9175797650909667 0.5555390731497715 -0.013780410200764611 1.5508908578907743 0.20449623582547877 -1.13220933485079 0.40511305291082567 -0.012594717001819472 -1.6437896040750366 1.0056286670969277 -1.8653562368291952 0.4225251528581541 -0.6924804067238638 -0.08707512342886542 1.3244187370553462
2517 -0.07370379827078082 -0.9220266091955271 -0.38376197798667444 1.3043533993893743 -1.1112484900876212 1.223677235342684 -0.5465124565485541 -0.6360497612169779 0.15511037472526693 -1.4900123576595246 -1.5993650464971958 -1.1887035792594092 0.5996259557684952 -1.7075379630976677 1.59960469424518 2.5080260214943397 -0.4483562310427043 0.39280694879708544 -0.8571834584941643 -0.087746919228 -0.9108064722207206 -1.4028372647756195 2.0318239473412367 -1.1024091183843592 0.3604226411628373 1.4777987407270023 0.9543454983501207 -1.149903998673983 -0.2440737482774324 -1.4278791548759133 0.1105005519427353 0.6005618231073276
2578 -0.970383644578633 1.744070395659725 -0.06120485132895777 -0.16077338831639984 -0.4533377001161381 -1.6814866870650853 -0.5295020787282895 0.20102074478650725 1.3536390676919479 -0.44414141633482074 -0.47648707189347517 1.6251590414445332 2.392798554001575 1.502868142024362 -1.26092534711975 0.9526148033271563 -0.8454250997435253 0.27561560224698545 0.11837095914915535 -0.06422632885868126 -0.3604765805084165 -0.687135635003494 1.8749607368318701 0.8843538948425085 -0.19873998411857063 -0.0862841441290702 -0.18387292049593834 -0.25489422534889566 -0.7573251534760499 2.2107536572647977 1.9738972285820284 -0.6134490657189113
24 0.35679075899844387 1.0201179681148704 0.18036442896921118 2.0244796088995565 -1.0432121474980274 -1.1657815625999781 -2.191335755537802 1.0171958662473095 -0.8910874655583297 0.8524697605890563 -0.769110916955403 -0.5846374441807084 0.18555669799272825 -0.4864728266987771 0.25348823646287666 0.7275389497906765 -1.0713593975017794 -0.5180826320678441 0.8089798349850592 -0.16526159576429536 -0.1765401233343755 -1.444113811390015 -1.3433898567388394 -0.12057133523994143 1.0594953578466728 1.3171532477950156 0.9623638419518353 -0.6605699512299037 -1.1226526505029686 -0.7118667338209578 -0.4896046911143718 -0.11386340970441922
228 1.1500048682053778 -0.8610537480799464 0.026317570799977843 -0.363194511104209 -1.8948238650344442 -0.9931674525478501 -0.711700472682015 0.8619860160041813 0.3925812631340336 -0.12551570511491342 0.053427367222398554 -0.7428776268473671 0.2705055465319552 0.29916500136124297 -1.6133516594162869 -1.2058222142004364 0.08722418026895006 -1.3873289781888767 0.8251815314053981 -0.9774144803647599 0.012009310496161482 -0.5940622815283447 -1.17125043043974 1.3981584222753136 0.3405166652876672 -0.022340776097240344 0.569196294775667 -0.13342995839999106 1.1874301934493356 -0.047560726204690186 0.38324372050656114 -0.3182644125451525
409 2.59252724838574 -0.04280042623458377 -1.8692490548881975 0.6650101710512037 0.8994176703102873 0.24786946101069302 -0.2819486474648913 1.1028160228520978 0.3494342860582525 -0.11513002603946715 -1.282427782029183 -0.6161889482085006 0.196160236861742 -0.019907829274279528 -0.4909155444501816 -2.1139259714560317 -0.8516595412449076 0.7850141690902631 -1.3858639673917823 0.3855839673084755 0.9091621688653311 -1.565330090909112 -1.392549407384106 -0.2072958158630141 -1.1601587866528256 0.08170627921381748 0.2092072463128503 -0.10896986294000015 -0.638909555100398 -0.14404015016601374 0.4604218696840228 1.3742942973698469
558 0.7218012466402791 0.20986848300164085 0.391749762643383 0.658281049093996 -0.24142601770078692 -1.3230719206930295 0.8652689475894948 2.35482228007785 -1.230892414651296 -2.9516802785086207 -0.1273417512368762 0.7921668796436987 -1.4901349441647271 1.1024203397391779 -0.05737113738082824 -0.8258197523324192 -1.0609268784144952 1.1816377428037101 0.2467423821441804 0.9634042346277252 1.3287786702175246 0.32284486997801837 0.08120331074798225 0.6493287683624378 1.2998737672963654 0.5387904903666613 1.682857675739576 0.5817605722905209 1.0469086583147067 -0.7296952372023332 -1.0995047617402836 0.00419070497237902
732 -0.16709907873502186 0.3646110844120453 1.252283198825846 -0.5507933963712579 -1.0305318284269362 -0.5844225787286915 1.4533889593759843 0.3220619327897844 0.40544603403373636 -1.2217039667667418 1.6204418722132086 -0.317201520086601 0.9760223196269219 -0.0597225282278066 -2.163231758747815 0.33287378589340233 -0.8098270586871252 -1.5888549542596397 0.7390457807556612 -2.184764342988026 0.9590193550712001 1.3766356529080472 -0.8039358277843153 -1.7613403168933073 0.3147040237233428 0.3264114882053541 -0.21887051999602358 -0.6968608252255082 -0.06958538681729856 -1.3176463200122224 0.47110609167436995 3.1288759079824713
776 -0.2548373259489189 -0.8410591205294956 1.4899838767050613 0.7233736022980702 0.32814344522011935 1.8885922550683059 0.4766366389272015 0.20446024415242725 0.694835343007208 0.6157072545272194 -0.9428921477113508 -0.7394110359092378 -0.43116957864960836 -0.35514815923452064 0.8128345196880233 1.5577571356435005 0.18626098386435794 -0.39388830312197515 0.4197442831136966 0.147915169329905 0.7838657598592257 1.0144165358631743 -0.037208232491180424 -0.5314386342283529 0.7541046257458087 -0.1324020969579201 -1.475937061885375 0.9314089905500756 0.10523896240979158 0.8161712969206465 -0.6745407998091295 0.5244539942710178
864 -0.35553885007175545 -0.9003220255968467 1.2683010434841453 -0.13358919299357253 -0.4276292080532306 -0.039294118448532776 0.3285956120095337 -0.9022521369730162 0.31098449108237314 -0.32719206761454767 -1.3577100383171306 -0.3615680308956306 1.261590476049251 0.33726150876359134 -0.5793600247905681 -0.9386983506189662 0.8408421962773587 0.11141256501467589 0.7540596240274015 -0.6027173049526785 1.0205168737967016 -0.5931023936334766 0.6402482589090589 -0.3379813284708794 0.5653763097052391 -2.5044447819193913 0.5654406143961269 0.3041018349071089 0.04855362769058438 -0.5570203225311439 -1.1445922414810359 0.2505507486658436
933 0.623387120981496 0.9977598169122742 -0.9021363390257945 0.5045207854364366 -1.0128233521424026 -1.7838581533464413 0.18318764733616558 0.8603734570601481 -0.7819371935210007 1.5232792359196012 -0.7795227905238585 0.3315654181554732 -0.8530561654822844 -0.1459823760475159 -0.04144698478076213 -0.6237223045767086 -0.3103758830752754 0.9058760891414404 1.6316614758271457 1.4327381100888228 0.05226657861915968 -0.21715841242598494 1.4743136496435298 -1.0041394764533964 -0.44718390535507957 -1.077023607429123 -0.36571959735323584 0.6013401982548758 0.31603968222917006 0.36068881248718926 -1.1263857923909477 0.6232279671273026
939 -0.14132390827308478 1.1463603006181615 1.0506850118988735 0.9613052672879538 -1.2359282030447996 0.6738471146398083 2.5494507744526334 -0.5188299930755566 0.4225064906870346 -1.0454484861760334 -0.3953252062342591 0.2933514337997673 0.8018646037482375 0.6481052000002455 -0.6008904402632502 -0.8141337256776072 0.626927534731061 -1.3823511886642676 1.1760738663772723 -0.9035078089953859 0.38658808528751437 -0.4771462430576334 -0.834169676917793 1.0826261767457666 -1.3396500691591566 0.348158203064229 0.9735436575952433 -0.2617158015484968 -0.07735811107214313 0.2659091553727612 -2.027618139574372 -1.1247386196802507
1037 -1.1155666774957977 0.750081491680095 0.7345054891457539 0.04517353329423316 0.8948926601545258 -1.1732002290723205 0.7811217076129786 -1.0207516728944759 0.2836319397956525 0.2997246775083921 1.057078477241538 0.51367446775637 -0.3534376362275274 -0.43413560014725766 -0.8775719911972422 1.1722546425545606 0.4422430428582985 1.84229973076683 -0.8601327730958789 -0.16820307838918036 0.28815569232863847 1.1830772930829248 2.2479345024423023 0.22127761652958014 -0.10276673774694141 -0.6412025402799476 0.9761020448604982 -0.5757029187483321 0.006643310873467132 0.39250668189530724 1.5183536765247503 0.728929101047779
1092 -0.5173528220477166 1.7457672297206306 0.11727850876496189 -0.8652271373395048 -2.0258450984954846 -3.2408855223029125 -2.1213104966549583 0.2080165694076564 -0.6319236856951055 0.595365987250049 0.9883056678776103 -0.2217147348247054 -0.6059824569358515 0.17247887135037257 0.6026103489524989 -0.9537206279615362 -1.7336547391323125 -0.7834091965379636 0.27792018892317427 -1.6306235525143498 1.3432557063007657 -2.7502636886989653 0.026941916789149513 0.08248716077366638 0.8410756180593763 0.7765663853750492 -0.8257914988966183 0.09151255108120394 -0.6354293004117376 1.4546426815383833 0.04522151120430124 -1.3777624872998475
1176 1.6630490416385453 0.20069005757208463 0.2347839198701612 0.2836550148888206 -0.09421010062344828 0.7458364912367604 0.6086344704925172 -1.3264400321773702 0.22934299218397983 -1.4672672047217945 0.42565385302702974 -1.297247331791792 0.47309280889624045 0.5616183154925003 -1.2379026678212446 0.12890120316874634 -1.0577986089503664 -1.1256828328519164 0.03659093071469901 -0.24414932813465604 -0.8755457879131366 0.634660147075889 0.17160306801989272 -0.25147670613683604 0.03268723347912139 0.5818826054039764 0.38466196248886814 0.7970023649858713 1.5972268332517712 0.8896421575569533 -0.8240224106546628 -2.8767340608768075
1313 -0.536486570025598 -1.5811535674350854 0.6655217223886157 1.925104142101888 1.7381490035038085 -1.5598612205715883 -0.2656065396515444 0.9457560008052727 -1.1351450268189025 -0.2513081713322297 0.9969246269788145 -1.0269499687301362 -0.16894953847416452 -0.052378940153511806 0.8560415797194143 -1.1922765435085039 1.7047127273499294 -0.07769327845464848 0.4548418470433765 0.1537204645043361 1.0138911651967926 0.042767159003183716 -1.332766522475355 0.30198666374656435 -0.07446984156631709 0.06244560634606369 -0.2828058215123263 -0.39718718412859116 -1.4661925750324505 -1.0472401036769274 0.05217995336733754 1.0215673128810852
1478 1.1595137859132334 1.0638718508056852 0.920839463388059 0.36531549108486655 1.36761959326074 1.777561794275919 1.0881749616024603 -0.8657639369511227 0.8333827712925627 2.7021559213599717 -0.49674465181409355 0.2753960630704464 0.12232585507946064 -0.4175365731033259 -2.289479109779112 1.2906768042039283 -1.1824575679367904 -0.36311374716291744 -0.8565218348646627 -0.15818853450454576 0.1800670026399389 0.14295559811118674 -0.026190426750460055 0.35401854008587824 -1.6316906034821925 -0.6934496470758384 -0.42097468118249687 0.9649339473794326 -1.0170211443857504 0.676960995763466 -0.23758449710785245 -0.6070505852409009
1499 0.8751588156555085 -1.3464844704947392 -0.002066077616536596 -0.3676908352359529 -0.3615160698037709 -0.24405230301839578 -0.7110983390653571 -0.4970267235825151 0.12147423775043044 -0.20001524277393243 0.13964327206745933 -0.42501851414167313 -0.5137034653437882 -0.34833928547091536 -0.6730245070733543 -0.39127725100420035 -1.1822281554467908 0.3653012791212101 1.6926419974010845 -3.0113258934324194 1.5554363433658946 -0.323343712448738 0.4783781967641748 0.7219405225438441 -2.4158385550921717 -0.1411085479219164 0.1580196944953095 3.073895528563091 0.6000823035813992 -1.4927393548485262 -0.1694404807276785 -1.1698133211625479
1596 -0.9842159656590062 -1.468687735322618 0.4441836449847269 1.6958325919362873 -0.30275973179882815 0.9303436697314639 -1.7428193814362825 -1.3121417334369152 -2.6439833469153196 0.16791742459094802 0.15776020233608617 0.1647534011452377 0.038267398625969416 -1.1507899784883644 -0.36823128685898904 -0.06541727011705442 -0.6247368837303852 0.8079451408842591 -0.945496003606443 0.30705684544261347 0.016020247650661776 0.20268487736544 -0.246261247444048 -0.04367186173249348 -0.4751279218326125 0.4484435117088375 1.2975705187073556 1.8115869578566317 -0.35039579570078033 -0.6684384240407814 -1.1693898945901484 -0.21894719381539574
1608 0.4006737166516633 0.45170074307058733 0.4815513261849534 0.5668020049676538 -1.1451668154676056 -0.7845582538317586 -1.0756262042837392 1.4859448446325945 0.8293795179327127 1.3647753743850208 -0.43950173303998163 0.28568786300222127 1.7284440427958336 2.277863900064857 -0.9572646427585016 0.22875588610699488 -1.113653506018777 0.613058349000504 0.19724870920202994 -1.1416078895212893 0.46231503154063786 -1.15666881678866 -0.9247657096881778 0.361953958762429 -2.579933030495313 0.6619412671519381 -0.252480066704528 1.124128573912711 1.2943936533701297 -0.6549037219130721 0.5301529240371674 -0.7042017069271043
1621 -3.097119955366579 -2.0304302443328943 0.7307690906082284 1.8503902441083449 -0.4236071394653823 0.5011641268308179 0.10465194235710043 1.2793344767134305 0.0020593525772663944 0.7153110539770632 1.4021873309100927 -0.1650029348556194 0.9340990547392015 -0.6076751377623832 -1.0376095149377547 -0.10594396154497505 -1.2100306607416873 -1.317845059811128 -0.6434729183916232 0.3675501520274868 0.9568538265407421 0.9845429642993875 0.8526478221928286 -1.293212058589029 -1.2243377881396775 0.1727627905372187 -0.8688543069118286 1.7421861743812954 1.4922361385544811 1.4527868108267954 0.6065519011948992 -1.7411885027928682
1637 0.06772166366856623 1.1446246759034044 0.6201563621516037 -1.3015197647314223 0.30543653167216656 -0.615405472207413 -0.25778530039265585 -1.9576469770026512 -1.476115510062075 0.7140761069853787 0.339707821795094 -0.7117653872742071 -0.6344079347991253 -0.8187757544729192 -0.14977028190935876 -0.2353044479893598 0.34203584034050344 1.5712415487264326 1.013158665902208 -0.451809400651189 -0.6529469203653462 0.27215467147896216 1.3098179333138043 0.1885201060481138 1.7022884564963623 0.556910350768602 -0.7221888577702086 -0.8225099155763909 1.6812341447798977 -0.10229981142389799 -0.08552339244639341 0.7077081249847774
1717 -0.4455779354171928 -0.8017988477009891 0.19323975788976605 0.016423717177219823 0.6888021959413975 0.8208003562005268 0.7884687526611499 -1.4853250623966958 -0.5953934629908079 1.4787818559263457 1.6179990393512391 -0.019710076232852678 -0.20050085771975495 -1.838178351373622 -2.1833334222498855 -0.09715135572277896 -2.4306903914793967 -0.9424940463043409 -1.5817052572166568 -2.449773460534812 -0.042851620193922836 0.39631691068609615 -0.8538986244480531 0.4701484249338357 -1.0021823432714958 0.4508373931549142 0.008853168034242102 -0.26249851332173796 -0.05554139312114796 -0.9460539538012602 0.7944308058938889 -0.2956872329033373
1788 0.9824922913862821 0.5943512555554699 -0.46410292703013684 0.8319767723806787 1.0256777624925233 1.2811057346171286 -1.3032255076894743 -2.2663949149319698 0.49183757805963085 -0.7170013707852338 -0.07957149839362253 -1.5245728316936475 -0.0920098594039124 -1.991611470431275 -0.38753007277028373 -0.15688546479532567 0.5591338330321172 -0.5166787693259705 -1.0514688425809064 0.6495527047785956 0.129430064228076 -1.1229474768298753 -0.6749394095537042 -0.4171346752526506 0.7028840481302884 0.3236877472803262 -0.15689954655519278 0.5533052009540167 1.0396880817407317 0.8060878530584634 -0.7648807337666347 -0.8313558780108525
1919 -0.02689229591846154 0.25931764339434166 0.8008579899164637 -0.3677186447590713 -0.7305484612193243 -0.6255709597473322 -0.3415526206492895 0.6824420807625511 -0.6895876644496585 -1.6150174496398573 1.2868393005699712 1.1861785344556752 -0.6274269115185968 -0.44854589014786983 -0.8801014508068207 -0.4316236141261992 -0.25270180255043845 0.2856701698486412 0.7782601027773705 -1.1033366842716577 -1.235969356378986 0.07738594878954418 0.4121287732341616 -0.17996257123556056 1.1283898342840404 0.9091049808149957 1.2626554131036054 1.5224992111974134 -1.122445945608994 -0.43214318519166817 1.3734433935616892 1.2005070725815954
