3906 32
729 -1.4062762904164774 1.113286014492887 0.6161535401567855 1.2499632900428967 -0.08117511522535885 -1.1554413522402873 1.2502444988559418 0.7330435116683516 -2.0040246703801237 -0.16622809497760171 0.8447552138950374 1.2136735852292073 1.734841932224385 0.6626723999303051 -0.43512202407130834 2.0010321400432756 1.3076473809656597 -0.5474717201879412 1.5632261708985742 -1.3123307910913382 1.558510329131264 1.3869499173123307 -0.22203488030780125 0.10100995650975432 -0.8934263049919269 2.2452919702028677 -1.7051250675591525 -0.3077486518538568 0.5848416044920375 -1.1397211150770519 -0.21888010123825216 -0.09417619003043336
1 1.5071422821470573 0.04816842632012676 0.9672071961770138 -2.104454586529486 0.6518613086205625 -0.16470331825067555 -1.974609338713618 0.5272340182994228 -0.9624517161944695 0.15736464550056634 0.8910676865449075 -0.2659513967422272 1.0592269807555634 1.475493363231996 1.125946573165457 0.49360969692550705 3.00419703334066 0.7529889335362681 0.9331228702862786 -1.735916870209827 0.6552453238128847 -3.4184706311639466 0.13439269861991898 0.30798615302667043 0.7230971382726301 0.027521372371712413 0.4143669291100049 0.6090096605085545 -0.02833428521166729 -0.6150646799203326 1.1718484893344536 -0.1458022490449958
335 -1.6492897178945427 -0.15436912905527184 0.1512475552459371 -0.6845354596244119 0.6678303434722429 -0.12389917080171606 0.6119139801477228 1.1103481263917208 0.7679518460670737 1.0837235774227107 0.12477786943385052 1.0072736787892824 -1.1946528931812763 -1.584042159416816 -0.3244591536409179 0.7079674722186324 2.563855936523034 0.869458239073602 -0.06690174090941377 0.7049861681307538 -0.3165253365529353 1.0573804233558612 0.8683926342712394 -0.9961757186516753 1.4469985238178689 -0.13718419354073333 0.6063039458996385 2.7481884078657925 0.7936647494284405 0.2817989724018037 1.1738095482329767 1.1915112664451362
585 0.2995705750525336 0.8795149679512211 -0.5319824102647855 0.09701932216037167 0.7831511444503567 -1.3988754214149233 -0.06208328648728817 0.1465127451107413 0.21977939988087902 1.1975558841259322 -1.8359614378176867 1.2244667163777883 -1.5559895624586424 -0.6848085544602591 0.9404292549296036 0.3880382789276965 -0.09356628602735463 -0.011782643154548522 1.5473752455791716 0.6027805927729822 0.9918644134645088 0.9149920875899991 -0.5090260488644344 -1.2577595478341579 1.4445536420219964 -0.4566688122931164 -0.4062701740514587 0.30366493611726064 0.5005865060855104 -0.243382429016313 2.7881109022897013 -0.3198535755704508
674 0.41126420233815564 -0.3402786028874092 -0.48819363480791117 -0.9478586238243172 -1.2022027841677627 -0.0210598770846598 -0.2394363103278521 -1.2235005871544067 1.0482129857957008 0.0456797953855635 -0.2936579709541061 -0.8085784968851197 0.486409686570772 1.1813568853360856 0.861354607825542 0.13882974107318727 -0.985372480556781 -0.03187957881369068 1.4717814263487417 0.011244443499190295 0.0809288379390945 -0.03439899356532629 1.5519041142477104 1.2661838588479373 1.4462521574571852 -1.5066101268778402 0.5500482640353217 1.0199075349292317 0.9335346197373293 0.09420141866503237 -1.19468502628271 -1.1257802403931143
3178 -1.4377523355313477 1.1361121399884466 0.9016590930270721 -0.5163019068422822 0.8103926950534589 -1.1796971546444226 0.9882025394328043 -2.071119561220348 0.3166859006405298 0.6733925568294469 2.7267746021364396 -1.7283288096482914 0.34282470685544003 -1.62229939280013 -0.25814670127424716 -0.18402502283085156 0.9237641301471616 0.3731328516925729 1.1583628018533016 -0.8115025601605628 -0.6128577342895493 -0.1774591004655204 0.30435645978783993 -0.2758238362226169 -0.36051497638612295 -2.1263219017843724 -1.0369090979537487 -0.40195203816342445 -0.32584170231633974 1.9484333422101654 -0.3540868748459287 -0.1496553212488652
3715 1.6229435616550592 -0.025158082463543542 -0.3430965391679401 1.248813608863307 0.5291758504941844 2.174451246497391 -1.4851907495290784 0.0381121520226542 -0.4806242953541356 0.5827578561443373 0.6793657314295061 -0.6416243697652028 1.06742669333775 -0.6230060275608038 0.07028124953611266 -0.09748124815725845 0.3134567369238675 0.8170177033017191 0.8688648415261182 0.7370384969729105 -0.5598940525177615 1.055618102999881 1.0087880155572708 0.18472274077242626 0.7730213614686171 1.4045373510085741 1.8298707833390435 1.638195549613418 1.143570644499471 0.2718583149446401 2.7935818988006966 -0.614318494127456
50 -0.7375807913263569 0.6044802903560605 0.8252927642404331 0.28709999540872144 1.173382883234658 -0.3688149035445943 0.041198536971515695 -0.8313180665494104 2.239760251295931 -0.4024561435164762 -1.3230412588882625 -0.599807793776281 -1.0450439946539607 1.728464113157027 -1.6779934380214732 -2.664001229841027 -0.11924809100678113 0.6133997449151567 -0.3429082773233788 1.348910291092365 1.5184274849496375 1.2271459600261303 -1.3246311329879463 -1.0436207347296862 0.556115972262427 1.0752384669561703 1.2286501616828167 -0.9790812382494781 0.3246055567872294 -0.9173337711315666 -0.3378394294723307 0.4842020409755167
193 1.0778703278539608 0.6970347738368498 0.534880109523906 0.21042123881085517 0.5865897820855228 1.0790598881081226 0.2703030513871077 -1.1301072703970496 2.7182806289669674 1.0390741359975266 0.8504831617572117 1.3894563655961074 -0.6171463607184989 -0.01607348713867672 0.6507862829584828 -0.454778614620486 1.740352990348157 -1.0987674342158469 0.2702893712660322 -0.4268337961597602 -1.3629174686968621 1.4748324950185954 -0.1429517613856605 -0.4891395932342605 0.3701843050884484 0.5152630900564562 -1.0287909997843985 1.2302405326872958 -0.49231890294173464 -0.3252714815732951 -0.16321493155475578 -0.09366747349933899
212 -0.25504019847941073 -1.9122465133477304 0.4891129299083443 0.8567796647092634 1.2069325000979332 -0.05428643588227248 -1.3917259507553268 -0.6230785624114292 0.8496767726947658 -0.6051600260103315 -0.10379430594476582 -0.5738632119363223 -0.3942306754178498 0.1349019020221256 -0.12462786868084771 0.8919042137297905 -0.4190593538627054 1.705213548891714 1.0867867522857513 0.18070359969721222 1.4953434009987208 -1.2060267461208134 -1.8281429842323844 0.823585200706686 1.3039105518686684 0.14491144449615598 -0.8231630009828083 1.1092228383374862 0.6902147031454654 1.359310432927148 -0.05125679648050934 -0.7654603451648729
222 -1.006647391472993 -0.5539704472882839 -0.16264042509619686 0.6714476126304458 -2.3772724035200663 -0.6384031220170412 -1.6568469784372752 -0.121713929253638 -0.0727236785070614 -0.26945411855184975 -0.9899146420746658 1.05394356361835 -0.3598830142463047 -0.6082554446755501 -0.1390465286739607 0.7630708682484161 0.4591440456065461 -0.8979667535289235 0.8451531406868769 -0.6171322005328242 -1.2456420125727643 -0.008423101846548793 1.3679066273977964 1.1752116658818241 0.3439948965018545 0.9395835346398532 -0.9679675497725835 1.0035679677372622 1.3258161291763646 0.9183805561662809 0.6860085461977614 0.1004336586252573
847 0.12860280350022935 -0.5294413570450807 -0.09817034427608334 1.4305342231384752 0.5682805655367109 1.9928779562481918 -0.9514704179557546 -1.1986540106158527 0.38109150499546957 0.5796754720312859 1.5373939760422217 0.8094949261671919 -0.38094340929221715 1.3068153946435865 -1.6516362093033292 -1.072448654650174 0.8361907028501965 -0.4509908887089605 -0.33087993029739365 -0.36434266636444745 -0.8172013691436942 0.8944522156344089 -1.0929761592273761 1.4419557403793084 -1.6718796180361981 0.42438565139202494 0.9357422904110265 0.8845076017951196 0.004230160632976906 0.315868171191704 0.24040782567937252 -0.055083356739631766
924 0.7330344137197707 0.06365276711759114 -1.6136317881096547 -1.0746574229074335 0.15740832590643647 -0.20871593638867167 0.3393423476385746 -1.3084908211854769 -0.02309612299900112 0.2261352881046993 -1.080370116405784 -0.5239274854274601 0.31414983782074785 -0.31298656542698144 -0.014152793915223694 -2.580904663874077 -0.9409282498287265 -0.027632179306269676 -0.0903700132234125 0.412474517079228 -0.29456816394904806 -0.1699066483768122 -0.3036063806459561 -1.8098182211047025 -1.0287663769786806 0.2149544115356566 -1.3040012719805099 -0.9597272984051796 1.086210461374381 -0.3810238253526567 -0.2756290111409611 -1.7860583469171014
961 -1.5690555022684927 -1.8692680020720267 0.11249732532330425 0.27783118129317286 -0.8200738773695495 -0.7410638949807169 0.518060993990011 0.2946103903186439 0.26822597103161083 0.8300828151982249 -0.36284050451329236 0.51560763958692 0.7670443557865205 -0.14266235749792783 1.0244715000726314 -0.00035249510388017636 -0.8760921924571122 -1.7265613534180073 0.39233024511085096 0.2752109308398413 0.4885881865513936 -0.2737001696316305 -0.8318465064511001 0.9920937003383024 1.90763752172884 -0.5463558619290764 -0.9907431392035245 -0.18308794876127402 0.34155158435524846 0.823174461598666 -1.6735664458309782 -0.07722161271668515
995 -0.25403903965193914 -1.6995813479657789 0.32716423508591064 -0.6445327776898718 0.7665462147840052 0.3916207177720611 1.3477826416867298 1.2402140063716678 -1.7634732408040206 0.6966081550127423 0.08217849161090357 0.21333826428765607 -0.6625480408365796 1.4786553854483662 -1.248860106657357 -1.0499411371168084 0.3714596959469566 1.318679912085064 2.9521818269116875 1.4804146239328337 1.1157586452546697 -1.2664911398764145 -0.3952050084535908 -0.4227143474192138 -1.7261227695127586 -0.22834732665444973 -0.27408619864842265 -0.4910386072376482 0.47403878187491083 0.14170809785409652 -0.695076836056718 -0.4940668446387369
1046 -0.6256385215429469 0.48160055618278635 1.6591583275980888 0.3774330042760069 -0.0028594319246584604 0.03800316738921501 0.7079963887668401 0.0736371556948024 -0.12472158524650215 0.05121586314045821 1.5981208383676617 0.05682318220547561 -0.15629700159762086 0.12766534684129924 0.2926688131259902 0.22119442051052907 0.5621116023428522 -1.0087369851704011 -0.6531047046650722 1.0137155955015051 1.7312159701985739 -0.1367021838988305 -0.17959357268566617 0.5896765674927168 0.5902659000987365 -0.7805736652543537 -0.4440301450852146 1.8980058909729582 -0.42738043895344857 -0.47424218340605256 0.6270123681736915 0.01026568157161429
1142 0.3050819513277546 0.32217570373351107 -0.05298888038845842 -0.6461369540867871 -2.257282622300878 1.0109750859894242 -1.060579648597932 -0.14543652750693872 -1.1023055760667757 -0.2835733507738122 0.7127114115164406 1.1112184840522021 -1.0610266255077427 -0.04230236475787802 0.28585277046361796 -1.0941890046764147 1.3005757633084334 0.5588599882730849 -1.0206218885725362 -1.184072100608826 0.5721517884059468 0.3962923427808529 -0.2827075979642803 2.1727430219890262 -1.4512820600302105 -0.21222024156644959 0.5207086573665982 0.9593656769105435 -1.5256089655423 -0.03608924383572257 0.5029166487491838 0.5685773332923973
1202 0.5711074238765051 0.19311305027646544 -1.0981255408397848 -0.5375321252841685 -0.14382736851391295 0.1581293041581752 0.7707782846020306 1.1882281616834096 0.9770405201447907 -0.16958441900090904 1.1821133646688877 2.1272843235308057 1.0827727969612517 0.38702774175857435 -0.18535839913133492 -0.016190012616236763 -0.0651998048382538 0.7537974112199307 -0.3525221374101808 -0.2822363051174999 0.8808811469004896 -2.1417095563589013 -1.5446538594490584 0.10776510157512396 -0.9224782673395134 0.39954303291470655 0.04329612788086551 0.3161944519928271 -1.9412314318017727 -1.459061585942335 -0.5286888829583524 1.1215245355589538
1236 0.11041544276602415 0.8101603292856464 0.38385805383047483 -0.8142333517080729 -0.33432179737753087 2.435252679080175 -0.17688992826413566 1.4418962999124931 -0.36535264740874573 0.17847891890728865 0.0516789471199343 -0.13706181370317394 0.7723730670646646 0.46085055898537863 -0.2588984123756269 -2.231935801009155 0.8066644338899633 0.48376381815591685 -0.8771738563844972 -2.0247696931486976 0.006207069531658475 -1.891565671652733 -0.23536524089494312 -0.18922741331881143 -0.9587820260331514 -0.03830571677283946 3.5069904626712467 -0.0032566482024178637 -0.10929098807744579 0.39970271777039096 -1.4135420619114147 -0.29837334121762876
1294 -0.7667749256606677 0.1283394376658518 1.4296898629749817 -0.01718612440420706 -1.1725424777568427 -0.025988496943445974 -0.1809610951139333 0.23224831294585804 0.6523386359104115 -0.36264344339668436 -1.0744465200312705 1.0123472433627887 -1.5156750893603976 1.0320601552564517 0.21682278949430484 1.497743158428618 -0.3594644061883897 0.08932433492845274 0.384670926201753 1.76470234574364 0.668866500832364 1.0234196607152428 0.34401741303946165 0.9292574673806783 -0.37331166324353376 1.4348109504439495 0.4555594745147727 -0.28285432680446887 -0.05256417294053173 -0.04385087969443455 0.9276506282049256 -0.7875779349577487
1432 -0.08506780225150759 -1.3707502124857673 -2.8436548872427485 -0.5819961536403581 -2.4801549271760055 0.6473606992357807 0.31685687699736204 0.9142628073193523 1.1998804691732974 -1.001023097583734 -0.5635028437352292 2.2666972783565043 0.3951113905772156 1.0841188391135645 0.20861648726852097 -1.505818005330122 -0.0881402874778332 0.16183024383399136 0.21493413283000581 1.628266930209615 0.6853909092361639 -0.8979113515157094 -0.09177363499129364 -0.9649472584137183 -0.7991543767514089 -0.9074765247571421 -0.05226091547024207 -0.9805692224312769 0.3847755650123529 0.27986074467780514 0.856720862503716 -1.0849028462327859
1489 0.3047153912794612 -1.1036815757825986 -0.9665572565989373 0.8448368361032398 0.45451490731668853 0.45467199915993833 2.204068789473099 -0.3456972867419758 0.4506161146257838 0.0447662900687749 0.2700332543370177 0.8417520219557219 -0.10359872492298168 1.0011910767797507 1.8557656404239695 -0.10333178830103983 -0.40797803496886487 0.0938030138835906 1.7703369232646258 -0.18355758778220846 -0.484737403472655 -0.8865270858059556 0.6450421226525284 -0.7969745194356443 0.1350319559293983 0.5284332231933865 -0.9832178619296119 -1.8520501547357169 -0.4891568031423476 0.6403596001315589 -1.1388094397419652 0.6382419027435319
1514 0.14951236084044056 -0.9767934198733296 2.054334889695879 0.46706768440130425 -1.29578020599434 -0.34772520542223107 -0.1281081699411905 -1.2731107116431426 -1.110178320637528 0.3844100779110581 0.527968031650676 1.6497863807761302 -0.20839229330172795 0.36547264301694243 -1.5367632618271265 -1.5912262470024405 0.49901644337942436 -1.6718438050193212 0.08631804026350752 1.1164202797580831 0.9880691962629609 1.3388728996390176 -0.5611514299798082 0.6280188379833365 0.048979878937104 -2.4477400667188953 -0.22531726718545608 -0.25323168316885336 -0.7198225567588492 -1.0379267799065737 0.9409467985090537 0.1059748218244472
1552 0.12685786083014203 -1.7577052044340433 -0.3953218366951724 -1.920182847505963 0.6429103195935149 -0.5274894366678239 0.13134847889047419 -1.3046478630155265 -1.1349513399024764 0.5190854976897556 0.0571052477830109 0.09787594596207848 0.14236660997726366 -1.4439571022290068 0.00953200101790523 0.24169613233289924 -1.1558280949314013 -0.808600255588678 0.6896713187131238 -1.3153214928084618 1.2922104186319496 1.345906668637133 0.4164517011667297 0.7537692924425191 0.24073557916565735 0.350223745426577 -0.8611107212652497 2.338193812845454 0.64796748433212 -0.2744515228844449 -3.335487391586384 -1.679233916785254
1560 -0.5093212207680848 0.5979754540679273 1.247403129675751 -0.7687250185312525 2.204162136519148 0.797949197799007 -0.8155589391529112 1.6531104080079366 -0.6181299444311733 -0.476989410692033 0.11951125203253413 -0.025426363922146984 0.10268776081460247 -0.24389232984755346 -0.2682378985776766 -1.7879622230866838 -0.5216718771065301 1.2481187037632318 -1.6138244694394661 -0.9749042965674828 -2.019445385835285 -0.38533571177017234 0.6722771693684347 -1.2558967848333003 -0.0942245000583278 0.6222481616287057 0.5227148280905598 -0.08641788087547782 0.6768047544390055 0.15336144728015555 -0.32792445254907887 -0.1385741660391479
1580 0.3207478542150573 -0.6955240109065483 0.1928169543781479 0.014149921242211731 1.0958641658672652 -0.7486553040103916 -0.4229887194173136 0.41220438587835484 -0.35201739740072663 0.43022814188478165 0.5514482360857882 0.6532832912099501 1.0971159242556576 -1.616835445514216 -0.6395938850743961 0.47484467242175576 -0.6483378458725296 -0.04942873007776064 -0.33449264035443466 -0.2686529289213197 -0.9314061954529352 -0.6951421718987684 1.3219290309099823 -1.6548363665577874 -0.42030775160399103 -1.4354491843195827 -1.0453599509907008 0.1164359017897824 0.050236132135365326 -0.2514691868177348 0.0572776890915587 -0.49012850497572397
1810 -0.8939226430473822 0.6151094103656835 -0.27272987137734284 0.571175151538977 0.8839368123263609 -1.0754796972478957 -0.26525719173159956 -1.3096246135261997 0.6244492792294486 0.47811358966256867 0.9696968056470417 -0.34201270553501717 0.45031558601527943 -0.3467766203831496 1.1274117155893513 -1.4150075672544005 0.21657974360394222 0.44960425547529326 -0.3620931159431292 -0.7973237464077754 0.5217073769774553 0.6082819335253471 1.110539578139861 0.5668889974918064 -0.743850309564365 0.4457655207219271 -1.044021458043826 1.5623685938355 0.5025556732988886 -0.009393039394246166 0.9960203947761971 -0.39679970822210137
2050 0.23122441238200078 -1.7427360765743873 -0.35520726787350504 -0.8139574484020575 -1.2149569535683842 -0.18117878670446302 0.5150221924465652 -0.16422721603485588 -0.3909845178322496 0.8147446299997814 -1.1857362826510462 0.7956026790134489 0.34366146894722777 -1.3354377594464861 1.0071070331367085 -1.0294242559814604 0.2583250066723924 1.1298329031383463 0.01849050413862184 -0.018875478226090744 -1.2486558538394128 0.05747244352939687 1.0395747231866583 0.24825576774256547 1.7319210856188145 -1.928393804542143 1.281693942239351 -0.04973076153757776 -1.1878630076666774 -0.9409218656271409 -0.5657528162683513 0.09832664783048896
2237 -2.7454231887453604 -0.15492592036412195 -1.2730542543751804 0.4652360992435544 1.3573147091906026 -0.09805794876643636 0.9313336629164358 -0.888199801294094 -0.5723344843971718 -0.26196157200897396 -0.025265848540049908 -0.3432214652311096 1.9536492594218455 -1.5145272276751394 -0.014976824443197014 -0.8881480403300446 -0.6756316892543117 -0.20671486197667613 0.5960165576980103 0.6963423463264756 -1.0990914431816465 -0.9116201426496705 -0.9923311812204827 1.2295858395277124 0.0014967592335753854 -0.1954469146806939 0.8569551813791586 0.34642409206716324 -0.7920069378131888 -0.855042084599515 3.2518701540701627 -1.1439818325324422
2295 0.039183795119756136 -0.053626701310735714 -1.5270624127837276 -1.6539728940767495 -0.08163814135828668 -1.2350673029446366 -1.2013057467787835 2.2266227951014708 0.5959951853531409 1.77472814732165 0.8364305654303077 -0.09692221196466222 -0.13989961448914015 0.1655733946121231 -1.0611207540441991 0.5198373701524004 0.9599449938154176 0.27924190146425104 -1.1250016302490677 -0.6290017643604855 1.6353117838411346 0.05397654057589117 -0.8461699586748346 0.3666100979906939 0.022342494998077434 0.09581235548898401 -0.7222909460283972 1.647271369061801 -0.09023154082592129 -0.6389517750305638 0.6876658137503143 0.9535234388860175
2689 -0.4568837140173427 -2.1601734352894675 -1.4241369847087364 0.5140467616071087 -0.04260271807500084 0.39400499377363035 -1.3302071539058171 1.050584960539785 -2.192675410286919 -0.36957869549693795 -0.08169345644352312 0.6872794689564236 1.976592713038838 -0.19733157916950894 -1.3624289922241513 0.5246904846525101 0.8368547412430193 1.569179954908639 0.3777451850496023 0.07112763253198358 -0.46202710063205327 -0.8767195183866482 -0.6746742460099853 -0.42817826961024485 0.22245538971702009 1.2444960109838827 -0.434323887359948 -1.7473248539990782 -0.5578453151783117 -0.8714375748283417 0.5298223145686924 -0.2408606297393586
3021 0.04390386796068322 1.6171510137480658 1.8404937556117493 -2.458133764181063 -0.4397686182364855 -0.4900235136348143 -0.7465240684657498 1.519897367012718 -0.26526755459218143 -0.5051528702613942 -0.05869955444459212 1.1384364850625677 0.3437502282207475 -1.2756492991321775 1.4466293975552558 0.049947410741635126 -0.00997323374501912 -0.015485046940629186 0.8304928461740699 0.6965915066080833 -2.052756968452516 0.25344461170361227 0.5332140581770666 -0.7075859551309974 0.6832731854300491 -0.09834204752338709 0.12936910071882154 1.1184596192260883 -0.8568689366793283 -2.1959459088167645 0.5336704365713961 2.128584023898089
3038 0.3940248913217232 -0.6641314364778581 0.6422989017120695 1.7579832337824934 0.9141268547308109 0.4963292697531181 1.4068841699013321 1.0607445306776186 1.7554525277705264 -0.9497480236296352 1.9974307836625644 0.48558304911368366 -0.06238827586766464 0.3310789770183159 -0.5686428159137282 0.9817492842002944 0.04617802652660713 0.9853230138673621 1.3948414668858142 -0.3858787366580205 1.5418420532492074 0.5934516082783868 1.400575543538979 1.1267895578380378 -0.027939235345400992 -1.0736729838929786 -0.7383755357067668 -0.44587507734202103 -0.25181666852892515 0.03890963760540786 -0.14110259941956144 0.7619545395301366
3283 0.5169874751558939 -1.0955003934777205 0.7037828182442765 1.2351136744192268 -0.5988354574083756 0.007233220611230684 1.0588762179489273 -0.9670956778376216 0.5507530754574564 1.4860384008766485 0.06043818805538142 -0.21343840222752752 -1.0185317155620615 0.26788606539059845 -0.6847126386657778 0.2599400556525346 0.844980722680665 -0.39925305579311715 0.34164980399975475 0.7635370873951579 1.0857698819175057 1.5353885627561517 -0.7709632686499789 -1.2654938638385285 0.14356422835142651 -0.8800904125009992 -0.4594980820599599 1.5407686357672636 0.9612922416598455 1.4082586646737965 0.5201275114301283 -1.698141132729056
3489 -1.6115282202251366 -0.30400881946122565 -2.2672970325047337 -0.4245612381590105 -0.5529853177755927 0.23964751790314073 -1.6746662300046748 -0.32684519649153754 -0.643753987426998 1.3356775633724984 0.5484646465015487 0.792796570231893 0.7641905002334044 1.555010946291172 0.4158722580337071 0.6043400492621047 0.9930470950995781 0.9640622772313903 -0.4108263838750801 0.6110917914142121 0.21777925853873534 -0.4918954259231267 0.32476575765725446 1.3736757015358654 -1.3768295610174888 -0.6224119126497093 1.1991447842704819 -0.9982586545693951 -1.2167679013218289 -0.32158504907648283 0.6629850126238972 -0.5019507526111894
3583 1.601261500839031 -0.6959817053723543 -0.9505763660721391 0.5388612329075431 1.1080746987556727 0.15669505058605476 -0.8358330756666735 -1.0550883804060198 0.7159638710402522 -2.9832878934708966 -0.6577097310632105 0.7328521944983556 -0.3284825464496984 -0.575863717252225 -1.1290355712633515 -2.405308823233833 0.09503486210994318 0.46564488318954583 -1.4820357496301673 -0.7598266009910919 0.19095666984674775 -0.14091853393904372 0.018967315074421835 2.0857685715051395 0.2829781355379963 -1.169210593989604 -1.297250587252134 -0.2979343604988079 0.4887033363385697 0.6169407578493104 -0.061334261604048264 0.4350780633129689
3836 1.3307262886831828 0.8660845728906647 -0.5060215459032029 0.9407585735820742 1.7163806078981383 0.8631769717334641 -0.6270281755604071 -0.3351215495200471 0.11141006686261147 0.8435326169039087 -0.580935526582531 0.763921219257263 1.3295868352073377 1.0371981850626018 -0.4020320072746736 0.8746271402186964 0.10888085958247784 -0.17344678951914166 0.06998633243380108 0.37914479551631824 0.3946527097981174 1.4784751436310115 -0.2445852379405891 -0.10206882906558458 -0.17894531037644146 -0.3206202314855696 1.3483669910724265 0.08420228276435947 -2.991062785142995 -0.4978689481721808 -0.5982729194272336 -1.8088809035484372
161 -0.2507706881252162 -0.47935623946145967 0.06874933537680934 -1.390748044287512 -0.6581268080590653 -1.8576116302240908 -1.1971823916875675 0.09274435138170413 0.08955022231365775 1.2216450745346463 -0.6902219693808189 -0.43182868100155025 -1.181799512897673 0.5517590960771133 -2.287088196475156 0.1977559284359471 1.7639394239505635 0.07471411319827685 -1.8342967320422383 -0.39524072875104965 1.031295537612478 -0.19263980381112436 0.1441930785466978 0.610402932682538 1.619993072284208 0.5500621785766172 1.0386423699909872 -0.4187790060721781 0.22276744838280454 -1.1300897571576096 2.029477171977462 -0.12708384513679086
2 -1.3498211240519105 0.5834859791899417 0.4931310658685932 1.502245601283387 -0.2927048497705405 -0.29786339870397927 -1.3671351583793734 2.0133474381371266 -0.1385172468895114 -0.6445839416878676 -0.7332983959270537 -0.306990029222299 -0.651709112882544 -1.3675252809826868 0.35643695937111614 -0.829574437102845 -0.5469137575278868 -1.832111086831769 0.4807660249655184 0.14009034843134407 -0.8054222494265285 0.3047364760072983 -0.1388266852034768 -0.14408468740841066 -0.16256819834995512 0.9005359173700852 1.299286936002387 0.7445738639184855 -1.0415545642675328 -0.8128016123009191 1.3521291035246874 1.1338618785069332
868 1.4755204371721686 1.2328812379285432 -1.2085591923228993 0.6535410160994685 -0.016441610156231662 1.6394994547879278 -0.5999006294944275 -1.5650373922013283 0.865189267076795 0.21883755947892497 0.3584059979798773 1.416769964052969 -1.6510149057741605 -0.6889788636954259 -0.2245724664198597 1.2910923415809588 0.2497997405300002 0.6014679544694804 -0.7950196389250489 -1.2896332020784926 -0.37841196339113353 1.0396123382730402 0.33686861572253995 0.17649115857819855 0.6737334809470988 1.0285294554881907 0.8673597555647555 1.2005673672301187 0.9347619117607534 0.3863772124933115 0.8447135500946013 -1.4477155946251963
1192 -0.19111943045417623 -1.9033820518621694 -1.2753726744181 -1.324579851973591 -1.8966648211919974 -1.6003360918036496 0.583461657804111 -0.9281118149336188 0.9725210359714046 0.6546514923572954 -1.9112332823197076 1.8848643405163819 -0.3430352355793885 1.5959437559094551 -1.6417680913921444 -0.6657422502111391 -0.7111565926627462 2.448488940848535 -0.1837842304086808 -0.8058177977825736 -0.32908348044848573 -1.395645661767603 0.36224721704284973 0.6629621577523903 -0.13975043244386645 1.4823965233663905 -0.056598003928674756 -1.5411543099559308 0.8438489708007091 1.1907166809444674 -0.6707522137336452 -0.12593464735373142
1240 -1.201836038783297 -0.26894209255009266 0.48068942692199995 0.7814318280326864 1.8007765233203243 -0.027526454223082086 -0.1347038058234025 -0.562089354819678 -0.03666160842180712 -0.3249470849776984 -0.1739394057848162 1.15549770831113 0.6251372368801401 0.2629665959281163 1.3535619754513415 -0.857401552145579 0.08765363692217525 0.27732887979809795 0.671324836026944 0.3367677257356099 1.7194021167940097 0.3225391545270067 -1.043475698051663 -1.275090231727006 -0.26630214419308157 0.4814000560762814 -0.5086669553595168 -0.7470776852186606 -0.7732025398369891 -1.0345985067741281 -1.0964007760291057 -0.08945599335528015
1242 -2.1451680616558333 0.9245967613508134 0.647468614148811 1.9854221429584478 0.9146911679895773 -0.29534390001322636 0.18868806566148089 -0.48006885683418277 -0.1954032305887218 1.2087478252271573 0.1450657725189524 -0.9412889907650178 -0.5122265465123382 -0.41934576869978996 -0.7444559355015662 -1.3877390663093123 -0.75100958496432 0.15217845828703588 0.013392804261954981 -0.545317593263482 0.5424951131025609 1.1121245523987098 -1.4292522080207237 -0.5691658564083717 0.04070395595934987 -0.7969014778608434 -0.37186609211331134 -1.7999998261217847 1.0992177635824871 -0.24248484584940644 0.43076668825559333 -0.19266010925922042
2437 -0.865159388113918 -1.1423254609248499 -1.606677126661422 -0.6225945023327666 1.5100284653945826 2.2731978150042296 0.12345126910221021 -1.10137284451784 0.6769476532559769 0.5178127952216404 -0.3723182710543677 -1.7275288035960379 -1.1504242411542245 0.501012308138939 -0.5665652155109294 0.714872399624344 0.6686228282751403 -1.022473016675255 0.3646260287525443 0.602392457012101 -0.9550390803947244 1.865183770308389 -1.297661367295316 -1.9611205030816226 -1.505652929310599 0.8096252273379465 0.5654285666103479 0.10092712097198338 0.33071543907554785 1.7317401773327672 0.4635654791122562 1.2488272811735566
2633 0.8889572142553024 0.3734041847848415 0.3168345187014564 -1.0582956339323992 -2.8795494979799776 0.5330189402660658 1.9789932369505874 -0.6315446925187725 -0.08959618932725132 -0.8850960254486958 0.7873242616986188 -0.9978028280376229 -1.8938684351807569 -0.9433375905676561 0.7726836584173634 1.0556263435640258 -0.9915565943763036 1.700348297529002 0.1312226156111516 0.6117160742540655 1.294864494563355 -1.3194155112527717 -0.5395777894029508 0.5795141597583956 -0.45686258019152987 0.7804969978847609 -1.3202777621850434 -0.13081671649589335 -0.8065324210894238 1.9906778562091079 -0.9339895712421998 3.0101162701415527
56 -0.47044076034462906 -1.5487678182166498 0.7132176335062758 0.18951941530495142 0.4920949740151125 -1.3497077694897839 -1.2919652314795091 -0.7888574286389073 0.7916225975756319 0.47774199685057767 1.2845668333847646 0.6967468050207234 0.865092386265433 1.3614838299733483 -0.031039479455294113 1.2920545191746766 -0.9938901013342888 1.0237295296341926 1.670669068033866 -0.6295623025434464 -1.1406756583170385 -0.5689755263542284 1.8456407886082862 1.538719378851395 -0.34489120012234914 -0.8755802887349778 1.5764512811717768 0.9336809198530752 0.16243758884241113 -0.6315065588801323 -0.10547244282556632 -1.3321457896077715
154 0.12820435005369926 -0.1372949258051158 1.0646221402770524 0.3060502192930242 1.2752404475892092 -0.4162347938713876 -0.8703962623546907 -0.6535659271398913 0.365053837544852 0.9584405805629924 -0.8574999700256036 -1.6789512381776617 -0.5067849864037753 0.26785285370751777 0.9545393010827596 0.5902517187357819 -1.9619428112674153 -0.04332392898263412 0.4076729627549653 -0.6112033692072607 0.08491719295468948 1.794693274059114 -1.5117959169777677 1.371455110040307 1.50968433186148 -0.10187414584061058 -1.8814529425150437 -0.0966165624149166 -0.16868417948015385 0.17760002900860256 0.4833024830920746 -0.6430576387530991
209 0.5511370461514826 0.5506643400320073 -0.9329611402122284 1.2952181818853397 1.5414186074489717 0.7381321897731407 1.1601520654037822 -1.2819938191188358 1.1597984281266696 -1.4464403476051721 -0.4264065886534039 0.40792064432143593 -0.03147878383232745 -1.2369223904288336 -0.24790720220686452 1.526370710650282 -0.16138361574862828 -0.7443810722306652 -0.027284535222733663 1.7148807253852856 -0.7457955976930699 1.8765950526215986 0.35290236081639853 0.671052086798734 0.34519102860312145 0.3607786665160388 -0.27661434981851024 -0.6725638135532513 -0.13232115694475088 1.2462324752027856 0.495749131027733 -0.6654310977450137
508 -0.26732105091336866 -0.3812662635146715 -1.7556229528199931 1.4611070702864377 -0.7971264074255606 0.4543890488464579 -1.308761380494719 -1.165407648189714 -1.7388664228196702 0.9446966506957302 -1.9036270512586364 1.701310064843459 1.0711008476580444 0.3171962485881159 -0.17781442182754162 0.9690320856327074 -0.2560783620176267 -1.335639818527934 -0.6060400989960286 -1.8537874825333627 -0.688216084400529 -0.05592960173671564 0.15904641879315878 0.3943325434751675 0.45214710017185783 -0.6506911212204057 -0.5482063580097091 0.02944065727475876 -0.36751280968220873 0.19556256818512685 0.4321951921741562 0.9750497605020578
842 0.40277161047250853 -1.0733497028888335 -0.6052100694209646 0.8403236052553114 -1.6913137837556467 -0.33711789560720334 2.004133728658405 1.383491174026357 0.38883768708992594 1.080522499685242 0.389709736912778 0.527797314128823 -0.24210186022357916 -0.476672614356961 -1.3631455107010702 1.1975353700693234 1.0594816279771246 -1.2659725327071085 -0.23611782013352534 -0.3701631219813108 1.149082702502521 0.6142577894295717 -1.2082781032078942 -1.0565541401061025 -1.3414619017583955 -0.35638044286929943 0.7086384005142611 -0.6571317901438823 -0.08442865948148047 -0.09933746058068495 0.4275877308621715 1.640277651460111
1282 1.3430941100147824 -1.2650935555636122 -0.8087002164519577 1.5750072642342139 0.20970954817901644 0.08864898240990383 -0.23617103759567692 0.6102220604614654 -1.5752855692246797 -0.7193528240484919 1.6396939060353732 0.03595280424914998 1.1152789616229715 -0.5378859443359474 -0.4923908839214239 1.2817090852519786 -1.3180013739619294 -0.5976589446960772 -0.41356105675495614 -1.8323246292545619 -1.2491218742488035 -0.8051120346491233 -0.21945135670437382 0.7223749847656212 1.1754570172605725 -1.1466089193892022 -0.5654390248735809 -2.087092294078514 -0.30273337731581035 -1.5308761784642617 1.6245811186915555 -0.6671529418482779
1683 1.5366132886960102 -1.4229278629198137 0.23328660347969374 -1.5395374787401885 0.9274678646221558 0.8331993649630747 0.865517054402541 -0.8695845229942046 -0.7610919206493579 -0.3656295554440066 0.515720152218499 -1.1322903981357118 0.0731993881394185 -0.03724276376569505 1.5542708769489508 -0.41422090971031444 -0.693948005677374 -0.5995653742816189 -0.20779561238534736 0.6167166294218186 0.4351044195341907 0.04498303758516381 0.3319266464398576 -2.335229826754215 0.7691476784051052 -1.7848001970542828 0.6923446815795723 0.3727656956378983 -0.5638777454565685 0.5036664872250609 1.5705904504067587 0.14483005600503612
1847 1.122982282249881 0.8088586556717825 1.0244201514066273 -0.741105126585118 1.0423508671776054 -1.777257118640861 -0.9816405800577755 0.29438341181733274 0.34572772597998147 -0.04915223746212423 1.667967388014555 -1.2133761208987373 -1.6161952076687147 -0.32041470911195213 2.2407880521449073 0.08528368286915333 1.5701534724546649 -0.24080700514345246 -0.7494313851059458 0.5331550040298202 0.012491544974223015 -0.29960961516404094 0.3698591303624243 -1.796317733232597 -0.6776423361011445 -1.5561490594069602 0.5573974237459455 1.2548630104376175 -1.810079773951786 -0.44499609658458844 -0.7083850462325165 0.6103911230127351
141 1.7278015071327095 -0.23541382433479308 -0.2067375995304099 -1.0371005974970773 -1.1056308294965254 0.488518768347466 0.2631133250300237 0.35730672080650816 0.21316522861187367 -1.5294465930379828 -0.2658583754560668 -1.224148665924836 -0.3047395896286869 -0.2383721372188177 -0.18103805526931427 1.8314417407589418 -0.03734754943168744 -0.6141444803647905 -2.059710886153084 0.30993066738334835 -0.6279582863175904 0.0440655584097776 -1.9098051572850534 -1.0422724583175367 -0.6122969591460703 0.8590069728859836 0.23523122828904813 0.6161351495789789 -1.971639000667915 -0.4699623910770349 1.2407943502461256 0.5785585539958614
1993 -2.1947567735204063 -0.05233598216631937 -0.602670293001784 -2.0322556566404892 0.10207201585791033 -1.0138230882534818 1.1533738895658683 0.7588298479232948 -0.4885010596500509 0.29670110024865176 -1.013459247493579 -0.36280323398833936 -1.1404177828586184 1.8591158313701994 -0.021081492917179392 0.06904730929909407 0.21386589846403864 -0.3730100994856197 1.7126921784140776 0.7924142977771635 0.47686387615096215 -1.1137391507879064 1.8034462274076548 0.983647528491229 0.5117890382058895 -0.5837493220236483 -1.6821763534005603 -2.0039447302134623 0.14661314909873222 1.0982773851793433 -0.9402744724242703 -1.5150212142590673
15 0.20004777074751082 -0.523724112544168 -0.3399089810412691 1.1083453808230284 -1.2138229506338785 1.0957211077189062 -1.6685232603924542 1.0617116694937592 1.7174804348485653 -1.1652508929513024 2.226115422309974 0.10011245342451516 0.17878010921116405 -0.32630758979367397 0.7522260958953539 1.4934324156509062 -0.44581408736558187 -1.0664063665124837 0.8022442475921425 0.6098752518913069 0.523012971722931 -0.25497685592679975 1.3525413897802383 0.48994566297274966 -1.0395784766748037 -0.5002605836183419 2.5784350859493337 -0.7745606464266763 -0.289417072507723 0.5184129894874911 -1.2338987135889723 0.8648804429349151
168 -1.9770240926221203 0.9635193434962597 0.23814123270765303 0.7112770307127677 -0.35642461132183306 -1.2850248749307616 -1.6839373648917682 0.24352896545505148 1.4624607107034069 0.4234108979681987 0.04643988895358711 0.1372538517816451 0.6372241598106383 -2.4758846464666497 -1.2736348002217337 1.3745585432930347 1.2924307636440224 -0.36380840418799487 1.8482822381575503 -0.4894851579170378 0.9509681760228331 -0.18816687999294723 -0.3074963133428284 -0.2740109251815933 -0.025266012096888543 0.1231921503296853 -0.2528327811010111 2.369687106994981 -0.3485759457591945 0.1521870343097416 -1.288350776186306 0.3398982735154622
172 0.2102018732481062 0.945207761397884 0.4663938208457981 -0.4646761535092401 0.1622289328369467 0.45333267827363416 -1.3096928645521762 1.11517899392286 -0.9428968634667896 -1.1741681728254805 -0.7224410581765924 -0.007632415314263254 -2.256001209787004 0.6389212274501073 -0.9787059413781833 -0.16947956585346408 -1.1670282198473092 -0.13445924136753803 -0.1615412558693838 -0.8981928127296084 1.7756074019906054 2.2249410868805173 -1.135860987076144 -0.4769182009103686 -0.7297002587515743 -1.3791769927994009 0.654319246361793 -0.2575451591241888 -1.127173143186261 -0.3406148767875579 2.3492722441937106 0.3825599765005001
545 0.36354466404856095 -1.1577115407318 0.6771010658583912 0.1279369477828653 1.357155504112081 -0.7477261091394676 -0.7604249108740465 0.5219637844047335 -1.124705127768367 -0.7982434107637986 1.477816099296529 0.2270759554186193 2.41111059943149 -0.5905856952488104 0.3125153594982994 0.21433854118966267 -0.48885414070444555 -0.2567541786812033 0.25912779813642717 0.12478138486053557 0.012593749132266246 0.8651169790350318 0.13883363296246384 0.24273100502795014 -0.08348155198466482 1.1088161165006545 0.3438709711306492 -0.6062616566290807 -0.23612680746734227 1.7245251599662486 1.3689041686685381 -0.8108953419986842
815 0.2853988343688314 -1.4145451772138664 0.35066345377994224 0.5806222740453396 -0.7378648134437582 0.38800535511351836 1.693929421638493 -0.9158854080990959 0.18935355916868535 -1.1552851422573507 0.5021740211698762 -0.30779003859310083 0.9608697535917845 0.8166296459209431 0.737998260530175 2.875469313605795 -0.6933939431771936 -0.26323282646380064 0.5555262540751714 -0.5086936872431868 0.7708445234781627 -0.5826335756816 1.6584829580168057 1.2635240244646018 -1.0024731529157855 2.390823634657067 0.7107569093860762 0.26482340164932927 -2.5806683559379433 0.5102645646751104 1.1644211261365978 0.26710701033933315
879 -0.5303549606547642 1.1183581613587092 1.134728617847384 -0.5650079799813521 -1.0097633183719807 -0.8889030621717458 -0.4878076844403489 0.5577763247969428 2.172279620120844 -1.7134491920910861 -0.4139293981018399 -0.0991813874874147 0.23471814242899447 -0.10903330435315674 -1.5921693054671717 -0.6837568470269663 -1.2753150079449531 0.5425810281580639 -0.0029164608162062524 0.19979214879960255 -1.4659775647595428 -0.5427286616532428 0.18381944770216155 -1.1089222846703537 -1.127576202264083 -0.11651309776044294 -0.6050627940696035 0.2717357821580173 -1.6583495371547337 -1.0439326773132411 0.6166685890577536 0.3456726934366964
1009 0.47134153987742644 0.913647940050592 -2.039238046005384 -1.1501610704076757 -1.5114652064593657 -1.695969767955047 0.7804840352030735 1.64296936788655 1.145535304981275 -1.1604806304021407 0.34366648345883166 1.313165289292635 1.2936792815782423 -1.5520092019900107 1.7885845872452397 0.7800538369971705 -0.6121877858327109 -0.6334550087066119 0.5079711985979415 -0.5375165474342408 -0.08385139848112996 -0.5701560960109302 1.3022925064144166 -0.8962109623316663 0.5512536372378026 -0.7944736905115379 -1.542604277012077 -0.018379704164437658 -0.8432013265858905 -0.5149505266348869 -0.23303994433658512 0.4315613432358712
1048 -0.7320657312067174 -0.2433380943225693 0.0037400835558211503 -0.31471147973738345 -1.2610297901645864 -0.4153505581066189 -1.0901166911057427 0.4356208204662109 0.4360522183205583 -0.5235402728539705 1.871332003427376 0.6584258678287794 -0.13866426055266373 -0.64475803360998 0.10202070236995936 1.6909853579551073 0.6035995770461497 0.49857581368799725 -0.11219110667224585 -0.25999516912673354 -0.28401164351363284 -1.2824898009169778 1.141225466589447 0.20552450925132815 0.984789339385067 -0.6650268737071459 0.8691576017845918 1.1686173706282073 1.334081836792029 1.297289915749434 -0.9726651294622598 -1.3847465386235187
1065 -1.6040970744524905 -1.9083100184133832 0.9739836663580318 -0.5227418656314167 -1.0685681960834599 -1.347093607941908 -0.3814116385271783 0.3625376495532675 -0.6826425657053052 1.2323925119888488 -2.132203253747896 -1.2314256269440371 0.1522686864490539 -1.13890945363786 0.26796874592401804 0.4271041721448895 -0.316699585071717 0.2546649144847217 -1.4428121132069984 -0.08326249216437635 0.6582147180420999 -0.5222624503261425 2.997970486926843 3.742610240227002 -1.024849216378259 -0.10623986994555773 -1.1477546482065886 0.23564634416726352 1.0126288988584198 -0.3327828296744261 0.9868247039455954 1.223669267395114
1139 -0.16030264423280327 -0.11873680881431872 -0.4648667605089419 -0.5765628423088717 2.1978828615968338 1.7356414545241767 0.542246666085743 0.022477954028804297 0.26388600969852866 -0.13526352772727548 -0.1543728248380026 -1.2132456372140223 2.560146692557082 -0.37616826350861404 -0.358791681216932 -0.9700576673555114 -0.3972295868698407 0.8022814291813845 0.056707572377018525 -0.6887911220509095 0.8969505754743523 1.685194589583113 0.14388002036065278 -0.726894402073623 -0.34588254569813404 -1.2413897432935777 0.04293658052100185 -1.0232775895343091 1.8097940025363555 -0.1934876739098062 0.16354054076962626 -1.542988873542966
1167 -1.8619209545214594 -0.5560646608826957 -0.2521250134254214 1.0241377820552715 -1.3716120025073812 -0.3259901157492456 -0.9697579133574468 0.9331515956642615 0.39133397719797963 -0.467155944610351 1.2008809146885038 1.7180847001243302 -0.9008068432192151 0.5512687830722466 0.6901502856191417 2.245258320798428 -0.280825453052877 -0.8523107719396866 -1.1769625729043645 0.09233058573918278 -0.5463857402323852 0.10256624617877731 -1.313787565941904 -0.8034505733994861 0.14422702245111405 1.6932909172651784 -0.49465258651653776 0.1883410962362537 1.0298977555649154 -0.16564539734953743 0.9878240079901284 -1.218437761724438
1179 -0.3483732161428229 -1.151131851339581 0.9276760783226142 0.11445760403260449 -0.44099410306175096 -0.9985238038436173 0.5350039736599445 -0.6207840613716931 -0.4458314188264928 0.35958302561907635 -0.00752325270773399 0.32401210796774177 0.6278937798449523 0.5458667384939245 -0.3153856005881433 0.9515435120469897 -0.8573172125800338 -0.08840383992795119 0.3329828841223062 -1.1338827241626646 0.2820560717584401 0.5779852996536256 -1.096611380774975 -1.0277846934569232 -0.34955775542604595 -0.2208225265750475 0.4742277043993689 0.21719959928092208 -1.1683602519421161 0.19507472948386437 1.8363799384321022 0.08352931701038256
1223 -0.565469779415973 -1.2852194887260464 -1.1329650266828046 0.45636260602902734 1.287299634376408 0.10601345670172152 -0.3298285551708927 0.7820919931251608 -0.016280896463517314 1.3827582740732107 0.7731181252564484 0.5578615573705096 -1.52309570828024 1.6769636862128832 -0.013644113687103027 2.159646585140655 0.5383074457271217 -0.022135021978728433 -1.6492671839100765 -0.24086905105385337 0.2319455130884602 0.5993508657779689 0.436424393081304 0.4814705686553216 2.463376235693896 0.36054255525752205 -0.5201689241307607 -0.053253298367124786 0.2673297444936597 0.8770775654985662 -0.10242916437829838 0.21792686948471848
1368 -0.24041871210217092 -1.3698579050582815 -0.09649131545851238 0.2828387672475691 -1.7327999633903588 0.27630807127331003 -0.3994573587447152 0.4980589240030962 -0.807640850736799 0.312455964167031 0.38490084309708383 -0.4855978364470136 0.2365265475800243 0.16846899800274373 -1.2905092200134443 -1.091132449227043 -0.1397876782864525 -0.7428998917722768 0.5695806088135917 -1.1445896872310886 -0.994536814187204 0.7424732926903104 -0.4201219214869847 1.2753491277854552 -1.3591740402790922 0.6728034303563135 0.1551352990182588 0.13876375803640947 0.8915484286205888 2.9078913217566957 -1.3689902789604758 -0.2796321537234964
1416 0.7768588999243389 1.2514109619815341 0.9527884563104769 -0.07400510059320711 0.3072778131902794 0.26938290170564794 -0.16030268205121684 -0.15356945816377243 0.1678172143990729 0.8949616803845002 -1.5645572007797224 -0.17887972395574966 -0.3773612074692067 -0.32690008186106356 0.5255806940742007 0.24529028377407414 0.4968098920749262 0.499862691041867 0.9746029151274036 1.104106623882612 -1.1082439691185706 -0.3846317801595584 2.590971736560608 -0.18358320857816512 0.5700258182533591 0.09621595376919882 -0.5597672414637367 0.11113451589057684 -0.13215620289389057 0.42308825122505683 0.48333420582155806 1.4637138282892492
1454 -0.28773854714720176 -0.04542478345472419 1.5573859875582883 -0.9422442083248213 0.565688613861507 0.9480568623756004 1.2554025079807383 -0.01587118177000394 0.02579640122588177 -0.17640557164569784 1.3564344345072488 2.4828403866118327 -1.692878494599145 -0.13889594412158696 -1.043865278451836 0.4939824083049738 -0.7247393923398379 -1.3780365180005236 -0.15329176976942427 1.0581769486801853 0.06405309405406558 -1.1184023966258563 -0.4435741018932672 0.7010115345569824 0.9115464528718836 -0.6834285968084586 -0.6686918041985495 0.1126190706737745 1.6501967920250271 -0.09678551381077041 0.16567986222268752 -0.7006057942833123
1611 -0.4050455005651418 -1.1508613461550066 0.6990602790982204 0.6685444598043447 -2.563706209642075 0.3692627849394352 -0.5580196537129327 1.1369456693570128 -1.0677539732296777 -0.18602227978559352 0.04100687961943978 -0.3119177368587749 0.5573391999420659 0.6335275251176483 -0.6920925966598046 1.4268744923471286 2.065967204982817 1.2677971221776585 -0.08649874797756253 0.2670659406069093 -1.593064377507093 -1.246124171860999 0.6397232972880458 -0.4431409550506449 1.6500702525148927 -0.23626051636701342 0.5143362454419376 0.11303671636721023 -0.269905222609476 -0.015159454234178799 0.22499194984424503 0.14388233173158385
1664 -0.31016800021545654 -1.3853514494518893 -0.6368039628161422 -0.702138401521877 -0.0079612055768398 0.7009447443088447 -0.7151283777558493 0.9537163317941056 0.010456427850724058 -1.290565051292428 -0.5902506762382426 0.8843883349115288 -1.4727019330215354 -0.8029319906354878 1.1942638916056463 1.2304877442984812 0.3163889494864048 -0.41503372767757546 0.5625827265703156 0.8414098336965999 0.01755732079313132 0.009399580711381104 0.9508576179247649 -1.1058195523934455 0.21655859797487245 0.1762811066450688 -0.8188173781963922 -0.2665841061308467 0.6206427175144472 0.5845413730244374 0.40726288752647916 0.35008847536889687
1686 -0.9349854656902193 1.526979858614164 0.510184517533633 -1.0328487200881609 -2.0266783143866425 2.4840723101617224 -0.42188665071923764 0.15941523395158969 1.469331805461778 0.9063370922548972 1.9574053725957876 -0.2308724441260154 1.124960231549556 -0.0791697254639968 -0.5564992978219622 -1.7383576246907333 -1.5523535141200793 0.28261844467861136 -0.11231229963502795 -1.009983449798857 -0.035977664761011094 -0.18144373162368665 -0.9727197622559176 0.9142498054598238 0.379729851292451 -0.47871197207998256 -0.6057720959147606 0.12465510896810382 -3.084923913274081 0.5004358846437085 1.8230174300222544 0.6657996273299773
1703 -1.3306570167080645 -0.6835319495576611 0.2465245839021297 0.16294361557980988 -1.8858036541431649 1.5093553614762663 0.3909562303955098 0.6345081506721647 -0.2791949638402298 -0.2387810238594593 1.0675448403502112 0.28160196708346297 -1.7259102980913301 -1.6934148470005945 -0.34895216182098454 -1.5212635270809463 -0.8752121693033168 -0.4354815434473597 0.0921997374070632 0.08160729987944668 -0.9742664705398211 0.8508939701531643 0.061890914036131846 1.1407975904612615 2.2158028934104443 0.01621382777274864 -0.4559241595018748 0.8134153828237068 0.7960189599693808 -0.6046222535616622 -0.9442274157891527 -1.309633283168421
1710 1.745432000578956 2.053222796668404 -1.1217855372673609 -1.3838723682034688 0.24219227958239323 -0.018286696293439694 -0.004471210069056569 -0.2933787321781588 0.5126987712032325 1.1701295073251945 -0.6282516463408349 -0.7871178419603455 -1.1787751384272687 0.9118310104381969 0.3601047716898539 0.33420228553369724 -1.6773402629201126 -0.4329017232927845 1.618115708114894 0.8266553791650263 0.288870549996931 0.5233897308996048 -1.5295585511034817 -0.23485288526487916 -1.0223624422801605 1.2031033658266157 -1.0099989476461757 -1.37519767272638 -0.30222138713217117 -0.7319449587104351 -0.812217944167438 0.1812030287553142
1714 -0.5012299853137745 -0.4584450915314333 0.5582285582342724 0.8406514836434488 -1.5210640885461568 -1.1086592171917784 0.40836058636496425 -1.1113055976074135 1.6234874726331328 1.991281891415943 -0.40910396691342304 -0.14191977989511947 0.7276157949748927 0.28331091540291675 -0.3422823112792958 1.2247515334551646 -0.45275418790813465 -1.4260699501003498 -1.5659976926764443 -0.03721602334183078 0.5246927541160399 -0.20719624958395313 1.6086477822508725 0.004465269646171695 -0.4575821229990221 -1.396057373597356 -0.18102694981983453 1.5514216075748157 -0.21278903946926778 -2.031676985718485 -0.054941338646358355 1.9059878041298457
1737 -0.4581491921005189 -1.4629908675395271 0.23770460893556733 -1.1277065904911063 -0.4773897503495572 0.8918396886080346 -0.9671792456616471 2.991362752060823 0.02021847012153571 0.15675548869930236 -2.10293429774899 0.009980518057656842 -0.7616809002955081 0.9566581430064681 1.1552564113844725 0.5084928187448103 -0.2552467751757372 1.3211136312902048 -1.595859518255844 1.0696897154436558 -0.6076834769646756 -0.22116123596168893 -0.6959401193044188 0.7537348384331334 -0.5141185756285435 -0.028051235774709037 -0.9308837696225206 0.8966988659216997 -0.07718961443765827 -0.13704096214708067 -0.33358379804478694 1.4909927775879224
1898 0.015460888127141406 1.8979945753677012 -0.16547290729267108 -1.2159935444267742 0.4266352914203243 0.9646078291000711 -0.41346536555757313 1.0386001209927347 -0.3260501554651571 -0.41043158953177056 0.18905956250711498 -1.1210290639118057 -0.7071641612289952 0.2003515443084119 0.6404611955280446 -1.2250525562571712 -0.3390324875781396 0.67375240616209 0.45100615607967354 -1.4837364193005176 -0.17313594916550062 0.006209776077190422 0.8366033927672014 1.186757779529812 0.20192924957150193 0.7288346512846676 -0.2780884864857013 -0.8720325983666039 -0.7072588992264836 0.9047701683596442 -2.150745746120603 0.4214890149864018
1966 0.013682115262408059 -0.8012603515877202 -0.5107480092383515 1.0253437466591078 0.19567467745293946 -0.5037231124642746 -0.7653253369953323 0.026062068958930446 0.6091955522580562 0.3045501329025087 -0.46339712400969013 -0.1116510889309155 0.3261646142405535 0.6724816857952445 -0.1627906946159298 1.1344980621966314 -0.03346233716640501 0.3009904271355159 -0.8741557413897317 -0.8511134016307272 -0.5759891433956906 -1.1971462987510681 -0.7528077423325245 -0.6598584336815825 -0.6684106930783563 -0.7779291320353038 1.7986107194854828 -0.7701465280379288 0.4310597130986649 -1.3058056299161125 1.3232423352086182 -1.4127305606264056
2044 0.7623518394648557 0.007744090831926792 -0.6557418859078992 0.8351620455551325 1.9976299207615402 -0.5528691819783124 -0.3425175880001232 1.6344415593103914 -0.698015833603675 0.7671030840604711 0.1217479145575166 -1.3758828503272644 -1.354606605740746 0.5127966390491924 -1.8747169408648428 -0.21546491056229286 1.0828949583224396 -1.016105992976566 -0.0237463810912721 0.4980352039534125 -2.23315293768793 0.21757607508244792 -0.36748884664909226 -0.15619939253995851 0.4026803754240061 0.8207027660200514 0.8990550041563888 0.5627917433501121 -0.4255814473820003 -0.06617178145607693 -1.5730865075267815 -0.1818942111845067
2045 -1.1830525839619868 -0.44596123666459986 -0.19301902820798109 0.8844209877877375 -0.7356387902542008 0.8976811366797127 0.296423361796578 -0.6966041605596082 0.36274545113252693 -1.0420655179868863 -0.5034838545038344 -0.7460414432222323 -0.2151887261738869 -0.3880771172050806 -0.19602743732655845 0.23525608543565502 0.15115552549654382 0.053404718970811754 0.9417398082860846 0.44882700768651423 -0.7518792686883119 -0.23618690724230318 0.7960141166372939 0.47118201699163176 -1.361858166637123 -0.4091001594897507 1.4637793464059672 -0.7117277812063048 -1.1279557630357757 1.0398886177687225 -1.3709048183686603 -0.5764566286968705
2096 1.0461060372149396 1.4196632130301166 -0.19954086325348896 -1.995735877464972 -0.8960246536689085 0.9684516935549766 0.3291225067295453 -1.2349176944784934 1.2599708866680963 0.23185092825985265 1.6802893572345432 0.9380462810339444 -0.29316414059052415 -0.5541146817851323 -1.348949795300379 0.832789298193779 -0.4348869399079994 0.13519691120982566 -0.2543332182244697 0.9367038480165742 0.25421688267955367 -0.27242169807048877 0.23027452367812803 0.47266161648609223 1.552027684895701 -0.8231506317597035 0.7865833753733248 1.338624986906179 0.05911928553314201 0.7583424129643956 0.11505599182086147 -0.22463565405107483
2182 1.3245859292693987 -0.4525780650998646 0.27494779684777526 -0.2114648783515001 1.343080496719469 0.30807124535607117 0.08537437984680571 2.169636787903163 -1.956037008409649 -0.2323988391356191 -0.5613297619647323 -0.8619926489297552 -0.30808648369214187 0.3414996897127812 -0.640794651553928 -1.455836410883308 -0.10083890796673951 0.3823826221351726 0.35268738539438643 0.04904853658078041 -0.8508960032007112 -0.8927546552850439 0.18172733276922814 0.10308686741699438 -0.7583996410794364 0.025512673866303435 -0.45022530482875595 -0.9263550077471963 0.18251289404595067 -1.706008680745917 1.379908148457519 -0.23270976714626065
2596 0.8982842157363341 1.2966181223106046 1.190714431484613 -0.12845067895334958 0.22081279016720903 0.8698884662348915 0.30946361290001256 -0.3478128681712402 -0.19661862793415316 -0.5100051965435339 1.3943870826178426 -0.6568609578487382 0.08505299984849671 -1.1580532541600965 -2.6929748588699236 0.6004682353016764 -0.9501352085204704 -0.123436325824522 0.3209450746896703 0.8088454767760149 -2.3932830319846743 -1.0990802628568779 -1.0070549214931637 -0.9492698044123631 -1.5325946277204405 -0.6037314344710001 -1.3108110780767044 0.1299973815970797 -0.21696504461508173 2.126951091374013 0.6120722971787392 -0.1879970471046077
2611 1.1921966478220374 0.48253157416574094 -0.7100615582131121 -0.911996502943744 -0.6413915793356304 -1.2383352999915676 -0.7750530285796541 2.326973273664676 0.7679669229540043 -0.05163055307829743 0.4036100011552705 -0.1435403073719346 -0.8638400887436765 -1.629224890048378 -0.5900142871720903 -1.106148262441701 0.02949579347305889 -0.11568870076982579 0.6509877822029142 -0.5101804029847333 0.27484265466959823 0.04980786707706227 2.0485763515123736 -0.3371634905574801 0.6694115291553845 1.035776143802658 -1.010779117075791 -0.50747911840272 -0.23604129278190028 0.0260966557935483 0.5573155684267258 -0.6000448754773939
2745 -1.7225485711793662 -0.46306405040926757 0.9006111447167879 0.8127808728860533 -0.5279916890332466 0.7653289942172776 -0.07234075132033585 0.6815437597518915 -1.0512479256553717 -0.24671356917034334 0.5077791911544333 0.01878475024690301 1.179685516479445 0.6519852205072602 -1.1897653475990604 0.137868113177246 0.04754824657415818 -0.9779642718531107 0.6972278874872314 0.5981285079470502 0.004586634429375641 0.5416655509726974 0.6881094221964288 0.10712401328385701 1.1278571357630953 0.36027408133354855 0.6795636507913002 -0.6817223609744695 -0.5115418746638329 -0.09667234030196131 -0.4687407973071286 -0.0376244478342004
3055 0.6989899130784064 0.9606581164656309 0.7936560921920484 0.32613468574211985 -1.152834871216254 -0.4468777160884869 -0.022129915734065912 0.5009243628476161 0.5529193032839064 -0.1768972038823502 0.3744291652573305 0.25426581887107125 -0.008445655891569996 -0.7263581849842985 -0.26300457779198694 -0.034063696335196014 -1.334595816361805 0.8538298688449695 0.8233909064236564 -0.3372648003955697 0.077698400305497 -0.525688147876626 -1.419035298944785 -0.8942673237960613 1.1355099178732906 0.830784642720859 -1.7222962834118993 0.38972560663271344 -0.3632356071450336 0.2566056808038816 -2.151036733318096 1.3726986485696562
3114 1.2755472903909015 -0.86897874868537 -0.7285669351960781 -1.230918656501263 0.025766819264786557 -0.6488517676043011 0.5788367118311055 -0.3958420113064406 0.6812574433342131 -0.5870177017575744 -0.35704166964372985 -0.4370376163759751 -1.0309795645876263 0.8583758015631605 -1.6529829084496634 -1.080460056220125 -1.0718024779507755 1.6952108231527923 -1.4398929677768337 0.14730156553880044 -0.6453508675081185 -0.8315631986469701 -1.2312348354955056 1.6492960150218423 0.6719780646034761 -0.6772323006542009 0.3678662629388825 0.609422614985237 -1.113673579335149 -0.3828244324902131 -0.3352687698531657 -1.2772597011723337
3118 -1.1017617526367296 -0.9230756536575396 -0.23341120863714995 0.0784663094365146 -1.2117541497745268 0.939436183093665 0.04551344700593565 -0.8262375222108108 -0.8859330815317291 1.2025315277822968 -2.214902977943825 -0.11097091502837941 -0.5927481923849115 -1.700396582420059 0.26585003102526716 -1.03474227603113 0.93193015878105 0.762266697030714 0.6021099259969115 0.2535253331654206 -1.7549017857571432 0.11992777187629326 0.2664312191933879 0.19463759234614006 -0.4584607885151888 -1.2099931267538493 0.9922231738212667 -1.2161499468018864 0.3132594494255137 -1.1820876315982514 -0.2924595466308292 0.4304842156317979
3244 0.5733713782017952 -0.23539080594063488 1.9612116319525656 2.7570394865521277 -1.1497063840648514 -1.0253003322616614 -0.36693796793762407 -0.4690592297053669 0.511718717873017 0.9284068047870657 0.046249087473977823 -2.2361840854106423 1.394599920131775 0.1135291053216806 1.192090790162121 -0.24191513124150268 -0.19899217595936924 0.12028156975720598 0.9363547867282392 -0.5474356078637993 -0.9065972719894606 -0.31803031179397206 -0.6177847261582677 -1.353861350803682 -0.20475117732413428 -0.4037851889888589 -0.20739547129447494 -1.0244606629075421 -0.3674826856026494 -1.083902577176914 0.8141639260243799 -1.1335446297221334
3408 0.06605005266736494 1.7813912354191184 0.32656183338342665 -0.3321296941298701 1.0491457544838843 -0.4066954087729425 -0.5759566195511003 0.6892636222607258 -0.2899286424933763 -0.11482428685126213 -1.5559835508671438 1.430532998799247 0.3148728265907504 1.7960328199515412 -1.7595121197599266 -1.2987464677674254 -0.7563526868561072 1.212893790076315 0.646134189772078 -1.0391384378014037 -2.7214439854070394 0.4034383876466112 0.1494408777936228 0.585256885604808 -0.519472336124015 -0.6294922212696606 0.20243679520734414 -0.6855433047558134 -2.549621484386794 -0.43303248037565883 -0.6642688459097967 -1.7837110204029039
3722 -1.495224416858652 -2.0974745942701745 -0.4155198423061004 -0.6457217069489732 0.08312502175391728 -1.7536947966600476 -1.2450315452446061 0.9993609218205672 -0.8457915051251685 0.7811493723784737 -1.1343053457234695 0.4404414487251798 -0.9924465786198101 0.2788208316569432 -0.08773309089301812 1.416430004938495 0.24625011229620833 0.31586143626233204 0.18854168671875032 0.8367047079414651 1.3461739455678938 1.0747501340680743 0.5706504233849627 -1.5176072642512675 -1.2770924706081848 -0.17268964680144877 0.24442148908783626 -1.0624832838331133 -1.1617161819147954 0.8500582952317455 0.25867571692536423 -0.3979539771199844
3850 0.7606830827464273 0.7610976296383681 0.4212920870432727 -1.7293780449195648 0.1552581426002484 1.09925741761203 -2.2342997149274852 0.10809062305184433 -0.48315924952419687 -2.0605947006848337 0.12333237727881859 1.0267268364470385 3.0863501237060382 -0.8391082576916264 0.904632818591042 2.8485562956859054 0.17950249536346097 -0.4948880075688983 -0.7468102969621538 0.13456920953202683 0.24934892451791552 1.0089904085970263 -1.1954900140386633 1.0583057567852001 0.01248965777014188 -0.03048911152645665 -1.6646421291276308 0.3694393294684281 0.2379981087217503 0.8327741131125967 1.0275143069278898 -0.4737604416001775
89 0.026303524056867127 0.5512307633562984 -0.22753930189193894 1.6774338257660761 -0.6345363083668192 -1.1417170760289315 -0.8837630534660682 -0.763906586239438 1.1720383424853085 0.1667671938179446 0.6940884476628851 0.04107214476335503 0.22870679386397272 -0.053715972720903 -0.8323564382397034 -1.512331615609143 -0.06941233809729523 -0.21271737479408212 0.3335594544303435 -1.7723799325192295 0.7675158567335194 -1.6211756409957425 0.03647848950975078 0.898010388512236 -0.5169457313698409 -0.3064778330719897 0.298508214407759 0.9344516690842375 1.9911343766186878 -0.1638058581073041 -3.332958636383829 0.33747773795184566
403 0.7185955145580962 0.24800843982929108 1.110058039229403 -1.4579905025373214 -0.044372080181040566 -1.2895592369095814 -0.12080848993294846 -1.566455671009993 1.2521422381522853 -0.7844947275852571 -0.3896065657759764 0.2917564295455804 -0.6715640935016639 0.23281133143884972 0.9969606982312433 1.127352393124895 0.27952457528702795 1.4862864513522223 0.34366204039723336 -0.29326210499920063 0.3928460848024142 1.8822959478429642 -1.2868036259796245 -0.7496005533236079 -1.213534323382829 -1.2308011856396184 -1.0983476814371451 0.414528442998242 -0.9831113285476509 -0.16268479698074817 0.09226201660829664 -0.2043617846335199
424 1.8470711858369533 0.20264362620176016 -0.6272161410502125 0.9777882369110574 1.177779616518247 0.32161583143267686 -1.297155506766914 0.0034305825742008095 1.2767198980117531 -0.33034890760292934 0.05403883466906258 0.6268917499962285 -0.07764841513740267 0.9229019378257429 -0.6357055502199694 -1.2337771031679363 0.7487574272886093 -1.4084716466146132 -0.2718097546170843 0.36464025070652306 -0.30524708675814843 -0.622417677611635 -1.283627358632716 1.1623271118608236 0.6018308253635535 -0.6734040415025898 -0.07647458415011904 -0.36330767597057845 1.0928142609441414 -1.2109948557765158 0.46538557457978014 0.1715978402273381
584 1.4684858168552581 -1.7955919010358534 -0.2682563727974828 -0.5996921497020813 0.376141031025547 -0.4724020562312701 -0.8240304203411519 0.7124997949141868 0.6459404662386806 1.2307304220274675 1.0920255482388788 -0.7119877351144546 -1.2843355705576651 -0.9719233436533777 -0.3613400727044032 0.2915339046542764 0.2945087678774517 0.7711516692174409 -1.656926699655388 0.9672917377491699 1.138748337075896 0.4239569468255065 1.7958584132319306 0.3689446154747574 -0.09832873912112414 -1.0524278223606793 -0.1359450868313785 -0.21597331451707466 0.23621457193157455 -1.8720226168392122 -0.5636749099025844 -1.7597688238584634
806 0.5224276497901089 0.3178748214385009 -1.140612593633599 -1.1005892349885158 0.04020182947441371 -1.6409717571886324 -1.3933598046866897 -1.5799799397465535 -0.5690986988446725 -0.041908002657633635 0.8971075925113372 1.035566556821615 1.2225209153952772 -0.9379573960947787 -0.09207120191366507 -0.07043509283389751 0.5306158886565371 0.18863933652303522 -0.4116495234984564 1.6498089894090406 1.4415367988721708 0.37669399084887295 -0.29090088158476307 0.15823566625964086 0.15824915220264332 0.43862271485049176 0.42214648318779063 -0.5996551179877775 -0.43419819316053976 -0.9242554179942312 -0.9725988891086799 -1.6452302220118766
1015 -1.1598377769948371 -1.0347131218644983 2.3034911051356626 0.3523244989269345 -1.3185260607788258 -0.060896175011399024 1.2179863699674542 -1.3995650307754959 0.40954831060612273 -0.17150713612151383 -1.1793628786754196 0.09403571666048499 -0.7403126405973218 1.1156597662387997 0.703078161951273 0.7317218697632819 -1.529401289333624 -0.6084138919687497 0.6448556048771568 -1.2586533334848935 -1.1132385818779713 -0.1420020992089101 -0.907371048936596 0.21189801532981173 -0.4681147329312331 -0.9427850739303588 -1.427857786715756 -0.7986866885970075 0.12766625962146186 0.24366050848379173 -0.7629418957164288 0.7357153800523399
1120 -1.1871451857994628 0.9469613938746819 0.2801513454347308 1.9826104547393868 -0.11485468707353715 -1.5241334832596058 -1.6453680436706197 1.0782134460765447 -1.5498757276680808 -0.6541561497940948 0.599932427329341 0.2639007531967889 -1.6169229718017435 0.18717564061798725 0.4039302961876362 1.1568858043852426 1.262586872378689 -1.5439690547898608 0.9445622156133403 0.2380560208765088 0.6417362523692519 0.19628518561055108 0.961384453453968 1.7253859062927008 -0.20485143864744523 1.2317160709656705 0.2620288816230031 -0.4892481656844702 -0.9594801919341336 0.5281029128609482 -0.8922588577908325 -1.5221465697488423
1206 0.32324949246946305 1.2136144820666637 -0.5486931819548346 0.6625927691983413 -0.37820883365297125 0.3355565274579049 -0.6650107474993394 0.43726786214148833 0.7245121876725946 0.3428696788264981 -1.1305529195866004 -1.2345825355276878 -1.079925147644996 0.6452389388117886 1.0534657777470056 0.5721190705182139 -1.4657334578889416 -1.5078784531310256 -0.34103276732644966 -1.2887102453321082 0.17697273434714839 0.8169074370594012 -1.682975992845785 0.24275302412351332 -1.55354860589226 -0.5546384140543948 1.3306235123371857 -1.1033569643803782 2.668032180841501 0.8312730026126499 0.029102799521820457 0.9363762674115916
1367 0.5270300600789655 -1.6239718023090592 -1.2090583770796566 -0.7391238410900695 -0.01731099224135483 -1.0913920461837203 -0.03600695993275626 1.0920019836280093 -0.6090583938337513 1.7171328988687358 0.8065546820177047 0.21002954450112102 0.8126038381157886 0.17678402322432082 -0.000300409373519949 1.208271682947017 -1.4027046239577974 -1.4510256277970055 -1.1185295790585132 0.8095485633541765 0.061634723555691405 0.3903688453056387 -0.29257379546668166 -1.3264135332355869 0.4941978854544482 -0.14509140789192726 0.8524877447378109 0.4938515796926353 0.08395982033842385 0.27232551308805003 1.7620437929252335 1.767914043871169
1745 1.7352891440700458 -0.7937872124776286 -0.5925892930505364 0.33740881765982617 -0.2710403480628532 -0.21931053346335277 0.34535407344339 -0.3076805628169344 -0.5574739567572139 0.29999392814644704 -0.795770315560794 1.309970837391951 -0.5449234297123472 -1.0946933665801932 1.2435089609976402 -0.9390033428263131 1.0155293745332283 0.1455695376216337 -1.2334032030576312 1.292567461141267 -1.112430440045222 1.2316188724428627 0.28598374320477077 -0.5263289525547921 1.2402255326194527 -0.7019369995965431 -0.8403250769954932 0.25834997536460935 -0.41630596515113555 1.349664866545598 -1.3448256418444855 -1.7590127150761417
2184 0.4456989665898978 0.0019139578128658204 1.2296896701865825 0.21249252340076977 -0.5568046210119614 -0.24551032810515575 -0.3669393435087292 0.5247745072792289 0.1433709241292056 0.003304609296683317 0.022074198598880358 1.3127563873953707 -1.051977173508878 -0.07452503592729415 0.8737262795964108 1.3254423327248759 -1.3986736730260774 -0.6210231609085033 -0.9438038320550267 -0.25937330298060424 -0.8721062046731471 0.856153545425655 -0.802437465733552 2.09166247058076 -0.12901378681364026 1.6032941790359063 -0.6399885448297326 -0.35835788002347624 0.4176284755627001 -1.3288663123210085 0.5074925146384084 -0.5642626209943937
2391 0.029687823216835805 -0.1301796324728949 -0.005417197902678529 0.27480709870959585 -0.8237393586652231 0.6469611337739969 -1.8485571282162254 0.9469308258854449 0.21724866836692966 -0.2375718523995856 1.722924600434861 -1.6729729878358288 0.8875668941190654 0.6941492999529405 -0.5477356499486901 0.7677848986251434 -0.8613229772019735 -0.004970338852027041 -0.0504274920547063 0.6931312097148055 -0.0849715647087292 0.7178523731275817 -0.2794715272297128 1.432719946990201 0.40870488781758935 1.1997957666522787 -0.3693371601686839 -0.278542749289634 -1.0503249793427811 -0.2334381232318576 -0.6913332398404792 1.1516611801682768
2514 1.1460114273788478 -0.6769019488755355 0.11618426517354108 2.0621992281284407 -1.1601611470498525 -1.2949920135741815 -0.6348962657280957 1.4341584771253484 0.8617599617933093 0.10042466464299041 1.4260028320949003 -1.03870491832786 -0.002272890100331659 -0.8557604051864346 1.3197806914089198 0.6746348039299943 0.9673744931838192 -0.41071795493895447 0.9930941288559855 -0.3259104088334182 1.7206748822006452 -1.4109273924827044 -0.8967244250141562 1.5937192942834075 0.12066460207022277 0.5240970631040968 -0.9277150359832186 -0.01597979876304765 -0.7925229460804792 -0.3312752362037746 0.7401219602360933 0.26941782899652156
2706 0.9113087873492389 -0.10856785296636111 -0.3335281643071206 0.7614954170906324 -0.8106925270113664 -1.9333987579559293 -0.5876683462090754 0.3907598078941446 1.0877758609314336 0.28270114185120415 -0.3877938484905475 1.3249027170893184 1.796020148171991 -1.5909712279393515 -1.5792579920533147 1.653981823478699 -2.011710917742747 -0.47002307748214484 0.7051757190881983 -0.6078257865694716 0.1402077570877833 -0.7566599616250878 -0.4904892269624921 0.42240268758075533 1.4929536519108522 0.46619274862747273 -0.04390130433135716 -0.46261820328221626 -1.1934245458407307 2.2794764178599216 -1.3177850640627171 -1.279907150096524
2784 -0.22247041941106235 -0.967672296527345 0.5458585620004958 1.300331766279721 0.5112771104703295 -0.8258970489567691 0.5982174271128555 1.624195871609349 0.06948023576918874 1.067898113254264 0.3580422990141818 -0.2565844813442119 0.8516248429903667 1.0267706179004672 -0.2250021106302751 1.6279292743344205 1.362327343564959 -1.230129408599637 -0.10397191344285932 0.9581056386206578 -2.318017022148749 0.27680638596476054 0.7237232278658013 -0.5952728418745515 1.5959812545977388 0.7649160368839756 -0.7949866709912885 -1.9405967667943185 -0.09619816035177857 -1.523971287374631 -0.5046049528218989 -0.7415606191429736
3133 0.7802881970898491 0.605955871432201 -0.618360017945973 -0.07676277472308035 -0.23243164975038294 -0.8019897544485566 -1.3066253881341974 1.543353247193939 0.7447778082765742 -0.1169333303385999 0.7737289900730344 -0.3953309111330789 -0.47324735231847437 -1.3993710157015835 2.9288255614128955 -0.5314102855369659 -2.4324242055825684 -0.10255908489378947 -0.710819678315959 0.37311798899237436 0.35292319127033084 0.30779878589690235 -0.33748168161891345 -0.4704789090057031 -1.508690304249272 -0.1339496438921925 1.2282629325581897 -0.5215450040285019 -0.16227914453657846 1.4293197397622754 0.10159299700220635 -1.5112430650682496
3401 -1.4544666367086887 -0.5867277389125641 -0.06241665228299078 -0.5487939526917445 1.907042736237371 0.39921124101602845 -0.409202496906861 0.1022462501048393 -1.483085828798421 -0.6355618148177212 -0.7482352074240096 -0.5488914887081333 -1.0279133655740296 -1.255525724894497 0.5734909845566353 0.20759223688265424 -0.5928162661729885 -0.6320164380803718 -2.3120482279838503 1.0197722659435429 0.21699556633100758 0.28678627428592396 -0.07026081614955815 1.488805076095639 0.5045893188554958 0.33025280330251205 0.07616340632638488 0.10086235419430849 -0.538812925286409 -0.9713929170368978 1.6481655063662413 1.5753289134570387
3534 1.4225193555727431 1.0339746492762412 -1.0053787740596862 0.43545165492319826 0.6957608822981917 -0.7718668731045936 0.5674155082501946 -0.013964019566210033 0.45785911422238523 0.7596138821026119 0.822980364436396 0.07465890942816063 0.13558331306343968 1.1604855469428461 -1.151595272722205 1.8269083229929435 0.7548334993729817 -1.057692681147656 -0.5828581601407397 1.6630863343979219 -0.892182177463261 1.7931235456973162 -0.8585238724346606 -1.2598449040793853 -0.9532346196075153 0.6323879715434377 -1.2257391597655118 0.9241782475878989 -1.0938018926279818 0.565926744494292 2.3275238692800957 -1.1165835165090066
3565 0.03437892208733439 0.7341400271759052 0.5175859781031129 0.33289312777380436 0.4886282404695678 0.5150003623377877 1.8959640298240374 1.3951937368833789 1.0804279899818467 0.569137820343343 -1.475214298088335 -0.24793421862999732 -1.0654503871916 0.805664450858637 1.8360940077223298 0.46807257387707596 1.2454273164499525 0.4953656623813657 0.30805832146643464 -1.265806962983501 0.18800933309870885 0.6106523472112975 -0.4532715604187907 -0.9627347783286127 0.7197373825050986 0.36932954013720903 -2.0417285485798096 0.5840227813165564 0.19063822688075177 0.24661349868018978 -0.697407229638973 0.9062636111077708
3685 -0.027345516406580662 0.5476980622525308 0.8653845256161001 0.763934943697951 0.08876976765894522 0.7058475507991832 -1.3817351074897632 0.6808695956766627 0.7383549083984885 -1.174348473860504 0.14506081472770438 -1.8920150884357467 0.21119402329287412 0.6202721699285358 -1.5308016635758985 0.31145888081132134 2.46425900464556 0.8902148382923761 0.5811249450905923 -1.504610835962811 0.027539987900590337 -0.5740701247884669 -0.046871677015059704 -1.5896707794873912 -1.6317752496990705 -0.30986995278266466 -1.6674547753027826 1.0064998863566987 0.35745814494253475 0.35781276599062756 -0.1982771609595548 -0.23318158518152945
3727 -0.0030004223428729713 0.0016424849092212142 0.37864162211178726 1.5887547645392528 -1.5245906926407944 0.8964497734665543 0.6090421148959817 -0.5358829279084807 -0.42052402198087474 0.687555237490128 -0.19855742838168383 -0.5694125184354185 0.4688524848177367 0.39447960965574713 1.5305678398726377 -1.234109772932441 -1.7019768373615511 -1.4294519351240766 0.8123013009897457 0.740074631515467 -0.7188602035558019 0.74602323017032 -1.0695930029438443 0.6847666892397515 0.16475479585303524 0.6720588665589238 1.4263489926148665 1.3491226172751816 -0.4663823766797719 -0.2505580135166869 0.4506619492011399 -1.9773267799100922
3758 -0.28568938497846297 0.9348336170939443 -1.328522759319294 -1.6282214888161493 0.6386651039351304 1.9986485189176673 -0.015612199055929088 -0.0851673534999367 0.3005684364960887 -0.2441523190640442 1.0077532547002237 0.1978724665644736 1.9574274297890863 0.0833613597675115 -0.36317245449532 -0.5547204881734672 0.4278055304134274 -1.1714733012995335 -1.7384636695950662 -0.08704706430664795 -0.26388826852538694 -1.3345688604255896 -1.556046958424705 -1.5319863098423623 1.316400481548737 -1.2544124627156132 -0.14632174799120565 0.6255850723990568 -0.29095062965674573 -0.744137507478759 0.6123878968901456 0.4157397438856524
1096 0.8466804952306592 1.2505284989162462 0.9593870282229875 0.15616163447332893 1.4938575273150603 0.8040378024982268 0.27760902842903484 -1.036980305251663 0.7950599723741667 0.3542073930802948 -0.15103615949610388 1.0088656238920526 0.05827782023821962 -0.09052539802352118 0.6139174566063547 -0.6620019182445712 -1.0186573506949206 0.10284141829560119 -0.855962718561102 -1.8480389148920047 0.5532359425558964 1.1264902216351498 0.019934648912451287 -0.45817084833946975 -0.18366595689159376 1.2404587732488666 0.5663976447702741 -0.31159434122456503 0.13100246948261113 0.03956353830606005 -1.8159842779334452 0.8453289630884934
2101 -0.12280319426272321 0.6363561488455692 -0.6937507753472347 0.7979782465233062 -1.1877929006418935 0.4862357493291962 1.2115492270374124 -0.6415083078411538 -0.3805537941622353 0.3227391534518857 -1.5541690058733824 0.8792686311800388 -0.8164312937958728 -0.15489705152115477 0.9562523216318563 0.5266173995472186 -0.5640953959505572 0.3205836353171364 -0.44058570760985505 1.5442550953524967 0.19374376163289464 0.46753548382933324 -1.6333339702658698 1.648295267762205 -2.172883842203169 2.012582705639138 1.3350266081014157 -0.6355855884630688 -1.5123029185725692 1.7159628733234458 -0.17239606295755835 1.0535150135594173
79 -0.31704878962057353 -0.4546271970123446 -1.737191696111677 2.5623024931467784 -0.217267024443457 -0.11479071718866654 0.10150426736787893 -1.0482154961663437 -0.8271566523709303 0.5839479785784544 0.29899516974723034 0.7476789186497468 1.4817193247281666 -1.1961298869444048 -0.41883804122495377 0.9180902857704457 -0.47521359728059187 -0.056688463514146546 -1.1828850635662291 -1.0145664024237497 -0.9849771256348684 0.44899627671378944 -2.795574280633249 -1.835678980798309 -0.81468349572066 -1.149704252001352 -0.0839897126589406 1.1338457061669194 -0.42756464399310934 -1.064252921959665 0.5014708948009519 0.9937257481691821
3 0.23530324424671842 0.2288298367819001 0.4074159600802284 0.8191505906476457 1.240073907698371 0.28009681615201165 -0.07445357543119394 -0.5626350909257988 0.7225777766294039 2.189875561782186 0.6496887624375214 -1.375683527090737 0.2368444787801346 0.25994392942519984 -0.7590345218412985 1.0011423933155872 0.1476761840402947 0.6421798329416469 -0.5923946985564353 -0.5636027367471191 -0.8144148115547862 0.6758084284170655 1.0092582973115363 1.4752897878503357 -1.7013770919114481 0.6764485852308694 1.4469499747714973 1.7344807788633156 -0.5562068665604641 -1.675765360696562 0.6977553728179434 -0.736144699159876
460 -1.393748996861463 -2.1007480768944076 -0.33107085781182644 1.1736799552529391 -0.43292653600646064 0.13659508982114532 -0.8186898253071966 0.4946213898478276 -0.43081142163756503 -0.2098259758598713 -0.2941224471821513 0.05782984832065721 -0.8619675401316884 -0.20724541002072186 -1.6785646338581706 -0.21641509031816686 -0.02447844617691365 -1.5740837690332274 -0.42781890277379736 0.6136742701756969 0.4967211102506565 1.2977543701958194 0.7176726847960974 0.30057280702788064 -0.27450622992638096 -0.772164027469752 0.8002600847518435 0.18177764851695355 0.37925120841083837 0.7920830751618086 1.4251285736626103 -0.8432771466557474
541 -0.22365032901373322 -0.8766400553281612 0.2085084864939847 1.1663213018484082 0.4102948172688413 0.9547343716737007 -1.3753113563268957 -0.006401823626454122 -1.1427728580928072 -0.3206206416878421 0.09831578292773989 -0.130434049670949 -0.34355505530409414 -0.7472877925698856 -0.10075743354993733 -0.2685119423372212 -1.1020184630700518 0.4135603918137979 -1.3352951651355924 -0.6268745988222367 0.8589739294168851 0.4643490933764628 0.40407060320063676 0.7378653582073577 -0.3344080993791847 -0.5471928392518519 -0.13246504088118535 0.3969298680907829 -0.03333339257044427 -0.827881044416818 0.019664285130899576 1.9605581692609997
736 0.04323337059892149 1.022020887156675 -1.4407891770125245 -1.3368741708814065 -0.7876090518426302 -0.130101017613376 1.7515345776474065 0.6864912401840549 1.6747659329340345 0.8763318696010338 1.1238519942310032 0.07680980658545758 0.5195233944972801 -0.4525772618031032 -1.097828609847641 -0.011995139840327743 -0.6161836676475727 -0.6952394345098243 0.00020486438908936318 -0.4242635577107308 -0.5247816057542355 2.1396080312711487 0.02912929339750609 -0.7848059753555415 0.6521773452711218 -0.6409708824654031 0.05337487189182181 0.3587867639269387 2.1682445340992618 2.0047556493664422 -0.2985332738641332 -0.2555860200710459
1117 0.20937659221234362 -0.25988157490318226 -0.14536707305215038 -1.5827316009336836 2.772614236108336 1.146043088964989 -1.8406376388151555 -1.9765156930456054 0.10024942692748574 -0.9846337193383675 -0.832034189769493 -0.8131190956574689 1.602498876376961 -0.5330452432455891 -0.20120273726053273 -0.8342865973597021 -0.1898074671689916 0.5962480538830406 1.6306599833215625 0.28244417908479763 -0.21426716774588694 0.514481007992082 -0.7802637445636882 -0.05431485961198398 0.5022555671098621 0.3316198044091584 1.581211124682183 -0.5935207924822744 -0.5216763366049033 -2.8143230774657226 -1.4910198526054756 -1.1901792405029072
1119 -0.9842101516714236 -0.700409833996544 -1.1410333641477486 -0.731013779555466 0.5499314914419858 0.07555317910789681 0.15404288318900217 -0.16045728789219454 1.4532974206351525 1.1535845332943222 0.7607681938307236 -0.43947292412723393 -1.4930604618125696 -0.6645700582189408 -0.39110264235729003 0.5978687631768591 0.004276386872761995 0.2574335270388869 0.6875750050417603 -0.3402147379547814 0.9276789223985084 0.28510145825820044 0.16173054133010342 1.0368647569247444 -0.5379457858643899 1.4313426325350609 0.5997408825147276 2.202361317562173 -0.8157250597612247 -0.14051907582383533 1.6138010513976995 0.5555030302351945
1364 -0.5834977738168067 1.2775457846810325 -1.0504109030288276 -0.6228558005364081 -0.20094679780566566 -0.11995731444957242 -1.1291003528938435 1.784928805210962 0.3866379058564478 -1.7304789189416214 -1.9566891200431042 0.6967596219602955 0.14353469292111395 1.1358412524994932 -0.0005387765769155865 0.29476786258671434 -0.17378788460132122 0.6083426897928302 0.36913829437524387 -1.024092693520901 -0.185608740313001 -0.3832326298858225 1.6924077735170397 -0.25650951400085625 1.1992509358780405 0.3299943413928355 -0.6209894921635976 0.2161017437391815 -0.14310614105997058 -1.1745641789047698 1.3349700907277184 -1.3921593360103628
2010 -0.3928449310075469 0.5258832377035214 -0.33593675456315486 -0.18651562374964198 -0.6555592495963777 0.934413455334179 -0.0975358253234512 -0.2139599006259231 -0.25620419814818757 -1.1688308150515352 -0.8166222575232809 -0.29795728611998423 0.045694366221607594 -1.5937438680456932 0.8662925831554976 1.1463632631297453 0.22206679205643476 0.045513915797241754 0.9380601288685871 0.8473922629315004 -0.5473089053857726 0.555349014986965 1.4719971088959387 -0.9038272993100255 -0.05892617682546261 -0.7283932971310738 0.3973105039011346 1.6869427893573945 0.5673829208289756 -1.058383889416825 -0.7703540564589907 -1.1574260585154965
2029 -0.3689341387946038 -1.4992288037208825 -1.1168831130946244 1.4448736989898123 -1.3007412479116454 -1.580989725710436 -0.9540799083920459 -0.8498837708100965 0.5514499372378903 -1.5497101852408084 1.2199800812597243 -0.49206812505531156 -2.2015261656502063 0.3713275771132548 -1.099923444386667 -1.2173393377559718 -0.5088990633314859 1.2482432071304455 -0.2468522952036088 -0.1905328255617394 1.021603311857321 0.09266810337788857 -0.3066122628360784 1.709677229525005 -1.1615336102706666 0.39677315097182225 -0.0014031503180526067 0.5295300576282527 1.0695062141667593 -0.420525503736696 0.07276863640687563 -1.4245882199115076
2236 0.290221853428022 -0.6981329522558999 -1.3416450456751992 -1.626827900228533 2.007019497880307 0.4695660353906071 -0.4290893401663729 1.2352446996299438 -0.2875109832508733 0.9193592992044513 0.21456534552053277 0.462802588343981 0.7497059539300068 1.626139919765148 0.1074206689529705 -0.05009141513851876 1.1791063786132001 1.1113283391468207 1.7783210789942658 0.46660745794176883 0.43390514522454937 0.4735832583268024 1.1237552833580688 1.086207838161654 1.1484943144876032 0.8810795507633924 -0.6567164118895298 -0.5035674151899233 0.4292805851038632 -0.40840332933246 0.10450004409678791 -2.624597066603067
3845 -1.156072659036937 -1.480073490074745 0.26001400063725194 -0.3422118541454712 -0.452028158816685 -0.49667542131770775 -0.053099754078738945 0.1589016240458124 1.694565724033203 1.026440467599166 -0.9754055522805015 -0.36533928510769664 -0.272889803268632 -2.015106466741731 -0.5297553515590937 0.28052215314767126 0.21897791345649995 1.9528710442380388 -0.45127395486028454 0.39211056987461174 -1.1187182612188389 -0.7383430944351036 -0.1269014041373266 -0.27645976783899606 -0.7771240195810635 0.861149690738122 0.3378256422477873 0.4032323748552171 0.6942650284487816 -0.20290551073261373 -0.10057349038498997 -0.00038852105929116276
326 0.337585927597872 -0.33288558652975764 0.646154785788528 0.8987818347407631 0.7942492355181664 -0.38417812022178344 0.9084889209991349 -0.44072984663524883 2.1822644637453337 0.3378564432114156 -1.8292703205475047 1.5146587501111202 -0.6258463946795908 -0.4297901985490671 -0.2237681218925125 1.7712114134799184 1.8662331337588909 0.9980115273658722 -1.68437256422854 0.9683016191981281 0.5551243213275673 -0.15708405016550492 -0.14102373631669743 0.4576937334871578 -1.532327233581543 0.5179811520556589 0.7453584249850551 -1.035425590398993 -0.5016685302874755 0.924703220451989 0.8588046152267693 -2.410011679214778
973 -1.2605360552616482 1.206957688658321 -0.7190647823317935 1.4011247933951438 -0.4869749117213001 -0.7194775145133102 1.3035268377363107 -0.1692491616769912 0.8876452603664153 -0.06349657264762125 -0.1228786979372942 -1.0264642693717334 0.28451789657721244 0.3212499572904384 1.9409455865755543 0.3460096225478264 -1.0939628128361114 -0.6834181961300266 -0.7925658715191183 1.1513184434317971 -0.9399392615411362 1.104356969451981 0.5361017267778841 -0.3217742417340966 -1.4764922293615819 0.6807146928805522 0.5890599925224219 -0.05000972698399786 -0.21373459150438273 -2.611972765879882 1.130944677090099 -0.09575422109631308
2232 0.8044673916897283 -0.8216125508956414 -0.29495063797795507 -1.044553666913032 0.6598984226596926 -0.8105220214606322 0.41788485189070695 -0.6100608144784437 0.5351217924424426 -1.1134466772759546 1.7045808314503972 -2.1275012112728064 -1.6205849632431897 1.5751658753765365 -0.18954987414769917 0.1965791854583643 0.8753385973111674 -1.9229742572007378 0.5516322744539991 -0.003949371117786202 1.5479595313254164 0.21128478267052958 -1.1346140592110008 0.4187436234520723 -0.0034557175048611248 -1.6591028051176324 1.0007400146821215 -1.8746365426274987 0.42433279073989644 -0.7004759736249422 -0.07849402981798019 1.3238080366725509
2517 -0.07870742499182194 -0.9240632699610962 -0.3796099385852078 1.3123129917069338 -1.112898722725956 1.2150089009936826 -0.5496001191914366 -0.6346639359816046 0.1590192840192186 -1.4987056097912255 -1.6007450767373763 -1.1872992929677804 0.6036577980063959 -1.7020568249745827 1.6092772089989371 2.520292799502236 -0.45104071747543273 0.39015299187182656 -0.8626412926027143 -0.08583335580239296 -0.9019997873303842 -1.4078207680087553 2.042385585150753 -1.1084374398229475 0.3540095503379197 1.4894841246851935 0.949872363090818 -1.1491964498514153 -0.23870703735512758 -1.4335031328828198 0.11274930723293287 0.5934063603249745
2578 -0.9945601502008017 1.7602405982098308 -0.04236421662048019 -0.150859429191661 -0.4491063019831428 -1.7061174261493506 -0.5174959196230051 0.20980803020051542 1.3788533765395972 -0.4479025014442228 -0.49047537773917993 1.6412848623298386 2.4182364667002734 1.5193341222931582 -1.2777521971217745 0.9645753266019244 -0.860078037392416 0.2875227731666766 0.1213749403387365 -0.07045480400491791 -0.3830625687360645 -0.7027950570201316 1.894030750820674 0.8950381956128939 -0.19993057498406502 -0.08201624846712151 -0.194479646744109 -0.24519720360055253 -0.7696090354644735 2.233303350551324 1.9998895708680715 -0.6321707654376755
24 0.36282775465614586 1.0295171194966053 0.18795997541313397 2.0363733492871083 -1.0473008679755946 -1.1795339973896815 -2.1991687720876656 1.0324712464703811 -0.900018915762395 0.8491324297900782 -0.7691689392817774 -0.5918297436619003 0.19866776653912274 -0.4821159877797199 0.26515283092182934 0.7291224236759436 -1.072015534134859 -0.5172471780024364 0.8119490523709875 -0.1650474301688195 -0.16991565695692448 -1.4510974145576783 -1.3489999164168038 -0.11566337702964778 1.0587355611943396 1.3122829025082619 0.9702883322906665 -0.6688903593882358 -1.129444737903151 -0.7082687379209202 -0.49275934787092945 -0.12472752495722918
228 1.1575813056496087 -0.8575527293347355 0.03155128296118349 -0.36737833805228687 -1.9058565170544903 -1.0034681177395757 -0.7158692302823582 0.8684026667948578 0.3959540380744005 -0.13736173268990468 0.05578701839008655 -0.7410778626396796 0.2847501637269731 0.30376278019405384 -1.630686696368484 -1.2189738402922363 0.09471827669036957 -1.3944527134248932 0.8323682284252971 -0.9988714563992644 0.001939600840488203 -0.6043746089044083 -1.1897234327877204 1.4191547721511453 0.3466609936149058 -0.01764295231756702 0.5737696613528404 -0.13381507223977962 1.1817087051624224 -0.04086809241640226 0.39541277857070123 -0.32508485052216307
409 2.5986510768384177 -0.04039139594594456 -1.871943050666792 0.6702512712814519 0.9037586451705539 0.2493075111179147 -0.27813593360657296 1.1092651689844333 0.3497453271544673 -0.11646943366032217 -1.2784650517403602 -0.6132219973093486 0.2003375331237108 -0.022041451050475964 -0.49026059872075417 -2.118404365600828 -0.8527231397132562 0.7827032545640132 -1.3919779490902267 0.37848403097371974 0.9071069458197193 -1.5648062461450891 -1.3950774662500494 -0.2101096816861789 -1.1650524607050794 0.08710146774619773 0.21395086766347005 -0.10602980706010655 -0.644473294110997 -0.14585386269316952 0.4570116162980367 1.3761466973541405
558 0.7305353671772608 0.20602382523731794 0.40080119280503995 0.6553960166280042 -0.23446165553493883 -1.32485568726455 0.8678377973928886 2.365224217167246 -1.2410441532198204 -2.9618364977243337 -0.1354684042665289 0.7965705253744151 -1.4928626345304858 1.108115362147877 -0.05164665932265202 -0.8298546278122999 -1.0734427989445348 1.1830017528020016 0.255531409930983 0.9601042486421099 1.3330434707051764 0.32219995751485203 0.07870509950525896 0.6586225296280168 1.2939780647417762 0.5515360798478903 1.6956399647621212 0.5865274728019497 1.0529691174616562 -0.7331186936606767 -1.0971874612627124 0.003122006581848209
732 -0.17058813071387344 0.37075403732597295 1.2764824719532473 -0.5554178558493592 -1.036106259683378 -0.5755218983603699 1.4780591672300256 0.32519524603970634 0.42402232719935756 -1.2365288917798467 1.639083242018684 -0.30934082646723204 1.0032745790789002 -0.05536254339565651 -2.1861992569806 0.3463303272980738 -0.8254432327616208 -1.586513356491528 0.7464919542387448 -2.207821374437479 0.969282583424402 1.392679253669173 -0.8138096365441927 -1.787320634183083 0.323425334835206 0.3437206268562356 -0.2021699430210814 -0.7111963682133923 -0.08757137864958912 -1.3077960741688102 0.46034320272758905 3.160631452583977
776 -0.2837763950139427 -0.8471984552477129 1.5155152844180033 0.7457448766507954 0.3304280277133824 1.9330609907418024 0.5002059291117686 0.20556304783018803 0.7251235349488916 0.6329073889258482 -0.9686009903894706 -0.7515818895779036 -0.4428797359890208 -0.3611143604132163 0.823573671342697 1.5824910385035635 0.18993964013445863 -0.410058529435949 0.40003343344371756 0.16776271800209064 0.8103490700663272 1.0298906592481045 -0.054865511557315505 -0.5578604952711023 0.7701450340227003 -0.10957182337510578 -1.5038369800885223 0.9666094309779586 0.1228315723284879 0.8352705546028639 -0.7153742375461322 0.5403351621404018
864 -0.35070531424495877 -0.9030941701519953 1.2929837505844946 -0.12374264363506356 -0.42983045467790604 -0.03897000246290395 0.33907629919073323 -0.9022823673061257 0.32520715855376486 -0.31234512218797983 -1.368605241383177 -0.35460506084501375 1.2810645092804975 0.3409567390046145 -0.5787675752046066 -0.9624831664123983 0.8336477739156398 0.1130327322611024 0.7690097893791682 -0.616961306570881 1.0254896746252533 -0.604015682354091 0.6427643300376253 -0.3354597793036677 0.570929653412313 -2.525009053705216 0.5709643544050443 0.31885243332436075 0.054494088066331756 -0.5685564040905084 -1.1650811360152513 0.2568945419403852
933 0.6386211760440889 1.0000601345642959 -0.9167313065154029 0.5178072026832322 -1.0240442156174292 -1.8126229609727353 0.1719168732983926 0.8720637056608799 -0.7999419916286223 1.5491392079179935 -0.7979404573620623 0.3331527683153462 -0.8763574438084406 -0.15294015023955232 -0.04572740518368137 -0.6466464231938599 -0.30496464343327323 0.9040639677746352 1.6535978725035816 1.458661762138338 0.046902580231763955 -0.21359213357556106 1.4987962892948141 -1.009004024137064 -0.441381062511189 -1.1015687060834523 -0.37039678915519175 0.5962834208426148 0.3335544114629905 0.3713971535575691 -1.1398803613998731 0.6265924525464958
939 -0.14523945525119905 1.1494707470524417 1.0482181546012421 0.9636668345352706 -1.2364235005465825 0.6710573819327232 2.551165466808784 -0.517719946129632 0.42793775053023153 -1.0480312916169114 -0.3990181829461062 0.2993210978072429 0.7994403843334307 0.6464909258302526 -0.5991031863981683 -0.8165707740097562 0.6269936598514062 -1.3854721695321799 1.174434469834345 -0.9068795136296476 0.3817908787392608 -0.4746000224053553 -0.8373693840812757 1.0860277951367592 -1.3466475699100189 0.34955802269272573 0.9778736494874561 -0.2690003011573024 -0.08270166826693534 0.26992424083633565 -2.033328993297408 -1.1293000418192705
1037 -1.126686610955835 0.7639919437902537 0.7520073689961011 0.04868723671618805 0.9229216021039541 -1.1927498610066207 0.8150736386393712 -1.0261872418510156 0.29688829017204055 0.27694100066985106 1.06419907937014 0.5086978001529369 -0.3566748348882053 -0.44929792594955237 -0.8947009452456038 1.1995990931080596 0.4580266971986848 1.8503349187500495 -0.8778088007245072 -0.1503517829287205 0.2905602674094708 1.2053948016406568 2.281359332612921 0.23252597494497088 -0.11585561141674508 -0.6577192963766091 1.0094031386010291 -0.5741692702185319 -0.010743454115633004 0.38868805241692644 1.5447596907186536 0.7349327658912931
1092 -0.5039402010875222 1.7555153786840672 0.12738538361594084 -0.8711119214152978 -2.039127736317181 -3.2689959996441993 -2.1330740141020925 0.21269487783231247 -0.6305655792630875 0.6013288898582178 1.0006588656392048 -0.23198342600256291 -0.6066971654401802 0.1826582233320452 0.614431559394719 -0.956001791184341 -1.741232580295871 -0.7849489792849493 0.2705874297340247 -1.6358877622711168 1.3654715058235414 -2.7647416288760374 0.03030045528852445 0.08975247825427973 0.8549396328160856 0.7807913977561234 -0.8324346166942465 0.09060544315083276 -0.6329541763067839 1.454262092116798 0.044950921367333384 -1.382022180010784
1176 1.6688083684611628 0.20174384576447063 0.2354194250352343 0.28241544764880333 -0.08708398640393204 0.7465583493984616 0.614511407882286 -1.328896970012736 0.2321404010671757 -1.473266644836715 0.4252868794306069 -1.3009613884867832 0.47632785472181727 0.5656143247930385 -1.2316943407543959 0.1297097403512093 -1.0627252891108814 -1.1224168387491744 0.029571234680409977 -0.24383910210972423 -0.877510422933311 0.6398095841908578 0.17591739376748033 -0.24908937302392686 0.025326492120646013 0.5871161795195518 0.39102969423657635 0.8005359525406724 1.596384455670744 0.8935654060904115 -0.8292550491980756 -2.8779769249613305
1313 -0.5660013578446563 -1.604523173395702 0.6885302965828994 1.9487635554265217 1.7792994558981996 -1.594318233161721 -0.26385749589697216 0.960073353776559 -1.1616892590577377 -0.24982917119413797 1.0265907605351177 -1.0591367674561571 -0.16916767235518307 -0.06428869809785766 0.8783365866837228 -1.2220861834186691 1.7365118577587122 -0.09380188226870236 0.47963554565357697 0.15451585349536598 1.0407660225381112 0.04480997350285469 -1.3521387849390591 0.30050101324157497 -0.07202724317922415 0.054703680086175384 -0.2719032971980178 -0.41063290379366674 -1.5114182329519046 -1.0531780837144764 0.022883573133357406 1.0618006539734706
1478 1.1710103836546835 1.0558538108993196 0.9306055345844632 0.3659282681938548 1.3933267501014928 1.798523458965664 1.1058886755906798 -0.8797472317442329 0.83202913710353 2.737958919372098 -0.5059919414148251 0.2814529152852654 0.13181999682419762 -0.4337760883275139 -2.307963385287752 1.2912607921065042 -1.2018820210419685 -0.3600493462409209 -0.8538759298582859 -0.14800403510767246 0.17775791095777532 0.1529259699829387 -0.04843984801110174 0.36250490235494787 -1.650001700645797 -0.6967645128598321 -0.41681584518269577 0.9839270888659364 -1.0365841230869943 0.6769071739565131 -0.25714144586070975 -0.6258948903059048
1499 0.8780275086093513 -1.3498434844260196 -0.003951979489781187 -0.3820360112598857 -0.36210105651138547 -0.25152096756279013 -0.7092146713451484 -0.4916892128469919 0.12643690865818213 -0.2065399031158174 0.1257377247396981 -0.42690814808288985 -0.505833406426569 -0.34011785911262565 -0.6733818458877268 -0.38863246906412363 -1.1928273892557644 0.3747655467928455 1.6950640298002688 -3.0234154991738733 1.5591405588862532 -0.31611497967505237 0.4879990338448209 0.7292118730560712 -2.427560349590537 -0.1328580877619145 0.15708808079975972 3.078629899329747 0.5913934762763451 -1.5070378100826547 -0.16934836887431323 -1.1773519704644768
1596 -0.9889621037930576 -1.4638555260951638 0.4367376101179105 1.7055588407867361 -0.3072959771735935 0.9284204498054505 -1.7504541091880073 -1.317710440804825 -2.653834594596544 0.17206035694649038 0.1511979206788665 0.16426086787798055 0.030860279644834548 -1.1528661035798458 -0.3650682370459228 -0.067262684129482 -0.630906353076489 0.7998281345678484 -0.9497875706809246 0.30886542862449295 0.011960488260328476 0.2133690035129719 -0.24867750564184374 -0.04985532881881933 -0.4694682558285969 0.4410256011341239 1.2942255831710672 1.8186871978321795 -0.34210396203058363 -0.668309241308086 -1.1777748098393857 -0.2209905621799031
1608 0.40357286592587216 0.4744239793814863 0.49353263996168956 0.5718825730547803 -1.1427315627067622 -0.799595601819642 -1.092722354679514 1.5129707565023294 0.8484384035772516 1.378893472946847 -0.4615764758471013 0.2982367791239132 1.75677287502389 2.3037321143016616 -0.9735876842267317 0.23316996405493604 -1.1335218507562408 0.6442113971499266 0.18963361989210412 -1.149789546671817 0.48113378909880905 -1.174020300538514 -0.9405929914686896 0.3673898730904969 -2.615323477939849 0.6903236156195728 -0.2654566344593219 1.1443408314962218 1.3037497854599667 -0.6533765423497246 0.5453295085260399 -0.7226443420797787
1621 -3.118374706075013 -2.0406775719474615 0.7318914897068376 1.8491122855951465 -0.4251289847028515 0.5127885692976439 0.1005387492242847 1.2899509191779555 0.0042290715103285755 0.7170918946936876 1.3918272324563572 -0.17961173012694262 0.9305520415057551 -0.6199688968077023 -1.057409156946543 -0.11971153010676822 -1.2247872116757017 -1.3273188162224663 -0.6499909322456184 0.36676477417106146 0.9822092365664613 0.9902177542039319 0.8614502441849536 -1.303618602192862 -1.2378649124272365 0.16861746207798814 -0.8728835066702375 1.7351358382846156 1.5042822395501352 1.4492498248854788 0.6078667569295079 -1.7467819574942665
1637 0.07215220063118827 1.140729900257209 0.6289178189289371 -1.3108644558605027 0.31059242475834725 -0.60706161668151 -0.25440910508513914 -1.958568960564032 -1.4860240127816489 0.7103488728085504 0.3292179213191397 -0.7268844253566339 -0.6404775051243348 -0.8148502013321441 -0.14733343397929555 -0.22486826778211333 0.3466338562672562 1.5810609451888382 1.0251096350863398 -0.4537828140156807 -0.6617233139658147 0.2688563694770943 1.304751722482418 0.18743400281435513 1.7086048908036604 0.5559459028599362 -0.7321965393958819 -0.8328093272426094 1.6945024867927638 -0.09804995855724728 -0.09587779025283191 0.7175085190276558
1717 -0.44341639943831757 -0.8096577394707418 0.2006837159305537 0.009103093675716259 0.6931738179784301 0.8300314791182957 0.8115102319663492 -1.4983098769898129 -0.5966426338306331 1.5021984167828712 1.6429278131217366 -0.028851835119856884 -0.20045880572291905 -1.8525190055519738 -2.2010105030428657 -0.10371399400270996 -2.451587092374738 -0.962009578149894 -1.5716714557261873 -2.47122763433109 -0.059670360171886414 0.3950585341936469 -0.873796291702204 0.4748023901969382 -1.0353499341007775 0.46722101411092015 0.025938723747652735 -0.2586619044293279 -0.06769479265082436 -0.954481865546217 0.7909099575311812 -0.3119632122638531
1788 0.9975377217955655 0.6099874313710673 -0.4762030508926565 0.8375410781690931 1.0550591907180353 1.2996153337304164 -1.3206357898749719 -2.3079139809102487 0.5009211324342285 -0.7277295719133525 -0.061293437154748144 -1.548604008110532 -0.08452291675214 -2.013344520048893 -0.4087427022354397 -0.13905781619354463 0.5627959596858839 -0.529534331119846 -1.0497922106455757 0.6660101041489258 0.11423268853491836 -1.1387462248954834 -0.6762123274722891 -0.42488715860548276 0.6950191596119415 0.3060387731776349 -0.1467076188675825 0.55159627906644 1.0442338746401112 0.8205752688996006 -0.7742068530841756 -0.8477525783685893
1919 -0.024157349343868754 0.26250607281469274 0.8115994879167152 -0.37719599592808895 -0.7252941898868173 -0.6368141404600012 -0.33453423822186446 0.6807726019559888 -0.6992461365599033 -1.626618337986201 1.2951362946215093 1.1930845632101688 -0.6247730465813106 -0.4545964078684652 -0.8859095576254813 -0.4460730078050466 -0.240567416195826 0.28825130795432197 0.7870144536703438 -1.112380903069519 -1.2421828639742722 0.08688134440031108 0.4121387881293621 -0.17606823965965498 1.119206822239465 0.916270242998768 1.2716588665926785 1.5220836161644111 -1.1358104547036614 -0.4318856656325134 1.3758026912658143 1.214744355370045
